{"layers":[{"out_depth":1,"out_sx":24,"out_sy":24,"layer_type":"input"},{"sx":5,"sy":5,"stride":1,"in_depth":1,"out_depth":8,"out_sx":24,"out_sy":24,"layer_type":"conv","l1_decay_mul":0,"l2_decay_mul":1,"pad":2,"filters":[{"sx":5,"sy":5,"depth":1,"w":{"0":0.14369058348829414,"1":0.37256945662696495,"2":0.34471637822917345,"3":-0.38365447592074814,"4":-0.3745356577080215,"5":-0.15034513482630538,"6":0.39950746977308454,"7":0.19798039272992476,"8":-0.40407676537999054,"9":-0.6017769722918366,"10":-0.08072600323254094,"11":0.2980066891255721,"12":0.32280029260755927,"13":-0.2475521454324425,"14":-0.5358530590881474,"15":0.32467810985937723,"16":0.5335925959595689,"17":-0.10421044192520296,"18":-0.7260043148676641,"19":-0.37947669054102395,"20":-0.29321242266494835,"21":-0.44674757629190026,"22":-0.6832985469585293,"23":-0.07232792944621279,"24":0.1015751309464357}},{"sx":5,"sy":5,"depth":1,"w":{"0":-0.20538232721353447,"1":0.074112504507058,"2":0.23318961435634408,"3":0.007087162290711697,"4":-0.814663613295355,"5":0.12893248232617974,"6":-0.07564934166497528,"7":-0.23092255827894664,"8":-0.3167892875763179,"9":0.06745280239114876,"10":-0.1805064170259677,"11":-0.14557790775952792,"12":-0.4549125623149094,"13":-0.31046037905052454,"14":0.056707398836666416,"15":0.037151179149525156,"16":-0.15540268181139427,"17":0.22500488633282428,"18":0.46613274649577097,"19":0.27348795026680955,"20":0.3933683903664861,"21":0.24151647968374956,"22":0.1607098206877451,"23":0.12585657956325286,"24":0.13203718852515678}},{"sx":5,"sy":5,"depth":1,"w":{"0":0.2347990722330548,"1":-0.08140183692003747,"2":-0.02157694310917068,"3":0.12666293622992655,"4":0.13824840340478667,"5":-0.02939916909705036,"6":0.33094746878340725,"7":0.03149147698712647,"8":0.2780128123835134,"9":0.10276508432047196,"10":-0.062206667057371594,"11":0.48869128398082906,"12":0.4163837162923018,"13":0.09593252050259754,"14":0.40977770738783403,"15":-1.1384674365079017,"16":-0.7536552455188006,"17":0.03131242869258129,"18":0.16306533680991672,"19":0.11177657497419242,"20":-0.07248761753953942,"21":-0.6889631910971903,"22":-0.9642854564604353,"23":-0.9339826263875839,"24":-0.8714780574110412}},{"sx":5,"sy":5,"depth":1,"w":{"0":0.014175576448759204,"1":-0.41490823293793105,"2":0.010502448315131443,"3":0.36650658940356623,"4":0.47702964494568456,"5":-0.182312642539352,"6":0.12333083566361172,"7":0.8294722031708741,"8":0.3334157255129715,"9":-0.2390419403213281,"10":0.43962162135751914,"11":0.39823567619324723,"12":0.19408914666342464,"13":-0.6209114916932669,"14":-0.8979999564361117,"15":0.0283677403567795,"16":-0.3197190548987805,"17":-0.8239096992128486,"18":-0.6971936040319663,"19":0.5152548008737692,"20":-0.18021511562021228,"21":0.022076346689579186,"22":0.07309895802177142,"23":0.4978868745599901,"24":0.224091837307442}},{"sx":5,"sy":5,"depth":1,"w":{"0":0.31197840258645776,"1":0.07746900158366864,"2":0.00461227436810562,"3":-0.08793718374208012,"4":0.26970420229100256,"5":-0.33195746528157094,"6":-0.4311218230497816,"7":-0.4537558855559109,"8":0.20801502737086813,"9":0.14897524394285622,"10":-0.43508933930661947,"11":-0.08151507584177899,"12":-0.2034653282969632,"13":0.37987057668609586,"14":0.17110136874474707,"15":-0.2724785124539051,"16":-0.22022183452252636,"17":-0.05423272476307797,"18":-0.033802177949135585,"19":0.4818546355781813,"20":-0.166068912383215,"21":-0.5815026803145275,"22":-0.41902902205566517,"23":-0.26586154879878554,"24":0.29975766604496434}},{"sx":5,"sy":5,"depth":1,"w":{"0":0.225508047684098,"1":0.11955143136718038,"2":0.17506019173131002,"3":-0.23195579860913826,"4":-0.6609625502161424,"5":-0.07165983764909006,"6":-0.23672080088761296,"7":0.6727876419676274,"8":0.8202533788172456,"9":-0.10265924054167752,"10":-0.13993857041751398,"11":-0.6031831359978816,"12":-0.2870074342525287,"13":0.6323783216027705,"14":-0.2532381200180883,"15":0.22831184470712865,"16":-1.002840843357411,"17":-0.23818893154005155,"18":0.28296985324922486,"19":0.05608704824841839,"20":0.7532285209464513,"21":-0.5108120824060329,"22":-0.07765141078438174,"23":0.024805084089878162,"24":0.11212788025340313}},{"sx":5,"sy":5,"depth":1,"w":{"0":0.12206589053653191,"1":-0.2185888587046469,"2":-0.2950273877447831,"3":-0.08814889227068747,"4":0.27379355332175737,"5":0.48786686402009233,"6":0.0867291455072994,"7":-0.4018041976458908,"8":-0.6500463821981757,"9":-0.14610021807081203,"10":0.12744205276925194,"11":0.413797045716806,"12":0.09194535830803666,"13":-0.3348975484266014,"14":-0.3763572376269366,"15":-0.025699395804699134,"16":0.4131468780776944,"17":0.7617193797979814,"18":-0.041196605385763904,"19":-0.3516031531175803,"20":0.03403189044240961,"21":-0.16552979005033577,"22":0.3535353814424642,"23":0.24120108532585782,"24":-0.03980813017044132}},{"sx":5,"sy":5,"depth":1,"w":{"0":0.14536777186888278,"1":0.013006380252408732,"2":-0.27743431002150976,"3":-0.6368664726612303,"4":-0.38554075133381577,"5":-0.2869216798459761,"6":-0.8044679719925532,"7":-0.7588219549508514,"8":0.0012092909116498377,"9":0.4883026365735155,"10":-0.5883744503553582,"11":-0.49011076329533554,"12":0.19520203773752545,"13":0.4764379600248552,"14":0.27748952778513375,"15":-0.5355357091730284,"16":-0.14655418957453423,"17":0.14715678694708392,"18":0.3333594448634255,"19":0.08915439295162111,"20":-0.6597734725563036,"21":-0.0015129198422248887,"22":0.22407268232367364,"23":0.014628114551787266,"24":0.039476069082456315}}],"biases":{"sx":1,"sy":1,"depth":8,"w":{"0":-0.01222639708891758,"1":-0.05001874363599385,"2":0.2042413670784577,"3":-0.3004066596355417,"4":-0.4466661358230675,"5":-0.2901313689869127,"6":-0.45359314154665464,"7":-0.02600451386327756}}},{"out_depth":8,"out_sx":24,"out_sy":24,"layer_type":"relu"},{"sx":2,"sy":2,"stride":2,"in_depth":8,"out_depth":8,"out_sx":12,"out_sy":12,"layer_type":"pool","pad":0},{"sx":5,"sy":5,"stride":1,"in_depth":8,"out_depth":16,"out_sx":12,"out_sy":12,"layer_type":"conv","l1_decay_mul":0,"l2_decay_mul":1,"pad":2,"filters":[{"sx":5,"sy":5,"depth":8,"w":{"0":0.11601210217457468,"1":-0.38539403509853387,"2":-0.05509527793445448,"3":0.01671069909805721,"4":-0.3631158457848353,"5":-0.38096182941694695,"6":-0.19380262223962832,"7":0.19843178206549075,"8":-0.1730880803062722,"9":0.09620933090988086,"10":-0.04960227209052166,"11":0.08771339792275659,"12":-0.19021329285103447,"13":-0.4395215329076591,"14":-0.048967528087358256,"15":0.0857589523346826,"16":-0.21794635607139826,"17":0.02216770705854253,"18":0.2997913600130591,"19":-0.1583094456204457,"20":0.044702456664965216,"21":-0.04080869225232957,"22":-0.2910746737763011,"23":0.21469832567333147,"24":0.01499552221292444,"25":-0.35782555797464566,"26":0.02143637356838989,"27":-0.11995001230589294,"28":0.06138114880068168,"29":-0.0031235637732207402,"30":-0.010131755428134572,"31":-0.08025406438016801,"32":0.4397231399328866,"33":-0.3950531793240979,"34":-0.30003930072365853,"35":-0.15544500504660155,"36":-0.10283464166463613,"37":-0.28451671161662495,"38":-0.14429182970929047,"39":-0.08328056378794299,"40":0.01975821305635377,"41":0.45226162372682266,"42":-0.4054745638339533,"43":0.22399078805858424,"44":0.055326222803767755,"45":-0.34227154232057255,"46":-0.06791612722954263,"47":0.278637274315099,"48":-0.1372316978584689,"49":0.21326181302799407,"50":0.06675185843417518,"51":0.12025809300257988,"52":0.07324730326516303,"53":-0.14639336014087925,"54":0.3032110008755349,"55":-0.01698090101045534,"56":-0.16008704115194097,"57":-0.2673499704341436,"58":-0.055193762443800316,"59":-0.2471823980634356,"60":-0.009427665284699467,"61":-0.07713326673592436,"62":0.05103990841582054,"63":-0.09118093477910207,"64":-0.055554575535737796,"65":-0.48254319369795434,"66":-0.43262950582255244,"67":-0.26570517882508277,"68":0.012378196645890103,"69":-0.02739537231258358,"70":-0.06911673580264739,"71":-0.08559757668615504,"72":0.20150717976812166,"73":-0.4738033635369297,"74":-0.4396491159141639,"75":-0.08433491420530777,"76":-0.1929825625922567,"77":-0.2567914836773293,"78":-0.1779647937866931,"79":-0.23262248622653373,"80":0.3067872991238559,"81":0.1255192987485193,"82":-0.1226563798888798,"83":0.3995644626575911,"84":0.10880925436940511,"85":0.019540960788054534,"86":0.39370453393985055,"87":0.285175452777911,"88":0.20387402881625474,"89":-0.1444151905240565,"90":0.23198307185159295,"91":0.23956048482438674,"92":-0.07442460597377609,"93":-0.05214234183318439,"94":-0.1058952327853565,"95":0.008445833262995158,"96":0.026248082662996837,"97":-0.34582352173892816,"98":0.09998267773090873,"99":-0.22566585420696653,"100":-0.05889438985506391,"101":-0.17939785705260872,"102":-0.16444677913204292,"103":-0.14930459082974998,"104":-0.11439448381795948,"105":-0.07912927025718233,"106":-0.42915998052984883,"107":-0.062130057076412046,"108":-0.08015390662610836,"109":-0.20639436995270913,"110":-0.15737658654329761,"111":-0.100644886411444,"112":-0.03282656418600071,"113":0.15552531756394833,"114":-0.13198181189071323,"115":0.18089902226470506,"116":-0.3013252961045598,"117":-0.07960494604958976,"118":-0.3512253894201195,"119":-0.054063628877059275,"120":0.5495613702478261,"121":-0.21689081897755405,"122":0.2653419765284626,"123":-0.11928246407215667,"124":0.09141207973876855,"125":0.15704895213304965,"126":-0.12222166433114512,"127":0.34463790784733417,"128":0.18165559064589315,"129":-0.376911747105133,"130":-0.263947561980206,"131":-0.10756157501211003,"132":-0.042943295868196944,"133":-0.26940156667407283,"134":-0.2690835329709186,"135":-0.20025820412075532,"136":0.03669331608449219,"137":-0.23904172281132421,"138":-0.10073541315614208,"139":-0.004245760173177592,"140":-0.13304714266330894,"141":-0.15630138153103082,"142":-0.1981642090226274,"143":-0.033780882599102655,"144":0.0348677428359803,"145":-0.06424041835441756,"146":-0.20797689620138118,"147":-0.20480200759948197,"148":-0.1523125524067018,"149":-0.19901678580335969,"150":-0.003277514128052364,"151":0.010148958826525356,"152":-0.0837292246446522,"153":0.38054629492616915,"154":-0.32951923273063244,"155":-0.18378076324926215,"156":-0.18606013930680446,"157":-0.3123628797128086,"158":-0.11430876143010237,"159":0.3517430119390407,"160":-0.168991345739114,"161":0.11545680109863067,"162":-0.043859220923185414,"163":0.08974790666878135,"164":-0.07579670309695351,"165":-0.22790843390647839,"166":-0.03431051472095606,"167":-0.37677036668654873,"168":-0.002462850758087954,"169":0.05012361161161979,"170":-0.04866774203650862,"171":-0.11819202859236927,"172":-0.1745909435346149,"173":-0.25247446192924083,"174":0.03302839850681487,"175":-0.49796461139391107,"176":0.12043718777544693,"177":0.1156570052455288,"178":-0.16968516585768947,"179":0.3164973810292275,"180":-0.16998761073144245,"181":0.11389739222197456,"182":-0.09175480602337187,"183":-0.022099973879945337,"184":0.07928117949148088,"185":0.13775319808265202,"186":-0.2972744305734187,"187":0.17339159634175938,"188":-0.21647845794233941,"189":-0.19859968321083601,"190":0.046061900804601756,"191":0.31945451264235386,"192":0.10440325344923931,"193":0.22988460310865516,"194":-0.4708208820737723,"195":0.332835076576804,"196":0.07460349600438146,"197":-0.38526139795262027,"198":-0.1954718835430471,"199":0.4614523890903077}},{"sx":5,"sy":5,"depth":8,"w":{"0":-0.28661450480886863,"1":0.7260860205870943,"2":0.11085280827915722,"3":0.2088501622366106,"4":-0.34751301716487437,"5":-0.04864031251917507,"6":-0.4344258846024118,"7":0.6096900910009874,"8":-0.04528431754267277,"9":-0.15017618684212802,"10":-0.2715831986035055,"11":0.18364418817448133,"12":-0.2948874709240379,"13":-0.32899426857866654,"14":-0.49734652699194626,"15":0.18529394708925792,"16":0.0026334706253829604,"17":-0.5752066633529143,"18":-0.24491451262689487,"19":-0.16063114072812232,"20":0.3072565538464101,"21":-0.11184005994897295,"22":-0.22946491938923783,"23":-0.13522953383038505,"24":0.37733273222059305,"25":-0.6571314702791053,"26":-0.14199139813151673,"27":-0.07215511529156333,"28":0.27415337951700414,"29":-0.17858052279827172,"30":-0.15016855625489545,"31":-0.35342979989407747,"32":0.3491528425440157,"33":-0.5380626211148709,"34":-0.12797319004583635,"35":0.2690361012051603,"36":0.2101609886857564,"37":0.140182002765428,"38":0.014192020227891252,"39":-0.17550086637729073,"40":-0.2717385248950504,"41":-0.5003152079315295,"42":0.11510896410178931,"43":0.26778509119611354,"44":-0.44322515838365345,"45":-0.10148816442095239,"46":-0.47962737316959503,"47":0.38039219179315414,"48":0.05203150585654927,"49":-0.567059863949928,"50":-0.37428382698703716,"51":0.17509086821067063,"52":0.1414584821247847,"53":-0.21721329744589568,"54":-0.2851211891266593,"55":-0.3103100736583646,"56":0.2729675033800617,"57":-0.21773942830938206,"58":-0.333206350618502,"59":-0.005688959812153403,"60":0.2027324694886624,"61":0.10562460147293784,"62":-0.3219308087776323,"63":-0.330633494846394,"64":0.1936933002250595,"65":-0.2880919394615588,"66":0.04312297467225931,"67":-0.04672936299183199,"68":0.24390770061655653,"69":0.009897020033440286,"70":-0.14088609906582156,"71":-0.31688930391731357,"72":0.01066541714209828,"73":-0.537208200501899,"74":0.20526867738523236,"75":-0.018221033536367306,"76":0.4930256067006698,"77":0.23265638464321603,"78":0.20203512623036313,"79":-0.28280404458243064,"80":-0.061515798510840755,"81":-0.3249575120397781,"82":-0.5861962350104599,"83":-0.17391102784386278,"84":0.43835761736347073,"85":-0.25766250868786417,"86":-0.4323627722090005,"87":0.19379402675604598,"88":0.28460364779358366,"89":-0.21352319086813037,"90":-0.05046509777293371,"91":0.11624655135502722,"92":0.6490248184668058,"93":-0.01547886161138962,"94":-0.15000563919813584,"95":-0.010880756608421676,"96":0.5320810363186023,"97":0.20071630966784576,"98":0.315936554187619,"99":0.16749173499912332,"100":0.4251274356483636,"101":0.3422370621962834,"102":-0.06887050520159019,"103":0.09782524531958939,"104":0.49348782579173756,"105":0.027282053955157988,"106":0.375904049471977,"107":-0.0482861032839991,"108":0.12981790031523607,"109":0.017963155156783973,"110":0.28583893763005475,"111":-0.052782438195600065,"112":0.6668571834727861,"113":-0.17585689059085824,"114":0.5169708329781207,"115":0.12258024028253305,"116":0.49934694987673006,"117":0.38475136298744417,"118":0.39365754511387224,"119":0.010714626231463515,"120":0.49162478209578253,"121":-0.42791827845454544,"122":-0.5133522259709757,"123":-0.26731787065220514,"124":0.30863691602139115,"125":-0.1966265718582062,"126":-0.4874184912307041,"127":0.16870368268959368,"128":0.41229541029596783,"129":-0.29128189856765907,"130":0.18806291587124688,"131":-0.1710551365852482,"132":0.24722127026799015,"133":0.09316140289648434,"134":-0.005157974920100325,"135":-0.17142091032275492,"136":0.046808637284209254,"137":-0.201078355170743,"138":-0.07158668720107735,"139":-0.17958559457057682,"140":-0.06538493832211122,"141":0.06091184038274199,"142":-0.1839002875243556,"143":-0.23623975585539508,"144":0.49659679938257145,"145":-0.3807773811338369,"146":-0.15990482377012671,"147":-0.04312031998090806,"148":0.15636155007927788,"149":-0.1473476819687772,"150":0.12958868713681387,"151":0.12116341448634949,"152":0.3422733829078299,"153":-0.31945248369623963,"154":0.27330576294428405,"155":0.08643522174456603,"156":0.2781036301951563,"157":0.19198731574943942,"158":0.10987923995554738,"159":-0.033377129712151836,"160":0.3212168889201034,"161":-0.4174757798087196,"162":-0.14957170569317282,"163":-0.15415380856338506,"164":0.009169760059191427,"165":-0.27517176127517207,"166":-0.42267431263008926,"167":-0.05985594984060794,"168":0.02235591392544546,"169":-0.4080114485124022,"170":0.09695270796106355,"171":-0.165009415498225,"172":0.1890552848293527,"173":-0.17692847846677434,"174":-0.10177281340125666,"175":-0.4042645437459806,"176":0.2173914703149605,"177":-0.3613438209715947,"178":-0.3200248080430407,"179":-0.12721122737281665,"180":0.2501162369124617,"181":0.349726362219601,"182":-0.02862410772201726,"183":-0.15005078236701744,"184":0.19890498467808426,"185":-0.16277597373512123,"186":-0.19527992305756559,"187":-0.1286589325771436,"188":-0.024184582917198758,"189":0.010954593236179288,"190":0.13854135246263447,"191":-0.13024714799255305,"192":0.057788607246458304,"193":-0.08720223419784107,"194":0.12460409665161358,"195":-0.1874942112567244,"196":0.10307501570460231,"197":0.14594063867583254,"198":0.24104184406910875,"199":-0.33670220919374194}},{"sx":5,"sy":5,"depth":8,"w":{"0":0.13510441423767539,"1":-0.5227122150547197,"2":-0.10832651722142408,"3":0.3711533318054768,"4":0.257734370856394,"5":0.17556800068113637,"6":-0.23706411149251866,"7":-0.1859984064348604,"8":0.7345806129641786,"9":-0.4082046369996814,"10":0.1850218642370921,"11":-0.49749643521712716,"12":0.4247639011475905,"13":0.14545316048708282,"14":0.1294771190236534,"15":0.1036102940846675,"16":0.3981247586984664,"17":-0.17587582284856812,"18":0.3237659557968978,"19":0.038478298786017724,"20":-0.285172098441715,"21":0.14560975720891947,"22":-0.05253490316372422,"23":-0.1954590283140511,"24":-0.1370864601064797,"25":-0.30949925271860673,"26":0.11636301539727549,"27":0.30254012728107643,"28":-0.500928763554728,"29":-0.12008516866440913,"30":-0.36080085200274586,"31":-0.2194960715140399,"32":-0.25405912551365967,"33":-0.3752927432265691,"34":-0.43651819140219045,"35":0.31403006652919374,"36":-0.11026279689257143,"37":0.14355363087384657,"38":-0.26522207668287195,"39":-0.46754774546522815,"40":-0.1544002994749018,"41":-0.008089567292388895,"42":-0.21913538862436774,"43":-0.3468404397388263,"44":-0.14671555007025544,"45":-0.015155150265143958,"46":-0.386898511765871,"47":0.08260426062483316,"48":0.7681821718244625,"49":-0.49421889190194457,"50":-0.03225615914314068,"51":-0.274238627921316,"52":-0.006070573663208031,"53":-0.37844187819475145,"54":-0.20653206567640753,"55":0.00910996217210497,"56":0.21331565907984107,"57":-0.16270937055378112,"58":-0.4751496194350844,"59":-0.12544674906956074,"60":-0.1608132722244519,"61":-0.29638536668902804,"62":-0.12097833380518573,"63":0.19479274221010828,"64":-0.25732883796448824,"65":-0.04573475613514441,"66":-0.16220902845942844,"67":0.05842789338485029,"68":0.27863957458789634,"69":-0.19313098840236337,"70":-0.2494134425743187,"71":0.5980824512208717,"72":-0.039968721803323635,"73":0.3539854212847789,"74":0.2079918311427849,"75":-0.18204236852791472,"76":0.3656370957966592,"77":-0.15095963659243575,"78":-0.2433902282236769,"79":0.9519951952909569,"80":-0.12193312337292685,"81":0.1131837786858102,"82":0.15824383959915841,"83":0.42890791428083214,"84":-0.08569422285410733,"85":-0.28961658324543776,"86":-0.18764542865599645,"87":-0.19278645971607325,"88":0.32297294084633466,"89":-0.21108920146491716,"90":-0.1501738380866235,"91":-0.07221092825213238,"92":0.05430705680586944,"93":-0.2401539236295407,"94":-0.20300151151308016,"95":0.01052701141649425,"96":0.018523776254828497,"97":-0.3122638513909452,"98":-0.1363812140040246,"99":-0.5319724894017926,"100":0.08856791417520302,"101":-0.003965455118973498,"102":-0.08058442385201793,"103":0.1464340076284306,"104":0.010640525602262415,"105":-0.3655064994641379,"106":0.5101359783839831,"107":-0.11723659035488627,"108":0.46405681172842783,"109":0.3744910838105638,"110":-0.07321597202215309,"111":0.28032812513917016,"112":0.2027298397240523,"113":-0.09222605664473668,"114":0.47202837995340907,"115":0.20585601819246635,"116":0.03866021371419799,"117":0.11621039712243904,"118":-0.0662502554116404,"119":0.4605861525409204,"120":0.015560900349092806,"121":-0.20525087457700888,"122":-0.17510292597958707,"123":0.0002349666256562926,"124":-0.0382049036456371,"125":-0.061125574569240115,"126":0.3157325385433973,"127":0.03624190536236519,"128":0.07492742237523936,"129":-0.26055026634619394,"130":0.09764287825076874,"131":-0.37146532477837385,"132":-0.0012320587248977825,"133":0.02055229267569801,"134":-0.22643004482761395,"135":-0.16681602148222888,"136":-0.14006849841447097,"137":-0.5117298407428009,"138":0.3620986857474853,"139":-0.23774852204345764,"140":0.015157619091469704,"141":-0.08274517842541963,"142":-0.04023839075158951,"143":-0.6529307274911188,"144":-0.40023181067880714,"145":0.036420325431595846,"146":0.38618040931812997,"147":0.13668387868601697,"148":-0.1442968362104319,"149":0.25654151699688266,"150":-0.06378784175896907,"151":-0.8741418779379495,"152":-0.3299307646678661,"153":-0.3073809744922093,"154":-0.7676080253604902,"155":0.22782893383149935,"156":-0.23607425746912214,"157":-0.051836230950252256,"158":-0.16642338926386097,"159":-0.855427515185788,"160":-0.08884325585772856,"161":-0.3513675817238873,"162":-0.30609158397050956,"163":-0.3710612397319532,"164":0.13019227292325272,"165":0.3555450727509319,"166":0.39410473828811143,"167":0.06859182780508732,"168":0.026753353999187462,"169":0.4797378573280088,"170":-0.14444137803752685,"171":0.05112225738012043,"172":-0.08005991996309997,"173":0.381242317736647,"174":-0.027643167497176144,"175":0.03824075203101723,"176":-0.3669221220375241,"177":0.4941826533868898,"178":0.051326480348942334,"179":0.23021595160074107,"180":-0.36142921190070004,"181":0.0016557491572009861,"182":-0.14276017835580945,"183":-0.073201839181612,"184":-0.4046911569043871,"185":0.3723556289909142,"186":0.09793477067357004,"187":-0.08853687731555203,"188":-0.5109261222591468,"189":-0.05497614164429719,"190":-0.15899150339267834,"191":-0.1406824961352602,"192":-0.12713562068708675,"193":0.17444685492107673,"194":-0.03688091930070587,"195":-0.25847347684083827,"196":0.5206444020647132,"197":-0.10541434015182165,"198":-0.11858183502550022,"199":0.3656588016393815}},{"sx":5,"sy":5,"depth":8,"w":{"0":0.2351620280551717,"1":-0.21052493464509875,"2":0.5074717058174024,"3":-0.15742851192631824,"4":-0.028465456386775466,"5":0.5164035547303604,"6":-0.12059286553921472,"7":-0.0735785197637607,"8":0.19807357594991504,"9":-0.2296042115220726,"10":0.2327541821541891,"11":0.008506516966373374,"12":-0.08900037724527467,"13":0.03464506474389984,"14":-0.1296664084914261,"15":-0.23303740527702438,"16":0.15225086414497446,"17":-0.29977135959027124,"18":0.2715833740747106,"19":0.06928278417903305,"20":-0.13221724825900388,"21":-0.025845640263133803,"22":-0.08734698553587082,"23":-0.110623415295575,"24":-0.2195500799206004,"25":-0.2728962252112085,"26":-0.015091668558844605,"27":-0.06592561302187848,"28":0.16251534366596554,"29":-0.13431141415133127,"30":-0.2760565382645116,"31":0.15774945208932695,"32":-0.025258609119037084,"33":-0.21607828354958852,"34":0.013085997419210477,"35":0.2387810193624542,"36":0.03785343590506456,"37":-0.15879908090424136,"38":-0.5539773365905857,"39":0.0670729727952068,"40":-0.5133686351469351,"41":0.38120888719667956,"42":-0.0858458801440941,"43":-0.04031971828332725,"44":-0.2745750585826352,"45":-0.38083933795214225,"46":-0.17129606504218525,"47":-0.21748019427616552,"48":-0.15123473800024995,"49":0.26993274359664726,"50":-0.03285742516933434,"51":-0.0700153371130789,"52":-0.2570473359389745,"53":-0.31002104649250173,"54":-0.044199440839148944,"55":-0.2645336698195619,"56":0.050676826389739804,"57":0.2385387591096121,"58":-0.0389058692766654,"59":-0.22720197885622595,"60":-0.2714168343044671,"61":-0.25163144563644674,"62":0.15219720958269362,"63":-0.192532310723872,"64":-0.11441512664711825,"65":-0.1596171051410992,"66":-0.17347161164562244,"67":-0.35722769961299106,"68":-0.19928766720012484,"69":-0.20218705733487843,"70":0.06726653028901279,"71":-0.21611573049591165,"72":-0.09557868569775789,"73":-0.14447830801577333,"74":0.2028247430797019,"75":-0.32833552633187124,"76":-0.02987350374357232,"77":-0.40366839140920396,"78":-0.1807680584734178,"79":-0.10201429215677635,"80":-0.34629237487612197,"81":0.13606945167471207,"82":-0.0036027464284987404,"83":-0.33082030024248127,"84":-0.07517740071845644,"85":-0.41727250182640135,"86":-0.11233857188512684,"87":-0.2362126330376438,"88":-0.3063458610003673,"89":-0.1613511434417535,"90":-0.0008372978536693481,"91":-0.19110534940440133,"92":-0.15860393459325575,"93":-0.21166211680076802,"94":0.0015483014785342912,"95":-0.2971100716979599,"96":-0.36361284776096614,"97":-0.007937919505466042,"98":-0.2589038198534053,"99":-0.2784336483598726,"100":-0.15919074266372615,"101":-0.028728758968480053,"102":0.10580569295266329,"103":0.098991074129385,"104":-0.2721115659364396,"105":-0.13883262310280572,"106":-0.22648658756756762,"107":-0.46673342995944617,"108":-0.20012876829664047,"109":-0.32939828581869635,"110":0.0808149139742639,"111":-0.09591325196872517,"112":-0.04235120477753572,"113":-0.02393338519832651,"114":0.02619665445194704,"115":-0.15912044843012013,"116":-0.08885576976555853,"117":-0.34850473033089185,"118":-0.08960393752428722,"119":-0.30940363242662344,"120":-0.12940674371099758,"121":0.33770588355656306,"122":0.00041778011522570417,"123":0.1590716491577067,"124":-0.122620627902198,"125":-0.18682874992973544,"126":-0.0976055063481628,"127":0.005642289149330161,"128":-0.012404300777109762,"129":0.3232411631649782,"130":0.18392695896066172,"131":-0.22296808989203476,"132":-0.05928374304574273,"133":0.2088432122906637,"134":0.18917540534290442,"135":-0.39912470031800185,"136":0.15912238145752777,"137":0.20829962235213362,"138":-0.08586311671297661,"139":-0.2795586636611264,"140":-0.12947114806714663,"141":0.044689153131356914,"142":0.12408720110345611,"143":-0.17180716249902295,"144":0.16720780556396309,"145":0.0844721228036161,"146":-0.3671680381978858,"147":-0.2687471201796485,"148":0.019112608111344905,"149":-0.26316917145119717,"150":-0.09335904403466924,"151":0.027524610727585785,"152":0.06056425498845072,"153":0.33180993033230677,"154":0.11795998869880185,"155":0.11994322876833334,"156":0.07717769511328651,"157":-0.031062207408483894,"158":0.1428943072454354,"159":0.1569233603022093,"160":0.07737425683452226,"161":0.2279439658474191,"162":0.09470828689621184,"163":0.08343732150148593,"164":-0.22559516488000653,"165":0.009365328046277993,"166":-0.1604066484397711,"167":-0.1710907734493586,"168":-0.012316115486640532,"169":0.09045437764871887,"170":0.09349367923158518,"171":0.16452923118999957,"172":0.04105706536472531,"173":0.27814952363170337,"174":-0.00656525839162195,"175":-0.2931635616823215,"176":0.1091587116698605,"177":0.18064961361601461,"178":0.37131793844439304,"179":0.1620284373997783,"180":0.05270306409888386,"181":0.1536006658468422,"182":-0.03329506631031083,"183":0.04392559630920146,"184":-0.11955243799090233,"185":0.19829639643128633,"186":0.4034802856061743,"187":0.045085631703080394,"188":-0.3620521854548559,"189":-0.381482942637777,"190":0.07033971595083095,"191":-0.10168074058492953,"192":0.27611117419042774,"193":0.17940439185119939,"194":0.7749591635797077,"195":0.06648895997205194,"196":0.08855735809917445,"197":0.07981802372950444,"198":0.17401528098254773,"199":-0.0722044440056233}},{"sx":5,"sy":5,"depth":8,"w":{"0":0.028955534204885627,"1":0.05531575993429201,"2":-0.41661676948745496,"3":0.3646209897352922,"4":-0.18923230064439894,"5":-0.12272669013808943,"6":-0.2338402818787708,"7":0.2559611942039429,"8":0.11178035885236752,"9":0.05797489857399326,"10":-0.3727470438363689,"11":-0.016369082481707955,"12":0.21192444035759755,"13":-0.24232656373672035,"14":-0.1525713875456136,"15":0.2586908451087885,"16":0.3970018983900016,"17":-0.18782470482172103,"18":-0.34089581947904735,"19":0.556898632626769,"20":0.036458730755065435,"21":-0.31990743802812616,"22":0.043095092030864666,"23":0.37319623068959623,"24":0.5803251523878964,"25":-0.07413374068437562,"26":-0.46825280591256,"27":0.9442781108914465,"28":-0.44463644219383086,"29":-0.11944478335890975,"30":-0.06318842966861993,"31":0.17710026379018246,"32":-0.1789644731781959,"33":-0.26899308987850784,"34":0.030789659618658982,"35":0.2056352914551364,"36":0.031534198528622645,"37":0.4108225578768994,"38":0.02443830492552319,"39":-0.08676999243433044,"40":-0.1773158190352769,"41":-0.5484522163810079,"42":-0.054322673106573634,"43":0.3152527533691623,"44":-0.03708840532421913,"45":-0.08949941635824676,"46":-0.09156518976493386,"47":0.15528509905783716,"48":-0.43346675740582874,"49":-0.3316992501389043,"50":-0.2215886979316233,"51":-0.2546681143203396,"52":0.2711922111472201,"53":-0.29327421184458474,"54":-0.28255409309742024,"55":0.11798648816105874,"56":-0.4250423182149857,"57":-0.2523698204592181,"58":-0.2510112588354399,"59":-0.3544162926027177,"60":0.417515803606525,"61":0.08864733075121545,"62":0.09451853192556856,"63":-0.227784389868105,"64":-0.6765988363330884,"65":-0.08834139350194362,"66":0.06750723771325001,"67":0.40274894619585005,"68":-0.0887622673684122,"69":0.5916277736864541,"70":0.7893979874410354,"71":-0.7816417386430033,"72":-0.2608004200744183,"73":0.3495297823580409,"74":0.006189953048511275,"75":0.4765154856918295,"76":-0.05302300441313838,"77":0.49991409962446537,"78":-0.1354777475352766,"79":-0.2762299183753656,"80":-0.3389659933324615,"81":-0.07509318623453867,"82":-0.09329061184218905,"83":-0.06193148781744938,"84":-0.053713742728415184,"85":-0.09531317766756578,"86":-0.20717959848087317,"87":-0.19710716861583755,"88":-0.4996681599556749,"89":0.008413451163282206,"90":0.27164489028362804,"91":0.13620627638135296,"92":0.09225554796089613,"93":0.30143235603369023,"94":-0.18657179279288322,"95":0.1446601716186353,"96":-0.35623571716717944,"97":-0.06534393503141434,"98":0.48803905156470245,"99":-0.21491103470728964,"100":0.07752218146406513,"101":0.5437051810218795,"102":0.4406147517996859,"103":-0.0011216999683267394,"104":-0.21542782192465187,"105":0.06549797033987209,"106":0.38754325357856617,"107":-0.37426256874262426,"108":-0.06388897448233821,"109":0.380326642764455,"110":0.5822241664462343,"111":-0.375187126584754,"112":0.006135236076343474,"113":0.05360618345396618,"114":0.06405922723930725,"115":0.37299974835417693,"116":-0.12577810715679658,"117":0.17203844340502866,"118":0.039690800899043165,"119":-0.1819320302841643,"120":-0.22837677336364803,"121":0.43644877299461543,"122":0.06195514176631851,"123":0.0936099240328133,"124":-0.3936320482283647,"125":-0.07333665488539545,"126":-0.06782281830254618,"127":-0.3139910725020432,"128":-0.1319417129516721,"129":0.348493397249811,"130":0.1047151093190952,"131":0.0032540446822067475,"132":-0.4476026807144475,"133":-0.06467418085246628,"134":-0.49379069044605783,"135":0.08608986191454102,"136":-0.08022874897265668,"137":-0.3528102114354966,"138":-0.23114655187459385,"139":-0.14402850048354018,"140":-0.060737421442669255,"141":-0.18023323827874285,"142":-0.2785831875313724,"143":0.419507877113745,"144":0.1511028715694359,"145":-0.3630692882125108,"146":0.11459956496458053,"147":-0.48518455124168475,"148":-0.07679245344455814,"149":-0.14045957312706725,"150":0.14628804859760014,"151":0.10984588329068866,"152":-0.4999605799584284,"153":-0.5411000989747572,"154":-0.2218341832507097,"155":-0.10332248650225828,"156":0.16336836320053888,"157":-0.2431338624898962,"158":0.05777674505284055,"159":-0.3025217466540697,"160":0.16626947452893628,"161":0.6639906699944458,"162":-0.15795591568169307,"163":0.23138057855504765,"164":-0.4488327407701834,"165":-0.20129986572278982,"166":-0.2821657764131865,"167":-0.04744580850339295,"168":0.14740154358143703,"169":0.3291422981451787,"170":-0.7273879371484796,"171":0.23106411679393613,"172":-0.10267510685295933,"173":-0.4742157050026709,"174":-0.5159144197204594,"175":0.27524855818079697,"176":0.2420854492428925,"177":-0.058531597315527005,"178":-0.5252086143971216,"179":0.2714122165432847,"180":0.10355974779749104,"181":-0.5222502429281096,"182":-0.6283895912230115,"183":0.6589347894342196,"184":0.831144264003147,"185":-0.3862082464195532,"186":-0.2524830788939365,"187":0.4559046634096672,"188":0.07183679638237099,"189":-0.1848189069690487,"190":-0.4359545001763141,"191":0.3233793691157012,"192":-0.08939970063063879,"193":-0.6406386827127241,"194":-0.27612355478420714,"195":-0.12669771847602163,"196":0.3711900301459711,"197":0.35404030905601164,"198":0.079836061268908,"199":0.05958340780111885}},{"sx":5,"sy":5,"depth":8,"w":{"0":0.24722445431181161,"1":-0.13542792910947876,"2":0.33542853463702693,"3":0.16681513476719204,"4":0.025286858306953947,"5":0.9528334568548492,"6":0.08358650410383808,"7":-0.38325117559424876,"8":-0.17035948799107023,"9":-0.32916089216010386,"10":0.3415193488503862,"11":0.2115904971357746,"12":-0.12387526063868608,"13":0.4704561997050695,"14":0.05006303306752984,"15":-0.20986878533235517,"16":0.1058225839226988,"17":-0.07898131069314174,"18":-0.16118082566592515,"19":0.0025946450706314838,"20":-0.03439536007602612,"21":-0.1107277426868377,"22":-0.12807263680839498,"23":0.15427743330723925,"24":0.16865658726504706,"25":-0.14779339824928597,"26":-0.637961316115306,"27":-0.24883143270827354,"28":0.08181515500722755,"29":-0.17729105744464063,"30":-0.2516481182170003,"31":0.3234391418528265,"32":0.11289927862342028,"33":0.16705779887107208,"34":-0.35419629889950915,"35":0.4125745288737256,"36":-0.28285292796174893,"37":0.08092113085940701,"38":-0.5233399242050605,"39":0.38578788037665046,"40":0.22420930090972555,"41":-0.2823942150919062,"42":-0.3851241949179679,"43":0.23189957774071876,"44":0.2550201786166998,"45":-0.054467495184395816,"46":-0.1653468898540546,"47":0.23272640036239992,"48":-0.16775254107822868,"49":-0.5175415880788822,"50":0.32920432461801885,"51":0.12550651667894028,"52":0.29381042240947214,"53":0.12576712898086334,"54":-0.2124036050215518,"55":-0.049750132437932554,"56":0.19967721838918262,"57":-0.31517246458359083,"58":0.4159012007003888,"59":-0.11623382033790944,"60":0.2553623645129959,"61":0.0892977118135079,"62":-0.1264152660101941,"63":-0.06729336153077933,"64":0.3521555480459011,"65":-0.18357929758458974,"66":-0.2996235113779505,"67":-0.056330557935694636,"68":0.1782227488999372,"69":0.04453847286603042,"70":-0.22682696474240846,"71":0.1592941285245117,"72":0.17137638110396425,"73":0.1191313583960699,"74":-0.2152094253902212,"75":0.45683077405796124,"76":-0.1811134612799688,"77":-0.08572213684456763,"78":-0.43944265746442585,"79":0.49384005558443306,"80":0.10967295995317652,"81":-0.1508444003723449,"82":0.056929348617995944,"83":-0.26384933594723253,"84":-0.0705343731915574,"85":-0.16695670511493718,"86":-0.14837865237912828,"87":-0.02448802707061805,"88":0.03494003061649151,"89":-0.23902769167938331,"90":-0.007131219139086195,"91":-0.36512692376735717,"92":0.18856012671319392,"93":-0.11243817308105881,"94":-0.034039897064546513,"95":-0.23185427124645366,"96":0.07027595127186322,"97":-0.26348449580801775,"98":0.6346949338591018,"99":-0.3055817735026169,"100":0.4047184204355506,"101":0.2644646169494793,"102":-0.1463566036138469,"103":-0.17369274810377452,"104":-0.05834746159022985,"105":-0.14371852685855727,"106":0.20447275326350065,"107":-0.5440885932406864,"108":0.5355256253523037,"109":0.3022971698313671,"110":-0.016187998821415476,"111":0.19919285867407266,"112":-0.48024213038887426,"113":0.1077281832645815,"114":-0.05756188528691352,"115":0.13570360363885592,"116":0.4287248535068819,"117":0.2560284780329673,"118":0.26537996052378704,"119":0.2425924505956131,"120":-0.20096275829461516,"121":0.10674467020065327,"122":-0.17740431218479444,"123":-0.3430206220178874,"124":-0.13746833439265174,"125":-0.041574423128276736,"126":-0.053603960542911666,"127":-0.011905123880017103,"128":0.045242274449418765,"129":0.043568820898206496,"130":-0.1322305365995587,"131":-0.23244336123608478,"132":0.04613802508026672,"133":-0.1512906991731437,"134":-0.11472482528244449,"135":-0.26671038884796744,"136":-0.056942881386622214,"137":0.12782591070596877,"138":0.34996407085616266,"139":-0.33486571348313765,"140":-0.25871427437990774,"141":-0.05877665236230989,"142":0.2686368642896706,"143":-0.28338674992250734,"144":-0.32993305371371173,"145":-0.36909018782940745,"146":0.2736195900897322,"147":-0.42682269601806266,"148":0.05135664155682472,"149":0.2788363149171487,"150":-0.001222569621920089,"151":-0.24213028086167696,"152":-0.6349048867316247,"153":0.09338482518634914,"154":0.6435010405662323,"155":-0.510437802010137,"156":0.39525454361713475,"157":0.30389726462066563,"158":0.12192558344166529,"159":-0.03559522737044292,"160":0.15524509453201743,"161":0.11870306271158852,"162":-0.001467706752792147,"163":-0.29781035487146484,"164":0.05276352256620753,"165":0.10603411820721058,"166":0.43565539596414565,"167":0.36758984829219143,"168":0.2466759220163374,"169":0.2221204719120778,"170":-0.14661770836560697,"171":-0.17749442128824494,"172":0.18777138230962082,"173":0.4109276701100701,"174":-0.10808375897702965,"175":0.32045263817897457,"176":-0.2402638771150811,"177":0.4366355945726108,"178":-0.10435083666528772,"179":0.035505587218614666,"180":-0.19265153157419143,"181":0.2685664582892254,"182":0.18232424061692054,"183":0.43880670801382793,"184":-0.35167142840433163,"185":0.08763510809538946,"186":-0.267121001795416,"187":0.26507571561688137,"188":-0.39107596838751724,"189":-0.0663704452875963,"190":0.06197874471570333,"191":0.10311167856504046,"192":-0.17317186656165062,"193":-0.3303145862847372,"194":-0.15325104764157624,"195":-0.411264219837125,"196":0.08263495220177995,"197":-0.015572375287630077,"198":-0.38008435931050594,"199":0.1965182049970554}},{"sx":5,"sy":5,"depth":8,"w":{"0":0.17768050002479083,"1":-0.1760657011553802,"2":0.18870617130359243,"3":-0.18075563604362319,"4":0.09635570727835481,"5":-0.11977425391196417,"6":-0.049360412625975646,"7":0.4098933786645993,"8":0.36603605472236805,"9":-0.268905651120609,"10":-0.008619269334840144,"11":0.19594558560853167,"12":0.0645124327109107,"13":-0.02701727132197814,"14":-0.1586151337016189,"15":0.1600476003992805,"16":0.10463497415475771,"17":-0.2870773401390724,"18":0.18068355603659939,"19":0.3678013101021258,"20":0.004475448462418362,"21":0.07796951336779602,"22":-0.43446688891291174,"23":0.19830485231619438,"24":0.24275690224600163,"25":-0.19539974971652344,"26":0.3063981475080019,"27":0.1986947021900438,"28":-0.17888378059442336,"29":-0.09061720978673125,"30":-0.32140588426459843,"31":0.03569982727685811,"32":0.09889034391296884,"33":-0.2965665337238734,"34":0.4059207954965177,"35":0.18233549118962605,"36":0.055147704577682255,"37":-0.020398563833657055,"38":-0.30542138195730495,"39":-0.05354880956849858,"40":0.19936859461798168,"41":0.021962225906096314,"42":-0.25226508901813405,"43":-0.30472519261098807,"44":-0.06629112228608727,"45":-0.27681632601218004,"46":-0.2778530760535013,"47":0.16592345299991845,"48":0.051837822710918705,"49":-0.21194199279369752,"50":0.031082823204494403,"51":0.02009944505740372,"52":-0.10169271735178537,"53":-0.184894104786571,"54":-0.11423669402814188,"55":-0.10304039005055107,"56":-0.06515078757925268,"57":-0.21535269168365978,"58":0.1253059994608468,"59":-0.10242234667273674,"60":-0.2700605221109439,"61":-0.40320812620283153,"62":-0.09173616831639968,"63":-0.1777767303955534,"64":-0.05502148756282514,"65":-0.10649964189598601,"66":0.2276941767708903,"67":-0.19669525299500532,"68":-0.34251282788292486,"69":-0.22637313153230193,"70":-0.2666818769087895,"71":-0.1573515677130311,"72":-0.08888818133588366,"73":-0.23916842361643387,"74":0.22191060116017652,"75":-0.4690746129147955,"76":0.038266745219322246,"77":-0.28187245549771095,"78":-0.0694699769477443,"79":0.209196297635348,"80":0.21653924955165615,"81":0.031080253013394968,"82":0.004271274971908091,"83":0.23766865899554393,"84":-0.07182799777226266,"85":-0.3112010569383367,"86":0.0032502876558651345,"87":0.19942070150427124,"88":0.019777753967797483,"89":0.30196177937919644,"90":-0.004610024546604628,"91":0.1580722624432462,"92":-0.263784750981852,"93":-0.2290619654641795,"94":-0.24056924605209593,"95":-0.18605961879012492,"96":-0.2571159370148162,"97":0.352103067497162,"98":-0.3071917135512484,"99":0.10183549378152092,"100":-0.3602322390027247,"101":-0.3030673545025505,"102":-0.33131108049224084,"103":-0.23529888196136825,"104":-0.38822379440403276,"105":0.13278315149737427,"106":-0.08878720260326244,"107":-0.08552074859602815,"108":-0.2730328438052223,"109":-0.36349181900782923,"110":-0.19036892993748508,"111":0.03192814051042916,"112":-0.22336995181109823,"113":-0.2059122250951909,"114":0.42587577465843646,"115":-0.6222672276843134,"116":-0.05754109811251262,"117":-0.0877776172970317,"118":0.6116449051675936,"119":-0.13340696706162752,"120":-0.5485232275144025,"121":0.42960604435452004,"122":-0.38288156183949057,"123":-0.08924517891508298,"124":-0.32413645880985414,"125":-0.29363652426270936,"126":-0.21950884737705292,"127":0.0870661211344815,"128":-0.4893111049477621,"129":0.03900557481568084,"130":-0.14722024715654333,"131":0.08500074840611647,"132":-0.45292023823273947,"133":-0.27064516444905873,"134":-0.13006163864176065,"135":-0.08181997406619931,"136":-0.3741358572631242,"137":0.03122479496229217,"138":-0.02710817390310005,"139":-0.004581888814937844,"140":-0.12468558548639011,"141":0.026132012724481735,"142":-0.17192499182947893,"143":0.35592620763964034,"144":-0.05881340231660211,"145":0.13436830448688353,"146":0.18154735022730506,"147":-0.0006186726594641027,"148":-0.07959171704558601,"149":0.4528903745675523,"150":0.24150326933291946,"151":0.5212255683173632,"152":0.0892624978321046,"153":-0.10357573507697797,"154":-0.0727899359895495,"155":-0.30212636835039375,"156":-0.2371520888073006,"157":0.02873056840554581,"158":0.7612366091698539,"159":-0.04333295467196065,"160":0.0050893588434947805,"161":0.24331274647136095,"162":-0.704754590153487,"163":0.07790601911189705,"164":-0.3466115712154249,"165":-0.16632353094772892,"166":0.0970389199229977,"167":0.0989168997604432,"168":-0.07371714684679656,"169":-0.2508524836465682,"170":-0.26982361304730024,"171":-0.1650099512260484,"172":-0.05972511124851953,"173":0.22927681409031614,"174":0.19875378230255428,"175":0.056930722710905816,"176":0.18807868608636308,"177":-0.09360656365538844,"178":-0.10775280734174754,"179":-0.1051232068014541,"180":0.14464436915438816,"181":0.009239308624743812,"182":0.25802062262121217,"183":0.33028688916948007,"184":0.06029309743231913,"185":-0.004838953529472579,"186":-0.05524909289230113,"187":0.048043336668450336,"188":0.09916380914860783,"189":0.3929643971933268,"190":0.23370791621082576,"191":0.2628943411934519,"192":-0.01598354205354128,"193":-0.09094376300201763,"194":0.04107167108516919,"195":-0.3930199808519255,"196":0.17825569728169613,"197":0.19095916533783266,"198":0.6382183882024831,"199":0.44256470311007723}},{"sx":5,"sy":5,"depth":8,"w":{"0":-0.05751070987932071,"1":-0.1824375146397714,"2":0.49787256436214267,"3":0.09410754743876926,"4":0.0807569138910372,"5":-0.23424519209070188,"6":-0.19786721300660914,"7":0.08669388961940064,"8":0.008496080288914383,"9":0.053728845375327336,"10":0.15618419998492547,"11":0.20236531119182175,"12":0.16997267382473633,"13":0.13725450473116907,"14":-0.2077519254900985,"15":0.23572617003509103,"16":0.277577779719974,"17":0.1143965652027389,"18":-0.08271424421002137,"19":0.36706165963966736,"20":-0.036280133675917245,"21":-0.16598475169443797,"22":-0.09195257089988602,"23":0.1035383166933183,"24":0.5472411584864081,"25":0.2113991872463442,"26":0.2841125249376752,"27":0.07805230909655952,"28":-0.07118752179904254,"29":0.05542490421706444,"30":0.13085295522371407,"31":0.09083642716633662,"32":0.1455000247810647,"33":0.1553404783418894,"34":-0.11479593294469935,"35":-0.19229810100654898,"36":-0.007751050651431867,"37":0.08456300835893166,"38":0.13150113539924727,"39":-0.25740439806817467,"40":-0.3508542896890348,"41":0.27654646938641764,"42":0.2339586255725254,"43":-0.526292000602429,"44":-0.07372183371287945,"45":0.10079496958688697,"46":0.060269472677284816,"47":-0.08658478385967842,"48":-0.23450148323825468,"49":-0.11553640172656907,"50":0.08819676043235426,"51":-0.24308301797738946,"52":-0.14722860772566693,"53":0.08154627053598035,"54":-0.19732504990820746,"55":-0.05620756676015651,"56":-0.0965025118494642,"57":-0.013342166306778442,"58":-0.3959045966166917,"59":-0.2217858293664676,"60":0.022312349348682807,"61":0.010217980274187676,"62":-0.16233792213068743,"63":0.3494799785587739,"64":-0.06160038602765367,"65":0.05719454005738645,"66":-0.014673714252105343,"67":-0.3523254846367523,"68":0.06621473316549785,"69":0.13262021818180272,"70":0.08366264870289475,"71":0.35996456918686276,"72":-0.1852489262007428,"73":0.2869310425165917,"74":-0.19248380326036796,"75":-0.34380908877853056,"76":-0.03098290514673414,"77":-0.16260877308922816,"78":0.21996852437797068,"79":0.23046923316551446,"80":-0.20634142373373987,"81":0.029241672766386437,"82":-0.23535913329239688,"83":-0.26716997394202757,"84":-0.11237306006867338,"85":0.05231475592221524,"86":0.5655933075674643,"87":-0.057780885637567246,"88":-0.2695787909736071,"89":-0.13535706283219964,"90":-0.1662998255144863,"91":-0.38253687510090584,"92":-0.07867753256849785,"93":-0.018454243184046436,"94":0.07742483969082758,"95":-0.19376788510132112,"96":-0.2405963990879395,"97":-0.3213511308501493,"98":-0.5982666168515822,"99":-0.24129402852846873,"100":0.10300399444481317,"101":0.1376496507911588,"102":-0.14260450487387863,"103":0.010428698214359098,"104":-0.27975391604472116,"105":0.10406731205513256,"106":-0.25206345133468416,"107":-0.21019788568747821,"108":0.06626766317161356,"109":-0.0828238571324211,"110":-0.27139936381845203,"111":-0.07275416392851644,"112":-0.1589193477814684,"113":0.3892121203721807,"114":-0.34707862027734554,"115":-0.21068945296594674,"116":-0.14683902943137697,"117":-0.17899954650014288,"118":0.20966064775529178,"119":0.4102946434424703,"120":0.28620394988160003,"121":0.018484328366858142,"122":-0.41454167025210376,"123":-0.2778416610333884,"124":0.025662282419676774,"125":0.02082707318778977,"126":0.41271596505479446,"127":-0.1273545341051152,"128":-0.043884358453742695,"129":0.11549639424421793,"130":0.02201826799969353,"131":-0.39420942486908533,"132":-0.008487080054525541,"133":0.11626387345267795,"134":-0.01984533667769285,"135":-0.07215998010667926,"136":-0.20994977734614154,"137":-0.10589214064519929,"138":-0.4860928203396712,"139":-0.20299273110932542,"140":0.0948791853526799,"141":-0.08382912932749524,"142":-0.001644717967424199,"143":0.18110963367248445,"144":-0.268854506012956,"145":0.10958450502335372,"146":-0.03581143904236559,"147":-0.21724007008171728,"148":-0.1441938553931182,"149":-0.43582864793042214,"150":-0.36410721053325346,"151":0.10364995265443953,"152":-0.007653219507144666,"153":-0.08653079776598079,"154":-0.430485561432978,"155":-0.4837065481049154,"156":-0.279564711252113,"157":-0.3067584349022424,"158":0.14389170792050499,"159":0.26745656419312475,"160":0.16250285429228917,"161":0.18348493054267848,"162":-0.6334366388941888,"163":-0.2900075587452663,"164":0.25616678932303844,"165":-0.09462099747515101,"166":0.44856634698874875,"167":0.06559859416978363,"168":-0.052670596653711786,"169":-0.04292195363209075,"170":-0.08032675883100475,"171":-0.34240910633717286,"172":0.1690717727169061,"173":0.29127001287289794,"174":0.027081537071957904,"175":-0.053944681334026,"176":-0.2955869385099997,"177":-0.002561072271740485,"178":0.12316619576345281,"179":-0.3233784854574532,"180":0.4786798647833475,"181":0.3241508633708285,"182":-0.3182954325425645,"183":0.34546676157644707,"184":-0.38608767581549136,"185":0.018697784568264,"186":0.12922142188436841,"187":-0.4458642323192008,"188":-0.05517454993987066,"189":-0.4270160090942734,"190":-0.3145367738618793,"191":0.16773422551758813,"192":-0.42577905979224806,"193":-0.03728850303257979,"194":-0.038250241484072814,"195":-0.7200654680160542,"196":0.10264763831340823,"197":-0.6018794288636307,"198":-0.044099588523633645,"199":0.32195314103335204}},{"sx":5,"sy":5,"depth":8,"w":{"0":0.14319099153327808,"1":0.2604839839840101,"2":-0.6028811393123108,"3":-0.08285518348385908,"4":0.2409246519531134,"5":0.09160169223755575,"6":0.5185225878376121,"7":0.4556705820699287,"8":0.34872268192306466,"9":0.03086288859935023,"10":-0.4060758045129117,"11":0.12555542273657647,"12":0.011469985340072788,"13":-0.008307196208868642,"14":0.15357062561969118,"15":0.34582234807249135,"16":0.2827745395935173,"17":0.04764297904456049,"18":-0.5586840956380672,"19":-0.07204811815474477,"20":-0.0732214850441229,"21":0.2270913059068202,"22":-0.11949772522262327,"23":0.544674479949654,"24":0.06104424463810822,"25":0.30683854503395935,"26":-0.37452708847449606,"27":-0.20876291486044368,"28":-0.051573280780094655,"29":0.18726495298833706,"30":0.07282173877278049,"31":0.5357926132738385,"32":0.04589324832922859,"33":0.40094342259892374,"34":-0.16798754395216806,"35":0.14958792925752654,"36":0.08969210865046937,"37":0.15871041090629562,"38":0.23849581775093262,"39":0.23577611795758935,"40":0.3997968297708593,"41":-0.12782338253460276,"42":-1.1434511627708754,"43":-0.1570091390681643,"44":0.14080384907119253,"45":0.022593222542024196,"46":0.24879213629850613,"47":0.08731335003398862,"48":0.5474349235092489,"49":0.006003889271698235,"50":-0.6351893889201651,"51":0.24859795946774502,"52":0.007332768438835959,"53":-0.00238881616968893,"54":0.09282404473357436,"55":0.23918518426559998,"56":0.19354823591465217,"57":0.04104708533219079,"58":-0.29669702403366394,"59":0.001460914689993162,"60":0.17157497612978784,"61":0.17099089280297,"62":-0.037213058215009906,"63":0.2135352305469768,"64":0.2755365089931164,"65":0.09934143333474538,"66":-0.5687945946071555,"67":0.15919983346879257,"68":0.035170246906007764,"69":0.04758384816085989,"70":-0.27006509954317887,"71":0.36765161562942905,"72":0.17000305327751591,"73":0.19554307893320025,"74":-0.3385566882189404,"75":-0.04945880418438962,"76":0.007016633633371308,"77":0.49786811339316367,"78":-0.04685396469971925,"79":0.23177510499172027,"80":0.1316753006384653,"81":-0.06707501246310985,"82":-1.0468990739131347,"83":0.3106609630535498,"84":0.006062604700904841,"85":-0.18239446936178577,"86":0.18076098157979983,"87":-0.20986425481409537,"88":0.016612324846446678,"89":0.3465299811363766,"90":-0.4947104474636714,"91":0.1679508816191339,"92":-0.015244879961921682,"93":-0.1552129406513321,"94":0.13417297811736087,"95":-0.49521016091328757,"96":0.21306927641946719,"97":-0.01501636690680127,"98":-0.57113416320045,"99":-0.17177746892407086,"100":0.14456495294983865,"101":0.1353009960897403,"102":0.07013652022491183,"103":-0.03369955600690884,"104":0.36797672199382636,"105":0.060266056087924215,"106":-0.7165620618250226,"107":0.03402120225033271,"108":0.14712835017000292,"109":0.03601188797278349,"110":0.04854709356343483,"111":0.1791076158820304,"112":0.015283726211756287,"113":0.4100150747455937,"114":-0.3650787361123919,"115":0.5188645133628728,"116":0.011218314092661302,"117":0.35719430988562695,"118":0.056042775777780864,"119":0.13903800746940653,"120":-0.3045558965985013,"121":0.18513651308788706,"122":-0.45061957521430657,"123":-0.20119465314581358,"124":-0.1285295841734182,"125":-0.012665748296033355,"126":0.2887778600168331,"127":-0.5992970344990939,"128":-0.07569357104772019,"129":0.05304227736261574,"130":-0.094167788184176,"131":0.03783952462329686,"132":-0.16484470882104732,"133":0.345260499798818,"134":0.2882794655641488,"135":-0.5443514171787754,"136":0.24188582386034785,"137":0.052202549174917394,"138":-0.41261554738324896,"139":0.1446554789755947,"140":-0.05882049354418172,"141":0.17034542196282218,"142":-0.11650153320427056,"143":-0.06116440286403792,"144":0.2200380670185489,"145":0.10422176044933874,"146":-0.31912357217099424,"147":0.018705294312462054,"148":-0.1090447036804694,"149":-0.11337989187674948,"150":-0.07918618547234371,"151":-0.1468514165960713,"152":0.09789330721404373,"153":0.46480043587374975,"154":0.2899142680416608,"155":0.30255680552372044,"156":-0.16115052094962587,"157":-0.12980098314858834,"158":0.19183516141995755,"159":0.03911382981600055,"160":-0.0061338575267519,"161":-0.12957526254673166,"162":-0.142051803391085,"163":0.005410313456265129,"164":0.11397611513613308,"165":0.525547503627948,"166":0.38862327915702305,"167":-0.5762994767088346,"168":-0.44191136793857244,"169":-0.08888844052255325,"170":0.3657105110103265,"171":-0.3213275488063225,"172":0.26842941708181356,"173":0.33077069457290015,"174":-0.08404731543351564,"175":-0.37584691666998193,"176":0.12069879670930601,"177":-0.06782979340992581,"178":-0.0515984424292056,"179":-0.03625260414407884,"180":0.3373857771219304,"181":0.26261651032217415,"182":-0.04939574664613439,"183":-0.23776710917539076,"184":0.04181408882436272,"185":-0.18003942757060906,"186":-0.2579589104558244,"187":-0.10173273615790426,"188":-0.007021199886971553,"189":-0.11830710560947925,"190":0.38632011595027144,"191":-0.3356996955670173,"192":0.21577538002262614,"193":-0.012995268203823882,"194":0.17175473112137637,"195":0.18226095130749956,"196":-0.14304986447560375,"197":-0.17273499950556329,"198":-0.05019793694406308,"199":-0.20706218824136186}},{"sx":5,"sy":5,"depth":8,"w":{"0":-0.4629174316634865,"1":0.20494602112829033,"2":0.6509873790315941,"3":0.050707698422767206,"4":-0.055317906403029866,"5":0.11295390935650647,"6":0.42196885599448963,"7":-0.45001914842629964,"8":-0.31104051942890354,"9":0.37776536366329516,"10":0.25692439642768505,"11":0.05872501869820662,"12":0.3548218421492693,"13":0.43391850561415257,"14":0.12643551309456125,"15":-0.6123795524230237,"16":-0.2699679237167193,"17":-0.19912809037725476,"18":-0.2831832074526772,"19":-0.23947898200186923,"20":0.21001012465242366,"21":0.21172698906850385,"22":0.3486470250266118,"23":-0.6444745993599607,"24":0.006674104213745674,"25":-0.5445805531517348,"26":-0.35841423175887943,"27":-0.4001825230629692,"28":0.3285466367566619,"29":0.12603117476485567,"30":0.01008049639645244,"31":-0.0763580588889618,"32":0.04584665575266224,"33":-0.257843709301031,"34":-0.3078432537940195,"35":0.09387084090521751,"36":-0.04140344262008947,"37":0.05121732980211579,"38":0.01227026412678931,"39":0.026826721168141644,"40":-0.43791247936241556,"41":-0.20785466111678474,"42":0.24610849583744973,"43":0.3206850386333863,"44":-0.12864191966033972,"45":0.31583615790453706,"46":0.05943014313778752,"47":0.03185984936093284,"48":-0.38535248392882676,"49":-0.2557040741122422,"50":-0.4641492934915534,"51":0.11943058171424335,"52":0.21449954317613348,"53":0.12285254439224867,"54":-0.10779438324687644,"55":-0.4193557543097806,"56":0.20916719613711093,"57":0.0006531035713693833,"58":-0.9130986776285135,"59":0.0901587674468349,"60":0.20913051582928968,"61":0.09930021257351425,"62":-0.27287946848053735,"63":-0.1828339829439794,"64":0.2821147851187919,"65":-0.25822494404697743,"66":-0.2516646213241872,"67":0.2632628187338176,"68":0.0842112533322666,"69":-0.04162201008363286,"70":-0.2380380463581455,"71":-0.011844890824880829,"72":0.1776426090762246,"73":-0.3995039807208601,"74":0.12703263382217125,"75":0.2966097291044644,"76":-0.11565494744334616,"77":-0.010476860525720489,"78":-0.169000082856589,"79":-0.11540902095431373,"80":-0.23301413170213317,"81":0.3944388101594321,"82":-0.19565138658212763,"83":0.1691184080402828,"84":-0.12574751498365364,"85":0.23165764205750025,"86":-0.1808192900284115,"87":0.40557829029043896,"88":-0.03154393176463123,"89":0.12127387203196045,"90":-0.021094154604182236,"91":0.04953145048936441,"92":0.2365109633619179,"93":-0.32740558080410626,"94":-0.08863610885101045,"95":0.24033688059718789,"96":0.4373487391967337,"97":0.06779251392145424,"98":0.09729528590137744,"99":0.38742588794043953,"100":-0.015355163401332974,"101":-0.33217463276108444,"102":-0.08478017092982526,"103":0.14624712812655474,"104":0.16307541650855628,"105":-0.1852755972252797,"106":0.11918890689111199,"107":0.3500132294161237,"108":0.020136362090151478,"109":-0.21183743715159883,"110":0.01634801903126669,"111":-0.013956619657016925,"112":0.4096171066984131,"113":-0.08108271035067811,"114":0.1302509791951708,"115":0.284509696661091,"116":0.05256069244500837,"117":0.10612108404689298,"118":-0.2058857125031143,"119":-0.11059080566747788,"120":-0.02009714979342089,"121":0.17573926096036366,"122":-0.28137155170101213,"123":0.2256128280109117,"124":-0.2896497305327041,"125":-0.1949841923454211,"126":-0.3425790258743961,"127":0.38619275776319856,"128":-0.18208764954805973,"129":0.15520932390598569,"130":-0.04871572910882523,"131":-0.018708878677730814,"132":-0.13792639595355963,"133":-0.120363201273036,"134":-0.03994515261012389,"135":0.42160600966978234,"136":0.3078581517642866,"137":-0.26048194131734415,"138":0.03858289689456491,"139":-0.006596791140520243,"140":-0.1003038326019548,"141":0.24265174346377422,"142":0.04636327371863172,"143":-0.16349365580479283,"144":-0.1752577652865546,"145":-0.1807920043255757,"146":-0.10636220432360867,"147":0.0773951173218669,"148":-0.12525848869636683,"149":0.23567513975140028,"150":0.07264907287367153,"151":-0.13935622677987117,"152":-0.28384365324929584,"153":-0.3144928103173658,"154":-0.33199683371295163,"155":-0.2578020714020288,"156":0.038472926098900476,"157":0.18262965489663424,"158":0.057550703499319254,"159":-0.1451527626560389,"160":0.04642068313504415,"161":-0.18558474145920348,"162":-0.28690460827660547,"163":0.2508958289008432,"164":-0.10096320014900567,"165":-0.004512826738868417,"166":0.12761445253307702,"167":-0.08442446302112298,"168":0.19329295335629137,"169":-0.2455332429565131,"170":-0.12657959005665614,"171":0.1021351182501072,"172":0.029422069832347766,"173":0.22059880269693732,"174":0.20165690691527643,"175":-0.021138741763100717,"176":-0.03152335910673599,"177":-0.5168487018214426,"178":0.255223040872433,"179":0.2920362273550185,"180":0.03026352118137278,"181":0.37435663755184734,"182":0.06004891202897764,"183":-0.17987733400477915,"184":-0.3079386754862747,"185":-0.054902328943119666,"186":-0.20710715441977712,"187":-0.4303994702948727,"188":0.08380538909308548,"189":0.3144984146394057,"190":0.0005059908187479789,"191":-0.2147385607878258,"192":0.13324622701626349,"193":-0.021924210865643425,"194":-0.6149588045332302,"195":-0.234722295733691,"196":-0.013169303832030091,"197":0.08992347163966963,"198":0.08053113105060719,"199":-0.09888140655582743}},{"sx":5,"sy":5,"depth":8,"w":{"0":-0.011492435653687858,"1":0.011946242627605897,"2":-0.5855815925515985,"3":-0.18000359361646975,"4":0.44671432888519597,"5":0.1772256075455963,"6":0.1130248542798703,"7":-0.19786661867207703,"8":0.2878788044684261,"9":0.16026474265761087,"10":-0.31869971500269445,"11":0.1416962603243596,"12":-0.08997773520581898,"13":0.0718937268318025,"14":0.07550140526330401,"15":-0.04249907460489583,"16":0.6016626360002509,"17":-0.08594572457760535,"18":-0.08287080861461969,"19":0.21898475314107874,"20":-0.08651309193528511,"21":-0.1727424162289285,"22":-0.46984586300193626,"23":-0.09381515472111732,"24":0.531040763850753,"25":-0.5204362409046253,"26":-0.08420006254944919,"27":0.04564644984404193,"28":0.10943980586578099,"29":-0.14414476758254277,"30":-0.8999435803872089,"31":0.0711389989233667,"32":0.5459162052767943,"33":-0.37461394558688393,"34":0.22746557524613661,"35":0.10739057279229762,"36":0.16844862802945973,"37":0.012576960001011345,"38":-0.5317523182710724,"39":0.19101688288449886,"40":-0.1528516363560177,"41":0.19465695623323226,"42":0.03349552221159395,"43":-0.28223018723959786,"44":0.30777297352851773,"45":0.1300766199556148,"46":0.2388284782997858,"47":-0.4248966928712474,"48":-0.0929202407489858,"49":0.013593404717015124,"50":0.0059578597330751755,"51":0.13185742270706943,"52":0.12878383132555005,"53":0.10475303851234823,"54":-0.16056285896627376,"55":-0.4119903017071437,"56":0.18633803105370086,"57":-0.38818525466735254,"58":-0.014268970133489189,"59":0.4100885619493998,"60":-0.10397661455007934,"61":-0.14968714764111557,"62":-0.4567551898439939,"63":-0.34223538593331443,"64":0.604530009477797,"65":-0.40408166770043724,"66":0.2037324820925504,"67":0.5860139382965586,"68":0.1763209506444564,"69":-0.44395397260671493,"70":-0.6258855535998462,"71":0.17965523307798648,"72":0.2752884725318995,"73":-0.26474383707164056,"74":0.5153178593962162,"75":0.6292756042921749,"76":-0.06630943533183745,"77":-0.3133141629574064,"78":-0.3445975101349049,"79":0.17562587118186357,"80":-0.1420680281775967,"81":0.45255105063140927,"82":0.543351058624935,"83":-0.12376847779044835,"84":-0.08147756536147377,"85":0.22606119295335037,"86":0.22074575431228674,"87":-0.25840628431799306,"88":-0.44846220970443545,"89":0.3362965183175339,"90":0.31460915908393267,"91":-0.3163117421797916,"92":-0.1945085691025984,"93":0.11223203781617265,"94":0.406910510611266,"95":-0.734880396560286,"96":-0.40556233849696893,"97":0.475861040610802,"98":0.24403142906520892,"99":0.044694467999241545,"100":-0.4061731486821078,"101":-0.15100068915549125,"102":0.3979789079606166,"103":-0.34428171433963145,"104":-0.21621712917810515,"105":0.5575815663142062,"106":0.425085738566802,"107":0.46982974933155763,"108":-0.243195720878941,"109":-0.16801443063716623,"110":-0.19126429541001702,"111":0.039698359591158874,"112":-0.042900862213178736,"113":-0.13169339749911993,"114":-0.002540341045394661,"115":0.21689214676041382,"116":-0.42002821271282514,"117":-0.16412613742141594,"118":0.007943582576699063,"119":0.06459539770182024,"120":-0.10629116411333381,"121":0.17611664231385457,"122":-0.10718164775841856,"123":0.5466722105801279,"124":-0.31078284553943997,"125":-0.007409467117588793,"126":-0.19315236169731625,"127":0.21490676814687756,"128":-0.05417331496671022,"129":-0.2562886976868707,"130":-0.09572468402982391,"131":-0.4548441457554405,"132":-0.17558146229744998,"133":0.36126679669518863,"134":0.012903558975236146,"135":-0.47259420098884564,"136":-0.24334375422871554,"137":-0.24337980624577035,"138":-0.32570927266881206,"139":-0.8992962862608016,"140":-0.32701048203270905,"141":0.1883116925293984,"142":0.5283089038046731,"143":-0.41517617796040746,"144":-0.22840543953551085,"145":0.05201243767088497,"146":-0.31347456729060635,"147":-0.5746393149852519,"148":-0.22117165462849864,"149":0.015707563684710282,"150":0.5805575471579731,"151":-0.37561992509018466,"152":-0.275464485435337,"153":0.23042060080520632,"154":-0.5554590418564408,"155":-0.32092154737715406,"156":-0.3596160360454399,"157":-0.026284324641813767,"158":0.6250153042273645,"159":-0.07590546800023641,"160":0.022244235570313808,"161":0.3577226332360714,"162":-0.08777978229554426,"163":0.2565106364821357,"164":-0.1387105759634912,"165":-0.23088852025066497,"166":-0.18159734721943294,"167":0.6665495717542472,"168":0.15148471643200415,"169":0.35352050139205005,"170":-0.18718114493902588,"171":0.3914238368935557,"172":-0.04944691678291223,"173":-0.1703512082400488,"174":-0.24397332937798868,"175":0.3409209018543739,"176":0.533480783531756,"177":0.14313640846884693,"178":-0.592588938586573,"179":-0.07960208139759253,"180":0.28281464798383626,"181":0.12224414111965987,"182":-0.3140058066716594,"183":0.1064196574049427,"184":0.35575661092739663,"185":-0.03901631287043791,"186":-0.45575195180248684,"187":-0.18366271710159676,"188":0.29849719957005283,"189":0.19551483017125143,"190":0.008322418354964204,"191":-0.376403420229109,"192":0.03707784893544844,"193":0.18528449995645846,"194":-0.5387259097091147,"195":-0.6670923207230257,"196":-0.08505835106514104,"197":0.1056963375758282,"198":0.6633891588334313,"199":-0.22091073357757288}},{"sx":5,"sy":5,"depth":8,"w":{"0":-0.3773666952159272,"1":-0.06239964082405796,"2":0.5208653981054653,"3":0.12203936548827662,"4":0.16806717476082114,"5":0.06254252275598668,"6":-0.15715310593550533,"7":-0.11726725151770022,"8":-0.3338143376167786,"9":-0.34102778718023774,"10":-0.19514590106170704,"11":-0.1388780914953735,"12":-0.07302194171870652,"13":-0.3613774984378787,"14":-0.4799206857851956,"15":-0.035905324785241895,"16":0.011025821198521775,"17":-0.6472169310704172,"18":-0.12927376920659103,"19":-0.31825138116518015,"20":-0.20181520067598147,"21":-0.18331742310846663,"22":0.0333670018849733,"23":-0.16686120171588983,"24":0.014093656402970237,"25":-0.5686467700639148,"26":0.05156575780621103,"27":-0.07660141807307046,"28":-0.06979292219249625,"29":-0.15868034695135166,"30":0.019403933306322396,"31":-0.38024913053787507,"32":0.3219000446428602,"33":-0.23414795688869727,"34":0.1007819690235939,"35":0.2556711978317369,"36":-0.12616175117824296,"37":-0.01008540699089594,"38":-0.4273173553016746,"39":-0.14235671194921917,"40":-0.40974075643501795,"41":-0.2047410175994325,"42":0.2674647286712382,"43":0.28162019866909793,"44":0.39754565811868137,"45":0.03224846044260993,"46":-0.3807845120230188,"47":0.08021054412306673,"48":-0.003421384047992269,"49":0.03987413960917635,"50":-0.028204903755681316,"51":-0.15878425695945816,"52":0.28283697867513996,"53":-0.06012814825073004,"54":-0.24370298321553793,"55":0.13154894675493928,"56":0.5235676280042645,"57":-0.18905482511568042,"58":-0.03086275363485495,"59":-0.2984643536925643,"60":-0.14257529309991185,"61":0.10746949651947982,"62":-0.23643554212093143,"63":-0.050237031764205124,"64":-0.025880122926817566,"65":-0.1789727991835857,"66":-0.06721894180759916,"67":-0.20303390412830757,"68":-0.07462891074996705,"69":0.03780498787206397,"70":-0.14020839183498787,"71":-0.3040256551434577,"72":-0.0785526174664945,"73":-0.26784670739569244,"74":0.1649866378297497,"75":-0.04002730352083537,"76":-0.2859400057303161,"77":-0.1855590964213359,"78":-0.4100305835942288,"79":-0.16015304100229344,"80":-0.18764344977090633,"81":-0.000026646794373723094,"82":-0.1078718813741425,"83":-0.4994812203868566,"84":0.6705900597195265,"85":0.2551053014348796,"86":0.21775730302881702,"87":0.616072929108464,"88":0.36230223379845244,"89":0.08105056141344434,"90":0.07661851804135018,"91":0.00718525528421378,"92":0.45954676265129324,"93":0.5860217517678322,"94":-0.396561356406998,"95":0.27154948514138266,"96":0.5190518211394867,"97":0.06247431476916945,"98":0.10986551850317165,"99":-0.13883333106496254,"100":0.014007962287452614,"101":0.15637222487387234,"102":0.33907213571986344,"103":0.218003880827657,"104":-0.17971160518941978,"105":-0.11065296615025827,"106":0.032617682880761,"107":-0.10659478264590735,"108":-0.025974238306939942,"109":0.03624763622035977,"110":-0.1009682193098844,"111":-0.2047668473479114,"112":-0.3093440674278287,"113":-0.2000657561839729,"114":-0.27485683362299845,"115":-0.0530418777739256,"116":-0.02951494632108777,"117":-0.06041742417148974,"118":-0.15212374864674297,"119":0.34059954537405307,"120":-0.023421672003231857,"121":-0.01974323847546182,"122":0.25251453728960116,"123":-0.6131787766406446,"124":0.43357591537732443,"125":0.3313339820642205,"126":0.1396697649653661,"127":0.30613850090224604,"128":0.22419104372670193,"129":0.3607668524651439,"130":0.37591659260452837,"131":-0.28460825578005616,"132":0.2683348621122719,"133":0.012889105217202754,"134":0.0443838012116203,"135":0.18863332473555794,"136":-0.036038800879629296,"137":0.1796224299496231,"138":0.10610807526585453,"139":-0.030361432653190315,"140":0.029287452092346705,"141":-0.14099797035523973,"142":0.06749701275542963,"143":-0.08836394728589428,"144":0.07381183782286074,"145":-0.2886054263851024,"146":-0.16133392610394756,"147":-0.06901923304788064,"148":-0.08019637093433421,"149":-0.3051490651196406,"150":-0.047883507574846704,"151":-0.16045124520961712,"152":-0.24481768835792275,"153":-0.3611781226595887,"154":-0.5634890314292655,"155":-0.5101200094543551,"156":0.40022605338956696,"157":0.19631237913104024,"158":-0.20251875224974378,"159":0.4597511694999036,"160":-0.013256623059903173,"161":-0.19561229057011145,"162":-0.3262910863416871,"163":-0.133285204905497,"164":0.30255940031189893,"165":0.24661248640891612,"166":0.07959145815884523,"167":0.15964968516317318,"168":0.4797459387237752,"169":0.1953152754329656,"170":-0.2160477697935571,"171":-0.18642897684951543,"172":0.23647444431401862,"173":0.20585266973472446,"174":0.06719452283422737,"175":0.16319238425696667,"176":0.2850314670843233,"177":0.3057876518148338,"178":-0.08418611069365926,"179":0.21579583369297442,"180":-0.07500894054733151,"181":-0.2173067541546563,"182":-0.28784397889236957,"183":-0.018526070195463033,"184":0.3323796245248848,"185":0.06205752525348786,"186":-0.2926377454688909,"187":0.06914645431600842,"188":-0.2275508808768882,"189":-0.24664873611551502,"190":-0.43819849407567235,"191":0.001018285758819688,"192":-0.1690918303485477,"193":0.18411254770044966,"194":-0.4911239652680862,"195":-0.02029795361955775,"196":0.2682859678291673,"197":-0.06749503254186018,"198":-0.24966144036110355,"199":0.1532066368028742}},{"sx":5,"sy":5,"depth":8,"w":{"0":-0.14733870896681256,"1":0.2440082997865742,"2":-0.5478105648691014,"3":-0.37749163352058407,"4":0.47461120112429245,"5":0.3689208465320593,"6":0.21150586274364092,"7":0.15364130513656948,"8":0.04562184093108628,"9":-0.19460681095514107,"10":-0.1351884582564494,"11":-0.34051279084130903,"12":0.020178223194957927,"13":0.18951386719739796,"14":0.10374164002774085,"15":-0.26616418352497323,"16":0.4221292963870904,"17":-0.3964051586228646,"18":0.016120019078439705,"19":-0.2948824161763459,"20":0.0647824596011854,"21":0.13210147079151874,"22":0.006264447262015319,"23":-0.24561516484830095,"24":-0.13921600061483116,"25":0.2559032475390683,"26":0.2474453492800253,"27":-0.25266016304645206,"28":-0.08801516995220816,"29":0.020648182169757025,"30":0.13075012600654845,"31":-0.20667208321712702,"32":-0.23471141051500358,"33":0.36190535816561475,"34":-0.1302868874017376,"35":0.005908822094940986,"36":-0.10412039378647236,"37":-0.48922137607045796,"38":0.04544013623377846,"39":0.186087405584785,"40":-0.18380008731274539,"41":0.11603919407352097,"42":-0.3925550041993839,"43":-0.4086907709995998,"44":-0.22871729393359694,"45":0.1256411333653858,"46":0.13000994467650773,"47":-0.04364131512118838,"48":0.15932347701025884,"49":0.3287975705142129,"50":0.21930394621662985,"51":-0.5155893232843877,"52":0.045882661727571626,"53":0.14628753511700282,"54":-0.10762309390539909,"55":-0.2231498712749429,"56":-0.07458910436880668,"57":0.6202595189557396,"58":0.5334527152111079,"59":-0.21192821469407153,"60":-0.05321747215847288,"61":0.34654469716395175,"62":-0.009145965430608664,"63":-0.42101795156973665,"64":-0.1615352281932657,"65":0.564834061599358,"66":0.45702786730780953,"67":0.09316889146501851,"68":-0.19859818297727969,"69":0.15375952038548207,"70":-0.19101233777503968,"71":-0.1582022151225266,"72":-0.20465381630074075,"73":0.3448408307073466,"74":0.46340564449075744,"75":0.39691993477787774,"76":-0.029860024184227396,"77":0.058661111365932585,"78":-0.11913548723890784,"79":-0.0675186422726352,"80":-0.011766338531236214,"81":-0.14860449135259,"82":0.05021938414265175,"83":-0.10046914126617039,"84":-0.028677413298983424,"85":0.19112918086273295,"86":-0.18399746387759186,"87":0.04061844241112011,"88":-0.21031403504364019,"89":0.08400722969872518,"90":0.25195632368947735,"91":0.08360597383720324,"92":-0.01945455409289601,"93":0.0385745421407578,"94":0.011862901277207405,"95":-0.3803691667659841,"96":-0.20185266164467947,"97":0.30677304420522905,"98":0.1190122284489616,"99":-0.17839054836944934,"100":-0.2294229271280712,"101":0.17179463730817596,"102":-0.1292512581441021,"103":-0.5448770710011461,"104":-0.014066364285566393,"105":-0.2930351436439628,"106":-0.00740655955677739,"107":-0.014505905710958908,"108":-0.058805392911387463,"109":0.05670622404417784,"110":-0.11686091620321935,"111":-0.44069569123618735,"112":0.08990580061360753,"113":-0.34215859997574066,"114":-0.05295105065071433,"115":-0.013461929484468727,"116":0.00489731626117487,"117":-0.30427590826074685,"118":-0.14026660708221494,"119":-0.14027734133013728,"120":0.4155312530136212,"121":-0.6016804335155975,"122":-0.0946452732774845,"123":-0.10809844932893618,"124":0.41291695999702543,"125":0.21526410376738572,"126":-0.02565383330466489,"127":0.1545418590096935,"128":-0.24387079541557255,"129":-0.2488848321774893,"130":-0.023124014817308768,"131":0.22026831022605062,"132":0.19443337809273512,"133":0.12140518131768778,"134":-0.23663070694471688,"135":0.023686192474712424,"136":0.040464434108007694,"137":-0.3995546090707618,"138":-0.27065690865618053,"139":0.2949874420505176,"140":0.1386247921134119,"141":0.4282509105017367,"142":-0.2328895307578008,"143":0.21327753371298158,"144":-0.03757116991080973,"145":-0.2904452866178298,"146":-0.35623462226484987,"147":0.06374481691773842,"148":-0.06781387775648835,"149":-0.03166069421365633,"150":-0.2781195161787897,"151":0.029368322251155383,"152":0.25002718566521576,"153":-0.20875083244731424,"154":-0.2650869713580157,"155":0.026713556533373355,"156":0.14346959658285685,"157":-0.010520277674842631,"158":-0.24910721544035527,"159":0.07558015195560466,"160":0.6877597637604587,"161":-0.5475881218435876,"162":-0.05403826052057769,"163":0.08265825375415452,"164":0.09712525872365446,"165":-0.0554810004387878,"166":0.29336673867284135,"167":0.07042866171761007,"168":0.4712354413875265,"169":-0.19315709729840147,"170":-0.14478799491221378,"171":0.2914186876932256,"172":-0.0321948327215016,"173":-0.2572866744221125,"174":0.009987066996937561,"175":0.42950304244666854,"176":0.33517343824773077,"177":-0.2613940507381372,"178":-0.048587320853222926,"179":0.016883743692119705,"180":0.14848412375760908,"181":-0.04763309444432054,"182":-0.19796439478897856,"183":0.6877391001056252,"184":0.1266729855223101,"185":-0.27781878996508547,"186":0.20563652162038915,"187":-0.01752517349055894,"188":0.2782451995233069,"189":0.2070021593040468,"190":-0.08287029828322551,"191":0.460798652126394,"192":-0.14427274567352655,"193":-0.05223410008850272,"194":0.10573055152140758,"195":-0.05416088172443582,"196":0.18508513029957432,"197":0.00781269701703483,"198":0.1789685010821931,"199":-0.030083564834219496}},{"sx":5,"sy":5,"depth":8,"w":{"0":-0.1917856219478696,"1":-0.39732304507724453,"2":-0.03198749994352421,"3":-0.23232200957160323,"4":0.24290994442916164,"5":0.01671279681724761,"6":0.16058959282208318,"7":0.1617014336273482,"8":-0.20544796879408697,"9":-0.15477046086879614,"10":0.019183635832789193,"11":-0.16260015858362867,"12":-0.031511725337409056,"13":-0.09171866374503598,"14":0.14829892304393938,"15":-0.1705787133255028,"16":-0.21232582188101626,"17":0.1113252423378475,"18":0.0576650925093322,"19":-0.1774962290077409,"20":-0.06238812972457391,"21":-0.3254653964555761,"22":-0.02531867505518902,"23":0.1158190694162848,"24":-0.24502360529685036,"25":0.22674366674365437,"26":0.2398806936197475,"27":0.015176329999481963,"28":-0.26060229152784264,"29":-0.32211016030851897,"30":0.11869162004763724,"31":0.2007969562260962,"32":-0.17848749646550688,"33":-0.14951409821191947,"34":-0.00020293509890910162,"35":-0.08583771662385092,"36":-0.24926955390820102,"37":0.1831583769718191,"38":0.313706777367631,"39":-0.1166119231781467,"40":-0.03797514392197624,"41":-0.25268292761784533,"42":-0.19801559565843085,"43":-0.2094847326181526,"44":0.2945814982393715,"45":0.013840883063554415,"46":0.03498602718285378,"47":0.09023449182971092,"48":-0.21446728608246862,"49":-0.27242829527936624,"50":-0.28915511975682995,"51":-0.4623087357877174,"52":0.12453508291022779,"53":-0.04169130352595863,"54":0.0396801085393315,"55":-0.061624532180153506,"56":-0.25408226951539054,"57":-0.15297636554475194,"58":-0.14394734652222263,"59":-0.028054603488537423,"60":0.20160133512449904,"61":-0.3279897103367921,"62":0.32583558579445293,"63":0.3730426758764366,"64":-0.12503628281947443,"65":-0.34896938897336177,"66":-0.04550290083976225,"67":0.27632136009943825,"68":-0.12643640605695555,"69":-0.3648053870680144,"70":0.21078729563612306,"71":0.10199335339664618,"72":0.10902156317244756,"73":-0.4728160761706963,"74":0.09395096054363497,"75":-0.09531016974690681,"76":0.14819112612225094,"77":0.5257482420499467,"78":0.0885845048776043,"79":0.012741094084940115,"80":0.035763277975955854,"81":-0.4043247917934662,"82":0.12751705031826194,"83":-0.28297954419590027,"84":0.2105855375864187,"85":0.26649057824142625,"86":0.01770862060656801,"87":-0.27886389015798735,"88":-0.020877635249989455,"89":-0.08669596356940298,"90":0.1690855755355992,"91":-0.22458013881401134,"92":0.3481184619728048,"93":0.12184185046080312,"94":0.25374101154714535,"95":-0.09973161819564899,"96":0.18224267792109072,"97":-0.18496729126536401,"98":-0.1114222536754061,"99":-0.09347336925770337,"100":0.37309197555470486,"101":-0.12605659093361302,"102":0.44362815966201213,"103":0.39111638377931074,"104":0.35106086828495736,"105":-0.3062299023990844,"106":-0.27629651347313305,"107":0.17114831886828438,"108":0.35104470483908845,"109":-0.04604371633658166,"110":0.15593821320468815,"111":0.33823950733195307,"112":0.3236848812624526,"113":-0.4715611347930697,"114":-0.41424901397227093,"115":0.27468741018355913,"116":0.2815137834663638,"117":0.22890794193461694,"118":-0.08791096706327628,"119":0.178507974562165,"120":-0.11001369583730229,"121":-0.39404659938955366,"122":-0.015012363429340536,"123":-0.17512269275283954,"124":0.22697276912471162,"125":0.358453233197697,"126":-0.005590376700886154,"127":-0.34878810313994457,"128":0.05504526400803415,"129":-0.04696171378987434,"130":0.09352726984563432,"131":-0.21403878374860874,"132":0.14304517572623504,"133":0.20382356956891726,"134":0.2150128715708103,"135":-0.32800862514653917,"136":0.10011668673147618,"137":-0.22864639416677854,"138":0.036081621879694686,"139":-0.4765265831328116,"140":0.0952413374298625,"141":0.44969297622864607,"142":0.18422896258931928,"143":-0.039720772824108956,"144":-0.09212965366788385,"145":0.08327049975867944,"146":-0.8705997694454679,"147":-0.2752335023466585,"148":0.11356585513259627,"149":-0.12911073611220486,"150":0.05518970903819946,"151":0.1684821924673854,"152":0.14025599140618583,"153":0.2881783947790474,"154":-0.5981026042967432,"155":0.06137369909843012,"156":-0.07666630213121738,"157":-0.23250497693857097,"158":-0.23326716266157468,"159":0.22268775430647034,"160":-0.1694206181269912,"161":-0.1445556409234225,"162":-0.33603668454098296,"163":-0.1109919215879983,"164":-0.11423678110057289,"165":-0.14518849713357138,"166":-0.3312222450919844,"167":-0.20663448589693287,"168":0.08179764490280338,"169":0.24009143220460932,"170":-0.07793359123745418,"171":-0.17910515433382543,"172":-0.0666039000988124,"173":-0.12784122807442622,"174":0.09541901960768463,"175":-0.2761747895606149,"176":0.07466374279241239,"177":0.11276073578551528,"178":-0.1687074759870514,"179":-0.240368982919009,"180":0.07063676200801623,"181":0.1577334901815194,"182":0.2038296640656348,"183":-0.1135629375509673,"184":-0.2220542961045879,"185":0.08870275359362297,"186":-0.3735717965385252,"187":-0.03931548894065936,"188":0.06974084621760802,"189":-0.38616753774159196,"190":-0.008238638978325014,"191":0.055149289022700124,"192":0.005294843460211821,"193":0.0840318613309937,"194":-0.20325667848117213,"195":0.419494131848499,"196":-0.15207190365063766,"197":-0.3106209818010456,"198":0.03956042517220821,"199":-0.04304009952197608}},{"sx":5,"sy":5,"depth":8,"w":{"0":0.05321730853615023,"1":-0.4746040717554325,"2":-0.3268463161541094,"3":-0.040720619430878256,"4":-0.002322743265321712,"5":-0.016001530124626778,"6":0.17653694292750913,"7":-0.05037516190924678,"8":-0.2963825395936283,"9":-0.1481034285548021,"10":-0.045128863435448634,"11":-0.22498943533105575,"12":-0.025659560799857217,"13":0.006128591158948977,"14":0.3295765331307145,"15":-0.15526201113845658,"16":-0.34162496091301725,"17":-0.32214416427011583,"18":0.18151065969492924,"19":-0.45805328671881995,"20":0.10418597298365255,"21":0.1456953669680003,"22":0.3855356373135278,"23":0.044753321068173896,"24":0.4132783554677021,"25":-0.20911950349182534,"26":0.08085766436647272,"27":-0.1780545828276633,"28":-0.00042227852309454424,"29":0.14713572572723088,"30":0.37503921959726527,"31":0.541250445941256,"32":0.2125010534664906,"33":-0.3580237572593165,"34":0.21506525714122723,"35":-0.30919622948211833,"36":0.02387849873204358,"37":0.1846996402461191,"38":-0.015286008362621813,"39":0.5576895361499346,"40":0.0837680453643482,"41":0.3273588640527893,"42":-0.2162145160793948,"43":-0.1000110468710038,"44":0.00971431462649828,"45":0.12505517147389592,"46":0.15654189936611482,"47":-0.4065964194103282,"48":0.020226590469353902,"49":0.04938429872218527,"50":0.07329535207726158,"51":-0.18149909101966638,"52":-0.13341361449466574,"53":0.10782229833792337,"54":-0.2574263759763586,"55":-0.42979426156528694,"56":0.3401558223118933,"57":-0.021740158652039678,"58":0.19575884819376246,"59":-0.16610266428754947,"60":0.39710255258650684,"61":0.11322042874872983,"62":-0.0619338008458341,"63":0.16602130526791034,"64":0.20983831558511723,"65":-0.1519718853980978,"66":0.05561790731411262,"67":-0.07885619263181835,"68":0.2804635450126027,"69":0.21528647525632968,"70":0.10509155519919067,"71":-0.08913650370062509,"72":-0.021460078318959252,"73":-0.24193828164133604,"74":-0.44699689229277234,"75":-0.03465129045069933,"76":-0.14475350387267233,"77":-0.31282036162718496,"78":-0.08402974784973344,"79":-0.09540175221270909,"80":0.11129111862077955,"81":-0.012271505680124086,"82":1.1102267946400548,"83":0.30359831440190427,"84":-0.3201752079863729,"85":0.19297194685013702,"86":0.030815755035883154,"87":-0.09915626770238567,"88":0.013294363274542918,"89":-0.1682313625534772,"90":0.3605509158073838,"91":0.1839123493508124,"92":-0.3013492260321779,"93":0.08376984017610137,"94":-0.3426245271003878,"95":-0.15548032668500086,"96":0.4133672859472228,"97":-0.0257256072785312,"98":0.4676784547431276,"99":-0.14919206307036303,"100":-0.05289653829162727,"101":-0.1388819775964345,"102":-0.031143761973982876,"103":-0.16822141341291183,"104":0.41675631370922894,"105":0.17027127740010406,"106":0.34308378727037253,"107":0.09266287227909113,"108":-0.02932848770418736,"109":-0.2142479814667952,"110":0.1209139978501943,"111":-0.0411475816626312,"112":0.3276712000010426,"113":-0.04278597484248165,"114":-0.6089396188418551,"115":0.22185429936254933,"116":-0.3916285812015846,"117":-0.30720740270288016,"118":-0.270859022658712,"119":0.11127484366294989,"120":0.36460206395603023,"121":-0.1273004341125033,"122":0.013309533408714772,"123":-0.11015636089856105,"124":-0.3128499266324827,"125":-0.3407420379184201,"126":0.0575470227463744,"127":0.08992435333703244,"128":0.028509251479162896,"129":0.10977107013584612,"130":-0.012869244787621976,"131":-0.02305006280116857,"132":-0.36708687966240844,"133":-0.2544967349700477,"134":0.11122661705626109,"135":-0.20185880825481956,"136":-0.26128491625547184,"137":0.057696298033863454,"138":0.09822073031154557,"139":-0.25633819276246084,"140":-0.37071380550444694,"141":-0.17049938347894655,"142":0.024862386914389464,"143":-0.5540915706087288,"144":-0.15204331544778693,"145":0.1838042324231473,"146":0.1628097400234106,"147":-0.15254415566346682,"148":-0.17427710114808687,"149":-0.0397295526231781,"150":-0.2918522957719725,"151":-0.2646454033187253,"152":0.00502606533445587,"153":0.16426629296739947,"154":-0.13298590320668208,"155":-0.12091077503195717,"156":-0.12321090134466386,"157":-0.059692254428017656,"158":-0.25102172053256994,"159":-0.04525292349288234,"160":-0.3740208977235473,"161":-0.1547337486665134,"162":-0.21406623692490806,"163":0.02413909694135058,"164":-0.23475362117526705,"165":0.20168857092406733,"166":-0.44810378811814244,"167":0.24913878480420895,"168":-0.18860598253742028,"169":0.054938422103140136,"170":0.06626670126764261,"171":0.2830350357751556,"172":-0.18223216090688313,"173":0.04262516931632321,"174":-0.011625946040279377,"175":0.26098468051261264,"176":-0.517485395014706,"177":0.25927347255536276,"178":0.08854315245041613,"179":-0.0753643212450501,"180":-0.45254739661775667,"181":-0.28850863056506676,"182":0.27734705075980437,"183":-0.04610621944052211,"184":-0.4224702632211252,"185":0.22992376709299367,"186":-0.11991697595195913,"187":-0.3831190159681658,"188":-0.13725824498867217,"189":-0.28325147947489965,"190":0.2580708287435354,"191":-0.22167596931842928,"192":0.1519021607503142,"193":0.38436103567515856,"194":-0.04506423289155703,"195":-0.18506713745141357,"196":-0.0018375998537379235,"197":-0.05356790959111434,"198":0.07818614631863688,"199":0.09777986641565072}},{"sx":5,"sy":5,"depth":8,"w":{"0":0.3162359740617164,"1":0.5585717597124499,"2":0.48859412134646074,"3":-0.1709436948306028,"4":0.37812908198456946,"5":-0.029141670559232502,"6":0.4576400907743828,"7":-0.364513922990079,"8":0.11941444178210826,"9":-0.02348660780863967,"10":0.19665895635029182,"11":-0.056716946061272554,"12":0.5533280804482118,"13":0.401188336450793,"14":0.1645107016195655,"15":0.048972266528255606,"16":-0.1059660272165187,"17":0.25081339148854487,"18":0.376544932128013,"19":0.08591016129774198,"20":0.4670611814198369,"21":-0.04634986513923323,"22":-0.16956725040717,"23":0.3388301121245462,"24":-0.30484584164582657,"25":-0.02596518816352277,"26":0.22993745430214627,"27":0.06048177815960675,"28":-0.028077754281240694,"29":-0.42210164768275993,"30":-0.3759530948196817,"31":0.28154926525359353,"32":-0.5672770848112377,"33":0.03523082374764391,"34":0.17098355715277203,"35":0.29391835822022616,"36":-0.029441506408518517,"37":-0.08240254747743642,"38":-0.15169939877554606,"39":0.35785686152583235,"40":0.12707553488391798,"41":-0.3474048496878022,"42":0.43089109597104513,"43":0.08272246204805016,"44":0.12283246041475646,"45":0.13921842932307696,"46":-0.18022698424660133,"47":-0.12037926551391732,"48":0.3828137848519228,"49":-0.285917717497837,"50":0.4578822641712349,"51":0.25835062710652745,"52":0.1898727923256622,"53":-0.0582259543274236,"54":-0.022278252359743147,"55":-0.05020968882497995,"56":-0.012779388355019869,"57":0.08270075502627798,"58":0.552534114716797,"59":0.20004604327209685,"60":-0.12447270842769015,"61":0.01019047676298999,"62":-0.14721614828021534,"63":0.015892478623354436,"64":-0.10339662534941543,"65":-0.10551016599227622,"66":-0.07439024778134296,"67":0.13775563228669702,"68":-0.19432864295991534,"69":-0.21443600457370113,"70":-0.29782070929057475,"71":-0.09238171943194909,"72":-0.14555165891237223,"73":-0.34989421082658223,"74":-0.2835435682153562,"75":-0.08179649024934044,"76":0.0003370041605818777,"77":0.07445191839347425,"78":-0.20913159059606584,"79":-0.1304516343908704,"80":-0.43738327431585333,"81":0.1566259437864195,"82":-0.2175701632248536,"83":0.12210248890956818,"84":-0.2964471910334942,"85":-0.15733567703324497,"86":-0.10449715994686987,"87":-0.08061959732989402,"88":-0.31142871035356273,"89":0.0640367402556875,"90":0.15645962378295308,"91":0.23272413301932604,"92":-0.373734494631886,"93":0.0016866002935599516,"94":-0.21330675357293108,"95":-0.3108822696372255,"96":-0.6148304252848948,"97":0.0515740741497593,"98":0.14876001190980823,"99":0.31848702564148196,"100":-0.5334204500189607,"101":-0.1764494146708329,"102":-0.07286495399571975,"103":-0.46082192359596935,"104":-0.4583463489508703,"105":0.02818082590482833,"106":-0.21019064184282565,"107":0.24863583750133628,"108":-0.4004464928502665,"109":-0.12717245557719978,"110":-0.21841334859568667,"111":-0.33304316076087825,"112":-0.137075350753187,"113":-0.13349003005600193,"114":-0.6573806341809839,"115":-0.19083783602255963,"116":0.051944978808903926,"117":0.08215886439138444,"118":-0.30701009725264744,"119":-0.020713613671556583,"120":0.10218199497481437,"121":0.141029276853711,"122":0.008752615198879534,"123":-0.0837991095726573,"124":-0.029071389856167657,"125":0.09695881742022958,"126":0.24420787036713293,"127":0.8719205176916579,"128":-0.5385936427154617,"129":-0.02342512667460592,"130":0.11233970295564293,"131":0.1811144136058956,"132":-0.24880304848134652,"133":0.1401134582907284,"134":0.10283516548447523,"135":0.3544489163094713,"136":-0.6313866816507986,"137":-0.07310227645848752,"138":0.37928429346823916,"139":0.14780209197467542,"140":-0.2503808178564432,"141":-0.07405904684196991,"142":0.17388690571118595,"143":0.16762481043349053,"144":-0.3438598221321207,"145":0.01436765936585848,"146":0.18984240599763566,"147":-0.27900823550496456,"148":-0.09613928399546337,"149":-0.09357163688862861,"150":-0.005300620909309815,"151":-0.22170446545388933,"152":-0.16727921304219892,"153":0.040938775906908684,"154":-0.09386485902430536,"155":-0.2112054979648252,"156":0.12678177222978476,"157":-0.026259641831782216,"158":-0.16563912963665095,"159":-0.23812456618771066,"160":0.186059556189456,"161":-0.15760836757603391,"162":-0.32573523376039965,"163":-0.1814234071693745,"164":-0.04795804992549604,"165":-0.022826602041959954,"166":0.07147256157463147,"167":0.31802967788203657,"168":0.062280152341972345,"169":-0.09953673849017519,"170":-0.04305881364349286,"171":-0.4387790529907852,"172":0.13519767170220884,"173":0.4061102226373675,"174":0.2558909842885083,"175":0.42332136571276274,"176":-0.316765352324308,"177":0.2992915054623777,"178":0.298789081509238,"179":-0.27825150688572464,"180":-0.13017464551256072,"181":0.0696086714167747,"182":0.13305156585560227,"183":0.33170691100461774,"184":-0.36704476623922305,"185":0.2407833313923203,"186":0.29630362772427654,"187":-0.31981558445254027,"188":0.09208435522967569,"189":0.017879791533087025,"190":-0.005761891446871514,"191":-0.07621958875839516,"192":-0.11325653514915827,"193":0.618310285724639,"194":-0.22914578003924585,"195":-0.32646768569086826,"196":0.0017980694567903536,"197":0.09972914963162025,"198":-0.03594749219532305,"199":-0.1655002113761777}}],"biases":{"sx":1,"sy":1,"depth":16,"w":{"0":-0.12496214092663005,"1":-0.8690026616178967,"2":-0.6157933778453261,"3":-0.6163434558750801,"4":-0.6866970318849881,"5":-1.2221745558921562,"6":-1.0060680160185267,"7":0.11232697893257443,"8":-1.12245145687295,"9":-0.7001173223933167,"10":-1.161921325908056,"11":-0.9302878545110764,"12":-1.4163999314323983,"13":0.009308023580908145,"14":-0.39135013791523,"15":-1.4858361642442026}}},{"out_depth":16,"out_sx":12,"out_sy":12,"layer_type":"relu"},{"sx":3,"sy":3,"stride":3,"in_depth":16,"out_depth":16,"out_sx":4,"out_sy":4,"layer_type":"pool","pad":0},{"out_depth":10,"out_sx":1,"out_sy":1,"layer_type":"fc","num_inputs":256,"l1_decay_mul":0,"l2_decay_mul":1,"filters":[{"sx":1,"sy":1,"depth":256,"w":{"0":-0.37613396024153417,"1":-0.10878615985144559,"2":-0.7221028901294433,"3":-0.5390443147535283,"4":-0.06178644966236844,"5":-0.5453846054002373,"6":-0.4016691647658158,"7":-0.43651110679899646,"8":-0.047873168684464236,"9":-0.012993261465212735,"10":-0.009911753338153959,"11":-0.13303129664450994,"12":-0.08112375473889692,"13":-0.5156502900329706,"14":-0.010427509888281518,"15":-0.04637846806664167,"16":-0.532381685700919,"17":-0.19773427686448883,"18":-0.8024299923051796,"19":-0.8857764362042516,"20":-0.4504909206818125,"21":-0.5627092928486912,"22":-0.7514297651989019,"23":-0.5523057959060561,"24":-0.31700714665008756,"25":-0.23177652317572306,"26":-0.601180776820306,"27":-0.5179756657679089,"28":-0.25597115576410495,"29":-0.5389277688078192,"30":-0.3063145518656508,"31":-0.3586206105548214,"32":-0.7169116305714776,"33":-0.1205889191275305,"34":-0.3920760331047612,"35":-0.6253671633782439,"36":-0.5779416953928331,"37":-0.17644950436556844,"38":-0.8459521663351284,"39":-0.41402044573903213,"40":-0.4520705985372704,"41":-0.6129471496447031,"42":-1.2981398752963147,"43":-0.8429589516683427,"44":-0.11271321561509648,"45":-0.41805911638001353,"46":-0.6607448293851593,"47":-0.32094371485091744,"48":-1.0036532496538346,"49":-0.03999512216510427,"50":-0.18250249156648168,"51":-0.32933862601545233,"52":-0.22190977488054417,"53":-0.08599516587683977,"54":-0.13220391744408494,"55":-0.5414450365119928,"56":-0.16471580676081882,"57":-0.4546362802907667,"58":-0.8140621795858334,"59":-0.627422831441766,"60":-0.052872155180184836,"61":-0.05231016463110931,"62":-0.5163556626315814,"63":-0.07396924871441998,"64":-0.09482639446486395,"65":-0.04202807351547353,"66":-1.1494931000554591,"67":-0.5652716797914781,"68":-0.30939968574071663,"69":-1.09460541809441,"70":-0.3934725351942795,"71":-0.28473735082571144,"72":-0.44134395064863174,"73":0.07942170143177837,"74":-0.20095391876361493,"75":-0.09109436097732841,"76":-0.39025696332998266,"77":-0.3561200590586321,"78":-0.45699050124799073,"79":-0.30074674829903963,"80":-0.2046611448781173,"81":0.11877485628180938,"82":-0.9212382106985323,"83":-0.5295570639055356,"84":-1.0706368011650105,"85":-1.1463788345137544,"86":-0.6013290683757324,"87":-0.5228144867791578,"88":-1.163639225931315,"89":-0.11287404059538646,"90":-0.5272933943311857,"91":-0.41236401298141495,"92":-0.7930766950979578,"93":-0.7283303949401474,"94":-0.4952385357541798,"95":-0.7888855878594397,"96":-0.41853995903162544,"97":-0.4194587568776991,"98":-0.43084556806950747,"99":-0.3154323522862446,"100":-0.8243040208529795,"101":-0.2465877370913696,"102":-0.7165458713168293,"103":-0.21806675682263726,"104":-0.7882453046757949,"105":-0.9351606617120253,"106":-1.1803001872970742,"107":-0.6336587969428419,"108":-0.48791989650432616,"109":-0.7175573058341577,"110":-0.7801553164428594,"111":-0.6715487176720588,"112":-1.1913346637504405,"113":-0.25225808232564884,"114":-0.41078084838408907,"115":-0.4808028604265696,"116":-0.24549711241902217,"117":0.01874518812567575,"118":-0.38807758586660857,"119":-0.7699525944617944,"120":-0.7749049088978299,"121":-0.8652241228214199,"122":-1.078861927535735,"123":-0.06432796706994313,"124":-0.2143166041502659,"125":0.23224704197026047,"126":-0.8591282739303372,"127":-0.7584177121624284,"128":-0.3397063789438693,"129":-0.1550910683192267,"130":-1.4965256733147827,"131":-0.8701303376257562,"132":-0.4254620021290343,"133":-1.1339018964640413,"134":-0.7240091423207355,"135":-0.34562858214934705,"136":0.06764231862139287,"137":-0.08480245122153354,"138":-0.2594489187987221,"139":-0.04045585637534413,"140":-0.3702275749286375,"141":-0.47002192287353156,"142":-0.5801874346185436,"143":-0.441636916700781,"144":-0.06372678822893908,"145":-0.4028426693457748,"146":-0.8374268500276634,"147":-0.8470001561068252,"148":-0.9638460404063167,"149":-0.9455575561778091,"150":-0.5188465982408751,"151":-0.4700422935756561,"152":-0.7913902953358192,"153":-0.43377437996236107,"154":-0.6052330745120414,"155":-0.3968851822099983,"156":-0.6849241100014115,"157":-0.6685892260012735,"158":-0.561165246239142,"159":-1.0957265111482828,"160":-0.2604326349462358,"161":-0.8059889423608909,"162":-0.5224689310853162,"163":-0.4458829635186721,"164":-0.8838387526514234,"165":-0.21416573488708376,"166":-0.3873620488797734,"167":-0.21116094324207543,"168":-0.7602028714991613,"169":-1.133148572127635,"170":-1.0292272306767678,"171":-0.6616301101993589,"172":-0.6708040462603663,"173":-0.5514104665674506,"174":-0.5371550275606787,"175":-0.6222127371518308,"176":-0.5453770356525224,"177":-0.13097371256431445,"178":-0.5465147239408719,"179":-0.47702511222043237,"180":-0.3785778178486229,"181":-0.26617871189285613,"182":-0.20348419237681847,"183":-0.6406520636637628,"184":-0.8874309027554179,"185":-0.8420089429284321,"186":-0.8256908126375593,"187":-0.41338268332409756,"188":-0.2739173255676655,"189":-0.09752480975370223,"190":-0.6434361542610515,"191":-0.5929813635686241,"192":-0.03232783307431591,"193":-0.4308923483718137,"194":-1.5478805897866852,"195":-0.291854904573209,"196":-0.7423813980981335,"197":-0.9407546538135344,"198":-0.11604535749277216,"199":-0.2788218584216319,"200":0.00269227660701504,"201":-0.07601899231709273,"202":-0.3535738302539494,"203":0.04189012995421349,"204":-0.6882745748345291,"205":-0.2309292013923856,"206":-0.3116249256951507,"207":-0.03454626542331994,"208":-0.1012080811029963,"209":-1.1275997001253097,"210":-1.3018816786090182,"211":-0.43659612793123054,"212":-1.2923191691027018,"213":-0.760184322224643,"214":-0.3489962261159067,"215":-0.22211172662913972,"216":0.039281910844298155,"217":-0.6317647346896595,"218":-0.776782494925943,"219":-0.29479751117463815,"220":-1.054316217182835,"221":-0.3178931022188687,"222":-1.2146674445660304,"223":-1.0948144223275567,"224":-0.8581678263526239,"225":-1.068295898613079,"226":-0.752921358838326,"227":-0.11925845743126476,"228":-0.8913883670162206,"229":-0.6921921625448184,"230":-0.22274097557468095,"231":-0.20207497240877917,"232":-0.2279091153826394,"233":-1.0084309017032287,"234":-0.4529567594449781,"235":-0.7280469011909803,"236":-0.8070840381159716,"237":-0.2758335553844411,"238":-1.2298646999152274,"239":-0.5636733513563329,"240":-1.2209129574883886,"241":-0.5477344515150588,"242":-0.17303167522716936,"243":-0.2046787464462625,"244":-0.2621305244326894,"245":-0.44657807785216946,"246":0.05122991421584789,"247":-0.4265485220376602,"248":-0.37921198660605165,"249":-0.4554622444898779,"250":-0.30084088785410523,"251":-0.4711912983771694,"252":-0.10453165364797488,"253":-0.426724219644616,"254":-1.2251758437416898,"255":-0.6011502130040355}},{"sx":1,"sy":1,"depth":256,"w":{"0":-0.7787372361879547,"1":-0.06844324229273623,"2":-0.5403980739091283,"3":-0.6487478002126429,"4":-0.07008828839900431,"5":-0.001360605437502758,"6":-0.38291074978878925,"7":-0.4383474008493282,"8":-0.0763979045845526,"9":-0.007793331226425247,"10":-0.09185293459920607,"11":-0.042012655274834505,"12":-0.05569039501430271,"13":-0.49692919907207517,"14":-0.31573920915083337,"15":-0.20484527399771138,"16":-0.48425017739670506,"17":0.05723926665717114,"18":-0.7110565325995887,"19":-1.0895249399545903,"20":-0.2558230374185918,"21":-0.02383559909610662,"22":-0.6384872139460236,"23":-0.1633891737003508,"24":-0.0013164301389464446,"25":-0.27564386874749386,"26":-0.8336925804144565,"27":0.014734248968955851,"28":-0.35707240969332377,"29":-0.7870948257551088,"30":-0.6735230853217871,"31":-0.33105714729166563,"32":-0.20192388892231572,"33":-0.14384363659316238,"34":-0.3754742202180537,"35":-1.1229894612218232,"36":-0.4734300304481104,"37":-0.12987054573434387,"38":-1.0643042184753362,"39":0.015435376939961606,"40":-0.36873911011515326,"41":-0.4806371445053719,"42":-1.7089301163729473,"43":0.27330346884258166,"44":-0.6365736150870385,"45":-0.38957333838497876,"46":-0.5552974695550258,"47":-0.2090245260999937,"48":-0.4348291266722816,"49":0.022588178229053905,"50":-0.2421523803769558,"51":-0.5921089142918547,"52":-0.11534076029414624,"53":-0.06291335505441709,"54":-0.3942948079121973,"55":-0.6807809118876548,"56":-0.1782104286857903,"57":-0.1577523149312223,"58":-0.9588578086073847,"59":0.06253094693844218,"60":-0.2269870617191022,"61":-0.3384660663181255,"62":-0.31829700983295256,"63":-0.17474820682780215,"64":-0.5331806827226722,"65":-0.018052446708515756,"66":-0.9522294203468983,"67":-0.546885364402277,"68":-0.3681756083564249,"69":-0.9611993691570846,"70":-0.47173497023774685,"71":-1.0474313744248311,"72":-0.4311915024771393,"73":-0.03370755704076759,"74":-0.11863463159937807,"75":-0.26247306959998057,"76":-0.3075974563516285,"77":-0.7595508606133927,"78":-0.31884607371033663,"79":-0.2762477229783596,"80":-0.11779885526131618,"81":-0.20993919067027556,"82":-0.6712201895670292,"83":-0.35926269489252277,"84":-0.9280765819793304,"85":-0.6955078157013077,"86":-0.6085462364206725,"87":-0.24636800277437837,"88":-1.1180961060626444,"89":-0.2692420619376336,"90":-0.4954551030894844,"91":-0.46976376859241886,"92":-0.7737654860983579,"93":-0.7435321203512413,"94":-0.6024731193304006,"95":-0.6076050638522865,"96":-0.13329262097617983,"97":-0.24213145437328049,"98":-0.1475702045273093,"99":-0.4263712919708773,"100":-1.1184097248459601,"101":-0.43522689707541784,"102":-0.5923308799139252,"103":0.06736280882881357,"104":-1.26480603001655,"105":-0.9880047398745,"106":-1.248130268531995,"107":-0.3406203119616331,"108":-1.0302137036225378,"109":-0.6443412158465875,"110":-0.7158133960925871,"111":-0.415313873416899,"112":-0.6394959606748397,"113":0.180964775326717,"114":-0.3624755906471324,"115":-0.4173157099285792,"116":-0.4883968926385797,"117":-0.4232097046967441,"118":-0.28585820897628716,"119":-0.771823270926841,"120":-0.41006146525793247,"121":-0.8214022751314413,"122":-1.0394016306686993,"123":-0.47071906125464535,"124":-0.40815786820389194,"125":-0.6639708750235583,"126":-0.6951139496823626,"127":-0.33525251533396067,"128":-0.2916134354966609,"129":-0.30083050326068234,"130":-0.9084309946122824,"131":-0.29633495973489277,"132":-0.5256404477460809,"133":-1.4933529560613983,"134":-0.4210951698807957,"135":-0.8335396167482958,"136":-0.44326264286384837,"137":-0.05349841158118345,"138":-0.2701593171892382,"139":-0.0006631716275741836,"140":-0.4189012136599601,"141":-0.54479460301879,"142":-0.30919159612628727,