{"layers":[{"out_depth":1,"out_sx":24,"out_sy":24,"layer_type":"input"},{"sx":5,"sy":5,"stride":1,"in_depth":1,"out_depth":8,"out_sx":24,"out_sy":24,"layer_type":"conv","l1_decay_mul":0,"l2_decay_mul":1,"pad":2,"filters":[{"sx":5,"sy":5,"depth":1,"w":{"0":-0.10040887802344026,"1":-0.03615386444774229,"2":-0.28366322469362,"3":-0.13509406495522655,"4":0.32078294748343367,"5":0.2122736929636798,"6":0.1068349737487667,"7":-0.6751904646874092,"8":-0.21079993972424438,"9":-0.08495326334302913,"10":0.23402724135292627,"11":0.3517035438976099,"12":-0.21915817926746253,"13":-0.3503695982094729,"14":-0.38855495703532184,"15":0.39493780250481003,"16":0.3814608087493417,"17":0.05391927026562814,"18":-0.22295347635186422,"19":0.06304780849509858,"20":-0.2846684945208879,"21":0.49691917091424564,"22":0.48569401061425116,"23":0.009342459593367738,"24":0.103021501985677}},{"sx":5,"sy":5,"depth":1,"w":{"0":-0.5873943489380387,"1":0.07149893876317205,"2":0.21011237307508449,"3":0.006058219712199836,"4":0.5809379760338296,"5":-0.8502538833345936,"6":-0.6034964225211479,"7":0.15235654438488355,"8":0.1934004926810837,"9":0.41897148065691586,"10":-0.19247187444827346,"11":-1.1540966336360219,"12":-0.7336761627417197,"13":-0.27301959339207277,"14":0.033870048082648936,"15":0.3875983533094398,"16":-0.22010126353321222,"17":-0.47125974143677135,"18":-0.7123940523730891,"19":-0.4046012526224172,"20":0.33206554547034417,"21":0.2879655640997156,"22":-0.16025241917184394,"23":-0.2359771961043369,"24":-0.40962949091116224}},{"sx":5,"sy":5,"depth":1,"w":{"0":0.3327951743349036,"1":0.4798216184987598,"2":-0.06993271549243635,"3":0.47440384550484166,"4":0.5247307221714708,"5":0.29531208903820266,"6":0.028669654294096722,"7":0.44473998988411045,"8":-0.06136859231720946,"9":0.18554780072938898,"10":-0.1220942720359701,"11":0.0589737499013486,"12":-0.11146380420840266,"13":-0.22737362257557675,"14":-0.1909302524176788,"15":-0.6465270447163887,"16":-0.5007368821096296,"17":-0.9854783642224624,"18":-0.8630254625357966,"19":-0.4630220854260097,"20":-0.33613737897298757,"21":-0.6091810780049713,"22":-0.27211967820843774,"23":0.24603139730710785,"24":0.1256030971052646}},{"sx":5,"sy":5,"depth":1,"w":{"0":0.12897041431311157,"1":-0.09451950836606905,"2":-0.13727592900717484,"3":-0.5347338153903765,"4":-0.2912931875441559,"5":-0.17465801322872024,"6":-0.13734598576500504,"7":-0.006032926080120579,"8":-0.061287495130451314,"9":0.007519349010208816,"10":0.28238355042770885,"11":0.1883463604436015,"12":0.777203827309213,"13":0.49191841936221886,"14":-0.1161651750819787,"15":0.19254397702702186,"16":0.200926723341984,"17":0.002473180758464772,"18":0.35997119325400684,"19":0.0057008997564109,"20":-0.16333399910812474,"21":-0.569253916863925,"22":-0.3454925045616737,"23":-0.04572242388988673,"24":0.30509163806671347}},{"sx":5,"sy":5,"depth":1,"w":{"0":-0.1893129907132422,"1":0.2941519010496562,"2":0.1235920925136142,"3":0.3769558720051593,"4":0.39342553887544546,"5":-0.4097788851910138,"6":-0.38615669890069587,"7":-0.042799606567583345,"8":0.06655412300710296,"9":-0.038062571718331,"10":-0.5092457522426332,"11":-0.4780517570043012,"12":-0.9270327446676121,"13":-1.0218769065576139,"14":-0.7807591912144929,"15":-0.3723966693170256,"16":-0.20430629907988684,"17":-0.04464923215272983,"18":0.052280756606446425,"19":-0.09046958632465922,"20":0.16383823131964576,"21":0.3108529843298657,"22":0.3249855146975015,"23":0.5812144358014079,"24":0.4738060601652359}},{"sx":5,"sy":5,"depth":1,"w":{"0":-0.06418395864295391,"1":0.34230950742309224,"2":-0.2314683776182147,"3":-0.6955805508743317,"4":0.31657453475393216,"5":-0.16088646631890832,"6":0.4543821353019644,"7":-0.023823564577397937,"8":-0.35638243325478014,"9":-0.0629247358802328,"10":-0.17590502901379657,"11":0.194826067304351,"12":0.8486331404242546,"13":0.17958558434931496,"14":-0.035533089826541644,"15":-0.7439947846486019,"16":-0.48030714776616507,"17":-0.10002071060967817,"18":-0.0076021712835384805,"19":-0.012575611544057211,"20":0.031100041799730704,"21":-0.18533491670976493,"22":-0.2638618180452459,"23":0.14292895158971458,"24":-0.1380459044323519}},{"sx":5,"sy":5,"depth":1,"w":{"0":-0.3292499341547278,"1":0.16850878412580836,"2":0.37515949879595956,"3":0.2222389537957791,"4":-0.17482672114940795,"5":-0.2838202896284395,"6":-0.01752320115109565,"7":0.2921172420971263,"8":0.21688140486382598,"9":-0.565939391861338,"10":-0.22455699748558106,"11":0.2289747248264277,"12":0.6592643554148648,"13":0.14396379291293904,"14":-0.8256646499482487,"15":-0.15740596021239844,"16":0.5250655715281192,"17":-0.0799301067431149,"18":0.18848286150588703,"19":-0.9445647310502833,"20":-0.04858426764869983,"21":-0.08076578351970098,"22":-0.366555521088921,"23":-0.35595347463487065,"24":-0.8858068321475977}},{"sx":5,"sy":5,"depth":1,"w":{"0":-0.19220002609821735,"1":0.04651243035583686,"2":-0.1648472265562122,"3":0.10989443038332734,"4":0.3933749577230882,"5":-0.3621270449183984,"6":0.18585770038287774,"7":0.3451850563571378,"8":0.21542886127567315,"9":-0.10533266510800716,"10":-0.035450262107003215,"11":0.23635887024338953,"12":0.3336649181512433,"13":-0.2647933063209061,"14":0.004640731315298114,"15":-0.11728456082922954,"16":-0.24482589645686895,"17":0.07414203031679133,"18":-0.01424095374978906,"19":0.004557952386164823,"20":0.12562785378006394,"21":-0.08010790890160562,"22":0.3836548434796903,"23":-0.147779006788006,"24":0.27437673182365124}}],"biases":{"sx":1,"sy":1,"depth":8,"w":{"0":-0.2126206066741179,"1":0.3339351573263482,"2":0.07527171321816817,"3":-0.23518446354945313,"4":-0.10024112763827739,"5":-0.026363037073585456,"6":-0.026561176230278528,"7":-0.42330642145146447}}},{"out_depth":8,"out_sx":24,"out_sy":24,"layer_type":"relu"},{"sx":2,"sy":2,"stride":2,"in_depth":8,"out_depth":8,"out_sx":12,"out_sy":12,"layer_type":"pool","pad":0},{"sx":5,"sy":5,"stride":1,"in_depth":8,"out_depth":16,"out_sx":12,"out_sy":12,"layer_type":"conv","l1_decay_mul":0,"l2_decay_mul":1,"pad":2,"filters":[{"sx":5,"sy":5,"depth":8,"w":{"0":0.18973376438060252,"1":0.03337715248835507,"2":-0.037405566020765946,"3":-0.1494189632101209,"4":0.12695983784450776,"5":-0.09295241983431303,"6":-0.002365375235687589,"7":-0.06114077853622824,"8":-0.024968435565113144,"9":-0.21638358781587827,"10":0.012044522112172181,"11":0.13666323323337426,"12":0.1764494352806603,"13":0.2622751613786379,"14":-0.23317914644519708,"15":-0.09035597592369651,"16":0.2482403383949069,"17":-0.26742815561730365,"18":-0.3827055322033197,"19":0.21510138632242157,"20":-0.09966382765004957,"21":0.19717785518186723,"22":0.04524789644394391,"23":-0.10241940607029126,"24":-0.09418952057848226,"25":-0.21595317232315459,"26":-0.2889360870377977,"27":-0.010590301465389185,"28":-0.14973018189192477,"29":-0.006570150973295825,"30":0.10551415338837238,"31":0.013000609202888756,"32":-0.05603355785987311,"33":-0.30828689414452004,"34":0.13129049689001313,"35":0.38185166619905947,"36":-0.10318914063354093,"37":0.31018618491002425,"38":0.26962578931563685,"39":0.3208871106099712,"40":-0.03778461149332972,"41":0.09946736084599478,"42":0.21529272888279694,"43":-0.15732091852628965,"44":-0.1919106853062946,"45":-0.14897420148690535,"46":0.20070323839922416,"47":0.07685082733039987,"48":-0.1004486537157858,"49":-0.12023408268976961,"50":0.07857012648911216,"51":-0.06150030079590955,"52":-0.16795620765947186,"53":-0.3814652583202942,"54":-0.0644391837222459,"55":-0.03741908475122471,"56":-0.1367274729814003,"57":-0.09741399636683779,"58":-0.11708458292671667,"59":0.27445779683059196,"60":-0.3223171093990662,"61":0.21275383574731638,"62":-0.11701525896676045,"63":0.2536713034544923,"64":0.2274402885528716,"65":0.10457884479725009,"66":-0.30794244101279644,"67":-0.1999804428805405,"68":-0.19586960630646855,"69":0.22338718270622726,"70":-0.33767415440254145,"71":0.08188509725177706,"72":0.24754366044788362,"73":0.024300478295895184,"74":-0.3500303158218171,"75":0.14114641888944082,"76":0.1910532449311205,"77":0.13736251637002928,"78":-0.11534876661580018,"79":0.24669236010993345,"80":-0.2180122085563206,"81":-0.20849394373629876,"82":-0.13876339735043916,"83":-0.3085187879176693,"84":-0.30006344459351963,"85":-0.12461570968311292,"86":0.13149091577962702,"87":0.11683544823938398,"88":-0.03962228179035582,"89":0.054027018452503996,"90":0.27021039079329584,"91":-0.14776024209103492,"92":-0.02433178299586773,"93":-0.04412764883725714,"94":0.04445579717997342,"95":0.07192634949381128,"96":-0.0817503724581247,"97":0.020220344622539587,"98":0.2805177243253462,"99":0.04616172278313161,"100":0.03278270076422354,"101":0.21153632413389042,"102":-0.29592560922469435,"103":-0.059562662135150574,"104":0.10974839319581964,"105":-0.07790843653108484,"106":0.06743823274329323,"107":0.09405000667892262,"108":0.14609116269464345,"109":0.7026513524970619,"110":-0.4333713185970594,"111":-0.13215142019382028,"112":0.1339012709197756,"113":-0.5128852602429257,"114":-0.2881785243776535,"115":0.7007584997092401,"116":-0.1731216295534313,"117":0.4726210373087312,"118":-0.3009439985348713,"119":0.09987696756960769,"120":-0.27289718350529113,"121":-0.18216610089418506,"122":-0.061192649756306325,"123":-0.17910491124259245,"124":-0.32710660661716834,"125":0.04170781838410955,"126":0.30453674428721506,"127":0.14998303340927632,"128":0.0321315408484699,"129":-0.20853132864687732,"130":-0.11539231387159311,"131":-0.017081660968972914,"132":-0.12685059792182957,"133":-0.13046943550427173,"134":-0.2381422478018881,"135":-0.2707260232717668,"136":-0.196283372596014,"137":-0.09808259711874887,"138":-0.03850131167267505,"139":-0.2382920108335528,"140":-0.09919271564117646,"141":0.06459310538784152,"142":-0.18352484544631112,"143":-0.0305592502929035,"144":-0.18782085391489942,"145":-0.04309486552787752,"146":0.20046093774713103,"147":-0.020943827622225297,"148":-0.031347797529200444,"149":-0.25415917110090946,"150":0.08279366310035684,"151":0.09948750403432896,"152":-0.347767277217807,"153":-0.20606554978764005,"154":0.057678257106175135,"155":0.17736053665010415,"156":-0.09419109280964534,"157":-0.11891041705467713,"158":-0.3350822774243617,"159":0.03530328397318552,"160":-0.4184310980621757,"161":0.07664972897728908,"162":-0.0032289605900545264,"163":-0.03648886147874957,"164":-0.34353027058330615,"165":-0.03145186151992244,"166":0.18151803258404098,"167":-0.0912703323779236,"168":-0.2708330810619907,"169":-0.2825967359420734,"170":0.07223332810239781,"171":-0.048817343313256115,"172":0.15488429020559694,"173":0.18936629957968293,"174":0.18701472276555864,"175":-0.06015873595604439,"176":0.14020665584567982,"177":-0.2289089617441073,"178":-0.12912183070840072,"179":-0.29603817298622154,"180":0.43727544298239435,"181":-0.18009715026656875,"182":0.5978973702026421,"183":0.24381665136620229,"184":-0.004163831617916277,"185":-0.4033440079734253,"186":0.10079002451028811,"187":-0.12877265798972443,"188":0.4744168639587646,"189":-0.07045559699743523,"190":0.2204740149973412,"191":0.009529784185956045,"192":-0.03678935994634244,"193":-0.6861171714941069,"194":-0.02411628139979026,"195":-0.13565206937153496,"196":0.3552275884337717,"197":-0.28394906674912934,"198":0.21662019313095104,"199":0.21048793032087523}},{"sx":5,"sy":5,"depth":8,"w":{"0":0.4424952815676525,"1":0.13500111179136876,"2":0.08841715133195495,"3":-0.06129417516026166,"4":-0.12830563401673847,"5":0.06561537975380262,"6":0.35376266377791665,"7":0.17377047344624072,"8":0.31612732717647857,"9":0.021081235975155974,"10":-0.09909254235529719,"11":0.034274094687466075,"12":-0.14290296994738363,"13":0.09631922600842693,"14":0.24294538273051683,"15":-0.3404795289096264,"16":0.09035378251832729,"17":-0.0011500285924197651,"18":-0.12533935493262924,"19":-0.07385053329254754,"20":-0.0699931052720516,"21":0.06521158315430975,"22":0.1289443642793676,"23":-0.4626577361405798,"24":0.02681666381594972,"25":-0.17682763827494158,"26":-0.21341948415802148,"27":0.02407399927114563,"28":0.18620713044413775,"29":-0.08510826412342597,"30":0.3308827040805386,"31":-0.3852722558682948,"32":-0.01197688000167322,"33":-0.08235758048106213,"34":-0.16081178631318452,"35":-0.05488240682161298,"36":0.05224072215527534,"37":0.03741443560620825,"38":0.42753689829926766,"39":-0.20216502049319685,"40":0.1843593054409565,"41":-0.06377480131358666,"42":-0.2859343349480468,"43":-0.222284264742211,"44":-0.284090541542166,"45":0.2644605396556408,"46":0.3358349202149481,"47":0.2140897305570509,"48":0.2709244182656756,"49":0.051953924407294606,"50":-0.17386988674595663,"51":-0.3923146804472244,"52":0.13469936840678967,"53":-0.19783841928384704,"54":0.16692698916628393,"55":-0.1734055543814259,"56":-0.10459296464582762,"57":-0.5675617661839822,"58":-0.10533405113805555,"59":-0.19252123534219073,"60":0.24283595635063854,"61":0.10960741326548024,"62":0.3382610382652193,"63":-0.07488761031212579,"64":-0.021822540149428773,"65":-0.308469823798462,"66":-0.10564426325750229,"67":-0.04793975755163118,"68":-0.16157351886313912,"69":0.15439664440293158,"70":0.38531414769260747,"71":0.24962915502423622,"72":0.020493566897259598,"73":-0.38765045525619307,"74":-0.0031639263270170745,"75":0.02181307248057906,"76":-0.08983213743550608,"77":0.06397236749302361,"78":0.49056970619275736,"79":0.061052385549833256,"80":0.0940329805706274,"81":-0.234510991116479,"82":-0.5435743079523568,"83":0.1466151743150495,"84":-0.15574254349842323,"85":0.33817908643093647,"86":0.07321118454341904,"87":0.14480487973614906,"88":0.33478778266277076,"89":-0.3660580138292382,"90":-0.3329475961934514,"91":-0.22837753457819024,"92":0.016684180247358932,"93":0.0788837073778361,"94":0.10700520772854048,"95":-0.13292135102552016,"96":-0.0920824199842799,"97":-0.605348295593952,"98":-0.16675450530517286,"99":-0.009882363968567886,"100":-0.21342190833267846,"101":0.13784291093506365,"102":0.34676074254436945,"103":0.1460940181263,"104":-0.023820081763371283,"105":-0.4316069400084895,"106":0.03154920854340599,"107":0.19656468656504697,"108":-0.2880213320064617,"109":0.10505231698038386,"110":0.4238889280755546,"111":0.14955409144407142,"112":0.06572839494007879,"113":-0.4040070812427885,"114":0.06381207491678016,"115":0.24340497425574117,"116":-0.021497778715900535,"117":0.07288271052502865,"118":-0.03131417106535408,"119":-0.04111434633052412,"120":-0.1778565022819173,"121":-0.21056498008324248,"122":-0.29582673439587787,"123":0.13403106845562324,"124":-0.23341477221025658,"125":0.2090974858492716,"126":-0.3061266524618043,"127":0.05061575547633289,"128":0.10435300424783325,"129":-0.2659173509429832,"130":-0.6731265798055684,"131":0.003006584386152266,"132":-0.5130619460289736,"133":0.23568654563987543,"134":-0.23759215182096963,"135":0.274633221764592,"136":0.039132615506826875,"137":-0.3808404960538393,"138":-0.3867170087986739,"139":-0.05198701197348987,"140":-0.1657063941065004,"141":0.058989374175768404,"142":-0.03821704618836926,"143":0.2728172090283676,"144":0.20728292303646675,"145":-0.633138372382366,"146":-0.004968378750393432,"147":0.2846047060631164,"148":0.09710832657257841,"149":-0.00015853896388324433,"150":-0.17961461654004737,"151":-0.042448809381081774,"152":-0.21540956240467748,"153":-0.3152933109096798,"154":-0.1154001220262393,"155":0.2527643794692283,"156":0.16215106894368897,"157":0.004645663684572486,"158":0.11976706472858598,"159":0.05533065449937236,"160":-0.3143278105492024,"161":-0.03511112869608926,"162":-0.020603881660958844,"163":-0.152407888295577,"164":-0.21416447743955286,"165":-0.10269492351964464,"166":-0.26064012337387255,"167":0.04520197089942674,"168":0.24691740599992257,"169":-0.03192864795657725,"170":-0.16658935820945547,"171":-0.004851251316834554,"172":-0.2132994326455307,"173":0.07057202591459324,"174":-0.35424274059080424,"175":0.1959546902943144,"176":0.24728827366389688,"177":-0.156648788946449,"178":-0.1404849087019468,"179":0.3446364146784449,"180":-0.0896998954460223,"181":0.09865594603515676,"182":-0.733687179589325,"183":-0.11604805872750516,"184":0.12945955808390341,"185":-0.44457168353408155,"186":-0.03159032503713129,"187":0.42381326029899125,"188":0.27327598449877577,"189":0.20860067130794083,"190":-0.1673760756154997,"191":0.12168763764220712,"192":-0.16790876212204944,"193":-0.49022399110417464,"194":0.03520135433464479,"195":0.11913977449599124,"196":0.3534644908722351,"197":-0.09360465948423044,"198":0.32795752151711577,"199":0.3310583894303395}},{"sx":5,"sy":5,"depth":8,"w":{"0":0.2629659823090907,"1":0.15278343014906573,"2":0.1196050338858975,"3":0.20047215799762502,"4":0.04289153449239132,"5":-0.07296737963163602,"6":-0.03706158576519171,"7":-0.2996002985383747,"8":0.28538317593177426,"9":0.39832683903164,"10":0.04815317517708666,"11":0.13011334548486594,"12":0.09756377026285463,"13":0.151120238065637,"14":-0.004460627643095478,"15":-0.3944563112038457,"16":0.2591002383122308,"17":0.2571229448295792,"18":-0.19878493303979983,"19":0.10209278227508777,"20":0.014867647924229226,"21":0.1839731042455008,"22":-0.2204414317855552,"23":-0.24384552453097175,"24":0.3153230572839765,"25":-0.22948285859382772,"26":-0.5164256614419427,"27":0.05357013880863562,"28":-0.25758039463358884,"29":0.2804985481230414,"30":-0.35099439777037084,"31":-0.17987372770844692,"32":0.20975223118876155,"33":-0.6669307394767061,"34":-0.48384986371022926,"35":0.2350176058865276,"36":0.05337577774657352,"37":0.10446394102085876,"38":0.049200744648874,"39":-0.12533809641449523,"40":0.06480047853795044,"41":-0.08934586461492876,"42":0.30428771960148143,"43":0.3068967320120125,"44":0.014005154919639905,"45":-0.06586280054097425,"46":0.09577646843572032,"47":-0.18848602165057743,"48":-0.19718612080188946,"49":0.016811754389110253,"50":-0.022064082396379418,"51":0.03419074844999244,"52":0.35826807723711884,"53":-0.08893587581270958,"54":-0.28719135418595043,"55":-0.47504130180812676,"56":-0.009409572502141106,"57":-0.6609428457787098,"58":-0.5178908838718013,"59":-0.20572347628485005,"60":0.3927280653912689,"61":0.027053821971837005,"62":0.005951988842547645,"63":-0.22226120654911724,"64":-0.12254032864699402,"65":-0.5043316269339365,"66":-0.17843156875261776,"67":0.24203085271545807,"68":0.202104240224743,"69":0.005625242477827927,"70":-0.11277848780938782,"71":-0.05231435170645964,"72":0.02676144257952713,"73":-0.23720297415702743,"74":-0.014651212670456779,"75":0.7036123821972875,"76":-0.05538768719130374,"77":0.17906354573876657,"78":-0.29628859049897077,"79":0.12839409740486762,"80":-0.1526192216155899,"81":-0.2237372459378505,"82":0.33944906212125686,"83":-0.1044251398544315,"84":0.2748059631146785,"85":-0.059865083589078764,"86":-0.057135835501098915,"87":-0.23650352680825715,"88":-0.30478046931572156,"89":-0.6327803576845745,"90":-0.19144034848494126,"91":-0.3938328945920692,"92":0.16869674761278555,"93":-0.22933955142788062,"94":0.2097368937668967,"95":-0.2535428864206682,"96":-0.4156266890389812,"97":-0.9447646793179464,"98":-0.15061779198301084,"99":-0.06976980978943742,"100":-0.26230187240808256,"101":-0.4621087624505169,"102":-0.16120720561927704,"103":0.13812656327873396,"104":-0.18505642164333025,"105":-0.724691042336066,"106":-0.13149187787500896,"107":0.3469418739826029,"108":-0.42581306981442246,"109":0.034201369604546214,"110":-0.1553132579506796,"111":0.12029390652049038,"112":-0.020923344662518484,"113":-0.08720740810371022,"114":-0.02036922136997179,"115":0.1929840809400069,"116":0.03473311435837024,"117":0.20710855817732324,"118":-0.21418376990311797,"119":0.3286074096230257,"120":-0.2853076890705872,"121":-0.054039571704627844,"122":-0.054283407135891845,"123":-0.04835870422082453,"124":-0.37935702383360387,"125":-0.1857118988536497,"126":0.14097832830011855,"127":-0.009930306912900913,"128":-0.13901026448110007,"129":-0.229543050374458,"130":-0.1346405877543875,"131":-0.41248133218036864,"132":-0.6030417434360059,"133":-0.35148429653651864,"134":0.1600439112209679,"135":0.2957604696462337,"136":0.056557913125563,"137":-0.4148471015159079,"138":-0.27413130545456793,"139":-0.03733923366445186,"140":-0.38072511180922075,"141":0.08698347394827374,"142":-0.0035377206395137565,"143":0.40942097760479684,"144":0.2827775623035439,"145":-0.016714855324619454,"146":0.02339817806605738,"147":0.10690298539835391,"148":-0.15881987206317427,"149":0.08526502941501599,"150":-0.04079440083686942,"151":-0.15626665501811687,"152":-0.01777564722136687,"153":-0.089708427153119,"154":-0.01766615653124991,"155":-0.02844618185781649,"156":0.13362140855887092,"157":0.06540009986897032,"158":0.28324650233531956,"159":-0.14858405711269726,"160":-0.10418297764162893,"161":0.12988277229176318,"162":-0.2899234092480286,"163":-0.29889325404657646,"164":-0.491312432028861,"165":-0.07374151323223141,"166":-0.04215586111120419,"167":-0.131180182781319,"168":0.31717452567112847,"169":0.03813613127054021,"170":-0.12850981992735142,"171":-0.10991942618027975,"172":-0.24704719194942032,"173":0.07461764582008897,"174":-0.07651651158665307,"175":0.13903694331606997,"176":0.5360354100848688,"177":-0.10659286387374765,"178":-0.0292678011563378,"179":0.2566609641619995,"180":-0.2585793314073403,"181":0.39831822208103135,"182":-0.15876866682556298,"183":-0.09283871559259954,"184":0.32278853025395443,"185":-0.054176707299144346,"186":0.23814305281971998,"187":0.22421796787451342,"188":0.07961138806264126,"189":0.3446482951364597,"190":0.01845265148971196,"191":-0.1936352526194816,"192":0.12921872696208445,"193":0.1505792161143101,"194":0.2809097285467511,"195":0.2037354230028402,"196":0.2048920312822091,"197":0.3623605232249876,"198":0.3579897610732545,"199":-0.0035518414339923052}},{"sx":5,"sy":5,"depth":8,"w":{"0":0.03918062088480578,"1":0.12726328242210563,"2":0.465708658899705,"3":-0.19203785169561802,"4":0.6520205795784977,"5":0.04664268615271693,"6":-0.34786526755279806,"7":-0.1306453926705291,"8":-0.3140045975982651,"9":0.17010053228460345,"10":0.18124736031727529,"11":-0.15150697806032723,"12":0.2040615435983662,"13":0.2186609284481734,"14":-0.16317170783963478,"15":-0.1130618211298734,"16":0.02485230647575463,"17":0.1754080952432892,"18":0.18869898535638288,"19":0.1097008576051968,"20":0.13400232759403935,"21":0.22223287277385798,"22":-0.12116267986113483,"23":-0.14610374209216434,"24":-0.07189654513839479,"25":0.27209627990938584,"26":0.1919620143237917,"27":-0.03168613257963171,"28":0.07750790197910504,"29":0.07872705724359756,"30":-0.058803492536444374,"31":-0.22149375953552214,"32":-0.32344187677589026,"33":0.13512858415207682,"34":0.05702984279776329,"35":-0.2436548158582428,"36":-0.08824768144779867,"37":-0.15251560559071867,"38":-0.11970086540751773,"39":-0.2802152880530548,"40":0.002968752768341418,"41":-0.02478771997291684,"42":-0.33421413484078377,"43":0.2001810416658639,"44":0.1594401362886901,"45":-0.2619341291198186,"46":-0.45186482171450093,"47":-0.226554189521745,"48":0.05507798004230406,"49":0.11270614658092412,"50":-0.1619307337747868,"51":-0.009212998877326403,"52":0.2562172107970567,"53":-0.08118348018059338,"54":-0.34868820685602103,"55":-0.3480934956417274,"56":-0.02052098989487081,"57":0.28961748636981377,"58":-0.017403261299641645,"59":0.0712698392726553,"60":0.23648649795561363,"61":0.046682157693805404,"62":-0.41194068101221454,"63":-0.4248086979923654,"64":-0.13803108183356377,"65":0.2021032362983662,"66":0.09443892353148606,"67":-0.12391742330344266,"68":-0.061486187331071154,"69":-0.1105884786674109,"70":-0.4518954261447836,"71":-0.44201475994876227,"72":-0.10815884273724638,"73":-0.014283464414615319,"74":-0.271597791879701,"75":-0.25510522296335725,"76":-0.13448382383827512,"77":-0.17995215640993853,"78":-0.2942472283197905,"79":-0.5179574397549729,"80":-0.17663643974689888,"81":-0.3823092316263995,"82":-0.06157131672233327,"83":0.050471677698287816,"84":0.028432111467456056,"85":-0.20866217223390285,"86":-0.07042254471855602,"87":-0.12548722572793905,"88":-0.1413808971364074,"89":-0.30193619367991964,"90":0.0546604116773932,"91":0.18435937007688413,"92":0.1779771978521782,"93":0.047673717812208555,"94":-0.13828874020153792,"95":-0.2074272297808126,"96":0.06280411258531017,"97":0.05602926414343695,"98":-0.12628725334803237,"99":0.06739689886250143,"100":0.03642854444953966,"101":0.1118583415215472,"102":-0.3804355230008576,"103":-0.22983751513230938,"104":0.19120642985419883,"105":0.12263544294008846,"106":-0.21383499562684052,"107":0.031522766255168054,"108":0.012664219872323579,"109":0.07294280913477089,"110":-0.3877263786532945,"111":-0.3997857189177921,"112":0.1091073661239371,"113":-0.10743147958167759,"114":-0.4536208156385863,"115":0.04695843007279237,"116":0.09448383714025627,"117":-0.12172810215692219,"118":-0.21622123993613013,"119":-0.48691861591109614,"120":-0.011358337793159135,"121":-0.17003335963976782,"122":-0.02804204525825955,"123":-0.0367766440926306,"124":-0.06030598309302278,"125":-0.12264484398906024,"126":-0.02852627568876311,"127":-0.17276093009372961,"128":-0.0614034734539946,"129":-0.0030605468287738568,"130":0.07626250563239723,"131":-0.04028531247069915,"132":0.13212355860849834,"133":-0.012839749750496956,"134":0.035810559129046717,"135":-0.18657870173460187,"136":0.13166595200699532,"137":-0.01236185221060855,"138":0.009559644252447522,"139":-0.0026113480021835436,"140":-0.09377298175935479,"141":0.08683508121759323,"142":-0.10199723222936798,"143":-0.11821033987939847,"144":0.18985145481911112,"145":0.23573445639295362,"146":-0.13772532452624317,"147":0.062227173797708764,"148":0.043245264922602396,"149":0.01961721259457623,"150":0.025781575330483884,"151":-0.1437642157645264,"152":0.15147696972239633,"153":0.12609450684856757,"154":-0.36116988268785283,"155":0.0621458751280898,"156":0.332574511387261,"157":0.03697810620733292,"158":-0.3852560793904396,"159":-0.14585682072505923,"160":-0.09555802890836318,"161":-0.015734527734012616,"162":-0.04080658812813239,"163":0.05544449457109323,"164":0.1586855311795264,"165":0.04797494576543213,"166":0.055821580617569866,"167":-0.015726141258441,"168":0.1540329563664167,"169":0.05413973696067969,"170":-0.21865620625246832,"171":-0.08542061319929972,"172":0.12294886621316087,"173":-0.0010324017213924597,"174":0.18637722572418777,"175":-0.24692149365004012,"176":0.06961607266992823,"177":-0.021029985889958497,"178":-0.0015898516442755409,"179":0.08477040729351883,"180":0.03972641664670193,"181":0.15152929728980635,"182":0.08060586694630043,"183":-0.1399179977857292,"184":0.04559555698896836,"185":-0.05668185191923144,"186":0.0034553598653985903,"187":0.1607741424400043,"188":-0.05452987335104602,"189":0.1821474487610146,"190":0.17790037485751342,"191":-0.24658223169637847,"192":-0.042107517752800076,"193":0.2753596325194139,"194":0.049716376833244084,"195":0.24820424955621587,"196":-0.1277928823546535,"197":0.15412308824726142,"198":-0.38128230565017757,"199":-0.1393953284762952}},{"sx":5,"sy":5,"depth":8,"w":{"0":-0.20705178721132683,"1":-0.248877015043596,"2":0.22417370028075886,"3":0.0701463648217961,"4":-0.2839716615006792,"5":-0.14420596479528774,"6":-0.07114362077561123,"7":0.22482368302100983,"8":-0.24270293573374097,"9":-0.22182120112077902,"10":-0.1199024246648542,"11":0.021610324946830718,"12":-0.1618722172217957,"13":-0.1466273867009908,"14":0.03750332632061136,"15":0.2329948890881178,"16":0.02777652407466135,"17":-0.2521800109313154,"18":-0.43013027985575936,"19":-0.3352982890495846,"20":0.1822555281011861,"21":-0.12082882056123742,"22":-0.03169712677314553,"23":0.11708346309776757,"24":0.05087622483523055,"25":-0.1399883073247409,"26":-0.6442894113330914,"27":0.05326327155803085,"28":0.23346654726745422,"29":-0.1602658341545188,"30":-0.0036997810680557248,"31":-0.06350321450228213,"32":-0.17392789094231004,"33":-0.16059941852795817,"34":-0.12264284565661633,"35":0.05347341825077974,"36":0.10634820459554012,"37":-0.014329067284254145,"38":0.20351561807951982,"39":-0.06881277863772084,"40":-0.12725186028952662,"41":-0.05029341820142296,"42":-0.07397046627032601,"43":-0.1367055814965989,"44":-0.06477865700753799,"45":0.07679134951883268,"46":0.03611736633552753,"47":0.07344632423795504,"48":-0.38525377937346783,"49":-0.2096748585285757,"50":-0.32855971984267485,"51":-0.04550617744287535,"52":-0.27001053209822345,"53":-0.09312840727479356,"54":-0.1638515383969992,"55":0.21276522486171562,"56":-0.1538444057376236,"57":-0.28983889760624404,"58":-0.36547210660466894,"59":0.054880166878901876,"60":-0.16495114434832503,"61":-0.08730122356314417,"62":0.21733016324541973,"63":0.08468976728492121,"64":0.1623695467403015,"65":-0.10356216633168605,"66":-0.14596701409382304,"67":0.08218222617410927,"68":-0.030408344381443297,"69":0.03688851831161838,"70":0.0828895835933754,"71":0.10948921703120919,"72":-0.10823126727170658,"73":-0.15464646682797947,"74":0.04687504954981606,"75":0.03656534113893535,"76":0.052825652813984096,"77":0.07154624169695879,"78":0.18720707213378693,"79":0.015040931052584123,"80":-0.22634375767256962,"81":0.10688403757860136,"82":0.02900537069186735,"83":-0.0985526333599138,"84":-0.04504469524922239,"85":0.06849352143338022,"86":0.030868932835664636,"87":0.03965329030632192,"88":-0.36894136114861104,"89":-0.051409799036295396,"90":0.01755443721123502,"91":-0.03493337669936001,"92":-0.27482545760487065,"93":0.002973325862340154,"94":-0.40096896935167264,"95":0.21032975921248254,"96":0.006773174028972944,"97":-0.3290047573848768,"98":-0.23092097469779593,"99":0.14996235815998094,"100":-0.2191299570816615,"101":0.009142817222969156,"102":-0.08941996404973213,"103":0.21815754352692468,"104":0.39285035202603696,"105":-0.06536599467504119,"106":-0.12135346129505697,"107":0.20499526761566372,"108":-0.0734637035731531,"109":-0.11480287847569101,"110":-0.04764782066056173,"111":0.2271605828238033,"112":0.13307993730293172,"113":-0.01895312134962622,"114":-0.11064136928035748,"115":0.2183720248169176,"116":0.04878083641765991,"117":0.08109263687099244,"118":-0.17775470484952488,"119":0.07164035662983742,"120":-0.23173984172203024,"121":0.08293657899088044,"122":0.28627123477889616,"123":-0.24836739643309977,"124":-0.06844938316010578,"125":0.024936762271375645,"126":0.4277679964820195,"127":-0.025106766051000828,"128":-0.38723485977564936,"129":0.15759841261844984,"130":0.19726267517182433,"131":-0.18839514509657032,"132":-0.22789473800689855,"133":-0.1330358694075152,"134":0.02991994240447666,"135":-0.14369839489074876,"136":-0.29104505415263726,"137":-0.11364316598164331,"138":-0.30608227020721906,"139":0.3161287997183589,"140":-0.4327833487390223,"141":0.30763835010549456,"142":0.017074451986832925,"143":0.010168803386299415,"144":0.5269630913314405,"145":0.03141332992506267,"146":-0.6463394945888463,"147":0.2579396785187104,"148":-0.22315805306653516,"149":0.26043830844992394,"150":-0.23485968295802742,"151":0.04911767162155419,"152":0.03148898982122127,"153":-0.04131735528492982,"154":-0.45472471155047095,"155":0.1647407194129954,"156":0.1377097540206793,"157":0.07105469598900557,"158":0.22275877993705484,"159":-0.1093940888631992,"160":-0.34717963407923963,"161":-0.49871014202427383,"162":0.1384028575610891,"163":0.007215557911290433,"164":0.13757102175265495,"165":-0.078064666845313,"166":0.4135093687111381,"167":-0.09239758596243659,"168":-0.1272211791486731,"169":-0.06722754421348535,"170":-0.011918728272149574,"171":-0.2704341782840762,"172":0.14602985730172002,"173":-0.20465225425199404,"174":-0.18248869273346377,"175":-0.5461183635914032,"176":-0.31898275514891805,"177":0.12845576521868285,"178":-0.28133294264734326,"179":0.12033353232004272,"180":-0.07712995912010402,"181":-0.024358475333363747,"182":0.12552862864100744,"183":0.012157220404260777,"184":0.39629558420883404,"185":-0.32219876501418065,"186":-0.34341432641887876,"187":0.00009908995486759224,"188":-0.23055674104529575,"189":0.045190706235922785,"190":0.04154129517186123,"191":0.11325230315965801,"192":0.04055953528289022,"193":-0.13373246392176413,"194":0.04469026454656358,"195":0.11004496127942301,"196":0.04423231366700679,"197":-0.12720885945559698,"198":0.07399090189517113,"199":0.19308088599489037}},{"sx":5,"sy":5,"depth":8,"w":{"0":0.13849765924009522,"1":-0.11740452733979481,"2":0.06044475964859188,"3":-0.09912731230816778,"4":-0.04464763795896205,"5":-0.18041638128777324,"6":0.02556083840846604,"7":-0.09239648156108464,"8":0.17639946661131475,"9":-0.018683787085218877,"10":-0.014246352385054784,"11":-0.028186580449669974,"12":-0.03475654185161917,"13":0.17668497128943125,"14":-0.04614399757841832,"15":-0.3885315555057788,"16":-0.18134486243000814,"17":-0.09112358667301292,"18":-0.15399707846396027,"19":-0.17119750900275604,"20":0.08791124245588439,"21":0.34781676751757823,"22":0.1438685861040343,"23":-0.40428745643838815,"24":-0.37655999987961547,"25":-0.38062852676798026,"26":-0.08319170902152917,"27":0.021849223247188892,"28":-0.12618762266704872,"29":-0.19968967089944906,"30":0.10455066675509345,"31":0.0786711459193333,"32":0.3269031917538762,"33":-0.26714560418726074,"34":-0.2865890825742414,"35":0.2466621861320641,"36":-0.19816818517385676,"37":-0.30749707045995933,"38":0.01526569337580614,"39":0.43705240841942317,"40":0.25202547460410374,"41":-0.016169631696430424,"42":0.17863609537496225,"43":0.08553486127131105,"44":0.31979282855384816,"45":-0.09284048612123513,"46":0.24551957941701952,"47":-0.19916674912035548,"48":0.11993861946892195,"49":0.2369051892850432,"50":0.05908619860539904,"51":0.2125850363710705,"52":0.2970827867697132,"53":0.2086700861608846,"54":0.117936997419321,"55":-0.3491469079603394,"56":-0.2589722807344336,"57":0.008197380613969157,"58":-0.30744750386378017,"59":0.27314284632455804,"60":0.16596697023955187,"61":0.27720819666239294,"62":-0.2940786610786786,"63":-0.20457616267528006,"64":-0.7719030304453274,"65":-0.19733077073190458,"66":-0.47347416767145456,"67":0.0070565879664218015,"68":-0.4011710534849068,"69":-0.20407618278057943,"70":-0.19240943372173236,"71":0.34943371167919507,"72":-0.10238146957898919,"73":-0.1430192859899733,"74":-0.4475784840531558,"75":-0.19228880321568223,"76":-0.3072906667406425,"77":-0.4507993297995405,"78":0.08198943856549064,"79":0.3930729394257865,"80":0.23116491262838768,"81":-0.03184798580307401,"82":0.2725188746807882,"83":0.11549773779478341,"84":0.08431348691948228,"85":0.1215863394859095,"86":0.10651264148476552,"87":-0.2559617367841804,"88":-0.20853884080696827,"89":0.02343412846450972,"90":0.06456367861126668,"91":0.06231512548385176,"92":0.31739491060453684,"93":0.036021633183706624,"94":-0.12876370651630314,"95":-0.42514506933602725,"96":-0.521393206288313,"97":-0.09855078477599631,"98":-0.13200577827657167,"99":0.21541479623245433,"100":-0.14062363559176666,"101":0.18974919811548205,"102":-0.35624962398770216,"103":-0.021776308643911325,"104":-0.411883943009821,"105":0.025544866970171658,"106":-0.04849424080873191,"107":-0.2999473520436263,"108":-0.44408167166272106,"109":-0.1517127357977143,"110":-0.1278897716799883,"111":0.2288491251717885,"112":-0.033890605885888936,"113":0.07702063904763318,"114":-0.11039579979251088,"115":-0.3574309027430408,"116":-0.18855057164022326,"117":-0.28057181070247067,"118":0.20272572244948672,"119":0.3644782764370848,"120":-0.15817679008217614,"121":-0.1769928139815354,"122":0.1487309541951513,"123":0.008738397954993949,"124":0.07984921676859007,"125":-0.12843708135690776,"126":0.03926345100129494,"127":-0.04604605041299016,"128":-0.2546787129838658,"129":-0.2356053294200805,"130":0.005120204228018303,"131":-0.032838147647259536,"132":-0.11205778861515464,"133":-0.0993088869344963,"134":0.022831244392375043,"135":-0.2211745578561663,"136":-0.6324087975667517,"137":-0.07193299048034399,"138":-0.10378973298801054,"139":-0.1781418475481372,"140":-0.5560693373145833,"141":0.06556970232074573,"142":-0.025696674663998484,"143":0.08380296775575238,"144":-0.18896957415085852,"145":0.03353206172064001,"146":-0.09669871073489317,"147":-0.45696869789760086,"148":-0.5826829365959161,"149":-0.14608094228987187,"150":0.2064359302126569,"151":0.2143480478914395,"152":-0.025429161299728345,"153":-0.38376802084572986,"154":-0.04441962819763652,"155":-0.36159460084597905,"156":0.011603058520099241,"157":-0.050624898007118106,"158":0.3933466952452909,"159":0.2451507978321527,"160":0.1896287060236699,"161":-0.24288512376137433,"162":-0.3064648702968686,"163":-0.09756046220419524,"164":0.3884412814179113,"165":-0.3695191605235178,"166":-0.01959289751402335,"167":-0.07003111231952465,"168":-0.1645758146392699,"169":-0.22096896935858,"170":-0.25911374741026744,"171":-0.294694226008948,"172":-0.08566013608824778,"173":-0.23229906788085827,"174":0.040065551023662875,"175":0.013257576123495712,"176":-0.5417718781346923,"177":-0.11237250153195362,"178":-0.0072425928990667065,"179":-0.3421434745883813,"180":-0.41968860731320645,"181":0.11698749625063341,"182":0.2323047831411068,"183":0.09520788315441651,"184":-0.10222034010872447,"185":0.18539441857885083,"186":0.01637165757596802,"187":-0.4181970270643433,"188":-0.05450863292115601,"189":0.2737798104388083,"190":-0.020032299524234156,"191":0.07531832367481293,"192":0.11924732180805772,"193":-0.16298677040509335,"194":-0.018013986496587888,"195":-0.021828868641276193,"196":0.0412881289739927,"197":0.08528883564534916,"198":0.24758030374432963,"199":0.18027970938287088}},{"sx":5,"sy":5,"depth":8,"w":{"0":-0.14185685345868004,"1":-0.2531471655536681,"2":0.2986727020567984,"3":0.10654325391003508,"4":0.03295574628484109,"5":0.11348859434727583,"6":0.1590728560983191,"7":0.004202639131487338,"8":-0.06953190335024605,"9":-0.05567972777874507,"10":0.3729271114439488,"11":-0.07175226408910042,"12":0.1692638626040978,"13":0.09625542787950225,"14":0.16818405825761956,"15":-0.008517924745339522,"16":-0.27814046688479377,"17":0.031110448221214004,"18":0.3356565294225597,"19":-0.09758978827813411,"20":-0.032777003047749706,"21":0.17535828502180795,"22":0.14502516781439223,"23":0.38503134982709614,"24":-0.13741939979763743,"25":0.02627525326208012,"26":0.219932417708363,"27":-0.10389547650470699,"28":-0.24755902043330894,"29":0.06147345875034285,"30":0.24847066951698724,"31":0.33409605468760967,"32":-0.582351345429464,"33":-0.15011047061469912,"34":-0.1376646342183383,"35":-0.27857877590517705,"36":0.09460897687938058,"37":-0.35937426232859476,"38":-0.05395135721173017,"39":-0.006241692535926926,"40":0.36928088037505324,"41":0.4110280312314591,"42":-0.30380335661814994,"43":-0.07199831841505051,"44":0.0812173005563696,"45":-0.023210380762365496,"46":0.12084721958008623,"47":-0.03994619120134363,"48":-0.15865078783491937,"49":0.16856334133539688,"50":0.08625926915594237,"51":-0.11339811151694285,"52":-0.07502225692057307,"53":0.12900884341255794,"54":-0.1775170416103258,"55":-0.36552974889113965,"56":-0.31908897459218244,"57":0.0775095476039879,"58":0.1211236289501459,"59":0.02526838736759525,"60":0.15026844787193233,"61":-0.13355559717613047,"62":0.1503510526962065,"63":0.14390871784855078,"64":-0.05527349002603149,"65":-0.23064398041541004,"66":-0.0490549566810466,"67":-0.18447132906793962,"68":-0.0400487416314768,"69":0.025377366967272018,"70":0.32294540848241293,"71":0.0015588366887220935,"72":-0.3422445817648484,"73":-0.29036997203776144,"74":-0.40013491868420237,"75":-0.09709682155242814,"76":0.12109438115277114,"77":-0.06255621709450422,"78":0.2766813609250255,"79":0.13311843515162466,"80":0.45140472766487527,"81":-0.07644897688135133,"82":-0.44506123379839607,"83":0.016499080654431952,"84":-0.23601093537373335,"85":-0.3412475216909292,"86":0.023635944937414062,"87":-0.17544045883453752,"88":0.07248670085614076,"89":-0.15642268208764956,"90":-0.19029402924957578,"91":-0.34341568680825363,"92":-0.109146960182641,"93":-0.020702355875290058,"94":-0.1280788626376897,"95":-0.3055904652338811,"96":-0.23525146122670346,"97":-0.19822619401899497,"98":-0.17818425356501708,"99":-0.06579700106877782,"100":-0.2339381567008838,"101":0.1350404999300297,"102":-0.024145497174869007,"103":0.008514554749144866,"104":0.006963903073911174,"105":-0.12095627557934059,"106":-0.005750293607356133,"107":0.23950551589756555,"108":-0.13570040641942827,"109":0.18071799602782315,"110":-0.033335586166072635,"111":0.15982901797607024,"112":-0.19413392241132527,"113":0.029872473292440062,"114":0.28086240425294173,"115":0.12747315055972133,"116":-0.2529086035113747,"117":0.08372246441280173,"118":0.084594495943922,"119":0.3478605495819039,"120":0.2320576482261608,"121":0.3399961920265601,"122":-0.338031057094093,"123":-0.03398064307689141,"124":-0.048949145087840505,"125":-0.04451405333644953,"126":-0.004664214734245319,"127":-0.262061795067169,"128":0.14353685454874107,"129":-0.20341199770435853,"130":-0.27643785871766346,"131":-0.11015671381673164,"132":-0.1956425285176485,"133":-0.20675312526027229,"134":-0.377743028625737,"135":-0.3173075788262854,"136":-0.16713058494625951,"137":0.10774020137732797,"138":-0.17556604125204836,"139":-0.16614730088416468,"140":-0.06612342960314468,"141":0.08050388957693028,"142":-0.4027955127566266,"143":0.020055921671435415,"144":-0.06751233079393061,"145":0.12226293170581388,"146":0.12683278181613528,"147":-0.025024077115050152,"148":0.1501085515572206,"149":0.03524766738215717,"150":-0.3491012250479722,"151":0.07792386333823863,"152":-0.2073724045342883,"153":0.2851255380780351,"154":0.3479527465365103,"155":-0.16610577215029093,"156":-0.08359538203881865,"157":0.06540305570130973,"158":-0.008387960225812443,"159":0.04463103504457456,"160":0.21193469294801848,"161":0.12709772481636167,"162":-0.25796031341594305,"163":-0.40195031820056976,"164":0.21001340164075305,"165":0.031157514294107888,"166":0.16567681441822385,"167":-0.2095003354098553,"168":0.08093024641233126,"169":0.05723001828842056,"170":-0.20205888525548865,"171":-0.29300120403571306,"172":0.19414991433603263,"173":-0.19987545337491774,"174":-0.20391676053871674,"175":-0.24692331362897915,"176":-0.14506248699790197,"177":0.21234765518324572,"178":-0.009746022972258066,"179":-0.234230564577499,"180":0.23981617749871895,"181":-0.03469742977026088,"182":-0.42076082325814934,"183":-0.009136892984346973,"184":-0.09379431693594065,"185":-0.018235734434449608,"186":0.0942531273150474,"187":-0.044380731953308945,"188":0.1842989141625062,"189":-0.16511542560337286,"190":-0.5606442711856778,"191":0.0914503569763308,"192":-0.27599828050304787,"193":-0.024622280571630368,"194":-0.0668163848935314,"195":-0.20870647719335464,"196":0.2727924282377848,"197":-0.22284234886823553,"198":-0.12327272560227116,"199":-0.03480283871796867}},{"sx":5,"sy":5,"depth":8,"w":{"0":0.09012180464788765,"1":-0.00038067342344659646,"2":-0.030592808392970065,"3":0.07984043503890667,"4":-0.05427814096242944,"5":0.21286820302429768,"6":-0.5818814619793392,"7":-0.12003819171447497,"8":0.08719559290338257,"9":-0.11282208890082826,"10":-0.16457279920961707,"11":-0.08910977806039017,"12":-0.02256722663839554,"13":0.13141477848643882,"14":-0.22892339071200762,"15":0.061844518603129964,"16":0.18921020946124711,"17":-0.42197268246581776,"18":-0.06610222750249578,"19":-0.11796214612238924,"20":-0.11821515116435738,"21":0.2384578202153429,"22":0.12969043416004133,"23":0.09881487111474759,"24":-0.3521828027337641,"25":-0.33365349961025076,"26":-0.03972580184332716,"27":-0.20662906371922868,"28":-0.15224284607178304,"29":0.014023069334150064,"30":0.4799430403668663,"31":0.246447202247756,"32":-0.08753352408270783,"33":-0.3054836186830204,"34":0.29464156478956344,"35":-0.2374377120890417,"36":-0.16408817796304725,"37":-0.005885877880011747,"38":0.581770039087917,"39":0.40653619975292765,"40":0.21865010224100156,"41":-0.11269322927702327,"42":-0.04214831286923265,"43":0.11007168413399777,"44":0.026360176611177625,"45":0.08621115025035138,"46":-0.16106512294306236,"47":0.04383603082076735,"48":-0.009001090422413602,"49":-0.07283293161909195,"50":-0.2381835693878897,"51":-0.01658024523400395,"52":0.29551594683202154,"53":0.007617071838784451,"54":-0.14461039055940728,"55":0.26859897817740613,"56":0.05175084074622405,"57":0.06796022566987683,"58":-0.0804041088600338,"59":-0.05331734118189167,"60":-0.008943580235031863,"61":-0.07088286397533244,"62":0.3219541322116165,"63":0.17145885151958765,"64":-0.19764772122574406,"65":0.1426806750182225,"66":0.28855739920255885,"67":-0.34822660447895487,"68":0.09276252700115208,"69":-0.23925937670382352,"70":0.13295075633937334,"71":0.20496322969450811,"72":-0.15953054534129865,"73":0.06463167024301494,"74":0.2774040304756351,"75":-0.3203033237336736,"76":-0.027740362364620574,"77":-0.12135947728839265,"78":0.24068088069263643,"79":0.08849714730796093,"80":0.13551039614065336,"81":-0.4371432158512256,"82":0.29703198854163526,"83":0.42292094060165747,"84":0.2703508673536291,"85":0.2785249417282891,"86":0.0016160713652661322,"87":0.11541834644652273,"88":-0.01661103417092622,"89":-0.4282552878315505,"90":0.32072150725646215,"91":0.34275112116771345,"92":0.2906966363192526,"93":0.27647292558639963,"94":-0.06427371847695258,"95":0.32494400165491333,"96":-0.19836447805170118,"97":-0.19933384827930897,"98":0.38778401190845496,"99":0.032252361265125894,"100":-0.00874774491940902,"101":0.06800873027505117,"102":0.013807159437483226,"103":0.2525209028512889,"104":-0.3482030103146983,"105":-0.19811672146321174,"106":0.2952358333234273,"107":0.04192196428641078,"108":-0.14848243263531272,"109":-0.3324690220500093,"110":-0.15880954257625685,"111":-0.055642764157285925,"112":-0.324692759821425,"113":-0.05663151681537514,"114":-0.02283596933967753,"115":-0.28304878089856966,"116":-0.19300129601029126,"117":0.0428032147967138,"118":-0.17868929030074726,"119":-0.11377170306889745,"120":0.0379640293670974,"121":0.02127444405113405,"122":-0.43091545251477764,"123":-0.1499589378601735,"124":-0.0037885697905456536,"125":-0.11710410167291642,"126":-0.007484898477738443,"127":-0.17156242207072275,"128":-0.25438255879221605,"129":0.16737209034243522,"130":-0.15410529849162144,"131":0.2564043940687478,"132":0.17878119854775493,"133":-0.13150418737273245,"134":-0.40164744230704336,"135":-0.03613165592951684,"136":0.09975081540793429,"137":0.08962791910204568,"138":-0.4062515220158734,"139":0.02443404112844764,"140":0.30254463177018437,"141":-0.1518720320500554,"142":-0.14979604412485695,"143":-0.1960829541394673,"144":0.03099494113726987,"145":0.1527273360546209,"146":-0.2915025720037997,"147":-0.2701148797966155,"148":0.10838550770940655,"149":-0.19543164892368906,"150":-0.021652065235082736,"151":-0.2413432301886935,"152":-0.05108765663639622,"153":0.045114243582648185,"154":-0.4522365273329967,"155":-0.1980862950990306,"156":-0.03104136531946585,"157":-0.19026912038290716,"158":-0.1301152153340313,"159":-0.01872663792782275,"160":0.05024637727257991,"161":0.21385694019276455,"162":-0.4286080824263726,"163":-0.01413223813923132,"164":-0.08716981996362058,"165":-0.05155112903904618,"166":0.17610400674655083,"167":-0.12390119238609706,"168":-0.17058490576706176,"169":-0.12932273093791793,"170":-0.3535462761952071,"171":-0.18314986963105723,"172":0.10178087998361166,"173":-0.0076346748804056895,"174":-0.1469346920195569,"175":0.06544729617132482,"176":-0.052063087491672246,"177":-0.02787027695907562,"178":-0.3965686786689551,"179":-0.0001944827332479894,"180":0.028420311002738514,"181":0.0772628140698062,"182":0.09270630678677204,"183":0.11190746390860766,"184":-0.07313483628856413,"185":0.08215082355711945,"186":-0.038714399884195144,"187":0.024386767903206284,"188":0.0670196294130277,"189":-0.11754803520010083,"190":-0.0071776426103486455,"191":-0.23763755076019802,"192":-0.24663303315417937,"193":0.15190017962612312,"194":-0.20090472177835889,"195":0.18061010775394692,"196":-0.007365085753557028,"197":0.16187951103908169,"198":0.004872010266429474,"199":0.08213173556761509}},{"sx":5,"sy":5,"depth":8,"w":{"0":0.08590590088494708,"1":-0.46283142614909306,"2":-0.21514193632120213,"3":0.1255189653390829,"4":0.11426558338254374,"5":0.04484185762066026,"6":-0.437674938202533,"7":-0.21962282503435776,"8":-0.021523621399460426,"9":-0.39204582112125735,"10":-0.5046436071655912,"11":0.23787265160424856,"12":0.009330282174865307,"13":-0.0745380276887427,"14":-0.32061044439737374,"15":-0.26491030959536854,"16":-0.11953847996258368,"17":-0.27436584619584925,"18":-0.4494883104303335,"19":0.13924803622201531,"20":-0.25967520104628433,"21":-0.13147675342686055,"22":-0.49329383551161543,"23":-0.12393611550877798,"24":0.2952030487646767,"25":-0.042664082365235764,"26":-0.5841910377173358,"27":0.16129975915553227,"28":-0.1770531934466653,"29":0.04240623582426731,"30":-0.427404362625809,"31":-0.2675447203303936,"32":0.25983015678211135,"33":-0.0880890402420052,"34":-0.3409699984566156,"35":0.2610173107126238,"36":0.09742265382332142,"37":0.10288055858366751,"38":-0.2882625521960848,"39":-0.06523360166185134,"40":0.2901632495632795,"41":-0.05914200412368259,"42":0.15105614847638532,"43":0.44433214003828214,"44":-0.017201652624038895,"45":0.20010263000761114,"46":0.04207708828042504,"47":0.12598408547503692,"48":0.2018432821943606,"49":0.1235865379154606,"50":-0.05760432107096727,"51":0.2808338755121349,"52":-0.2781539944878746,"53":0.048623123690769356,"54":0.10624919511807936,"55":0.31818289530635535,"56":-0.09088961301736098,"57":-0.09436767956086768,"58":-0.10448080525751063,"59":-0.04391759980538245,"60":-0.4189586303149767,"61":-0.10262227003881381,"62":-0.20405417983784135,"63":-0.042783147389015244,"64":0.03666157705011661,"65":-0.09935198405185558,"66":-0.017591254925248878,"67":0.10318675196650534,"68":-0.2793694826020243,"69":0.07762682992093865,"70":-0.12295553426971553,"71":-0.2387583756137752,"72":-0.03604425397815528,"73":-0.07453265600973848,"74":-0.12619726620435806,"75":0.18814764593662273,"76":-0.08356414238989911,"77":-0.06045017150205298,"78":0.009149518092436698,"79":-0.053956531047466894,"80":-0.0369775206166284,"81":-0.020644255939302407,"82":0.10491254718951624,"83":0.11543659209022071,"84":-0.28353541610559146,"85":-0.11310629643602925,"86":0.1942105719821943,"87":-0.014900937012705909,"88":0.1915084983667375,"89":0.059207809673954157,"90":-0.1815974535530003,"91":-0.15226103615668005,"92":-0.42174040368491034,"93":-0.13776286601774237,"94":0.16443966164007331,"95":0.1881557338668287,"96":0.0006791942374198545,"97":0.1360292677379972,"98":-0.013180084942211269,"99":-0.23049623053352883,"100":-0.4260612595175359,"101":-0.1546558710824817,"102":-0.08860586124874709,"103":-0.1558123301680107,"104":-0.3657585848713707,"105":-0.08525111796777401,"106":0.04866915853434163,"107":-0.16168283003159464,"108":-0.12666986356000154,"109":0.07751688833745674,"110":-0.18352788980191667,"111":-0.16840156905172723,"112":-0.13614233081279256,"113":0.10970622223372462,"114":0.0007264431248357865,"115":-0.2308218097399736,"116":-0.11831661197571769,"117":-0.1087219167586418,"118":0.20203792575969515,"119":0.031707666980769225,"120":-0.3012567262404999,"121":0.2605518483461284,"122":0.0045480031464100205,"123":-0.5678721344318978,"124":-0.13288331319910285,"125":-0.17493757293032805,"126":0.17646228516566342,"127":-0.03733191069086284,"128":0.04162368051815059,"129":0.1339735723622158,"130":-0.03983012150394142,"131":-0.31364566512354264,"132":-0.2366937429139748,"133":0.20710563838428536,"134":0.28826456222857205,"135":-0.06288011855194021,"136":-0.006474116273810983,"137":-0.09657323917162089,"138":0.013363599485938593,"139":-0.29582936201420085,"140":-0.19595759107201674,"141":-0.0032315434961092534,"142":0.061303377407224205,"143":-0.3852230497629537,"144":-0.26934692620239864,"145":0.3991697655957234,"146":0.1387917169658275,"147":-0.37057100267515386,"148":-0.12391505929727611,"149":-0.07584641453061002,"150":-0.0225159248994925,"151":-0.05631172474777757,"152":-0.29003465701701564,"153":0.4457023300225234,"154":0.2565407520695266,"155":-0.3759242986946179,"156":0.16618144406961277,"157":0.37162052617977215,"158":0.25908872433511576,"159":0.1656326952382163,"160":0.17714073102949407,"161":0.16018407820172667,"162":0.018149448456281973,"163":-0.3837065766514866,"164":-0.16610779738642192,"165":-0.045296008943498736,"166":0.04395159838603145,"167":-0.004476713920188586,"168":-0.2479830270001195,"169":0.10649132725342315,"170":-0.026098494182405438,"171":-0.3736099055147121,"172":-0.17002492834660063,"173":0.15548661116217694,"174":0.1966854392531647,"175":-0.07279487088830476,"176":-0.22387735334014122,"177":-0.020550291028738416,"178":0.09423909390744134,"179":-0.27788073564626287,"180":-0.4796233371679083,"181":0.059100510566552925,"182":-0.08937068040321108,"183":-0.4454096939607649,"184":-0.556101922128131,"185":0.22757023456792494,"186":0.013704471271137487,"187":-0.203656680958024,"188":0.14699713461196728,"189":-0.16990467017304944,"190":0.03645989025755385,"191":-0.08470484000614771,"192":-0.5062303720305421,"193":-0.13083761213090284,"194":-0.2718756177916482,"195":-0.5740773258437628,"196":0.1307296229762275,"197":-0.061348315294246406,"198":-0.002368566904650846,"199":-0.1440834961254087}},{"sx":5,"sy":5,"depth":8,"w":{"0":-0.17753266328540931,"1":0.11010338904348406,"2":-0.44895792126338613,"3":0.3470840820191228,"4":-0.13110350851532512,"5":-0.01861046013057369,"6":-0.001949627398668123,"7":-0.1853233158635753,"8":-0.13784709718755142,"9":0.06682437491487783,"10":-0.1753230387283325,"11":-0.09293158797771119,"12":-0.08712128496836549,"13":0.21160437918884342,"14":0.006284762338261129,"15":0.03811931667216129,"16":-0.04429493773029315,"17":-0.034325670148718415,"18":-0.15239831981735089,"19":-0.026082965299866794,"20":-0.008404382171356905,"21":0.0653685142296378,"22":0.07770690092841281,"23":-0.05397562899519022,"24":-0.1123717859413558,"25":-0.008018500364392922,"26":-0.23328902095066614,"27":-0.17159817460549845,"28":-0.08791674662015973,"29":0.07967728389816019,"30":-0.05071953279443245,"31":-0.060569567167773626,"32":-0.11011513805693836,"33":0.12202796272805085,"34":0.18449778936958608,"35":0.2283845703853604,"36":-0.3131361264564915,"37":-0.04290409102422614,"38":-0.08899239684548754,"39":-0.040745921600481225,"40":0.06215475803670976,"41":0.030281243453565962,"42":0.1379400652516855,"43":0.055104004804931,"44":-0.021971582065976342,"45":0.16173636886589146,"46":0.30649565304010523,"47":-0.00162891719595808,"48":-0.21494327835661492,"49":0.025798170970877905,"50":0.19354816375507639,"51":0.030128530875539728,"52":0.1331235792212501,"53":0.10115826891461727,"54":-0.01880189457387606,"55":0.010063691567520959,"56":-0.15170229927065432,"57":-0.09759480545454445,"58":-0.028719739503907306,"59":-0.1060438570131212,"60":0.056692872363140884,"61":0.09533379246509856,"62":-0.15782527718620584,"63":-0.026975784671895164,"64":-0.4369367180021838,"65":0.20174168335180034,"66":0.016781446373909333,"67":-0.14017961305979676,"68":-0.12747884162355333,"69":0.10145970083209041,"70":-0.10122020602488932,"71":0.08955798008562245,"72":-0.4582925064186664,"73":0.12716317396758678,"74":0.3298323481863458,"75":-0.24721835234326617,"76":0.1903301253571278,"77":-0.1232548254923376,"78":-0.29074826274447985,"79":0.13277812237224795,"80":0.23859008196048812,"81":-0.3264185263788076,"82":0.27517916702871287,"83":0.14501061701327406,"84":0.1669573402528483,"85":0.12423025734542091,"86":-0.07744999230171247,"87":-0.04247918166011453,"88":-0.26558155162274677,"89":0.01506410201955056,"90":0.212715987742559,"91":-0.04304266461741969,"92":-0.04435199522736067,"93":0.2211398563186798,"94":0.04620489658146535,"95":0.04325153110610564,"96":-0.4367676577915914,"97":-0.2027186959609348,"98":0.030622648134218458,"99":-0.10522662736974997,"100":-0.06859011628534287,"101":-0.05340087959467869,"102":-0.1928260681466049,"103":-0.09409656125733455,"104":-0.5247741144642782,"105":-0.15983390443094972,"106":-0.1164034125577615,"107":-0.2513969730515188,"108":0.1136911475676721,"109":-0.3013701783157612,"110":-0.08426519247161264,"111":-0.07747088739851327,"112":-0.4034222033804561,"113":-0.6445323335809104,"114":-0.2940166899285444,"115":-0.06372787966931351,"116":0.20314850828686878,"117":-0.19200118006535266,"118":-0.41203956898756594,"119":-0.24906186944232103,"120":-0.2487931250457868,"121":-0.07538852725855483,"122":0.5017746876877778,"123":0.10804537993496187,"124":0.07862740055036614,"125":0.07394581564587993,"126":-0.3239752557128974,"127":-0.07174751927839085,"128":-0.17784409767747666,"129":-0.18252238911293395,"130":-0.004794794962475464,"131":-0.16090937717664536,"132":0.06649130168681625,"133":-0.18769571043722694,"134":-0.10044794526885768,"135":-0.2790047205411724,"136":-0.18362349691025368,"137":-0.1698425379196167,"138":-0.4528062898718408,"139":-0.24717812829982114,"140":-0.10971517637839909,"141":-0.21964374777766196,"142":-0.15306243037264436,"143":-0.21874751723301733,"144":-0.1428743569918558,"145":-0.10113714009990998,"146":-0.7364269926693795,"147":-0.24943129602391914,"148":-0.08034598302634961,"149":-0.18260985068026472,"150":-0.1087573503332377,"151":-0.22163930318693506,"152":-0.17549080415775997,"153":-0.0037921975207958086,"154":-0.11989957370680354,"155":0.07095970472761197,"156":-0.20178650121267908,"157":-0.09107600368073135,"158":-0.10690246492861229,"159":0.023973158941457504,"160":-0.042884793234858484,"161":0.2873646117542138,"162":-0.18335458761979734,"163":-0.07028708128764438,"164":0.17831858049680616,"165":-0.2289723797267044,"166":-0.18598669956367425,"167":-0.24812451849631198,"168":0.22206305749961724,"169":0.2576514617447323,"170":-0.06316912361936106,"171":-0.1811199309959581,"172":0.12603210694805506,"173":-0.14959475210197704,"174":-0.12280138056802661,"175":-0.21289698669132523,"176":0.12198506393458895,"177":0.18163724114181248,"178":-0.43708179551678933,"179":-0.1946492946448408,"180":0.06828904795924964,"181":-0.16635471883864672,"182":-0.3393660437964944,"183":-0.12974349749104122,"184":0.26549233168155745,"185":0.41154398596474995,"186":0.05487894800425385,"187":0.08026970152234243,"188":0.26162303126330966,"189":0.32788200548704854,"190":-0.06501138300869722,"191":-0.00028241753026628236,"192":-0.023899660204290546,"193":0.47778613839148065,"194":0.41537511777988506,"195":0.05429915307815887,"196":0.3854679742540336,"197":-0.16022726655682806,"198":0.23848087411754162,"199":0.2702148438642696}},{"sx":5,"sy":5,"depth":8,"w":{"0":0.022894588841129174,"1":-0.16525718830661076,"2":-0.17007396588265863,"3":-0.028590915647997667,"4":-0.21672042932700952,"5":-0.11869272571455679,"6":0.18974620821282376,"7":-0.05198928125909854,"8":-0.07978560057127998,"9":-0.27373855242305933,"10":-0.2378459554729421,"11":-0.21700081401635973,"12":-0.0038836280809661627,"13":-0.3340384730197704,"14":0.21281236483298124,"15":-0.012610676542876086,"16":-0.12292241390584442,"17":-0.00685152795436778,"18":-0.10063515545122106,"19":-0.28860966479056055,"20":0.271840089309527,"21":-0.31461067215480537,"22":0.3008621711051282,"23":-0.31676211637554164,"24":-0.20190483890752658,"25":-0.16101917615125652,"26":-0.24738857996555988,"27":-0.15129274162317216,"28":0.174527000610825,"29":-0.2483668539943724,"30":-0.09016544025999602,"31":-0.23340779136643533,"32":-0.47399156921207075,"33":-0.07895512283581615,"34":-0.21417498037353203,"35":0.05410902180968292,"36":0.08504387147127705,"37":-0.1742407620938718,"38":0.014461491521198218,"39":-0.10904240463107523,"40":-0.008372120473718069,"41":-0.14486000960438172,"42":-0.08153738252116953,"43":-0.20537477140707666,"44":-0.33567591399946084,"45":-0.03258681292322846,"46":0.14377695268233745,"47":0.09241754707257865,"48":-0.1949876074043946,"49":-0.31396817105983543,"50":-0.36247754375387037,"51":-0.012111637359182375,"52":-0.14766864794674053,"53":-0.2682638978242344,"54":0.2013944829121437,"55":0.1315439383053306,"56":-0.03414547063828134,"57":0.04089939340447548,"58":-0.295260497346843,"59":0.019575397238083932,"60":-0.03024814837140727,"61":-0.2635194509104173,"62":-0.01118249842846874,"63":-0.018749053446769175,"64":-0.03648396569695115,"65":-0.08660634362215121,"66":-0.2628623874482721,"67":-0.2108565138741005,"68":-0.26566643339264695,"69":-0.09352168565177275,"70":0.12227175843181821,"71":0.12505818454470322,"72":-0.37312064640128506,"73":-0.03797754697616156,"74":-0.030977850294536036,"75":-0.19110184227160176,"76":-0.2539915369031869,"77":-0.14338503501301234,"78":0.05689542691125568,"79":0.029516045606520346,"80":0.18873075998512268,"81":0.05447259789070575,"82":0.05653179328135538,"83":0.10760142343124238,"84":-0.11680216913437094,"85":0.038747603757017746,"86":-0.1282955631616017,"87":0.12641997118054998,"88":0.275631048609836,"89":0.21825756850040448,"90":-0.25719376511362085,"91":-0.054664121884705506,"92":-0.010666106857984758,"93":-0.01745751515422826,"94":0.0017109336711254516,"95":0.12417530896302768,"96":0.25094970696047025,"97":-0.0755890229098603,"98":-0.2620563322278644,"99":0.21307715277873238,"100":0.02699356121799583,"101":0.07645669587025013,"102":0.07090851441622037,"103":0.14390870032046507,"104":0.3243434220479873,"105":-0.14618825622659448,"106":-0.4601682900925371,"107":0.1376885554500768,"108":0.17194387047072826,"109":0.4477655178071648,"110":0.045070632822910524,"111":0.16466560040201503,"112":0.2423382574575888,"113":-0.05538099039710015,"114":-0.43723600365373605,"115":0.18122682940769164,"116":0.18674321408342592,"117":0.27499864949367014,"118":-0.17115641428170836,"119":0.12129000925563345,"120":-0.06333927617823527,"121":0.005694748151416011,"122":-0.0006034323553326055,"123":0.3681013851560103,"124":-0.08637109594733153,"125":0.06480267310338199,"126":-0.1729182433557539,"127":-0.24761273182577456,"128":0.07518335257452059,"129":0.21916106673242441,"130":0.09912100894658037,"131":0.33711119391886085,"132":0.227409170779195,"133":0.29819402743087664,"134":-0.17940024395958068,"135":0.1384703168893391,"136":0.023741761494592017,"137":0.15082184252502778,"138":0.0785126339328769,"139":0.24206226390133984,"140":0.4370526069971186,"141":0.14568387321031362,"142":0.013107079044628682,"143":0.06146194467504368,"144":0.034558770006776963,"145":0.09812968695893845,"146":0.11735045508561476,"147":0.17766931318498458,"148":0.5455265509075271,"149":0.43765996645039174,"150":-0.21467559393449334,"151":0.13299651951405594,"152":-0.07754825633404894,"153":-0.014896784801302507,"154":0.010223078696049066,"155":0.29167706900887413,"156":0.14531627269358272,"157":0.21584742623988518,"158":-0.2335110029911975,"159":0.04880511541189483,"160":0.09033135171580767,"161":-0.2234008786162849,"162":-0.06957284252796925,"163":-0.025777093903577658,"164":-0.3150653959641517,"165":0.12012393541414208,"166":-0.12108610761296501,"167":-0.19990290101982672,"168":-0.29534286058169074,"169":0.11096400358327019,"170":0.15271290071113122,"171":-0.08197314478252656,"172":-0.09426893718489553,"173":0.25139272500419646,"174":-0.26113070431384217,"175":-0.10117827340351157,"176":-0.3886888964499821,"177":0.07171642504037752,"178":0.2963944658354197,"179":-0.30284077841050544,"180":-0.05754196948036868,"181":0.3247573258208324,"182":-0.16493040704069256,"183":-0.00003828208497431984,"184":-0.6054473397694393,"185":-0.07948945063928828,"186":0.15172191466294105,"187":0.06370134623307436,"188":0.007959340957589173,"189":-0.07714117233431257,"190":-0.11796554110748977,"191":-0.04355459127737235,"192":-0.724457702738545,"193":-0.1627494994897305,"194":-0.09028107833458253,"195":0.14006290238168456,"196":-0.09360978420784251,"197":-0.34756768085533085,"198":-0.1286585847957151,"199":-0.2155456359518051}},{"sx":5,"sy":5,"depth":8,"w":{"0":0.058413314356563766,"1":-0.5563770164090545,"2":0.044956058608234796,"3":-0.03185186251474219,"4":0.047903738343415735,"5":-0.11396572173092162,"6":0.0630557353700505,"7":0.19272507433181138,"8":-0.1291937899545521,"9":-0.29854929878805575,"10":0.04965214450605901,"11":0.03960046727843974,"12":-0.09144213486922907,"13":-0.04036774570883497,"14":-0.03429925965117994,"15":0.0865416093656456,"16":-0.08171975796977902,"17":0.09017035558157653,"18":0.18196358800454995,"19":0.017647559482603156,"20":0.013538471647798736,"21":0.20537262991476554,"22":0.3929146585475477,"23":-0.2626860191721058,"24":-0.3376803590418605,"25":0.12817676655586507,"26":0.09850007309547898,"27":0.014088089939774897,"28":0.2752760598418595,"29":0.1601665371771424,"30":0.24256015223711955,"31":-0.3223662696050625,"32":-0.2579410158328492,"33":-0.1604812160952123,"34":-0.1259192047500175,"35":-0.12370690784032394,"36":0.6462803002183732,"37":0.009767384199396595,"38":0.09680884025642157,"39":-0.2350601764504887,"40":0.04103603373961512,"41":-0.24946576859567698,"42":-0.42170382151934727,"43":-0.3591003207595374,"44":-0.22460251321159322,"45":0.008285220069326641,"46":0.13859162998683136,"47":0.12744598508156657,"48":-0.34548880202801696,"49":-0.18137002307227026,"50":0.11278143846452295,"51":0.09801781994575356,"52":-0.3203784029593901,"53":0.03342042943813267,"54":-0.11278282357827554,"55":0.11632038628371627,"56":-0.37105602392634773,"57":0.005104795221251435,"58":0.2819728302364263,"59":0.18608738786382656,"60":-0.21335681470230336,"61":0.2968929322959316,"62":0.19838558109599447,"63":-0.026270848121286727,"64":-0.5098966887962462,"65":-0.06988252662190444,"66":0.09808106048053696,"67":0.006383418687562016,"68":0.03859215442751867,"69":0.18116803530299358,"70":0.07550682662344177,"71":-0.029404435945154715,"72":-0.2777461226742651,"73":-0.33676393018086354,"74":-0.11764286803918546,"75":0.42900889477487436,"76":0.4672588550468845,"77":0.14806400181100163,"78":-0.15773461138407033,"79":-0.07892432156326705,"80":0.4695314438646319,"81":-0.1958273897533186,"82":-0.6403657695230331,"83":0.17765757414676178,"84":-0.2119192873725472,"85":0.12386018184573139,"86":0.0649717341077035,"87":0.21932993230824652,"88":0.07102164617584822,"89":-0.18914001273455736,"90":-0.05998136284932511,"91":0.21363658338004013,"92":-0.11338230002963867,"93":-0.09197735593267457,"94":-0.16402529277975098,"95":-0.29500047986373984,"96":0.13593440522540726,"97":0.14563246192356044,"98":0.2668802707355138,"99":-0.1993478505898236,"100":-0.1841526857570414,"101":0.22913133516935455,"102":-0.49588737761608115,"103":-0.4242914827948853,"104":-0.2721351132598953,"105":-0.17420085457254617,"106":-0.07732188954686493,"107":-0.27846803162939565,"108":-0.40423636568673077,"109":0.006474105294709677,"110":-0.19999417623105553,"111":-0.28150428433441027,"112":-0.29482998638988733,"113":-0.06513290363608043,"114":0.3195036964618762,"115":0.04531313088309136,"116":-0.1212189720579379,"117":0.005927839075580892,"118":-0.34081932122874165,"119":0.10336868846597531,"120":0.36128853628181185,"121":0.1838444906955301,"122":0.2810536106486617,"123":0.34731696538788276,"124":-0.1715459829838332,"125":0.6750598067286622,"126":0.08757834864912897,"127":-0.002037496552183112,"128":0.15583575617508422,"129":0.14499340907109418,"130":-0.17093134971964585,"131":0.4007130414808362,"132":0.04795820593827573,"133":0.19478688997419488,"134":-0.34446914440920445,"135":-0.33066669078273486,"136":0.25328900292675893,"137":0.29892453518123246,"138":-0.3679475398879297,"139":-0.0956242262783021,"140":-0.23012026425494728,"141":-0.19567179093531714,"142":-0.426993734666446,"143":-0.3278466210959994,"144":-0.07991219314148182,"145":0.12821786406167845,"146":-0.40101053347187954,"147":-0.2648905006568639,"148":-0.18053611260742636,"149":-0.282666746682968,"150":-0.23600993502991352,"151":-0.32826325014249613,"152":-0.11229533411537655,"153":0.03229026963270316,"154":-0.08993560899691362,"155":-0.2724797928653681,"156":0.04273586279954115,"157":-0.04440273014214758,"158":-0.4637406916724475,"159":0.06267138759111941,"160":-0.2607381872435268,"161":-0.26866739532341827,"162":-0.09463856959867974,"163":-0.337485375240154,"164":-0.0351587722190154,"165":-0.3499481955231008,"166":0.3382920338305818,"167":-0.21206335341578403,"168":-0.18216044957484695,"169":-0.16019419699504114,"170":-0.07575201317795016,"171":-0.18776477801671929,"172":-0.11590844736738476,"173":-0.2610031568335903,"174":0.344890910833187,"175":-0.22755554277078763,"176":0.3236732973444499,"177":-0.17579775773889778,"178":-0.34250730863012313,"179":-0.1254620028018821,"180":-0.11137729541070983,"181":-0.06135164987650286,"182":0.10280841868174745,"183":0.18941677564096823,"184":0.49181260685368544,"185":0.030860204092089952,"186":-0.5609385695775031,"187":-0.33838027403931287,"188":-0.1704494821156256,"189":-0.04002793551328506,"190":0.04614790254291394,"191":-0.02039135849462964,"192":0.09975655965880775,"193":0.02611969673172509,"194":-0.3107393700173357,"195":-0.15068556318916304,"196":-0.07048948577871546,"197":-0.02436589473543293,"198":-0.26888584628905504,"199":-0.008335179832559917}},{"sx":5,"sy":5,"depth":8,"w":{"0":-0.28124382490630506,"1":0.101666719459525,"2":0.06925203056317782,"3":-0.11478957863338272,"4":0.1912302071546413,"5":0.19929067228170966,"6":-0.05074524826644601,"7":0.008684946456447218,"8":-0.37454420082301054,"9":0.12610022213484237,"10":0.125856868352101,"11":-0.22830762185107956,"12":-0.06597944196621168,"13":0.0004250427607883178,"14":0.21828228979612602,"15":0.1229846427968787,"16":-0.462117093976693,"17":-0.154260433328393,"18":0.06901918915872948,"19":-0.30360173807502033,"20":-0.1193443105398159,"21":0.22741474210993218,"22":0.2989408642544231,"23":-0.13491959108386434,"24":-0.5109558055440809,"25":0.01831181871688184,"26":0.24301404020852713,"27":-0.28949492056524845,"28":0.020141488291283566,"29":0.1460515400552161,"30":0.018815172099038473,"31":-0.2876686904553217,"32":-0.32234626193373,"33":0.2647930051128585,"34":-0.02942938438347293,"35":-0.22954894814726873,"36":0.18295166621525086,"37":-0.18123249376581727,"38":-0.21758040330281225,"39":-0.2908099502033345,"40":-0.28323202114102664,"41":0.18760445225277214,"42":-0.04115339548275652,"43":-0.18340443033061515,"44":0.23527237464343007,"45":-0.05907792522815289,"46":-0.04420737343489647,"47":0.03501093845208091,"48":0.03442605994663626,"49":0.08428122247785595,"50":0.08705566591350268,"51":-0.18519596504771443,"52":0.1825439737073056,"53":-0.1810381396104896,"54":-0.10766951827037953,"55":-0.04982201403847679,"56":-0.010882511958275025,"57":-0.05108135055875973,"58":-0.017680437108266476,"59":-0.04237204393672226,"60":0.23694403119676125,"61":-0.34109464903248765,"62":-0.3364357987434922,"63":-0.3559688288585697,"64":-0.04492242198904757,"65":0.103361637557429,"66":0.007471545284099958,"67":0.020456439393823956,"68":0.4664661128422732,"69":-0.4121434434032497,"70":-0.19604355460968717,"71":-0.3734945591485795,"72":0.14799276000701178,"73":-0.27147769521924375,"74":-0.2792284849483961,"75":0.3181136510063552,"76":0.5698363394052903,"77":-0.28095517963228195,"78":-0.3631730831828173,"79":-0.3496173754747157,"80":0.019005374163428304,"81":-0.16595738992666328,"82":-0.38979963646629634,"83":-0.04807923872384218,"84":0.32291939849290835,"85":-0.15473035093729906,"86":-0.09065526345282819,"87":0.1826961927815484,"88":0.11157801199090593,"89":-0.16341809771546748,"90":-0.26376885663969796,"91":0.29987418667521776,"92":-0.006742756822787595,"93":-0.22614548238432838,"94":-0.36153185483151495,"95":-0.08546272024804774,"96":0.0922128106140928,"97":-0.06821851468448309,"98":-0.4109130388460987,"99":0.3249012057133597,"100":-0.28392498701312957,"101":-0.0406744405589925,"102":0.2721374525515462,"103":0.004362076141214817,"104":0.20306215702959124,"105":0.03119375252292035,"106":-0.42362417841740535,"107":0.29670907973038846,"108":0.033071423371078906,"109":0.361603145808466,"110":0.0171691058732214,"111":0.03877449282162514,"112":0.29064106728335765,"113":-0.09589636790459469,"114":0.10637259060583769,"115":0.6185040338413528,"116":0.1926113487611497,"117":0.49771867285498617,"118":0.050934007278542075,"119":0.24951815188091372,"120":0.12210932505138533,"121":-0.40442348587421356,"122":-0.13541100262490577,"123":-0.06562674761434982,"124":-0.33365837485617905,"125":-0.17832881659863967,"126":0.005312531854242872,"127":0.08792928211977842,"128":-0.046527656830585885,"129":-0.2714800452664533,"130":-0.11981440191148453,"131":0.2574616278847714,"132":-0.4700674792844089,"133":0.0383595723100213,"134":-0.1605299765666222,"135":0.12151935442186217,"136":0.2291908519965517,"137":-0.03789809703314761,"138":-0.32824326322094666,"139":0.04592423373001817,"140":-0.38990547521644814,"141":-0.02805341721937346,"142":-0.01712119765733473,"143":0.1083059934494125,"144":0.11872893179383939,"145":0.26228195088402934,"146":-0.4599359479664125,"147":0.15876230223875568,"148":-0.002467462838030212,"149":-0.103148744738522,"150":-0.2725479944918007,"151":-0.1573489478972071,"152":0.29220120729565086,"153":0.23819565341681176,"154":-0.03358549267657888,"155":0.4645121302628156,"156":0.32384892304666224,"157":0.03744738484764409,"158":-0.207316744777137,"159":0.027080130422992815,"160":0.41213037586957135,"161":-0.17866800306461958,"162":-0.24094613291814146,"163":0.011935918236622437,"164":-0.2309457870713186,"165":-0.21959970610410828,"166":-0.07570114299393775,"167":0.2904601475182829,"168":0.11851045021111828,"169":-0.09015293030591835,"170":-0.3277636331695839,"171":-0.048285954815802855,"172":-0.4187360530786895,"173":0.16347943903176512,"174":-0.05652427912255415,"175":-0.022872090390289045,"176":-0.062066376157868225,"177":0.027124554204473177,"178":-0.26112352046986603,"179":0.09764199700692686,"180":-0.40951480424478043,"181":0.13438570653423587,"182":-0.1775728721034408,"183":-0.11415821433958938,"184":0.03559707073725374,"185":0.004640585483155741,"186":-0.05275827570395115,"187":0.08384759743649606,"188":-0.24984234317822915,"189":-0.06732318255051839,"190":-0.2154508931304977,"191":-0.16723022784028563,"192":0.23918624226541457,"193":-0.2832251205487004,"194":-0.022366473507013367,"195":-0.03231064575831655,"196":-0.008231289874683832,"197":0.05953148952128702,"198":0.08425980847598831,"199":0.27393202370994696}},{"sx":5,"sy":5,"depth":8,"w":{"0":0.33669770894632284,"1":0.03200212026501078,"2":-0.11999449640929283,"3":0.2587059681080752,"4":0.13112383830899585,"5":0.08955455584736556,"6":-0.3206130507181293,"7":0.17409628631684676,"8":0.18872642897297542,"9":0.15011686286182294,"10":0.14118781908001904,"11":0.40283182840343534,"12":-0.04654785397216964,"13":0.3884245714985298,"14":-0.4543501194712467,"15":-0.007002258568788219,"16":0.053380619151667634,"17":0.29381379705588895,"18":-0.035140599974674044,"19":0.405315759101426,"20":0.01508291123754212,"21":0.23073384117582452,"22":-0.5055268217257235,"23":0.0436519515366067,"24":0.15077736348606402,"25":0.04934411850432428,"26":-0.49354719401726277,"27":0.023750839812454287,"28":-0.012920305444889417,"29":-0.26293127261661275,"30":-0.2369847937207206,"31":0.1914275160977354,"32":-0.18825142945271336,"33":-0.2454624421848597,"34":-0.25005423160357915,"35":-0.33289141821915125,"36":0.008146827089819255,"37":-0.07354547995482026,"38":-0.2477284676281464,"39":-0.16837535076653293,"40":-0.06953758756694868,"41":0.17237601605858166,"42":0.25544503391400225,"43":0.5101093759476975,"44":0.0547953841261421,"45":0.21355248280662395,"46":-0.0680359720959416,"47":0.2367428623235747,"48":-0.3928119075572089,"49":0.3423970533023288,"50":0.34631146535967366,"51":0.09277082934515464,"52":0.3196077784618697,"53":-0.14758991992135678,"54":-0.21962471953990528,"55":-0.07260572694927485,"56":0.09383543941970535,"57":0.12444385569347145,"58":-0.15326988105608244,"59":-0.1422515179164851,"60":0.06637291890757185,"61":-0.23287060399172876,"62":0.13493779453249174,"63":-0.015829621194790984,"64":-0.06422101422128422,"65":-0.2220627818223919,"66":-0.22793303033401424,"67":-0.2930287043320583,"68":-0.17630107649015617,"69":-0.3667183213251218,"70":0.35459265096469017,"71":-0.0320250072593745,"72":-0.2936648295126778,"73":-0.3991099797885816,"74":0.08511410476420221,"75":-0.039084614741093426,"76":-0.07391414660665839,"77":-0.12561077330360018,"78":-0.02944532607878849,"79":-0.03969463370674912,"80":-0.5576137127187666,"81":-0.3950762074133762,"82":0.14090182683658864,"83":-0.21557433019923347,"84":0.28894921605888535,"85":-0.02453132466474049,"86":-0.2882930664560108,"87":0.10524458625078395,"88":-0.39009328187274606,"89":-0.30194028276227536,"90":-0.11885450522617967,"91":-0.3691497579412896,"92":0.105701103993122,"93":-0.24431319070733062,"94":0.22684091480502766,"95":-0.2013945753151178,"96":0.013240437133201065,"97":-0.2532015217946057,"98":-0.20997594606653958,"99":-0.18789995186926714,"100":-0.3581105709537913,"101":-0.23687896259605043,"102":0.4314522355664801,"103":0.1075605586853804,"104":0.0738958384976726,"105":-0.5930731180701646,"106":-0.01850931325252494,"107":-0.09762031533242188,"108":-0.3816891278991854,"109":-0.056095793975277544,"110":0.574606813090501,"111":0.4537800830774221,"112":-0.0013575432866217083,"113":-0.30892700389606864,"114":0.23373332067026573,"115":-0.056148863442785975,"116":0.020533864680279523,"117":-0.09860380067023722,"118":0.1744475139541911,"119":0.11177481543143994,"120":-0.37648083440493724,"121":-0.3628708500102995,"122":-0.3460647058870235,"123":0.09463759455289497,"124":-0.14578383125432548,"125":-0.1593955926090445,"126":0.11379071604530777,"127":0.25249729215384265,"128":-0.3548600806123888,"129":-0.15787770078726496,"130":-0.01644952191486412,"131":-0.010917184603919152,"132":-0.2877252026432267,"133":-0.27781812541341944,"134":0.31654591008432076,"135":0.10125348631422139,"136":0.05967468199851378,"137":-0.4424552991269093,"138":0.17187234249137737,"139":0.04404187738198452,"140":-0.30818646972754643,"141":0.031796151737388825,"142":0.192861323047032,"143":0.17147322237404786,"144":-0.04311040803319796,"145":-0.378931223641352,"146":-0.16276441384896043,"147":0.17746704915853787,"148":-0.0806571535735881,"149":0.1850109315436167,"150":0.03365204945622432,"151":0.02424772181417309,"152":0.0571238032029104,"153":-0.2419255344953513,"154":-0.2664087918937212,"155":0.11012918050087853,"156":-0.13644550013258241,"157":0.07635616374926624,"158":0.006045052241190211,"159":-0.09537941510143044,"160":-0.1928711913381528,"161":-0.36644825758591937,"162":-0.005047217491202863,"163":0.10057576541780154,"164":-0.1312804441519122,"165":-0.17061793620704976,"166":0.29354775579531855,"167":0.2415132401775772,"168":0.1669801371830279,"169":-0.1509183066302086,"170":-0.030774248384147995,"171":0.006878661293647428,"172":-0.2532057406294211,"173":0.11241074949601049,"174":-0.05803831023740858,"175":-0.2587098087029342,"176":0.25406277954294076,"177":-0.0018226417576945905,"178":-0.15588096290395878,"179":0.06771511718216547,"180":-0.055472919687009105,"181":-0.011007688755775496,"182":0.09105040378775148,"183":-0.22720941509153306,"184":0.26463652364354434,"185":-0.07106215209745201,"186":-0.02928043197833487,"187":0.3742228502654436,"188":0.047029331766241356,"189":-0.011754892024466303,"190":-0.38529029421321737,"191":-0.37834334111549334,"192":0.13908498119331816,"193":-0.26012558301753447,"194":-0.04017244744600738,"195":0.4170474036123836,"196":0.23272320073363428,"197":0.2419851106132207,"198":-0.257536429139603,"199":-0.006031116784947239}},{"sx":5,"sy":5,"depth":8,"w":{"0":-0.0827993405441866,"1":0.15355616780236217,"2":-0.017509550931683878,"3":0.01890017647387407,"4":-0.3657659235532748,"5":0.15368638827835482,"6":-0.15573746041679973,"7":0.046637765270347055,"8":-0.2984079871879562,"9":0.045064182245073574,"10":-0.023538885922316382,"11":0.10106062882532357,"12":-0.13448974080153778,"13":0.16051147034281427,"14":-0.1868737549722382,"15":0.0012583114077645674,"16":-0.04391037576857173,"17":0.2536361270430472,"18":0.30014846930425315,"19":0.057598986755844905,"20":0.11039947507126398,"21":-0.059004364705760017,"22":-0.41780285591811067,"23":0.07578149223720117,"24":0.12074135770874775,"25":0.3125685122843323,"26":0.1690133049101507,"27":-0.1535072079391005,"28":0.16496169018191797,"29":-0.13473442609699376,"30":-0.2852510251012942,"31":-0.02079555019342064,"32":-0.09738998578144219,"33":0.09030778714258916,"34":-0.13677011186295865,"35":-0.048636572945067555,"36":-0.24684847821951697,"37":0.16066270626656065,"38":-0.3819439187491771,"39":0.11805608443653424,"40":-0.2002852411105494,"41":0.215335589273118,"42":0.027939198570665475,"43":-0.20471155276683475,"44":-0.2542540016878596,"45":0.3521198133005863,"46":-0.3442766774725624,"47":-0.13782403038147678,"48":-0.4027224303850135,"49":-0.01145378865457255,"50":-0.09485933432162769,"51":-0.33531643330606026,"52":-0.5106860743930534,"53":-0.05538419966910443,"54":0.12714871251237217,"55":0.03606745296862309,"56":-0.20161890657847706,"57":-0.48361824471170445,"58":0.1351929739450201,"59":0.08793915497833661,"60":0.2895802402187658,"61":-0.07012861366390179,"62":-0.16381876273740487,"63":-0.0428680813226237,"64":0.3266805941057302,"65":-0.13673017356114378,"66":-0.17475501974031954,"67":0.17022524089998772,"68":0.37371143435595405,"69":-0.15268341605763566,"70":0.14967863858657632,"71":-0.013706153985859167,"72":0.14875393027268255,"73":-0.046382505484313066,"74":-0.34064918833001373,"75":-0.1864048431417307,"76":0.236930137827591,"77":-0.047783030042574816,"78":-0.053195618240551606,"79":-0.14767879204149417,"80":0.3459361017622069,"81":0.36721730166484895,"82":-0.3130312720591982,"83":0.04598006211384099,"84":-0.09200035240960922,"85":-0.06675705578964217,"86":-0.029908174951807795,"87":-0.3822308299268023,"88":-0.2188344845942424,"89":0.3130313431114597,"90":-0.15242590765995676,"91":-0.3938951476015861,"92":-0.5377173872915391,"93":0.01596246999620276,"94":-0.2152260066168798,"95":-0.37953572995556856,"96":-0.3424677885091528,"97":-0.038290408697124356,"98":-0.12265162805973152,"99":0.010779142164687505,"100":-0.20193527447156306,"101":0.16737042040515293,"102":-0.03377932214057182,"103":0.027492808083752204,"104":0.39312526479978854,"105":-0.03244834567286567,"106":0.021698170864097522,"107":0.42355260840806347,"108":0.08290633860263233,"109":0.1311284951129147,"110":0.19236797503439698,"111":0.24565912174226867,"112":0.33816813765956355,"113":0.17560713176844847,"114":0.0838767373123759,"115":0.1572254489872221,"116":-0.009138653240258145,"117":0.30305022134026394,"118":-0.02637270114272368,"119":-0.18804541277411427,"120":0.26293240635199044,"121":-0.22627845740054692,"122":-0.16182686512254799,"123":0.08226260391920215,"124":0.012601962411360097,"125":-0.03465416712345887,"126":0.027852892484321507,"127":-0.27966621777958356,"128":0.14653679833916486,"129":0.28366436071089485,"130":-0.1884641209563833,"131":-0.17892570288567594,"132":-0.17281968892715707,"133":-0.053652033174377806,"134":-0.3109785289845755,"135":-0.6469107388114079,"136":-0.42704745521308096,"137":0.025745800457348797,"138":-0.23401306595633597,"139":-0.07950990466391948,"140":-0.29024949321915827,"141":0.055572906436557344,"142":0.10657098741262659,"143":-0.23807569687463967,"144":0.31521550455047564,"145":0.026761637682502417,"146":-0.12260107413554905,"147":0.22043623094742873,"148":-0.012157901633114337,"149":0.316604768222765,"150":0.11068456833785878,"151":0.16079280464508117,"152":0.37507317188071954,"153":0.24809505950692978,"154":-0.04184832103647115,"155":0.043383074529607005,"156":0.061891796990297336,"157":0.01790623655090661,"158":-0.17315288989963895,"159":-0.14660604214510028,"160":0.1622176407806862,"161":-0.08865943714815475,"162":-0.102439565644061,"163":-0.20649944691269895,"164":0.22585429809965407,"165":-0.34817861883687296,"166":0.21489251876712775,"167":-0.3136621568498738,"168":-0.15965140510603368,"169":-0.21576036786504146,"170":-0.25588480489387944,"171":-0.0920902439876832,"172":0.2591344103107957,"173":-0.2606972027717703,"174":-0.32023294660318846,"175":-0.5587875604273302,"176":-0.44079872212567284,"177":-0.2165085579742216,"178":-0.2761370632307935,"179":-0.37897109116572725,"180":0.15200210758480298,"181":-0.10800769278401884,"182":0.0507920405611405,"183":-0.23175939350624886,"184":-0.1410608156968797,"185":-0.07130092161239164,"186":-0.3506364576830636,"187":-0.20873853746921686,"188":-0.22896923679983985,"189":-0.14614417927230242,"190":0.1712708287124208,"191":0.24566263044263548,"192":0.15069830241093052,"193":0.09474087986146539,"194":-0.09448317319795443,"195":-0.006792059684736661,"196":0.18960657194838265,"197":-0.023043516373423063,"198":-0.12221969785583334,"199":0.0277934412539306}},{"sx":5,"sy":5,"depth":8,"w":{"0":0.26767133863822223,"1":0.24708498551041205,"2":0.4582679714471147,"3":0.19861118780561918,"4":0.41827337965163003,"5":0.6771129335630993,"6":0.12162701726314326,"7":0.15765085475514304,"8":0.010393581683821684,"9":0.2604484891692038,"10":0.2629588066373668,"11":0.07890719626139657,"12":0.14623323569915525,"13":0.06672680648975793,"14":-0.1574960862956363,"15":0.02038876880934746,"16":-0.305605128223857,"17":0.0028531666008394917,"18":-0.0661885874116456,"19":-0.058345310414555866,"20":-0.007894736965277937,"21":-0.055307406844445454,"22":0.39048614512130936,"23":-0.012609005809295231,"24":-0.11196149258303568,"25":-0.08872115122442392,"26":-0.3029023224636981,"27":-0.25162332954889144,"28":-0.028662243845356494,"29":-0.2923868093598219,"30":0.1618455423060646,"31":-0.07993280331716963,"32":-0.20805441825821291,"33":-0.07555532288845436,"34":0.07292408601119428,"35":-0.40600569230144046,"36":-0.1835115252476856,"37":-0.071326117282513,"38":0.34305362435092557,"39":-0.0010877402844874933,"40":-0.044247925394666696,"41":0.2501355631188366,"42":0.020355455583790504,"43":-0.01792188274013637,"44":0.040761791572433516,"45":0.1927826359998798,"46":0.12272836866896086,"47":-0.23540620327298478,"48":-0.31506156360627363,"49":0.12239407260275326,"50":0.027554757163222438,"51":-0.41783730177216905,"52":-0.05954562013092564,"53":-0.2712045194464866,"54":0.12969746983424324,"55":-0.24562771281622078,"56":-0.05043668312666642,"57":-0.15835088393975183,"58":-0.24711995708410978,"59":-0.4905739456103086,"60":-0.0004018289792086097,"61":-0.30245866572757946,"62":0.1893973789473296,"63":-0.03286878339437925,"64":-0.09404145574842944,"65":0.014748815324766499,"66":-0.12760200958415774,"67":-0.41879694952348345,"68":-0.03159667674098752,"69":-0.17595273671317518,"70":0.09602030381644676,"71":0.03653486889617291,"72":-0.14471271842269326,"73":-0.0059330238683173945,"74":0.08747169305891916,"75":-0.5748028920392694,"76":0.0027944995138770847,"77":-0.09434017189463006,"78":0.22108748105221665,"79":0.04111596695287701,"80":-0.31204793861417285,"81":-0.1795553976572097,"82":0.08121252430060695,"83":-0.27677383001967676,"84":0.2852827177216485,"85":-0.1412310242658309,"86":-0.024084829332850898,"87":-0.39451406136065087,"88":-0.25357055805941503,"89":-0.09864304508287658,"90":-0.12578724256833138,"91":-0.4546702362185318,"92":-0.17405599544255024,"93":-0.23718370098247682,"94":0.008113907707218291,"95":-0.08581084715650183,"96":-0.03929890895686244,"97":-0.21120651654909764,"98":-0.29180711132315335,"99":-0.3309079070075211,"100":0.024325716052355825,"101":-0.19218129849681603,"102":0.150960384912569,"103":0.2507634058691744,"104":0.14661353073351302,"105":-0.05379914882668228,"106":0.022872599793164687,"107":-0.5478670920022747,"108":0.1324896615472309,"109":-0.03748643273517605,"110":-0.030087638449878735,"111":0.1289611022831243,"112":0.018940022193533936,"113":-0.24503855912958847,"114":0.1693217241472504,"115":-0.34714450449353695,"116":0.30813691957549266,"117":-0.15674300413462255,"118":-0.005635110854687829,"119":-0.06048459772177802,"120":-0.04045630718166208,"121":0.09823046651488342,"122":-0.4406768971330441,"123":-0.11670638485223646,"124":0.10037702858790788,"125":-0.14151030478848195,"126":-0.18388367562738103,"127":-0.1998136650739876,"128":-0.14759720570355603,"129":0.03743292351615189,"130":-0.4357801700520014,"131":-0.38394896136305434,"132":0.11410711659548327,"133":-0.16413410365532108,"134":0.08700282570720619,"135":0.22756358913390673,"136":0.02477503936965572,"137":-0.14603564011345047,"138":-0.09126651491871135,"139":-0.5261645876725889,"140":0.35214854986719346,"141":-0.19064066433665083,"142":-0.07260598567726499,"143":0.13969260827985747,"144":-0.013004720874790269,"145":-0.09446414213280489,"146":-0.12268929894001508,"147":-0.14929778572612876,"148":0.19712338664570445,"149":-0.2585384062418765,"150":-0.1937586868857315,"151":0.029534209220549983,"152":-0.04230131962409468,"153":0.16890356377017623,"154":-0.05266617182634956,"155":0.3569820311830061,"156":-0.08969393559774869,"157":-0.2770766298606701,"158":0.002739877150525463,"159":0.05315962833649133,"160":0.11636687442875306,"161":-0.33137144666186036,"162":-0.36063351851379266,"163":0.24057819053761045,"164":0.3249811795070902,"165":0.13146801913490344,"166":0.004119816840139062,"167":0.1862325885242388,"168":-0.0645267050669301,"169":-0.4902901249067815,"170":-0.32788642623561304,"171":0.016253888561832932,"172":0.28543984837904424,"173":-0.17639142411143513,"174":0.15329040610147276,"175":0.10849406530851285,"176":-0.21640067177196942,"177":-0.5036985197822332,"178":-0.16631014829520993,"179":0.055804815240718605,"180":-0.09874594045011663,"181":-0.31651158869173746,"182":-0.0006438260225443977,"183":0.20339504462533223,"184":-0.10608343720854099,"185":-0.37783912630124655,"186":0.04942214556504444,"187":0.18227090488126896,"188":-0.12506624278865874,"189":-0.05976459349168721,"190":0.02406697008174586,"191":0.11853665829322194,"192":-0.06414555984820591,"193":-0.10178365228394586,"194":0.4479766895715166,"195":0.2869503467957719,"196":0.06814396710278056,"197":0.14761998661204256,"198":-0.04619086605120316,"199":-0.2257196062167309}}],"biases":{"sx":1,"sy":1,"depth":16,"w":{"0":-0.2622413422035823,"1":0.006405587761591559,"2":-0.07409457759853591,"3":-0.3545052219816243,"4":-0.07158132677366161,"5":0.14882331229460513,"6":-0.3688183618104161,"7":0.03499000278083639,"8":-0.2964110100088717,"9":-0.49893675848765995,"10":-0.08766309610574852,"11":-0.22348524330334174,"12":0.0025420945859777025,"13":-0.016693361596146882,"14":-0.3027098024603041,"15":-0.16799485990977941}}},{"out_depth":16,"out_sx":12,"out_sy":12,"layer_type":"relu"},{"sx":3,"sy":3,"stride":3,"in_depth":16,"out_depth":16,"out_sx":4,"out_sy":4,"layer_type":"pool","pad":0},{"out_depth":10,"out_sx":1,"out_sy":1,"layer_type":"fc","num_inputs":256,"l1_decay_mul":0,"l2_decay_mul":1,"filters":[{"sx":1,"sy":1,"depth":256,"w":{"0":-0.11569076084330132,"1":-0.12835433871073662,"2":-0.15867621264547568,"3":-0.1346183949181478,"4":-0.3504172202406638,"5":-0.16110782649535765,"6":-0.3282175081593348,"7":-0.08701389757286536,"8":-0.24731123173022404,"9":-0.34222390223568194,"10":-0.10619174827885215,"11":-0.09353561264878045,"12":-0.26252897255081853,"13":-0.16127468233035358,"14":-0.46071357535434493,"15":-0.1267506894316277,"16":-0.28797871334316183,"17":-0.525993681016276,"18":-0.24261561069239526,"19":-0.2640849937795503,"20":-0.5746346623212174,"21":-0.2042342991139822,"22":-0.3851579037749079,"23":-0.22358652294777856,"24":-0.03324267846879061,"25":-0.21048497982731462,"26":-0.4292477389738803,"27":-0.29007188500754033,"28":-0.199223883956767,"29":-0.25808851328993165,"30":-0.5642278588205889,"31":-0.18069791940562688,"32":-0.1300862938410541,"33":-0.4947964997427049,"34":-0.19898989692084343,"35":-0.13935413939999844,"36":-0.1306508855622697,"37":-0.4110870734770786,"38":-0.09898362846932335,"39":-0.3071233669025119,"40":-0.13586609540749053,"41":-0.11604940339144709,"42":-0.28687803203190726,"43":-0.2383086860247621,"44":-0.01456894445689881,"45":-0.2542483884461935,"46":-0.5110066830575482,"47":-0.14002150823339238,"48":0.07042562394392274,"49":0.1448310235752054,"50":-0.03919717022641844,"51":-0.2293270337305296,"52":0.1668923137613217,"53":-0.4570734318970329,"54":0.13280453502883857,"55":-0.2435395670134089,"56":-0.46165151932380744,"57":-0.6582584040577586,"58":-0.33591454064130283,"59":-0.12202557821032886,"60":0.10669704121154316,"61":-0.14909062809085588,"62":-0.3076625581159008,"63":0.029188720495096514,"64":-0.28270420053504713,"65":-0.13258350337716746,"66":0.03635483708290159,"67":-0.2551834541669611,"68":-0.1958626527010918,"69":0.00907503113145192,"70":-0.683673122336322,"71":-0.17993985526242492,"72":-0.4715343738839795,"73":-0.6824588924287922,"74":-0.35564756870606345,"75":-0.19654313798469253,"76":-0.26660648301169154,"77":-0.07307041355741324,"78":-0.3632769956477206,"79":0.09243482496766796,"80":-0.42850355880490015,"81":-0.49174644360670494,"82":-0.11422711530657778,"83":-0.12946007737098333,"84":-0.2762682265232445,"85":-0.18876625352507503,"86":-0.6633056122825849,"87":-0.038886079398171305,"88":-0.01858310765330691,"89":-0.33490118731527657,"90":-0.45353884453367077,"91":0.1094967660204716,"92":-0.32759499381618823,"93":-0.0110068833755624,"94":-0.19638590898714292,"95":-0.30217928726430676,"96":-0.1385547072999987,"97":-0.575172604000712,"98":-0.36581264403965674,"99":-0.10915157107060254,"100":-0.20454150646714134,"101":-0.33502349492578604,"102":-0.1978560454768402,"103":-0.3917968198105206,"104":-0.04547927564012593,"105":-0.1643048597679505,"106":-0.2018065039207883,"107":-0.2726981625802962,"108":-0.1774851952271597,"109":-0.5859960599373127,"110":0.10968010324508413,"111":-0.13411785264641998,"112":0.3719903050685181,"113":-0.17632647810998733,"114":-0.421438788164928,"115":-0.24082287236958866,"116":-0.000950732094546308,"117":-0.21623439102492148,"118":-0.2180026666218122,"119":-0.16069191290980378,"120":-0.13977172090627107,"121":-0.9650017034442224,"122":-0.2276442812675763,"123":-0.33685711217154524,"124":-0.18998157750621839,"125":-0.13848638319788378,"126":0.09695692138548136,"127":-0.16750206634498713,"128":-0.3995516300079771,"129":0.07229004612099914,"130":-0.3322165947424503,"131":-0.5569643339003504,"132":-0.030492254251981203,"133":0.10543661266074084,"134":-0.484339491542033,"135":-0.18621595770062246,"136":-0.47636592965682945,"137":-0.38675745061318145,"138":-0.25682507690981526,"139":-0.15233517666967597,"140":-0.6166111710789524,"141":0.13832077697559367,"142":-0.3357304258220644,"143":-0.2792952013060146,"144":-0.5430988199795833,"145":-0.04136239116949533,"146":-0.3904116932322597,"147":-0.26329589355560346,"148":0.024299360054720946,"149":-0.25673752817480466,"150":-0.376439928818829,"151":-0.40933282640549945,"152":-0.15191050781694124,"153":-0.3525632575539102,"154":-0.3629791359350432,"155":0.2250990997584752,"156":-0.5059131904309606,"157":-0.12035843102096984,"158":-0.05404950329074108,"159":-0.2992376044864981,"160":-0.22374435537769066,"161":-0.21967432371518963,"162":-0.7675924101736243,"163":-0.05109328867982479,"164":-0.6319516778959334,"165":-0.081178456100307,"166":-0.24613708702475282,"167":-0.5464359377427411,"168":-0.3780895442375197,"169":0.019492038406545304,"170":-0.12734103204993097,"171":-0.36244936845720055,"172":-0.39071677145206773,"173":-0.5330419247490747,"174":0.0034872512827727902,"175":-0.2572610584585457,"176":-0.10780235095842625,"177":-0.4563103752971318,"178":-0.3005763173804475,"179":-0.5633482672069572,"180":-0.35910745553908485,"181":-0.0017548256697760892,"182":-0.7317790577295935,"183":-0.19287999180057808,"184":-0.35801458651814894,"185":0.024620299818824975,"186":-0.30858545833385664,"187":-0.5687550320387107,"188":-0.4670854029338193,"189":-0.28013168211790634,"190":0.1156146903789054,"191":-0.2319176640817239,"192":-0.25646993782838334,"193":-0.009975962183213744,"194":-0.16782752936231776,"195":-0.15998051927288745,"196":0.2211861721530746,"197":-0.02539379552440194,"198":-0.1021853892423931,"199":-0.23955652301269922,"200":-0.30251073372092885,"201":-0.1657745503583198,"202":-0.2178717566577722,"203":-0.37595017459854835,"204":-0.7930714256419306,"205":-0.028303626930670456,"206":-0.4742653011291001,"207":-0.010739160515187201,"208":-0.32669432941118953,"209":-0.17529363178860133,"210":-0.4336118950427504,"211":-0.08494179992212107,"212":0.026247663561909985,"213":-0.6876005812389155,"214":-0.4663215975400244,"215":-0.1693298115040719,"216":-0.06737613318313385,"217":-0.10762360071907934,"218":-0.04965252851637004,"219":-0.1288803713653281,"220":-0.3761560307525714,"221":-0.4903499562091648,"222":-0.2625227737539803,"223":-0.2607306037306295,"224":-0.21242874698978853,"225":0.08736078382060168,"226":-0.28305002407726565,"227":0.075188838991276,"228":-0.40748914149555515,"229":-0.8845119001627816,"230":-0.49793976631298165,"231":0.2275276372647356,"232":-0.4457034723391465,"233":0.10038867812525727,"234":-0.011707679576613624,"235":-0.7418648485717056,"236":-0.06332255444339788,"237":-0.6064734450369482,"238":-0.33856729619309484,"239":-0.20654789508875174,"240":-0.18994426242733523,"241":-0.36911656774504675,"242":-0.16705744627667818,"243":0.09792952444642035,"244":-0.14929522855368746,"245":-0.6667051556173327,"246":-0.2512514627080499,"247":-0.06073681926439376,"248":-0.4536600890122892,"249":0.1672401129731935,"250":-0.35451820388929267,"251":-0.6492091315460825,"252":-0.02289497952572745,"253":-0.5230245889165247,"254":-0.3582457923508666,"255":0.18451369391244082}},{"sx":1,"sy":1,"depth":256,"w":{"0":-0.18541205914652803,"1":0.009408223323941702,"2":-0.11231292830374019,"3":-0.13349578034586357,"4":-0.13949170982143236,"5":-0.15562584055931566,"6":-0.21579847277173958,"7":0.04377935349071851,"8":-0.20342320569075564,"9":-0.3243024433118212,"10":-0.15072611430919156,"11":-0.08990495763728408,"12":-0.170358027790873,"13":-0.03182002632480484,"14":-0.41317126788349257,"15":-0.2668156460907859,"16":-0.3542178715178848,"17":-0.04842005749968893,"18":-0.25050723240902845,"19":-0.41404941863454386,"20":0.28390960533555437,"21":0.27837048619206445,"22":-0.42859529957147396,"23":-0.06922541142455782,"24":-0.314180871452707,"25":-0.35606124003777084,"26":-0.5443701383771932,"27":-0.3078041690505507,"28":-0.3901955927608347,"29":-0.2152866407605306,"30":0.24849677734145398,"31":-0.5210657792989162,"32":-0.3755689528648271,"33":-0.14159725752991137,"34":-0.3270649956742351,"35":-0.2939095476134906,"36":-0.20787567420666936,"37":0.3259399298489644,"38":0.0462503217417598,"39":-0.04628394691500574,"40":0.21484436811624066,"41":0.09132960786178884,"42":-0.9081548851283924,"43":-0.40503774898484596,"44":-0.4864216682554154,"45":0.04234178097674094,"46":0.08815245609406627,"47":-0.10688112005630117,"48":0.07019195044808185,"49":-0.10024126990621048,"50":0.012463721508268558,"51":-0.03863086705158858,"52":0.03715948040841892,"53":-0.020319483442651474,"54":-0.02363572814865744,"55":0.0035636994195457914,"56":0.006268969421416706,"57":-0.10540862805078398,"58":-0.14975724075287608,"59":-0.4750421191451922,"60":-0.1367825682198888,"61":0.06982245709638411,"62":-0.030813958406917537,"63":-0.08424415624587064,"64":-0.1642200233243723,"65":-0.20321559028843467,"66":-0.5145406823176862,"67":-0.2588891431141167,"68":-0.44574032519344275,"69":-0.5697922340028173,"70":-0.47543516043015493,"71":-0.366097023542095,"72":-0.17200951002006243,"73":-0.26399284887667385,"74":-0.304630613623754,"75":-0.10015170398813283,"76":-0.15462284421851738,"77":-0.16712425340662218,"78":-0.4875177752346199,"79":-0.22155042259909805,"80":-0.5397500433720068,"81":-0.9212545176159683,"82":-0.6387224866946046,"83":-0.30891170077295405,"84":-0.3422859711411735,"85":0.18887306859380218,"86":-0.256202847562036,"87":-0.20054793779685812,"88":-0.5800309259924766,"89":-0.26973794692296726,"90":-0.5531312578953059,"91":-0.24686543755197668,"92":-0.35742644211355756,"93":-0.5403460414898799,"94":-0.19732570097573404,"95":-0.030023363675738535,"96":-0.5676544332734191,"97":-0.5683142989501303,"98":-0.5336115466644025,"99":-0.30094056443421985,"100":-0.19480872139618888,"101":0.20657191713821765,"102":0.4190888049047762,"103":-0.31595148482866636,"104":-0.3148408643749609,"105":-0.11064217811812926,"106":-0.5110753000311644,"107":-0.03213334183979861,"108":-0.5093109390035541,"109":0.013389278802641607,"110":-0.04048487592915752,"111":0.012485921827476692,"112":-0.14265381406717856,"113":-0.19748026912416278,"114":0.010108412820831138,"115":-0.14535107032321357,"116":-0.1560234615875022,"117":-0.20514066586473917,"118":-0.27452869665062224,"119":-0.31127144609060103,"120":-0.6029310680490125,"121":-0.13598324312373541,"122":-0.23303384172265607,"123":-0.22997257584387612,"124":-0.24881028068853753,"125":-0.46974558525059185,"126":-0.317124718809398,