{"layers":[{"out_depth":1,"out_sx":24,"out_sy":24,"layer_type":"input"},{"sx":5,"sy":5,"stride":1,"in_depth":1,"out_depth":8,"out_sx":24,"out_sy":24,"layer_type":"conv","l1_decay_mul":0,"l2_decay_mul":1,"pad":2,"filters":[{"sx":5,"sy":5,"depth":1,"w":{"0":0.10846035665477277,"1":0.3585697595024187,"2":0.33101591267173514,"3":-0.5107609159536404,"4":-0.32426669931742647,"5":-0.1454615195773971,"6":0.3819198229182287,"7":0.15782534300138684,"8":-0.3417487165662322,"9":-0.4399082052444591,"10":-0.15304286222534236,"11":0.27589990678953175,"12":0.2957988632560176,"13":-0.311213054803867,"14":-0.4310126336570204,"15":0.3552565230309627,"16":0.6148766197225005,"17":-0.010825908845487208,"18":-0.7579096660442649,"19":-0.37071365980212484,"20":-0.2643487921204873,"21":-0.46640102324124944,"22":-0.7056866229355393,"23":-0.2492713175798903,"24":0.2872745461430771}},{"sx":5,"sy":5,"depth":1,"w":{"0":-0.24415115639286192,"1":0.09576289836974541,"2":0.22097854103975842,"3":-0.07997556756818969,"4":-0.7674466065223271,"5":0.14344496927540246,"6":-0.06624556749256,"7":-0.2950418678200822,"8":-0.4065438639829726,"9":0.0483661464896678,"10":-0.17228774323728202,"11":-0.16394896239783388,"12":-0.34927242179048174,"13":-0.31665733179670535,"14":0.08137591154895502,"15":-0.019688962389668822,"16":-0.22471905366637254,"17":0.24494087625608316,"18":0.47148843829511294,"19":0.376346778931865,"20":0.4496377115762989,"21":0.23376057003249484,"22":0.09904392830135388,"23":0.13478351862641783,"24":0.15842102996082144}},{"sx":5,"sy":5,"depth":1,"w":{"0":0.26585446812856106,"1":-0.05909696514343159,"2":-0.05113981200246444,"3":0.06829273335443967,"4":0.05608438013953554,"5":-0.08842487785095209,"6":0.3776815061314185,"7":0.045406689653263596,"8":0.20862058274831097,"9":0.1907163481763554,"10":-0.06120164205874774,"11":0.45354118787563485,"12":0.40366118295891223,"13":0.12517324455585732,"14":0.4558061754777583,"15":-1.2562340759695358,"16":-0.6747818060222674,"17":0.14175261207582004,"18":0.2050218758246048,"19":0.12086342323044502,"20":-0.185728067548428,"21":-0.7438772136800988,"22":-1.1295379354762798,"23":-0.9894345219865863,"24":-0.819982055801173}},{"sx":5,"sy":5,"depth":1,"w":{"0":0.06739816380306682,"1":-0.37735595111894826,"2":-0.02099689442172645,"3":0.3752917707626356,"4":0.553315025252378,"5":-0.231212390460718,"6":0.11749105416945602,"7":0.8360754231844765,"8":0.22918054245156347,"9":-0.18721812376760502,"10":0.4133061478088834,"11":0.3671130146047809,"12":0.16356588083404913,"13":-0.7261176366249327,"14":-0.8360261574360756,"15":0.024728460805039053,"16":-0.29260033778513683,"17":-0.8114500313017363,"18":-0.7482463959850107,"19":0.4946245780978484,"20":-0.16340239684150146,"21":0.05350155464520467,"22":0.12721865566872403,"23":0.481778240233267,"24":0.19002486131231425}},{"sx":5,"sy":5,"depth":1,"w":{"0":0.3327563151510782,"1":-0.05431624250185446,"2":0.067624128856387,"3":-0.0156433567125287,"4":0.2729348438360732,"5":-0.1931310274714669,"6":-0.4347670339569627,"7":-0.403342024961375,"8":0.26878953000108247,"9":0.14485037006634222,"10":-0.35472989306274777,"11":-0.2232746094253587,"12":-0.16127000739600986,"13":0.37504581554232636,"14":0.195041928439591,"15":-0.35055258714298443,"16":-0.25729586395076387,"17":-0.05205195118640259,"18":0.042543327594675384,"19":0.47283402209824105,"20":-0.09303181795982154,"21":-0.4460100155352587,"22":-0.4141495412034741,"23":-0.19819577435333066,"24":0.37332293770015584}},{"sx":5,"sy":5,"depth":1,"w":{"0":0.22760470518282164,"1":0.042903001503263594,"2":0.038862942545011915,"3":-0.17900662282408966,"4":-0.7123015371028801,"5":0.04258077939322729,"6":-0.2472705427449566,"7":0.681147727408328,"8":0.896238814171684,"9":-0.08009761931035433,"10":-0.12770188994177595,"11":-0.5656843194081244,"12":-0.3440563764586294,"13":0.5557093497084974,"14":-0.28370442378177096,"15":0.14101158091942764,"16":-1.0187128658430442,"17":-0.33967227975928066,"18":0.31368047275302124,"19":0.034077969535799196,"20":0.8355374370624133,"21":-0.5696146609449471,"22":-0.18095036855538912,"23":0.07616562935800192,"24":0.11359071641416377}},{"sx":5,"sy":5,"depth":1,"w":{"0":0.10356242608513871,"1":-0.2570033438172985,"2":-0.3365994206427009,"3":-0.09085080680823554,"4":0.3890691508611318,"5":0.5202920971359394,"6":0.13761275399953982,"7":-0.36676984272704016,"8":-0.7123414758108466,"9":-0.17873025305167456,"10":0.1218280465689385,"11":0.42821064112967083,"12":0.11411707890892103,"13":-0.33859237974069184,"14":-0.3294207376662328,"15":-0.13887446079659407,"16":0.3829131919112616,"17":0.752068656924532,"18":-0.024844035825674238,"19":-0.35594487238607275,"20":-0.0961155164109891,"21":-0.2165558822777303,"22":0.34780078470712666,"23":0.26538342853093766,"24":0.0355168979035886}},{"sx":5,"sy":5,"depth":1,"w":{"0":0.10683692514008043,"1":-0.0343949266276522,"2":-0.2982140805241862,"3":-0.6029018011729691,"4":-0.44918378704603557,"5":-0.35437011944265695,"6":-0.8183011067419936,"7":-0.8469102332969758,"8":0.02716823164600194,"9":0.4335549084304409,"10":-0.5095807557922372,"11":-0.5297108217790443,"12":0.27955799656038155,"13":0.47697546600699003,"14":0.25902302839612007,"15":-0.5511657339863083,"16":-0.12672547465300715,"17":0.19443689121886573,"18":0.38065178832969215,"19":0.12022455669294388,"20":-0.7051828200264373,"21":-0.16294880306249687,"22":0.2060045996405936,"23":-0.043163034825335914,"24":0.014549573690340916}}],"biases":{"sx":1,"sy":1,"depth":8,"w":{"0":-0.017629115498205748,"1":-0.03185759111937829,"2":0.1566516621097164,"3":-0.30904082933324756,"4":-0.5661849799904211,"5":-0.2856039067553417,"6":-0.4252432204577814,"7":-0.011556109221739077}}},{"out_depth":8,"out_sx":24,"out_sy":24,"layer_type":"relu"},{"sx":2,"sy":2,"stride":2,"in_depth":8,"out_depth":8,"out_sx":12,"out_sy":12,"layer_type":"pool","pad":0},{"sx":5,"sy":5,"stride":1,"in_depth":8,"out_depth":16,"out_sx":12,"out_sy":12,"layer_type":"conv","l1_decay_mul":0,"l2_decay_mul":1,"pad":2,"filters":[{"sx":5,"sy":5,"depth":8,"w":{"0":0.20468254213575798,"1":-0.1745055201037411,"2":-0.07977413875223897,"3":-0.11962002700212142,"4":-0.3390667612112541,"5":-0.3746188167949469,"6":-0.10143161314831636,"7":0.23763571389951949,"8":-0.26978584622623675,"9":0.19434597055014727,"10":-0.0043744434089134825,"11":0.13841524661119042,"12":-0.27320785892980765,"13":-0.3449539834841126,"14":-0.11748363529387473,"15":-0.07077646418083272,"16":-0.2353401741791636,"17":0.08598737550342085,"18":0.4467621791180373,"19":-0.10290510397924903,"20":0.07807111354403838,"21":-0.08894443060586711,"22":-0.17274826660438278,"23":0.3102336524995806,"24":0.029311599103251342,"25":-0.14320762119422292,"26":0.08528316454917031,"27":-0.11289359744820865,"28":0.04621429528468601,"29":-0.000359396589862517,"30":0.11376958558563872,"31":-0.12405018607773197,"32":0.4248563833986509,"33":-0.2937687977948233,"34":-0.16810136200001674,"35":-0.15201548776857754,"36":-0.1518717732535692,"37":-0.19632976960272402,"38":0.007898012122494307,"39":-0.04332844911488132,"40":-0.004515989351771091,"41":0.30658507679489627,"42":-0.31048151250503697,"43":0.25721491021056087,"44":-0.03875468426940026,"45":-0.3594612399062557,"46":-0.059851537715850715,"47":-0.027245650463176115,"48":-0.22753436647837574,"49":0.15891175665815863,"50":0.20523656910791024,"51":0.17224286283382878,"52":0.08133777855412636,"53":-0.1343157167127939,"54":0.31366959934943195,"55":-0.017627804191017754,"56":-0.04215961617384397,"57":-0.2687203593558872,"58":0.015807450472191256,"59":-0.1559457802912004,"60":-0.07150399914445632,"61":-0.011012627836939178,"62":-0.03563801264110178,"63":-0.07962794092670135,"64":-0.007007161236331085,"65":-0.4744297768760544,"66":-0.38403105456320485,"67":-0.26784667139229246,"68":-0.06732821145439144,"69":-0.1840044441453556,"70":0.0539784678652874,"71":-0.13312757804386932,"72":0.15046046985717534,"73":-0.31708763744990043,"74":-0.41033461131637433,"75":-0.01219767278787723,"76":-0.20785508306625905,"77":-0.2209679942714737,"78":-0.08746880576039838,"79":-0.20549740062445754,"80":0.3364861497254901,"81":0.292136524210803,"82":0.0077468036071516345,"83":0.5424206634500663,"84":0.1063043016695653,"85":0.08604597385003279,"86":0.4969761033714419,"87":0.2621097588723609,"88":0.12633514160718695,"89":0.004783855450758751,"90":0.3692995956004637,"91":0.21819119242559273,"92":0.2123550418442117,"93":-0.006060469758182716,"94":0.03413983847413687,"95":0.1686630096577433,"96":-0.07049334377153395,"97":-0.4332657701475701,"98":0.06030255057236376,"99":-0.14299647536745705,"100":0.03384785790350283,"101":-0.18254573009139213,"102":-0.26773576192013265,"103":-0.1377487719475191,"104":-0.2169818001000863,"105":-0.10915313718591932,"106":-0.4841709090141041,"107":-0.14548362317730018,"108":-0.13199621205347178,"109":-0.3077345962091248,"110":-0.14570948540538423,"111":-0.15563372846226414,"112":-0.01215807687718319,"113":0.14107150319614883,"114":-0.20911133276702443,"115":0.2230418968113676,"116":-0.2189603536473967,"117":-0.10342012685618855,"118":-0.3049243689813004,"119":0.010404039183446302,"120":0.6402385328265416,"121":-0.09878045676873522,"122":0.384199480076854,"123":-0.13513306789498197,"124":0.1250497482009449,"125":0.13315923150864326,"126":-0.010021569119514743,"127":0.521025314988006,"128":0.2598467550402038,"129":-0.5384553824862046,"130":-0.21106310664121053,"131":-0.21676877680000278,"132":0.0646829808875256,"133":-0.2282498258285777,"134":-0.1967996401101904,"135":-0.11228773898630212,"136":0.05038219845672047,"137":-0.27721032313441524,"138":-0.16751376289758518,"139":0.07637265267293632,"140":0.05142816652890223,"141":-0.2980363100530446,"142":-0.14590465039853895,"143":0.06863055025171265,"144":-0.016981504820208763,"145":-0.16502755481152084,"146":-0.14920831143586255,"147":-0.23755655533151207,"148":-0.22272348340919132,"149":-0.23550783130811542,"150":0.06901773866315004,"151":0.01121664049601473,"152":-0.01952431605122506,"153":0.4760598477017978,"154":-0.4440732064415745,"155":-0.23933421213941997,"156":-0.18415573496057625,"157":-0.24270457417689956,"158":-0.16091374262953648,"159":0.4158672770557087,"160":-0.16728843462721907,"161":0.007480732918834187,"162":-0.09663496774685013,"163":-0.060079832753465304,"164":-0.07554871953755826,"165":-0.23715532719028848,"166":-0.13777750751824272,"167":-0.30920287597348084,"168":-0.03500107072972003,"169":0.01985120388801641,"170":-0.07388509333926513,"171":-0.07199057273856073,"172":-0.10332345251174549,"173":-0.3541112358480375,"174":0.05687606982122622,"175":-0.44811037961662925,"176":0.09333684620200554,"177":0.021016039371668974,"178":-0.12733397100737565,"179":0.2684561795216742,"180":-0.16655033438799527,"181":0.08320165580049357,"182":-0.1431236056332785,"183":0.004242692861743445,"184":0.3300630279966626,"185":0.14058313115774387,"186":-0.19477735678644817,"187":0.09538456629716992,"188":-0.2495933789968977,"189":-0.381219806707692,"190":0.005793975050359482,"191":0.22688257779080587,"192":0.2003108150183281,"193":0.1380709448113637,"194":-0.44877003186936854,"195":0.20814616701782465,"196":-0.018219213561849894,"197":-0.485539487740999,"198":-0.19047929536335453,"199":0.5326658958870509}},{"sx":5,"sy":5,"depth":8,"w":{"0":-0.33929344190780847,"1":0.6764405809940119,"2":-0.08253668434576591,"3":0.202197132017343,"4":-0.38579992022342696,"5":-0.16794722546428922,"6":-0.4231539506222851,"7":0.5273724128802895,"8":0.002206466284017249,"9":-0.09694941533181302,"10":-0.2958776415228627,"11":0.06300401016283892,"12":-0.1657929288301911,"13":-0.3331323615306644,"14":-0.4603980958058279,"15":0.22471905426469926,"16":0.0592791366721938,"17":-0.5666817895651098,"18":-0.358485430047705,"19":-0.02235241928438249,"20":0.19079929316854305,"21":-0.11956857332806471,"22":-0.2243140018011592,"23":-0.0638796783623287,"24":0.34863989342895463,"25":-0.7236307794769449,"26":-0.14175870227549303,"27":-0.03882543846144611,"28":0.21503470229882077,"29":-0.1785480935671443,"30":-0.24312033500164937,"31":-0.5073440152237848,"32":0.39521901932558073,"33":-0.45895938308434175,"34":-0.21037329478252603,"35":0.2141537931776349,"36":0.03407787316643088,"37":0.1715799482328842,"38":-0.05215563412550005,"39":-0.29184151860392876,"40":-0.2665066265211532,"41":-0.4348600658400335,"42":0.04519170186364037,"43":0.3252464349351375,"44":-0.3762110826926341,"45":-0.2089976628289552,"46":-0.37096612341288226,"47":0.30489249625499654,"48":-0.04486252024938449,"49":-0.48618959824632396,"50":-0.5324435567688512,"51":0.12578135952538944,"52":0.19404269904399774,"53":-0.06270672609314368,"54":-0.37932181245761676,"55":-0.20143867444114422,"56":0.30094370838997686,"57":-0.22583836054818965,"58":-0.21677810346241275,"59":-0.04875837575060749,"60":0.08482640402390382,"61":0.09801010887517185,"62":-0.35620047205020594,"63":-0.2292086030976251,"64":0.19900037815684288,"65":-0.3292147543408441,"66":0.09041628682726809,"67":-0.03629048792378573,"68":0.14016610043644345,"69":0.13490174768292856,"70":-0.14414944728328222,"71":-0.35785345092750376,"72":-0.0009474849637312165,"73":-0.3954759223584906,"74":0.1355618152428228,"75":-0.10175980219420645,"76":0.38220764963926046,"77":0.3800256057686448,"78":0.12346233803545464,"79":-0.2391431737149358,"80":0.10454706614515542,"81":-0.23859668797917213,"82":-0.4531468368772207,"83":-0.12256562829340285,"84":0.5155390184691859,"85":-0.36222053967347895,"86":-0.4292376514614722,"87":0.2886092136705339,"88":0.35452998402330943,"89":-0.34408961078515116,"90":0.12167723617819493,"91":0.1434984820484989,"92":0.7467854942312127,"93":0.04786809062132328,"94":-0.31674214036615356,"95":0.2068800723201278,"96":0.48299358621013877,"97":0.17262510914248339,"98":0.3342053139763381,"99":0.21642024868442114,"100":0.3132368280953677,"101":0.3395999419246614,"102":-0.01589516767880864,"103":0.14760960302543738,"104":0.603912039955634,"105":-0.07723122921950593,"106":0.4116253510873097,"107":-0.007335989083803573,"108":0.1126459304088674,"109":0.018092325279389202,"110":0.2412495178558675,"111":-0.12634052388650188,"112":0.646328441807968,"113":-0.17746726038240906,"114":0.4775872958832208,"115":0.2200489784810046,"116":0.5411468528070523,"117":0.3781209148119276,"118":0.3884429146170798,"119":-0.11465259214150558,"120":0.4976017654315388,"121":-0.532022005125129,"122":-0.493138666321699,"123":-0.23270012699047932,"124":0.351275842734485,"125":-0.230083912961722,"126":-0.4713341264319438,"127":0.3020374009152728,"128":0.4775392318479704,"129":-0.32048304564226837,"130":0.19846665267363198,"131":-0.06980735129795211,"132":0.2749924049962086,"133":0.10698310132115879,"134":-0.07282076094514865,"135":-0.09127782615624494,"136":0.0892576448680421,"137":-0.27422111253656273,"138":-0.07351811467005263,"139":-0.24952502959276493,"140":-0.062301537080741515,"141":-0.05443023356488242,"142":-0.12902260510962418,"143":-0.2882465349129565,"144":0.5134381617832444,"145":-0.36159516033748484,"146":-0.18734700501130264,"147":-0.07221313484142011,"148":0.19099014529993488,"149":-0.1699552339644274,"150":0.2079524279398184,"151":0.061300887353147454,"152":0.39199177512338274,"153":-0.3139469246534825,"154":0.35044344065300853,"155":0.13960610058767492,"156":0.16014117066521757,"157":0.17933619919937122,"158":0.22766143640361736,"159":-0.09918853262308294,"160":0.41488198411856997,"161":-0.492868437317587,"162":-0.05021320538259068,"163":-0.11631147604588876,"164":0.08276012059807106,"165":-0.34025541214130944,"166":-0.4795514665906798,"167":-0.021365841174693697,"168":0.03846705594870603,"169":-0.40671432117697714,"170":0.10775720611785965,"171":-0.20403539854651095,"172":0.21201044188497048,"173":-0.08214934173639729,"174":-0.07782496916337232,"175":-0.2956143786429272,"176":0.17874780070484536,"177":-0.14545650567790439,"178":-0.2922631523345021,"179":-0.07273144185446784,"180":0.26005063026406106,"181":0.4097774537927443,"182":0.07372611526519986,"183":-0.15596715160246394,"184":0.22116881377957298,"185":-0.11953623206960194,"186":-0.0861823015143885,"187":0.04365545243354124,"188":0.06644299790934369,"189":-0.02733534122111944,"190":0.19668566122136275,"191":-0.15402983508382925,"192":-0.10220952863296708,"193":-0.11350230696524785,"194":0.15181607574249428,"195":-0.2986713314400802,"196":0.008584618280233628,"197":0.15944651178914462,"198":0.287924780694046,"199":-0.4082772469230765}},{"sx":5,"sy":5,"depth":8,"w":{"0":0.2643770495943684,"1":-0.38681579540941136,"2":-0.009852721556007712,"3":0.3986879595683865,"4":0.06963284360958454,"5":0.2032273324276418,"6":-0.2769391753953805,"7":-0.23151368426709468,"8":0.8314150101412885,"9":-0.5665761192110105,"10":0.053053519354558126,"11":-0.4292944686392818,"12":0.271979352440117,"13":-0.057341478453819594,"14":0.13811188473307992,"15":0.06197570068464837,"16":0.4225291918431732,"17":-0.29827289228497605,"18":0.22151832100816193,"19":0.021975798583692654,"20":-0.10880255831506218,"21":0.0886818150160837,"22":-0.017206587842746444,"23":-0.16719952988599682,"24":-0.2498425799310422,"25":-0.20064182109440926,"26":0.045367794446888814,"27":0.448170241094909,"28":-0.5763149853737951,"29":-0.008365863691577843,"30":-0.40368013327440844,"31":-0.28331806841900975,"32":-0.2784443939196938,"33":-0.4075643799797401,"34":-0.41754350843967497,"35":0.49809650629793284,"36":-0.020113899990051528,"37":0.22085564718662498,"38":-0.1687553938475021,"39":-0.5629161084625741,"40":-0.23176366345111715,"41":-0.05808691049962973,"42":-0.356005458992365,"43":-0.16599598129328044,"44":-0.26039761573586684,"45":-0.00216548982140886,"46":-0.45582268335073106,"47":0.01412871245811871,"48":0.7752152783847559,"49":-0.47342091826146354,"50":0.08404661127264056,"51":-0.3608627432318083,"52":-0.05379447703078579,"53":-0.5089001118436823,"54":-0.32384431215985715,"55":-0.011574604115499654,"56":0.25662431353511445,"57":-0.28827914794987547,"58":-0.40262983549666775,"59":-0.1892705839953774,"60":-0.1447552647478575,"61":-0.1957600957869592,"62":-0.08626050546890622,"63":0.09891130855935805,"64":-0.1250924993116791,"65":0.04717566016147913,"66":-0.12721487031233192,"67":0.12155473332580134,"68":0.1209470567072687,"69":-0.2588691934856816,"70":-0.1344080857411502,"71":0.6676395887195541,"72":-0.0742231476590607,"73":0.42401062893803815,"74":0.212607340091726,"75":-0.019384952128907534,"76":0.3389518350172361,"77":-0.002754512561890575,"78":-0.2312008615618095,"79":1.0586590653501262,"80":-0.24613087608024728,"81":0.16257936619231156,"82":0.1744458179593554,"83":0.45598011280200196,"84":-0.14016575293098074,"85":-0.24376214927479786,"86":-0.1936202152020777,"87":-0.212083719687481,"88":0.36749480172443977,"89":-0.24747649962917975,"90":-0.08079723015869122,"91":-0.0567966103129711,"92":-0.03887863228899864,"93":-0.2764944871474536,"94":-0.22713167830219824,"95":-0.04981793705764777,"96":-0.012046321767340095,"97":-0.3809418037558733,"98":-0.13642848974641894,"99":-0.4208624744892328,"100":0.060325888662894844,"101":0.014369734821394592,"102":-0.10904843564504596,"103":0.11238856373370584,"104":-0.03334054170733095,"105":-0.3672758941491632,"106":0.5521040868035331,"107":0.026467211785234177,"108":0.3250245011355776,"109":0.4465365521943349,"110":-0.06821237933203697,"111":0.2845988672649976,"112":0.19162618664008202,"113":-0.0764074609798674,"114":0.5124968577413365,"115":0.3489104746405439,"116":-0.04446204480348417,"117":0.18711124520087558,"118":-0.13100590134200488,"119":0.491064049763455,"120":-0.0033759007012722575,"121":-0.2638990583086563,"122":-0.24310884404197558,"123":-0.027307448488560777,"124":-0.09267328386226378,"125":-0.07859651515164041,"126":0.3518421166458387,"127":0.10434456080118161,"128":-0.08304279563315065,"129":-0.2585045446948864,"130":0.12017467345265806,"131":-0.3354870104501657,"132":-0.08568159605632081,"133":0.011348420493954197,"134":-0.30854431398820725,"135":-0.1590061214280197,"136":-0.12467276744085631,"137":-0.5090460496881359,"138":0.30115347334127296,"139":-0.3147302985526954,"140":0.03499988640341658,"141":0.056498884503352886,"142":0.003142417051578633,"143":-0.5384597878313442,"144":-0.3108144472450527,"145":-0.08334728074113681,"146":0.37411038254307005,"147":0.12494169868867276,"148":-0.1168824856189595,"149":0.3947653678640246,"150":0.0007802014627813461,"151":-0.75963396417235,"152":-0.3659527787004371,"153":-0.29120061016399973,"154":-0.757951032236839,"155":0.27625622435573927,"156":-0.25086720786881556,"157":-0.042792085548542746,"158":-0.21670250216047748,"159":-0.9256458811942784,"160":-0.24122307542773658,"161":-0.4406816489052038,"162":-0.3572726343341978,"163":-0.22790506398644395,"164":0.14547416383802358,"165":0.33342504959902763,"166":0.3549596449558468,"167":0.2618136340696434,"168":-0.07877261358756728,"169":0.4052212061310441,"170":-0.15475390222033023,"171":-0.0491466435080921,"172":-0.034687958856790456,"173":0.25633973884429484,"174":0.14847301735016388,"175":0.15345700047446034,"176":-0.33773583907979615,"177":0.4844433861864445,"178":0.013866106111121495,"179":0.050842259062623275,"180":-0.24750137170633335,"181":0.035532086389838013,"182":-0.1167299806308935,"183":-0.14545040371498955,"184":-0.3438320461452949,"185":0.44938234330257965,"186":0.10115977501343354,"187":-0.1005505644747191,"188":-0.4719181324322627,"189":0.0682925750886126,"190":-0.11844751459243043,"191":-0.19034829597479166,"192":-0.08458861991574806,"193":0.19287851472424897,"194":0.07466812522192054,"195":-0.2961076747405589,"196":0.3379359527391051,"197":-0.10530637748243854,"198":-0.10462653398200263,"199":0.44909211492023593}},{"sx":5,"sy":5,"depth":8,"w":{"0":0.3476062761081614,"1":-0.07666403943776257,"2":0.4678742125613018,"3":0.06127660949361543,"4":-0.03642431154553425,"5":0.3801535268475209,"6":-0.022784476645081916,"7":0.011490170666514954,"8":0.19474917822598592,"9":-0.10286084187081837,"10":0.16965253798109778,"11":-0.050243062085355304,"12":-0.17965868375180324,"13":-0.029671742362876025,"14":-0.19447414194898294,"15":-0.22374634853608727,"16":0.1810574208018754,"17":-0.12124531851936135,"18":0.28397270432466265,"19":-0.051601897109691805,"20":-0.22529379358799917,"21":0.0029983759131600603,"22":-0.19454776893596679,"23":-0.11804522156991532,"24":-0.27273492831543905,"25":-0.2600562268498619,"26":-0.03286975566271767,"27":-0.006533005653833682,"28":0.06484396179054348,"29":-0.1213826273097332,"30":-0.36283224900604566,"31":0.1423651945617433,"32":-0.037677306475650006,"33":-0.12061617932108029,"34":0.06802313870263575,"35":0.40172527849837253,"36":0.021981823526820807,"37":-0.19522372840338556,"38":-0.6101244703221449,"39":0.15784245166848737,"40":-0.3911951195363137,"41":0.35641410112754435,"42":-0.10524782400503045,"43":-0.07429104252901045,"44":-0.3356502270410752,"45":-0.37712287850753134,"46":-0.24859653568769122,"47":-0.20266866278251006,"48":-0.23280870120218397,"49":0.2312083292608733,"50":-0.02177502493517898,"51":-0.2807092951513188,"52":-0.32227550103058955,"53":-0.36627993888238414,"54":-0.14603079977323488,"55":-0.31213223559607345,"56":-0.037577458895794544,"57":0.11941213436342132,"58":-0.02641791394139161,"59":-0.3053037846031205,"60":-0.27767699978775373,"61":-0.35268724377483823,"62":0.1396990693437967,"63":-0.14462428023946827,"64":-0.18249196132379694,"65":-0.22646095833006777,"66":-0.14609715445185276,"67":-0.40680444889371364,"68":-0.28626725552013155,"69":-0.312524804330383,"70":0.05587619804149763,"71":-0.35503051169044214,"72":-0.05903051838283127,"73":-0.05702539889908963,"74":0.17682475458706554,"75":-0.3141503433562526,"76":-0.003185344791237161,"77":-0.38189798708615447,"78":-0.3165794205276136,"79":-0.02998862952489848,"80":-0.2922978365763457,"81":0.19293204574084882,"82":-0.10467933250544526,"83":-0.17751262146593488,"84":-0.15573957430477214,"85":-0.483016004657332,"86":-0.10473023737749498,"87":-0.211386156572476,"88":-0.3500578718650829,"89":-0.11147606179330763,"90":-0.040236305327578666,"91":-0.24791543012577505,"92":-0.06590824185931535,"93":-0.21091037757761877,"94":-0.01886465623354402,"95":-0.24801430244547074,"96":-0.3003161363441961,"97":-0.06883691852090323,"98":-0.2593723716735747,"99":-0.2748362633549872,"100":-0.2050259952569066,"101":-0.20161092055403315,"102":0.10332614487053138,"103":0.019715139084598984,"104":-0.22419910613079697,"105":-0.2503319651553129,"106":-0.22467418258585103,"107":-0.33686390358406765,"108":-0.24811628944482192,"109":-0.1813217722671031,"110":0.054561114687083676,"111":-0.012256724906077016,"112":-0.08064418775909579,"113":-0.10523040405247701,"114":-0.018709797679498437,"115":-0.23642790343274334,"116":0.018637535485176458,"117":-0.4485529173870105,"118":-0.07187971781259643,"119":-0.21283239392389963,"120":-0.1241634459689849,"121":0.2915180451150785,"122":0.024501048170838254,"123":0.08900371162104458,"124":-0.23709272699273162,"125":-0.1575068765256121,"126":-0.15353791468951622,"127":-0.052171767175598086,"128":0.015911008271466826,"129":0.3360109982117854,"130":0.14521707579670246,"131":-0.21119894405852205,"132":0.10017038949803707,"133":0.1327653005090089,"134":0.10129030919211056,"135":-0.42971025304241806,"136":0.22913328127964935,"137":0.11214085640253728,"138":-0.2453622867700087,"139":-0.05218813005915685,"140":-0.22805567217098913,"141":0.011361678827187593,"142":0.11676528989031575,"143":-0.06211871920955197,"144":0.09076954899895025,"145":0.14946342075723895,"146":-0.23892427847670625,"147":-0.38967404509095416,"148":0.06634268798855636,"149":-0.22868894336437287,"150":0.03279144526886628,"151":0.17870498535690058,"152":0.160076074029352,"153":0.45246793176331446,"154":0.0344506932229284,"155":0.14318597108450398,"156":0.1059079580605257,"157":-0.12782158914384048,"158":0.039018631669885465,"159":0.25932741951358784,"160":0.17447181236149956,"161":0.16893781749503511,"162":-0.03906854618817867,"163":0.17964371534158735,"164":-0.2610515997021861,"165":0.21183438706828991,"166":-0.05269189027269889,"167":-0.2058141979252542,"168":0.13884192689705535,"169":0.18742377962739423,"170":-0.044002241896252056,"171":0.0609090050938563,"172":-0.003652661920067131,"173":0.3016392114279844,"174":-0.138388514890658,"175":-0.22722886268734932,"176":0.18769102403427435,"177":0.21932997066455448,"178":0.3739001674672353,"179":-0.00015688204930430313,"180":-0.0689967510053386,"181":0.0290669565809405,"182":-0.0018875277907328836,"183":-0.053611745397161625,"184":-0.19817751293126773,"185":0.20762025317186047,"186":0.4237765836696831,"187":0.1326056237351088,"188":-0.33248042681979784,"189":-0.2823724260770363,"190":0.08501746021681483,"191":-0.0319584254327643,"192":0.08235988982980855,"193":0.06438210754892693,"194":0.8501941348731433,"195":0.18162908858878002,"196":-0.07414022023728262,"197":0.1090270152956682,"198":0.19680111210563364,"199":0.0044621203120219655}},{"sx":5,"sy":5,"depth":8,"w":{"0":-0.11588374173479471,"1":0.014975341106528007,"2":-0.4751989741088261,"3":0.2264218432334445,"4":-0.14729929438656464,"5":-0.08902397011360037,"6":-0.3966528732008758,"7":0.39313788912530884,"8":0.11210529692905727,"9":0.02783804673928602,"10":-0.3372595707104451,"11":0.02822201969290885,"12":0.23432925206304334,"13":-0.28721039310790364,"14":-0.29280745519770623,"15":0.3500560543745194,"16":0.5653412743183428,"17":-0.27473041179261376,"18":-0.46899814437191145,"19":0.5829604321154304,"20":-0.027499319573354244,"21":-0.31533764070242337,"22":-0.04835538599989338,"23":0.39693633282918755,"24":0.5310596125670285,"25":-0.20122707895250383,"26":-0.541009298464266,"27":0.9450688318814345,"28":-0.5095392701719825,"29":-0.14433186762231948,"30":-0.2668861776388763,"31":0.12885836188320354,"32":-0.3170255195053471,"33":-0.305635001858375,"34":-0.14685233432501985,"35":0.36208505964500026,"36":0.11501519694750159,"37":0.4117195319720735,"38":-0.12668931133229042,"39":-0.10045575926159381,"40":-0.13929831481130553,"41":-0.6293272680091334,"42":-0.12043280382464341,"43":0.3731222128899543,"44":0.053998284222505404,"45":-0.22345684568187862,"46":-0.2723618521218215,"47":0.06650758484699125,"48":-0.37405637285432336,"49":-0.4196685553052443,"50":-0.2688345046176669,"51":-0.39995451693242945,"52":0.3005513629268398,"53":-0.24372393717316587,"54":-0.25543069765429033,"55":0.05425513976130593,"56":-0.3588104428899659,"57":-0.2727672225941981,"58":-0.24157214288240375,"59":-0.3826343514695003,"60":0.21856772398081725,"61":-0.008951953526245999,"62":0.05223813059793791,"63":-0.2612926308643943,"64":-0.6376371934250681,"65":-0.16253950414148083,"66":0.029502765779025067,"67":0.48816082063573174,"68":-0.129862190749215,"69":0.47011857845199834,"70":0.6771416871832135,"71":-0.906376358289529,"72":-0.21490240438183364,"73":0.38497142318863986,"74":0.0020359053220083464,"75":0.4095806947602597,"76":0.026926873998421294,"77":0.5403796464873806,"78":-0.18785594632804617,"79":-0.44520670214322683,"80":-0.20523073078517654,"81":-0.06784745817849164,"82":-0.018526166165006047,"83":-0.06857841187457257,"84":0.1029786193440051,"85":-0.059749470160572714,"86":-0.1610093305356653,"87":-0.21180081303705198,"88":-0.5765162847187358,"89":0.01007047659799793,"90":0.29535985029668005,"91":0.1397244890276693,"92":0.12122225426794742,"93":0.21815984038074676,"94":-0.014534158174589893,"95":0.1764561794288012,"96":-0.23326813334592708,"97":-0.09983385275386411,"98":0.4660438839489236,"99":-0.15646402923654534,"100":-0.02704839727621774,"101":0.5647653731117488,"102":0.3793854727198973,"103":-0.10339852934639444,"104":-0.13109709197194241,"105":-0.030645393404695527,"106":0.39340102784056447,"107":-0.3476673072692511,"108":-0.08634930324945034,"109":0.28396169216420364,"110":0.5630641446714684,"111":-0.41180900074529975,"112":0.07347851956250899,"113":-0.010190256238073389,"114":0.09237411376413596,"115":0.44211722283537835,"116":-0.07250806735208674,"117":0.18357569311899696,"118":0.08587981772244882,"119":-0.32385860883354484,"120":-0.20458374882234556,"121":0.4287848733826957,"122":0.08171744094979094,"123":0.07075727476753674,"124":-0.17517619310933788,"125":-0.10677927541009016,"126":-0.05596582651872954,"127":-0.3047610250685812,"128":0.052682191220122056,"129":0.2129707804212816,"130":0.0712870280539411,"131":-0.02304189955860217,"132":-0.2978814573085432,"133":-0.1388513352723842,"134":-0.5038638757656337,"135":0.15691894237289372,"136":0.03249910763597501,"137":-0.45094862041491374,"138":-0.22114359203915757,"139":-0.0789153199022787,"140":-0.023029831238398947,"141":-0.15494836522071648,"142":-0.29586777518235446,"143":0.4003650272591637,"144":0.09734367378328579,"145":-0.40015258422413746,"146":0.036909075958355825,"147":-0.5083003377237643,"148":-0.19463014159466469,"149":-0.13940113878485524,"150":0.22180679661998576,"151":-0.001989935011505478,"152":-0.45044493400716595,"153":-0.2755207749079433,"154":-0.21378473642661053,"155":-0.17009105664873575,"156":0.10488545001412054,"157":-0.13324032153225912,"158":0.16750891319891104,"159":-0.16630374262677936,"160":0.2046659691223677,"161":0.6244661901564373,"162":-0.08105972857009769,"163":0.28008650245302447,"164":-0.4350022710927926,"165":-0.2283224471704196,"166":-0.12615121237813826,"167":-0.06642703537743591,"168":0.03807864204136512,"169":0.25773361421605706,"170":-0.6543136845932391,"171":-0.04111209259657921,"172":-0.038819331484829925,"173":-0.3304883968682352,"174":-0.4476636258054446,"175":0.29879032034631997,"176":0.36271026612525564,"177":-0.1863982768932675,"178":-0.5284782361987073,"179":0.23239768785081438,"180":0.10033217301822199,"181":-0.40766828054986837,"182":-0.6268293880866972,"183":0.6326169085175493,"184":0.8500766402848607,"185":-0.3370521420935283,"186":-0.16713568087030306,"187":0.4713160041352832,"188":0.06453206512693198,"189":-0.00907918488529033,"190":-0.4085025113256565,"191":0.2657890190724408,"192":-0.04520429490825341,"193":-0.5577146624356877,"194":-0.1714709840539934,"195":-0.16147724945540126,"196":0.35205933738669865,"197":0.21257221074316748,"198":0.10270612849901968,"199":0.03052815066776302}},{"sx":5,"sy":5,"depth":8,"w":{"0":0.2260750341098433,"1":-0.14670214641628757,"2":0.3082887553951974,"3":0.22316864924453625,"4":0.1880156185961165,"5":0.7922205053560833,"6":-0.046049035183071546,"7":-0.4106404512559131,"8":-0.18039401073731148,"9":-0.38224133174125613,"10":0.41819305879987506,"11":0.21242534012460534,"12":0.027834461069260345,"13":0.5387839225111705,"14":-0.06159780987829936,"15":-0.25901023848998855,"16":0.0979248020491994,"17":-0.12963016667850286,"18":-0.05106568238723113,"19":-0.058528529755140814,"20":0.018576710694701525,"21":-0.006480337475152779,"22":-0.2611677715377826,"23":0.10586427417683077,"24":0.16347868446424565,"25":-0.1579989213984144,"26":-0.5302375539466969,"27":-0.26520974956761656,"28":0.09748740478398986,"29":-0.07705358897782595,"30":-0.21216482140637835,"31":0.4052192466284217,"32":0.2411981305888479,"33":0.1951599830746633,"34":-0.3687918932298854,"35":0.22381009803781238,"36":-0.35440590834850455,"37":0.05918031276904677,"38":-0.4934526454797938,"39":0.39262146133390374,"40":0.19035956168048274,"41":-0.2000820300995731,"42":-0.41113147480536677,"43":0.1260870256612618,"44":0.20725639309082872,"45":-0.1505051350077174,"46":-0.07111424104614665,"47":0.028570294826255074,"48":-0.29788664144303745,"49":-0.24477849708873797,"50":0.36647736165485634,"51":0.05155969921548932,"52":0.2749825992534622,"53":0.14764786216052517,"54":-0.09719553432483836,"55":-0.04325765487968428,"56":0.1560723226063801,"57":-0.3742614394673982,"58":0.3844554133967056,"59":-0.005346010545806178,"60":0.3050299823371851,"61":0.11805180740202127,"62":-0.05929875876080797,"63":0.019531174973755415,"64":0.4187651953205025,"65":-0.19667742404533214,"66":-0.3702542013717625,"67":-0.20095916914776185,"68":0.2485685992685793,"69":0.14316097654656554,"70":-0.18880965117330575,"71":0.11699478370108568,"72":0.3345565256695875,"73":0.2113361790050983,"74":-0.2677248523513227,"75":0.46300706342588566,"76":-0.2358306732561506,"77":0.024342503525497036,"78":-0.6172437880012197,"79":0.535033984939362,"80":-0.03145779008646247,"81":-0.08844865168841087,"82":0.08153226637390316,"83":-0.302449507121956,"84":-0.04653676772778315,"85":-0.13452609678434635,"86":-0.04387950325755424,"87":-0.0060756842288564,"88":-0.07652037497790551,"89":-0.2365142988999704,"90":-0.042597701633965146,"91":-0.24611715886215765,"92":0.08757084385985618,"93":0.016661824324024372,"94":-0.02809306651576379,"95":-0.16578932776350316,"96":0.014933972140401382,"97":-0.2661610995440507,"98":0.5772138513195859,"99":-0.18070768399062717,"100":0.30443841617116124,"101":0.23165262695108846,"102":-0.11522564970990477,"103":-0.13285362942233023,"104":-0.20536935225794165,"105":-0.21467118748894332,"106":0.1042540786966406,"107":-0.5072001979481392,"108":0.5916451027570715,"109":0.3359858981752423,"110":0.06565085245287101,"111":0.13914558544745986,"112":-0.3403551209440886,"113":0.2169612169893375,"114":-0.07805652406738031,"115":0.09802171642639315,"116":0.5232023735556564,"117":0.26170197790918115,"118":0.2943298806714438,"119":0.354564317682555,"120":-0.18182642698626209,"121":-0.04005036664207224,"122":-0.15395285600348677,"123":-0.38668598599931114,"124":-0.11246704932788398,"125":0.03994257065863173,"126":-0.014894857128940236,"127":0.11158326580090618,"128":0.0014211888415915396,"129":-0.05635875652001782,"130":-0.1347075721507038,"131":-0.1649688605335844,"132":0.014079320972726456,"133":-0.0343978026170559,"134":-0.17595766040395838,"135":-0.19299889683754634,"136":0.16312481535842596,"137":0.11826307080883194,"138":0.3315222288071419,"139":-0.24576487445197462,"140":-0.11131771824699399,"141":0.06050897067108533,"142":0.16703180758819391,"143":-0.3133130725965218,"144":-0.20723638290497576,"145":-0.4255258651551565,"146":0.24672048026735396,"147":-0.5471005495098883,"148":0.038500085449576046,"149":0.1236937139615356,"150":0.01179607638103874,"151":-0.1677297578575579,"152":-0.6029582839133034,"153":0.042761398943878134,"154":0.6691358411595064,"155":-0.45521006464614505,"156":0.4304558977785654,"157":0.27267680055293947,"158":0.2482478522688121,"159":-0.019427321030643905,"160":0.08268936302389686,"161":-0.01050261113706031,"162":0.03497163519837677,"163":-0.14781903078820324,"164":0.04174236086024075,"165":0.1570499671191791,"166":0.44423079954946043,"167":0.25584672066512737,"168":0.254640559263086,"169":0.18179945574498863,"170":-0.13464993860263547,"171":0.048676792538062945,"172":0.08383826412886597,"173":0.11419064362949961,"174":-0.07635074968517461,"175":0.23627310055447995,"176":-0.08527762188080387,"177":0.49036430434425016,"178":-0.10375467183327498,"179":0.02474959747508546,"180":-0.1357210875457503,"181":0.21932653488535894,"182":0.1611999035391198,"183":0.328305060876146,"184":-0.2504089925896954,"185":0.0028167283036673037,"186":-0.4341963888098735,"187":0.18878857598273724,"188":-0.3639612393153926,"189":-0.20545691265819224,"190":0.1652683403840275,"191":0.10386014308593258,"192":-0.1619807381452131,"193":-0.35658605685393907,"194":-0.40672789673085297,"195":-0.2588630377921715,"196":0.02857826486725176,"197":-0.1613642079990765,"198":-0.30294653544306654,"199":0.12819628993640592}},{"sx":5,"sy":5,"depth":8,"w":{"0":0.28087920300053604,"1":-0.17450024279627424,"2":0.09235564830145422,"3":-0.09990293385523995,"4":-0.030111057013469975,"5":-0.17539092637201747,"6":-0.02157854130225257,"7":0.36084460466332313,"8":0.31263470258039155,"9":-0.15199161273517203,"10":-0.0010666348344407395,"11":0.20894151294601712,"12":-0.023127159721875207,"13":0.11859537658562175,"14":-0.21127939405211602,"15":0.19972755907005801,"16":0.10279325959589249,"17":-0.30487013964995546,"18":0.11787096612141748,"19":0.37622381933889315,"20":-0.07718611656658514,"21":0.12844406021709645,"22":-0.5355914978614984,"23":0.24736602243555364,"24":0.2317281925607609,"25":-0.19981334147416313,"26":0.1912549338585693,"27":0.23122300775279087,"28":-0.1596072149699025,"29":-0.09759581853015177,"30":-0.5376798448751985,"31":0.006900683754809759,"32":0.25324795687859564,"33":-0.203734880599949,"34":0.37290241418273673,"35":0.19576558469807756,"36":0.08614018808262669,"37":-0.10692272505010678,"38":-0.3365236304381439,"39":-0.027137752534070553,"40":0.3424353937424767,"41":0.05633529853515619,"42":-0.2544089040586562,"43":-0.3634519299636052,"44":-0.04867715740191479,"45":-0.2433490909027866,"46":-0.21296786633045584,"47":0.24311488992485325,"48":0.07185020284099372,"49":-0.15628804505181246,"50":-0.09952554117914242,"51":0.015288065089822242,"52":-0.105929017590752,"53":-0.2720793773140109,"54":-0.07536745853811182,"55":-0.044754969344095265,"56":-0.03288752366063667,"57":-0.2303504616914377,"58":0.09355675599116287,"59":-0.02099960865658321,"60":-0.34825020134646534,"61":-0.49429924813603365,"62":-0.2486071427040408,"63":-0.24018296814202675,"64":-0.09917050831499268,"65":-0.09198194875737443,"66":0.19221504997077035,"67":-0.21433519423501543,"68":-0.3206779925371465,"69":-0.3297072688667719,"70":-0.34043638157088957,"71":-0.260997605727522,"72":-0.2146700319767049,"73":-0.20288350800470403,"74":0.2657497340748644,"75":-0.4180002718511018,"76":-0.06392334925111004,"77":-0.3275518978357669,"78":-0.11913541908853281,"79":0.2605956178156733,"80":0.08681963668562492,"81":-0.009788984482363384,"82":-0.022421251377759067,"83":0.2327705563675283,"84":-0.019747248180603114,"85":-0.25007865292608833,"86":-0.19920328582379992,"87":0.2724411994295913,"88":0.09792198046238977,"89":0.29042164945047255,"90":-0.037608648646975315,"91":0.2001752693654661,"92":-0.28253626045767677,"93":-0.297422568980654,"94":-0.1591890797953961,"95":-0.02930967739237436,"96":-0.1946103196163443,"97":0.3015106309893482,"98":-0.2454662755307302,"99":0.19768576786087752,"100":-0.4199252081780979,"101":-0.2938337245127899,"102":-0.24895322368044676,"103":-0.3250195148877879,"104":-0.40204195018911393,"105":0.1031668591563674,"106":-0.0848571713027066,"107":0.043854713520282286,"108":-0.24650839715208764,"109":-0.440213952850316,"110":-0.28211247219350144,"111":0.11446632982540106,"112":-0.22482147801748031,"113":-0.2782364255356708,"114":0.26582545269071767,"115":-0.5710194015419808,"116":-0.060673048225956844,"117":-0.07412831298046667,"118":0.6788856352776095,"119":-0.12152363383627765,"120":-0.5253402683629786,"121":0.5529511851021495,"122":-0.47279278432745525,"123":-0.11949833019521154,"124":-0.26558088665747387,"125":-0.2174730386207118,"126":-0.16536000820349983,"127":0.22030391465081536,"128":-0.34727920622891156,"129":0.09166895499548272,"130":-0.1603711867752578,"131":0.02528902460845176,"132":-0.44076601816480243,"133":-0.2028311685161754,"134":-0.20223671834759052,"135":-0.09652379724435495,"136":-0.2090194399453916,"137":0.0214002691102381,"138":-0.08285642583236907,"139":-0.13288140906647136,"140":-0.1963123301905022,"141":-0.1773257873498457,"142":-0.11716680535742195,"143":0.38046508007214375,"144":0.008601055364872932,"145":0.14289761141885973,"146":0.211086709033665,"147":0.042538584066631094,"148":-0.1039197423919285,"149":0.25563520847367394,"150":0.24565743277548344,"151":0.6429697455959175,"152":-0.04260988047943203,"153":-0.009767132406568015,"154":0.04068030871920538,"155":-0.2632999268763758,"156":-0.20120408244721796,"157":0.144860544162267,"158":0.7740852530961734,"159":-0.12769902598382207,"160":-0.06617478647336103,"161":0.11267454418981378,"162":-0.8324407727659143,"163":0.09264405514448215,"164":-0.3595522413118735,"165":-0.23033369121159364,"166":0.06331512244337054,"167":0.12952986281163853,"168":-0.1424704221180367,"169":-0.2468718369182028,"170":-0.3299943143923048,"171":-0.25361651521577,"172":-0.23403858729845303,"173":0.07619447393503188,"174":0.2376363409847718,"175":0.06258665435977427,"176":0.04359910729250104,"177":-0.28766302026693114,"178":-0.13984311200334784,"179":-0.041530965956441165,"180":0.10525479068265302,"181":0.25834126322701445,"182":0.2247558012409251,"183":0.434031639962883,"184":0.07084909465637657,"185":-0.11491077457178422,"186":-0.056930509166453036,"187":-0.09967272922053697,"188":-0.018090393227504428,"189":0.2575970469000886,"190":0.33976027002337034,"191":0.28031693756657555,"192":-0.02530745591896083,"193":0.09864249225761565,"194":0.11112261505318065,"195":-0.3672190247054051,"196":0.08615047361321625,"197":0.21418051138420488,"198":0.7489345137458897,"199":0.316086851094679}},{"sx":5,"sy":5,"depth":8,"w":{"0":0.07362554991992712,"1":-0.3004777079112009,"2":0.368639315072368,"3":0.06293190791095339,"4":0.09364438441466633,"5":-0.25980608400112176,"6":-0.1641640237627537,"7":0.12710845382965089,"8":-0.04108737060359622,"9":-0.1449303958813046,"10":0.10470775006408604,"11":0.2335989134909999,"12":0.15021688978588382,"13":0.027931583360790727,"14":-0.24092286250537517,"15":0.2420307590962942,"16":0.19138886803460847,"17":0.12523214172841618,"18":-0.03220166163452074,"19":0.34190516783534813,"20":0.020555783399327374,"21":-0.06557980931687533,"22":-0.05003929303839739,"23":0.15158838655237655,"24":0.4892765559458797,"25":0.20868315575270965,"26":0.3957718108072507,"27":0.11507572263717851,"28":0.05775780193179034,"29":0.1450350245852921,"30":0.1430784805374535,"31":-0.005171977548594378,"32":0.3551715904337141,"33":0.1418195582060489,"34":-0.12520405177079869,"35":-0.2855716682480402,"36":-0.039576505548336076,"37":0.1363985501304978,"38":0.07668533813058957,"39":-0.158128657588813,"40":-0.2664295009131888,"41":0.09040669744260851,"42":0.21851194198025742,"43":-0.3215619919289129,"44":-0.005010090049796269,"45":0.0822833768557042,"46":-0.04588192491116192,"47":-0.1527895668103032,"48":-0.11370303467266862,"49":-0.17318585807206044,"50":0.07204627675705896,"51":-0.2197673808634359,"52":-0.16516948908054413,"53":0.04208331773931234,"54":-0.10599684697525946,"55":-0.00018306903063587467,"56":-0.048116119445892815,"57":-0.04299634047038398,"58":-0.4368668560336727,"59":-0.26265705090406016,"60":-0.05489061242599017,"61":0.007614890222873156,"62":-0.06369159706629142,"63":0.31332306553502837,"64":0.09387737125150114,"65":-0.019649436604059402,"66":-0.05104492131819697,"67":-0.33425190366833596,"68":0.09843597108838895,"69":0.14078122571971527,"70":0.10353026411908667,"71":0.30894515580719967,"72":-0.009630411278418714,"73":0.27149042903048837,"74":-0.2041288312794501,"75":-0.40203079934638675,"76":-0.0014982116666332032,"77":-0.15420682805973795,"78":0.18689231180159904,"79":0.3353281569241767,"80":-0.2197146965612459,"81":-0.005002100751792267,"82":-0.060315483882478114,"83":-0.33531028018348735,"84":-0.07385724655077358,"85":0.15709228910790438,"86":0.594023866802361,"87":-0.10129323233980492,"88":-0.3061393014807548,"89":-0.3015515072453478,"90":-0.20647763634084343,"91":-0.38465780893021373,"92":-0.04097013257604656,"93":-0.044551356615446056,"94":0.1212004138277411,"95":-0.1778302357844361,"96":-0.2695523742675214,"97":-0.38110240688874164,"98":-0.5347612648206048,"99":-0.36422574707070954,"100":0.12298055141684504,"101":0.1343809528704062,"102":-0.17854815314255776,"103":-0.01698622297485257,"104":-0.08939759123797385,"105":0.009204019612965252,"106":-0.2936890951616237,"107":-0.2995189067707565,"108":-0.028481425562823338,"109":-0.25749072706756454,"110":-0.2258520899805034,"111":-0.21090582826482923,"112":-0.10751489632445056,"113":0.33095092731310033,"114":-0.5486073816026187,"115":-0.19194974907891765,"116":-0.045043164792877684,"117":-0.1568010782247473,"118":0.20016273777615393,"119":0.5097486959160163,"120":0.18958248133960545,"121":0.06643127641046545,"122":-0.26586583162661503,"123":-0.31386173329344313,"124":-0.0903305584713269,"125":0.12253963317381711,"126":0.3445778585400101,"127":-0.2250952038899225,"128":0.0015759733401055675,"129":0.024154716743346506,"130":0.03609226693909841,"131":-0.3852571500171604,"132":0.012724523142929737,"133":-0.009014445293803653,"134":-0.07325986485777039,"135":-0.09999426330583525,"136":-0.2020321771656033,"137":-0.040354397349395554,"138":-0.44187431844011843,"139":-0.21311723647520528,"140":0.1631100408814509,"141":0.031188497458404046,"142":-0.06504577598036948,"143":0.16282128550092503,"144":-0.24476018975875943,"145":0.1012180613764086,"146":0.0775095879997542,"147":-0.19554436589027183,"148":-0.15468769587280176,"149":-0.35466955474986345,"150":-0.32278604403165423,"151":0.07772483297967803,"152":0.03464062990432433,"153":-0.11193352788993537,"154":-0.388005588024762,"155":-0.3448852781611623,"156":-0.2211702832007244,"157":-0.1115252754481799,"158":0.09431510241448918,"159":0.3046921013938561,"160":0.1669879883135788,"161":0.12011749889223262,"162":-0.5121156686735011,"163":-0.18631082374276642,"164":0.09049264608222113,"165":-0.06673424437004236,"166":0.3414773210553302,"167":-0.09432484378803788,"168":-0.008246373609982264,"169":-0.12962689652110765,"170":-0.15788541369924822,"171":-0.22816071786166237,"172":0.23455844183862368,"173":0.1290200142477188,"174":0.08448234220848479,"175":0.06661761143097385,"176":-0.2936041665746552,"177":-0.005611066561463575,"178":-0.04486369519594617,"179":-0.22162667683730597,"180":0.45986217477737507,"181":0.29277798446412584,"182":-0.4322086178753774,"183":0.3708136054543213,"184":-0.28880899880194333,"185":0.13966499537679475,"186":-0.02202629584251495,"187":-0.4642179174303456,"188":-0.05267294669541195,"189":-0.21593155656810376,"190":-0.1727137574830436,"191":0.1338885019316008,"192":-0.34327685038152045,"193":-0.09298930359166842,"194":-0.059716853330803524,"195":-0.5498517120934813,"196":0.2191785646447709,"197":-0.48630935958851296,"198":-0.006196100282697831,"199":0.3043324544142486}},{"sx":5,"sy":5,"depth":8,"w":{"0":0.02156833201047019,"1":0.30035922804207726,"2":-0.509873035056618,"3":-0.013145427396434928,"4":0.1269218641526247,"5":-0.0420845131571914,"6":0.3647331085610915,"7":0.46149734390073927,"8":0.38071904939172296,"9":0.05322961560654124,"10":-0.4348155577665734,"11":0.19458524327778712,"12":-0.01062581835561947,"13":0.06291196341628849,"14":0.15428053724399104,"15":0.3022371284177038,"16":0.37330714824035577,"17":0.10425228887068298,"18":-0.5415674234156628,"19":-0.08681318695383969,"20":-0.014118541442617719,"21":0.29754761638340915,"22":0.05660378740802713,"23":0.5568266022822649,"24":0.15266144030895354,"25":0.22185224759579586,"26":-0.4523592538200977,"27":-0.30146854946021073,"28":-0.1214709573873399,"29":0.16910633107018774,"30":-0.04316845744485217,"31":0.6515334021281369,"32":0.0809319280549536,"33":0.33401711305175147,"34":-0.2025946960197537,"35":0.1712574297808584,"36":0.047874224601242486,"37":0.02196492512309099,"38":0.20438926874295912,"39":0.1426064231439037,"40":0.27521764133494736,"41":-0.007960312905214153,"42":-1.129962467336508,"43":-0.1084470122272155,"44":0.031227974185999686,"45":0.10568178559429188,"46":0.21192323246147288,"47":0.040873757879132576,"48":0.551376447157853,"49":0.0806067776303365,"50":-0.722546108921145,"51":0.27188107987688226,"52":0.04712757734981305,"53":0.10560991367354607,"54":0.06953923876191032,"55":0.1585348329778568,"56":0.29142398228154764,"57":-0.02784455412221492,"58":-0.505004424228273,"59":-0.026720894192497645,"60":0.1669793112681997,"61":0.18912940827969577,"62":-0.04603011213680792,"63":0.19682827055533617,"64":0.31561109133790255,"65":0.05255738833409681,"66":-0.6292560392142614,"67":0.13331573027206894,"68":-0.15091536092302893,"69":0.09186452865570521,"70":-0.2628620785032338,"71":0.2661793747808561,"72":0.11528303919680459,"73":0.26903646700212563,"74":-0.35451235835400374,"75":-0.24410750407942436,"76":0.007245231055766229,"77":0.48057359198572003,"78":-0.11506004310676428,"79":0.20150069631040413,"80":0.3616324599229461,"81":-0.11445474646841257,"82":-1.1014973457772286,"83":0.3738223693542818,"84":-0.08239103212854074,"85":-0.11539402311315501,"86":0.05425372563401941,"87":-0.11550423965869415,"88":0.13447040331513543,"89":0.2603681680207946,"90":-0.5680903898342209,"91":0.18825525004629912,"92":-0.08677668692918875,"93":-0.21227173524842669,"94":0.11279145026957878,"95":-0.2808238728493711,"96":0.31514811412080146,"97":-0.04516876064711527,"98":-0.5738186707465688,"99":-0.25812483297877903,"100":0.12054460680761066,"101":0.15227137474731606,"102":-0.006298012710781338,"103":-0.07404489639672751,"104":0.42500896128915744,"105":0.04432712317749035,"106":-0.6766677024062099,"107":0.08604010783246129,"108":0.10618406502436543,"109":0.20343347438404094,"110":-0.047432358865110304,"111":0.25824369209703457,"112":0.005223738900713705,"113":0.2537820913987597,"114":-0.236152758874065,"115":0.5117993896458171,"116":0.08182625819012611,"117":0.2187763109311734,"118":0.10798612315058946,"119":0.12597335603463505,"120":-0.20692042339184685,"121":-0.033569450403581454,"122":-0.5915408653881271,"123":-0.14321032875849984,"124":-0.017046242403169966,"125":0.01794384375052561,"126":0.1214962608262668,"127":-0.5315659247039587,"128":-0.006052810257538096,"129":-0.02556185413063792,"130":-0.2410943176909356,"131":-0.06533569103487281,"132":-0.2143389270347398,"133":0.13285031379040405,"134":0.17530395085252953,"135":-0.5087196209911904,"136":0.21521855408372637,"137":0.0230676934724991,"138":-0.40234139587879103,"139":0.21522899928374542,"140":-0.09921934335489366,"141":0.2616530374223331,"142":-0.09585256595071077,"143":-0.13431536355095577,"144":0.023708078868219684,"145":0.1825705550834898,"146":-0.4477185889222866,"147":-0.16119690395640277,"148":-0.02467785547672925,"149":-0.007636047496284851,"150":-0.06099420556573683,"151":-0.05779822175664193,"152":-0.006969522403016398,"153":0.43814253463935277,"154":0.1517270562362983,"155":0.17964040752769975,"156":-0.15473172496359938,"157":0.010690740245238636,"158":0.17065530093036613,"159":-0.0430572005117341,"160":-0.03146545092599609,"161":-0.03951205808911756,"162":-0.11432281917311479,"163":0.04156028056905954,"164":0.16225964759801687,"165":0.5991053209300597,"166":0.4074289543563817,"167":-0.4773330095830405,"168":-0.3946627983657356,"169":-0.11963631976736308,"170":0.4970372337363875,"171":-0.27600794727204525,"172":0.21955373310417356,"173":0.5404269805020526,"174":-0.05001086259500898,"175":-0.5145420209051046,"176":0.11981737695147221,"177":-0.024964869472175806,"178":-0.021700063737434706,"179":-0.15447759656178986,"180":0.43276958325921944,"181":0.25424667771406767,"182":0.02327219891793239,"183":-0.16380388207603555,"184":-0.04959231703356267,"185":-0.14464525920714327,"186":-0.32562953501739167,"187":-0.1455499537298437,"188":0.01757259271220041,"189":-0.1425233243504545,"190":0.32067405209070693,"191":-0.24198008246981342,"192":0.030726450409822758,"193":-0.04955554404459834,"194":0.1623528681183318,"195":0.1872636452580596,"196":-0.37714248278369283,"197":-0.2525466956185458,"198":0.03984390678454894,"199":-0.15224456705195133}},{"sx":5,"sy":5,"depth":8,"w":{"0":-0.42242847483773943,"1":0.01446679754499577,"2":0.6756782968933956,"3":0.03181194869129688,"4":-0.006911526693983737,"5":0.11915887696889338,"6":0.33878724134655996,"7":-0.4447222994586046,"8":-0.4049859031608247,"9":0.2751709960292785,"10":0.20916969323030082,"11":0.01868305271675799,"12":0.2052310428005604,"13":0.308785653350357,"14":0.12308613684922094,"15":-0.6808404078135514,"16":-0.18445792034240244,"17":-0.1926484724079401,"18":-0.24298278832847556,"19":-0.18393601349118285,"20":0.28165343581474483,"21":0.2882902711910758,"22":0.39618503944883715,"23":-0.5674015763171274,"24":-0.029761629031101057,"25":-0.45163944561324026,"26":-0.2969727739525876,"27":-0.33366811182938855,"28":0.5058123668829825,"29":0.05422916350676369,"30":-0.03675527028223249,"31":-0.0906223417698168,"32":0.06451081101282138,"33":-0.3189621506595313,"34":-0.16074599345060844,"35":0.16210200104313208,"36":-0.04018825435357265,"37":-0.006942019278209701,"38":-0.0022669936423296193,"39":-0.1989320142021617,"40":-0.5402627528583476,"41":-0.08593580493778803,"42":0.12096150959324883,"43":0.2840920489358871,"44":-0.06835620110521645,"45":0.3047534786566551,"46":0.08966471145016051,"47":0.12177524492904283,"48":-0.4104627552574842,"49":-0.19742517834532708,"50":-0.40335400852950865,"51":0.13570031540840952,"52":0.12815586265575607,"53":0.12192013936657975,"54":-0.049905439471916016,"55":-0.3493345949851829,"56":0.1665555708487917,"57":0.141976261176018,"58":-0.7920928977080706,"59":0.2049747367391194,"60":0.00934782362904355,"61":0.09132886185807743,"62":-0.17191478310171895,"63":-0.22447237616304158,"64":0.2208174619311144,"65":-0.06531591521885695,"66":-0.3468701463312662,"67":0.18490195870282372,"68":0.023356099644044767,"69":-0.2566489987575354,"70":-0.32854163725707314,"71":0.03815544381434898,"72":0.2784577174177192,"73":-0.41461485169488155,"74":0.11416580210567055,"75":0.3573780648937131,"76":-0.08126052060848546,"77":0.10700068578402651,"78":-0.10675217939572804,"79":-0.1611525019461253,"80":-0.27943268837394636,"81":0.44093001152340855,"82":-0.26394937302280697,"83":0.13461471628483598,"84":-0.26579731943242346,"85":0.2410586350694317,"86":-0.025323230966977545,"87":0.4998450225486057,"88":0.037346948986389863,"89":0.11369193049353672,"90":-0.09744199681876853,"91":-0.25232113233990766,"92":0.1282939524805228,"93":-0.1167859108837083,"94":0.1322983767071151,"95":0.19639306210461407,"96":0.4067680662668009,"97":-0.015070841958607875,"98":0.013482530655920928,"99":0.42064041406573244,"100":-0.08727150070954012,"101":-0.353708269985133,"102":-0.0800984610517609,"103":0.15579174606815616,"104":0.1843505590758113,"105":-0.17184913025886714,"106":0.2261017616199102,"107":0.5830276537252187,"108":0.009077688428389538,"109":-0.3243086723145426,"110":-0.07058384182893328,"111":0.0006614731949477228,"112":0.2757606237926335,"113":-0.15365443366964907,"114":0.12695193315715209,"115":0.3456319406802847,"116":0.19939780561102055,"117":0.23318563693065456,"118":-0.022765111097182635,"119":-0.1482309984130367,"120":0.007691405360668872,"121":0.07668405581796396,"122":-0.3417296273310491,"123":0.027501476346702528,"124":-0.39136519167652745,"125":-0.1831918942871148,"126":-0.24813333115958688,"127":0.45386446593662627,"128":-0.02297844698763316,"129":0.10190844064960823,"130":-0.013321120733303559,"131":0.1525603143838422,"132":-0.1056989489058227,"133":-0.1586689924321418,"134":0.1647933161405942,"135":0.35307787897651394,"136":0.33646124726034127,"137":-0.1372321794963134,"138":0.18409393145445552,"139":0.06855071211318177,"140":-0.025530961562318478,"141":0.19033073212106735,"142":0.08787395870490405,"143":-0.04345557602114552,"144":0.016295819327437903,"145":-0.14069301563103753,"146":-0.22646200757576834,"147":0.09885146853841961,"148":-0.11705998813480152,"149":0.22768169384789216,"150":0.014160833583118898,"151":-0.1493507707313064,"152":-0.19960478707061102,"153":-0.24468205074485633,"154":-0.3261859998275914,"155":-0.3364534025677525,"156":0.2194605503770725,"157":0.32805884575316796,"158":0.06778987068005256,"159":-0.12387519684778198,"160":0.08141955443289717,"161":-0.2933270722512818,"162":-0.32927434126553345,"163":0.32923151536364026,"164":-0.22349576189004633,"165":-0.005270107406173396,"166":0.15203838393619487,"167":-0.2522327067677847,"168":0.24233513422131187,"169":-0.3090047429791549,"170":-0.04891844415299111,"171":0.13027274692592059,"172":-0.02878520440977543,"173":0.19157077955285098,"174":0.19671007364579918,"175":0.02260538993249665,"176":-0.12394582383511266,"177":-0.3649412437251658,"178":0.28514246168123697,"179":0.15058161685189989,"180":0.2547129568569021,"181":0.306694368029069,"182":0.1659029300789318,"183":-0.10068172456384784,"184":-0.12885434947334082,"185":0.09647884578349909,"186":-0.2704568322252073,"187":-0.1624131507282756,"188":0.028239141887427377,"189":0.12464563735382929,"190":0.03480522660623924,"191":-0.1199348572055813,"192":0.15436372366526138,"193":0.1239044934135099,"194":-0.5429878732139736,"195":-0.09572788327513321,"196":-0.14409877928905124,"197":-0.08612562000693434,"198":-0.035792923848617285,"199":-0.108052332955222}},{"sx":5,"sy":5,"depth":8,"w":{"0":0.10191638260926031,"1":-0.010058511985312322,"2":-0.3619437509454965,"3":-0.21426746263188332,"4":0.3568973051547282,"5":0.20407182584538391,"6":0.12081865545414658,"7":-0.1422150739642778,"8":0.37987898419066535,"9":0.15723494805566632,"10":-0.23612192841534194,"11":0.11831431179047744,"12":-0.22762383293164495,"13":-0.0037161870187704224,"14":0.06714032157208132,"15":0.02037273740579025,"16":0.4898763543454621,"17":-0.1893090956075121,"18":-0.07501540220937959,"19":0.14387695181542606,"20":-0.04738003627581673,"21":-0.3830931030863126,"22":-0.4512170425345163,"23":-0.16468843831472937,"24":0.5977080143184346,"25":-0.5600660212414742,"26":-0.12966505990193652,"27":0.06876446074481699,"28":0.1302817662418786,"29":-0.08569406095069025,"30":-0.8990043076273777,"31":0.02018972672546872,"32":0.4906212014103582,"33":-0.5656036217870474,"34":0.045939821790134346,"35":0.1753106209763125,"36":0.03853489106402314,"37":-0.14958160784028163,"38":-0.5761657121304156,"39":0.13439723891685276,"40":-0.11493782665615206,"41":0.33289420649586626,"42":0.1622611234579251,"43":-0.2177529139044921,"44":0.1599222791141684,"45":0.12103309187629913,"46":0.28770536763805227,"47":-0.4832148845170805,"48":-0.0013839927493539833,"49":0.1897674291237857,"50":0.07410730262443076,"51":0.16377345895896783,"52":-0.03594470526293683,"53":0.1487887338168638,"54":-0.14974856818821983,"55":-0.5318654783630131,"56":0.15546698383188778,"57":-0.30207705561812215,"58":0.13190381316282515,"59":0.4709255004349653,"60":-0.17623815285577119,"61":-0.3393999747685544,"62":-0.5096911767830706,"63":-0.3564034255534058,"64":0.6568063847143221,"65":-0.24356294158531794,"66":0.24603857520307593,"67":0.6110935230951264,"68":0.08340999047463153,"69":-0.2828023717475929,"70":-0.49442932347477603,"71":0.032497364642492685,"72":0.21789304942165905,"73":-0.131992367844797,"74":0.5408469967472096,"75":0.5589565880545079,"76":-0.19240514273216738,"77":-0.3333445643950504,"78":-0.27573177285818384,"79":0.13456466321848942,"80":-0.09504715716263389,"81":0.6063467497517749,"82":0.6650408239245861,"83":-0.12956257847156794,"84":-0.20313016352396238,"85":0.19798336620864207,"86":0.4716148985844287,"87":-0.31471458309280526,"88":-0.3730311923827348,"89":0.4506893531184852,"90":0.3095332918633889,"91":-0.4476990902783923,"92":-0.24984604054157283,"93":0.22334406575795143,"94":0.45030244477125125,"95":-0.5106814005648151,"96":-0.3734318501784935,"97":0.5361077922052973,"98":0.23548026305159142,"99":0.03770036773571111,"100":-0.36162300450683355,"101":-0.16635347254300115,"102":0.277142749576576,"103":-0.1809955559516418,"104":-0.15071970028600762,"105":0.5584877921045004,"106":0.35564351728242366,"107":0.4537368447992055,"108":-0.2865215942979092,"109":-0.19907690688987376,"110":-0.23962587866932825,"111":0.1658847733210194,"112":-0.08232927842172086,"113":-0.15147017472961516,"114":-0.06184348096474478,"115":0.22697878588011058,"116":-0.40757699486640925,"117":-0.30342461110927693,"118":0.042580293198333306,"119":-0.02975091438761463,"120":-0.11448465580744269,"121":0.2544897617132251,"122":-0.056735790290256986,"123":0.4944929647678143,"124":-0.28176028480578724,"125":0.08743118447564512,"126":-0.22435412980480998,"127":0.1522802416652477,"128":0.0010710714427867236,"129":-0.3525306510177548,"130":0.0037533454145336122,"131":-0.2483153425336474,"132":-0.08401142563489472,"133":0.39786719149694616,"134":0.04918012637655381,"135":-0.4647558346936579,"136":-0.1298449070232883,"137":-0.2278267582056677,"138":-0.3187426659087329,"139":-0.736097876265924,"140":-0.28993780854362966,"141":0.24615018426718296,"142":0.49586250352712935,"143":-0.3793877014579482,"144":-0.30110864455734226,"145":0.11334319388280743,"146":-0.29324004395587616,"147":-0.6813652314596668,"148":-0.19936374435307883,"149":-0.023648059438092207,"150":0.564073974453142,"151":-0.4590207404954922,"152":-0.33781154033429694,"153":0.20875977498999632,"154":-0.5649326874911527,"155":-0.456075379089962,"156":-0.3353888710283044,"157":-0.13065611630344867,"158":0.5710991136401994,"159":-0.0687611492754888,"160":0.060139313834307,"161":0.2124452745669207,"162":-0.1997474285481659,"163":0.43422308023427153,"164":-0.17069310905527393,"165":-0.10002746998101962,"166":-0.14349855575412274,"167":0.6344974059985042,"168":0.079622661297853,"169":0.28312900764012877,"170":-0.33313855183073,"171":0.37282582238390954,"172":-0.09591689550977806,"173":-0.0844312486907638,"174":-0.3133096634451782,"175":0.4008721469757221,"176":0.6211044335203713,"177":0.14647495408171302,"178":-0.7662172833700118,"179":-0.226534834608826,"180":0.3685701981745496,"181":0.04994770972382154,"182":-0.2563696819937238,"183":0.05625363479391609,"184":0.43738236321073254,"185":-0.0220240690663231,"186":-0.42871635343973796,"187":-0.358256570329914,"188":0.23884577354522826,"189":0.22444569759973496,"190":0.02333317628317547,"191":-0.325736626454121,"192":0.12462250513655539,"193":0.09606024903440462,"194":-0.43832528934984566,"195":-0.774194821202606,"196":-0.08341619076954211,"197":-0.010767633102656408,"198":0.7090143034220208,"199":-0.14457216222811087}},{"sx":5,"sy":5,"depth":8,"w":{"0":-0.4886370026138514,"1":-0.13684630118755772,"2":0.5245561163021054,"3":0.009271698963408587,"4":0.1175703226689894,"5":0.0301719578413897,"6":-0.24600436929193026,"7":-0.1476669335131072,"8":-0.3244396228084967,"9":-0.3309658500139947,"10":-0.3325023691736095,"11":0.025191901876452847,"12":-0.20186711023244813,"13":-0.2915701750849352,"14":-0.43344877380571184,"15":-0.05462752457261733,"16":0.03418344434819401,"17":-0.8016115932225527,"18":-0.05283677614244022,"19":-0.3094373660583872,"20":-0.14558992804892773,"21":-0.14978404400012116,"22":-0.1215384615786229,"23":-0.1979261613232455,"24":0.05284074771246415,"25":-0.3620675322117665,"26":0.16694423634394898,"27":-0.062005873277731514,"28":-0.05746548032973322,"29":-0.12058219160527436,"30":-0.03599153224226731,"31":-0.3032455048833041,"32":0.3648596950936399,"33":-0.14905793489416977,"34":0.20366240950589273,"35":0.23800765889762018,"36":-0.1483632526773287,"37":-0.1520701766565557,"38":-0.4146543759272791,"39":-0.15059393554541894,"40":-0.4237699391985088,"41":-0.3974161254203879,"42":0.3142747626533597,"43":0.16609975898467638,"44":0.35959297556480996,"45":0.0256701607255368,"46":-0.47680516893081987,"47":0.009344255436202523,"48":0.08435955958192044,"49":-0.054984837534763256,"50":-0.106807558194483,"51":-0.1272389679778848,"52":0.2453201388641662,"53":-0.08778522970742982,"54":-0.29223240513288395,"55":0.0754799484084365,"56":0.4376039951030793,"57":-0.138923692586178,"58":-0.047874899540655574,"59":-0.25169206237447966,"60":-0.08974075352106636,"61":0.09542626764108518,"62":-0.17362003098009704,"63":-0.11803509533017469,"64":-0.110606824103662,"65":-0.22561521317908156,"66":-0.005905226714968763,"67":-0.022834924035926234,"68":-0.10839217894190424,"69":0.09068274995655212,"70":-0.2515231801556937,"71":-0.25082601464348,"72":-0.10586343506440435,"73":-0.1832845987389927,"74":0.3180845933974674,"75":0.14996832410440294,"76":-0.2674942838268297,"77":-0.17430412964481878,"78":-0.36808497840793797,"79":-0.10866264660173258,"80":-0.20825687342129093,"81":0.09134966534521695,"82":0.02747367402417521,"83":-0.457110463427667,"84":0.6315920103383125,"85":0.24942544353456023,"86":0.09229003273589526,"87":0.8238065123386371,"88":0.34502809794621225,"89":0.09243192144352477,"90":0.10029680673934052,"91":-0.028224474767011676,"92":0.40953651736746516,"93":0.4836510555622338,"94":-0.19545576835660078,"95":0.20442967594556188,"96":0.4822715497700904,"97":-0.0779828170732748,"98":0.053585211582743375,"99":-0.05859682273476161,"100":0.0012787535842290123,"101":0.020829479760938796,"102":0.34262347312926666,"103":0.0916237388104629,"104":-0.32868244394577806,"105":-0.13265271537343618,"106":-0.0011423908010186258,"107":-0.14762281599689106,"108":-0.08100636171533038,"109":0.022668730454950284,"110":-0.15680408610633165,"111":-0.12608810787465646,"112":-0.2831807285073315,"113":-0.11104960185752961,"114":-0.2758312520277642,"115":-0.11233075604666089,"116":-0.04646439739696217,"117":-0.22523729955073407,"118":-0.10930243458160965,"119":0.23342234129062844,"120":-0.09493828389301859,"121":0.021420254010961766,"122":0.15270579613888957,"123":-0.6646825605779932,"124":0.4428583450930996,"125":0.25723770834797965,"126":0.03740796796520016,"127":0.3880491370100701,"128":0.12491079662746495,"129":0.3764064175618361,"130":0.27638274743672314,"131":-0.2341251714656869,"132":0.23956131435038716,"133":0.05614033321949717,"134":-0.057689226358733456,"135":0.08425305395025154,"136":-0.04431613819046566,"137":0.24608962522031205,"138":0.11646141187697755,"139":0.024383114672949544,"140":-0.0074059676054763005,"141":-0.25463963919459526,"142":0.04175056685612295,"143":0.003479944001336343,"144":-0.054674286998638265,"145":-0.20437534677809313,"146":-0.11435417885343455,"147":-0.17371090695150593,"148":-0.08844436615633096,"149":-0.18323646889802542,"150":-0.13917926260142438,"151":-0.060765977280666385,"152":-0.26954709852879677,"153":-0.2923125198612114,"154":-0.4895243193331945,"155":-0.46159622318446725,"156":0.42864117639729565,"157":0.041645163500976086,"158":-0.2017654778929201,"159":0.4115534008471299,"160":-0.0604538829067068,"161":-0.28769806665109127,"162":-0.2761297369662759,"163":-0.1700744993197239,"164":0.3275570852805446,"165":0.2836530165358027,"166":0.148493185581937,"167":-0.020559344668948702,"168":0.42485947749025055,"169":0.20702447658064269,"170":-0.11841672849496333,"171":-0.15293138046689747,"172":0.20348012054701142,"173":0.16000080140125802,"174":0.04217957778819442,"175":0.23960515110209213,"176":0.3957524078892233,"177":0.19004258113976488,"178":-0.08105277980867015,"179":0.22061686901449143,"180":-0.09342234533537033,"181":-0.2641549098938213,"182":-0.3376474091221709,"183":-0.0238648951817473,"184":0.2403872994519621,"185":0.03419373493198073,"186":-0.23880102065394873,"187":0.06339771734985238,"188":-0.1483259526278251,"189":-0.20557559470423173,"190":-0.32830572606814523,"191":-0.09347222478911403,"192":-0.230530263302156,"193":0.20696959634189518,"194":-0.4224182408178524,"195":-0.010544963175041392,"196":0.3815717139632119,"197":-0.06884943764929043,"198":-0.2695889170152378,"199":0.2125248592717506}},{"sx":5,"sy":5,"depth":8,"w":{"0":-0.1783751299527435,"1":0.14924378771771357,"2":-0.5027234723947999,"3":-0.5761345233708921,"4":0.3979687808648183,"5":0.5220359470502048,"6":0.040209603977668616,"7":0.09750580201601784,"8":0.01198974851813867,"9":-0.14449624834418756,"10":-0.0979102729864821,"11":-0.3290362409190476,"12":0.03334261910022725,"13":0.17489685475307004,"14":0.16805032341765014,"15":-0.2441618846027194,"16":0.25994618322873425,"17":-0.3040382776810392,"18":-0.028964703506692502,"19":-0.2322559907740954,"20":0.03700777553808471,"21":0.17578530661129058,"22":0.13519209560103448,"23":-0.22742486992011826,"24":-0.16867092761794725,"25":0.3534932363320291,"26":0.33990976054423233,"27":-0.22137044298316352,"28":-0.10411197543182382,"29":-0.028871599397079457,"30":0.2462401567024685,"31":-0.22741102699668003,"32":-0.2790921880597712,"33":0.5124152352705234,"34":-0.12604774773031271,"35":0.006076214493215087,"36":-0.24279153467054748,"37":-0.38581469840057503,"38":0.06843723402884729,"39":0.17828081346614638,"40":-0.1290472834985868,"41":0.04338068864758427,"42":-0.36754252807930854,"43":-0.3207108215803329,"44":-0.40567476731393326,"45":0.18976080823164404,"46":-0.0003250763700471185,"47":-0.01038283937550396,"48":0.10536203986195411,"49":0.20580230006619957,"50":0.2513021749722623,"51":-0.44859322706253935,"52":-0.07731807720948963,"53":0.11618943647620907,"54":-0.20345303737612466,"55":-0.145047166813385,"56":-0.22691777386139098,"57":0.5789017367245405,"58":0.5588946152682794,"59":-0.25139362971073403,"60":-0.06203240326336792,"61":0.42191571636865394,"62":-0.15538162070094774,"63":-0.4186165199093558,"64":-0.29727257038719357,"65":0.5722990548709864,"66":0.5221679240420247,"67":0.1633323591808101,"68":-0.2873270980022439,"69":0.23325479063320703,"70":-0.11107028245806871,"71":-0.19151342811995029,"72":-0.26622776830801825,"73":0.43687417632422904,"74":0.5764412806379823,"75":0.43782822116518433,"76":-0.09803118304599022,"77":-0.03320172514483121,"78":-0.2054050243907257,"79":-0.17441863766010707,"80":-0.033624476511391575,"81":-0.036010199951369,"82":0.034326983331129796,"83":-0.2797165348101693,"84":-0.05217958070644998,"85":0.1977368070974331,"86":-0.32681611247233566,"87":-0.005589441658432507,"88":-0.1898307234611001,"89":0.09535939877920616,"90":0.3026221161444962,"91":-0.039958996231122854,"92":-0.07193458392639866,"93":0.0204517591373566,"94":0.023223487433501968,"95":-0.3506160820260466,"96":-0.194788654755545,"97":0.3253004788112786,"98":0.12230756152484952,"99":-0.1317021986616134,"100":-0.1009959601015687,"101":0.1775168416939779,"102":-0.11314768324069696,"103":-0.5299172321798182,"104":0.017075462698790324,"105":-0.29250606755208325,"106":-0.10305703596059881,"107":-0.012863126582908023,"108":-0.06563891487263723,"109":0.13238905508991108,"110":-0.11584667688115037,"111":-0.32563459417606466,"112":0.06523532505167406,"113":-0.3620369689448253,"114":-0.2603388272523299,"115":-0.011746521953274249,"116":-0.07894217698718496,"117":-0.33728846423108494,"118":-0.32374981153545873,"119":-0.2746819001934495,"120":0.35978498366167144,"121":-0.5533929126681104,"122":-0.04341798098087094,"123":-0.1460179497399454,"124":0.3896974944059321,"125":0.08804568556970921,"126":-0.0035247876136299703,"127":0.07935424366547328,"128":-0.12539940390713258,"129":-0.11531594773880974,"130":-0.04512324848213601,"131":0.20887469573933332,"132":0.15274868731437252,"133":0.23671040563554124,"134":-0.2566066712938179,"135":0.051657819531820276,"136":-0.07829398393590885,"137":-0.26290073787006746,"138":-0.28453194014378635,"139":0.3887794381898578,"140":0.19610797875307914,"141":0.313019222476424,"142":-0.218442659835606,"143":0.30989500195660874,"144":-0.06968325961866886,"145":-0.30071297102892963,"146":-0.29915137507352924,"147":0.06888216824906633,"148":0.06991278450403453,"149":-0.024446560092281754,"150":-0.3032470928855538,"151":0.10925867470684938,"152":0.2903272078750634,"153":-0.19734180633837872,"154":-0.12357663358758934,"155":0.16279720719182234,"156":0.0837329220018816,"157":0.03483958659116581,"158":-0.37248960833801104,"159":0.08105495327079047,"160":0.691249182478109,"161":-0.3785036713904801,"162":0.0022186368289801492,"163":0.02816731362528895,"164":0.07357810171575009,"165":-0.05563930525844544,"166":0.3151138773280045,"167":0.20546377577444996,"168":0.5730945308056465,"169":-0.16717815180887566,"170":-0.1875365588054924,"171":0.2978798482944268,"172":-0.05977696971009171,"173":-0.3161585203386463,"174":-0.027590050511360348,"175":0.40969488033835944,"176":0.33137270037279865,"177":-0.2513522483423852,"178":-0.058211936609555044,"179":-0.018636172509607488,"180":-0.00919476894512182,"181":-0.21942354123535934,"182":-0.16317345048030588,"183":0.6520260220405335,"184":0.27290202387304274,"185":-0.22049493862030417,"186":0.23696791231988776,"187":0.0247053633952562,"188":0.2404505929228256,"189":0.17195216311030648,"190":-0.055762215384544275,"191":0.4819067197896218,"192":-0.17100097173009504,"193":0.08371018729737913,"194":0.17843170941606978,"195":-0.05343782766480011,"196":0.22966037088352548,"197":0.15620038198163183,"198":0.1522275549134512,"199":0.05118070371939401}},{"sx":5,"sy":5,"depth":8,"w":{"0":-0.24840268326831627,"1":-0.2481614522796943,"2":-0.1337073442522944,"3":-0.32983793901387837,"4":0.32057722921356196,"5":-0.046245507955759955,"6":0.20224370234051275,"7":0.12983112725100301,"8":-0.2334782076673973,"9":-0.17864601552021245,"10":-0.004675974669135463,"11":-0.4767472545762177,"12":0.0505897204650555,"13":-0.0670929659581096,"14":0.24230857543510015,"15":-0.14709645442789565,"16":-0.3710438755072417,"17":0.07949678632606087,"18":-0.07365148752379393,"19":-0.3487477997326765,"20":-0.09688762474109394,"21":-0.4483946617033389,"22":-0.039242313819375554,"23":0.06510503230262561,"24":-0.3128116673800754,"25":0.19578582453602061,"26":0.08380158707830702,"27":-0.09197477957768445,"28":-0.2738826486472217,"29":-0.3393723892181829,"30":0.05792235670429351,"31":0.10373644253115508,"32":-0.019524971369038368,"33":-0.06147652954708468,"34":-0.08906588870971852,"35":-0.044210259280839076,"36":-0.24669838327627816,"37":0.1257729598082268,"38":0.44528370686285423,"39":-0.011760042469629282,"40":-0.1366651568506668,"41":-0.19822819165952646,"42":-0.0422820682218174,"43":-0.3906356344980883,"44":0.2628265701934693,"45":0.0878048049336471,"46":-0.049759653488872777,"47":0.06606440759463862,"48":-0.09682107966078189,"49":-0.26996722997622447,"50":-0.09364877117536013,"51":-0.5073990796905743,"52":0.18091230316930584,"53":-0.04252178160382302,"54":0.020897493821117955,"55":0.08781120758167289,"56":-0.2752590121018841,"57":-0.13462239946170096,"58":-0.1926326150561669,"59":-0.18565826958548703,"60":0.29064753632433377,"61":-0.3606022078271672,"62":0.40089387122542663,"63":0.3464603238401526,"64":-0.17776590436580922,"65":-0.2076213368726416,"66":-0.06485532303297997,"67":0.2795057555933173,"68":-0.11118910095102066,"69":-0.4414189292109516,"70":0.33857044204848624,"71":0.13432796190982646,"72":0.11963894444061794,"73":-0.34214809109321737,"74":0.08218817887197291,"75":-0.09858946136259092,"76":-0.04322352680249522,"77":0.47998936413058224,"78":-0.005332693117256838,"79":0.10124786951463823,"80":-0.0023760888147793336,"81":-0.5115178798756637,"82":0.16252126181914936,"83":-0.15585402378557453,"84":0.1904646757469508,"85":0.18482796254851153,"86":0.03463630719046129,"87":-0.3880822379577656,"88":0.1508021797955598,"89":-0.20211325335569852,"90":0.14397760597758183,"91":-0.3719966296954441,"92":0.35711870092360376,"93":0.2992130223391447,"94":0.2333224396028195,"95":-0.1308572441687384,"96":0.22091224789470787,"97":-0.1351713607145828,"98":-0.16163952700252432,"99":-0.10999368059239023,"100":0.297635777961702,"101":0.015082315277745605,"102":0.4321623332505007,"103":0.31710037155424875,"104":0.45042039506435055,"105":-0.26671658403583626,"106":-0.2769047355324773,"107":0.012448343502573128,"108":0.3073917245027032,"109":-0.08969093318498582,"110":0.19474976295311722,"111":0.3968669811529384,"112":0.23216816291843062,"113":-0.4982783224315814,"114":-0.46008954791829476,"115":0.2342244187566038,"116":0.244872890038863,"117":0.0418821587892366,"118":0.004895519862764297,"119":0.15623986954137906,"120":-0.08291853827814738,"121":-0.39382069156554766,"122":0.01518432589743269,"123":-0.23302148496004257,"124":0.31987148160763085,"125":0.41247777684676457,"126":-0.09514237832270847,"127":-0.39106572930593186,"128":-0.04277239960140992,"129":-0.14615466243544387,"130":0.12922771295986704,"131":-0.3036830440168929,"132":0.2992098673720798,"133":0.2598822187897928,"134":0.2791992876068831,"135":-0.3732169220726804,"136":0.04619452138349159,"137":-0.2384700928315628,"138":0.12250782649965353,"139":-0.4999306982654022,"140":0.15760470566382845,"141":0.5002799668842565,"142":0.16185746205261586,"143":0.023359008446269175,"144":0.08678017595890579,"145":0.010688572812450675,"146":-0.5128188636482286,"147":-0.3073730493808407,"148":0.042664172663491005,"149":-0.10700302459614261,"150":0.05194978805316922,"151":0.150098915026979,"152":0.28956055296947786,"153":0.3517657317024182,"154":-0.4933219408174535,"155":0.12250166702775779,"156":-0.13608562762559676,"157":-0.2825656870360353,"158":-0.0735555648161045,"159":0.1286992305850195,"160":-0.13609920125220928,"161":-0.14339370880429547,"162":-0.31183431003456835,"163":-0.01153169176868775,"164":0.03833931992963836,"165":-0.24461726108937196,"166":-0.4884155095941619,"167":-0.13266387612882605,"168":0.06995821294083167,"169":0.28984388602922406,"170":-0.08900554428011775,"171":0.08165257833128002,"172":-0.0034204625980371315,"173":-0.035893707775236476,"174":0.03077755604637336,"175":-0.2409919606169772,"176":0.03951559606161006,"177":0.14129711147164659,"178":-0.2848303143077521,"179":-0.1922531243169803,"180":0.03726133346251062,"181":0.23038845527503113,"182":0.20057241419801117,"183":-0.062322481206460945,"184":-0.20505366132383127,"185":0.11044339081297216,"186":-0.41215748244449546,"187":-0.2884765928248465,"188":-0.11514397293105125,"189":-0.4219913203323837,"190":-0.018322723596670015,"191":-0.024168416531472423,"192":-0.08745288347745146,"193":0.053294022416718836,"194":-0.219198265320111,"195":0.28093813589821987,"196":-0.1540254406966938,"197":-0.2475339441920244,"198":0.10091551899018869,"199":-0.002401215789751188}},{"sx":5,"sy":5,"depth":8,"w":{"0":0.041986942271231106,"1":-0.2846028658407007,"2":-0.18245950523117713,"3":-0.0020068297860418053,"4":-0.058589901610469855,"5":0.0653008435871525,"6":0.18652739628146092,"7":-0.21430965201874466,"8":-0.3447207179009985,"9":-0.1716616516384005,"10":-0.07059372567586915,"11":-0.23638984098950352,"12":-0.12344140240047904,"13":-0.03326541386899904,"14":0.23282175735188418,"15":-0.28750147159564565,"16":-0.4374566365238161,"17":-0.21120819689699966,"18":0.2086405521249376,"19":-0.3717487755819229,"20":0.09196937113350878,"21":0.16432207595423737,"22":0.3693239420202103,"23":0.09166524022850515,"24":0.4370249499707675,"25":-0.2347754494042468,"26":0.07899037133096729,"27":-0.14995345705342839,"28":0.1015854817191292,"29":0.14712376032633007,"30":0.2565130050743274,"31":0.6122319209912962,"32":-0.022468850849572307,"33":-0.1109280294427815,"34":0.24944433786071613,"35":-0.3319691719181852,"36":-0.14286438868288512,"37":0.23828431305187647,"38":-0.011118589155562766,"39":0.4921711899657276,"40":-0.06579407502069447,"41":0.34888143320292014,"42":-0.2311027772231323,"43":-0.13750128142490273,"44":-0.13200149152589777,"45":0.0353764032361632,"46":0.08631808566742562,"47":-0.26752681366294206,"48":-0.022260200310230665,"49":-0.039572330614292626,"50":0.0974473738081119,"51":-0.17291707130369474,"52":-0.21376635237736283,"53":0.03302264009389015,"54":-0.07126125941752884,"55":-0.3458217637687372,"56":0.3698710648655488,"57":-0.06734905971489602,"58":0.1647117719463353,"59":-0.15125607702969107,"60":0.38672487561823987,"61":0.20254019942961843,"62":0.008559174223506986,"63":0.18819373172668322,"64":0.28576999606658904,"65":-0.06590385115502083,"66":0.10935642698496299,"67":-0.10099023140734072,"68":0.29747968852095424,"69":0.1863706090719776,"70":0.0889403686335161,"71":-0.026940478181123936,"72":0.09503584220278743,"73":-0.17940727168581516,"74":-0.4008784378563593,"75":-0.11532886055688622,"76":-0.17205620475194108,"77":-0.3371467623219863,"78":-0.12648938603237064,"79":0.007844761793412118,"80":0.023510341907581764,"81":-0.10769768082393583,"82":0.9963543384494783,"83":0.14819353589210604,"84":-0.3521637887810982,"85":0.3592779651397078,"86":-0.0011574212719500062,"87":-0.13139984089272977,"88":0.09220594022781262,"89":-0.18193756655886345,"90":0.2579748539808183,"91":0.11205706960657727,"92":-0.22210024912798348,"93":-0.07526012890299005,"94":-0.16761104643263772,"95":-0.0957212048410453,"96":0.4044944376086373,"97":-0.25068181142427154,"98":0.4493934063651248,"99":-0.1530032500966521,"100":-0.011674055028661789,"101":0.017607800119762727,"102":0.04277698821072404,"103":-0.217105101385279,"104":0.4439411876578338,"105":0.07335661458663789,"106":0.39946837463451956,"107":0.14546062920175126,"108":0.03252689213173113,"109":-0.16392663225373302,"110":0.033267272155172146,"111":-0.18611201949873915,"112":0.5198999291599026,"113":0.009206371775626753,"114":-0.5357308775371387,"115":0.1657882068514177,"116":-0.33277076043163617,"117":-0.3780683710892761,"118":-0.19296470024556542,"119":0.24927381627047648,"120":0.4472455814986238,"121":-0.1489692626146018,"122":-0.010101128771414773,"123":-0.05134836923565832,"124":-0.29174311528577723,"125":-0.25704792412936045,"126":-0.14263871831006453,"127":0.15510170742584684,"128":0.2462672655599187,"129":0.07779000948467002,"130":-0.042079506838417095,"131":0.06810308506644143,"132":-0.3677656522076683,"133":-0.17154282265510987,"134":-0.039604050404024926,"135":-0.29719128583596643,"136":-0.094505918669084,"137":0.13025003251976305,"138":0.09001846594955965,"139":-0.384307969045965,"140":-0.40189497460481716,"141":0.029317557493079547,"142":-0.03941553881522578,"143":-0.45046182034069593,"144":-0.11800962166766484,"145":0.09777272313533743,"146":0.17527126297211562,"147":-0.1918537052546894,"148":-0.23258142197900533,"149":-0.15279998365881706,"150":-0.28454660337247173,"151":-0.09768013178886428,"152":-0.04501628675741957,"153":-0.04967019983881893,"154":-0.13377056957749234,"155":-0.2336048949017391,"156":-0.21664592387064557,"157":-0.22950650701577072,"158":-0.3344122753250691,"159":-0.0551400892745199,"160":-0.35799643799618364,"161":-0.04001215088269635,"162":-0.27063104285390444,"163":-0.005962693954648677,"164":-0.1772136667226839,"165":0.05535167861954211,"166":-0.33323140190067096,"167":0.1813729969248955,"168":-0.19004609726844765,"169":0.10046173453078323,"170":-0.12749006370126578,"171":0.2188542133398182,"172":-0.3166188929046783,"173":-0.1971784552762365,"174":0.025069056581173844,"175":0.13622683703873353,"176":-0.4837285013387976,"177":0.21656338531156252,"178":-0.09900208562133878,"179":-0.035723713898943965,"180":-0.5239135351058806,"181":-0.2893847033260702,"182":0.35803219043349704,"183":-0.16155348047736665,"184":-0.3197628217740358,"185":0.19396326580968612,"186":-0.11977164581566609,"187":-0.3286258523046064,"188":-0.15520838726394515,"189":-0.32639570599325934,"190":0.4172558605546466,"191":-0.2558912374912886,"192":0.06451180405116749,"193":0.37611768457997913,"194":-0.20406197845750396,"195":-0.2024804014235728,"196":-0.08705220643765774,"197":-0.25316857284434546,"198":0.1456426422480799,"199":0.05131363638363343}},{"sx":5,"sy":5,"depth":8,"w":{"0":0.42954581330731334,"1":0.5369165862357185,"2":0.571020350729337,"3":-0.23032472116715247,"4":0.2437010558092111,"5":-0.08053938252843167,"6":0.6028716316662317,"7":-0.29514677880571616,"8":-0.05476730269115133,"9":0.12525012789063256,"10":0.3854811601272314,"11":-0.30249995530995766,"12":0.5740214507824044,"13":0.3193433016966415,"14":0.08234207041758256,"15":0.10455940572406103,"16":-0.12975986981078586,"17":0.3695547566787919,"18":0.4524609060853294,"19":-0.04462367480746535,"20":0.4157063362628859,"21":0.1841953885070495,"22":-0.16533151251941142,"23":0.3304304252091146,"24":-0.3533871279970333,"25":0.0070322648654784405,"26":0.26326620589677663,"27":0.11011142362961006,"28":-0.052669806954662814,"29":-0.22597960784139465,"30":-0.3580298645388464,"31":0.21868036799191998,"32":-0.44701964581304826,"33":0.13162458772418,"34":0.10368175388105169,"35":0.18608479971218772,"36":-0.14661583215429977,"37":-0.031097272583975842,"38":-0.12002532616747147,"39":0.35993286409213554,"40":0.2958628120239424,"41":-0.2444231469497413,"42":0.46028965101615493,"43":0.10086874998186304,"44":-0.05010880636874805,"45":0.30611037551436054,"46":-0.055060627326468034,"47":-0.037577355989597536,"48":0.2628675041446626,"49":-0.22542236254052653,"50":0.4263884826491575,"51":0.2473148132687577,"52":0.04261885332594143,"53":-0.08649791870568417,"54":-0.08534629967987414,"55":0.025759846848188602,"56":-0.05846086965671941,"57":0.09226700664586672,"58":0.5655142624301013,"59":0.02400676757048746,"60":-0.21559934053921584,"61":-0.14620449127362992,"62":-0.19688932861797842,"63":-0.10535381817279117,"64":-0.11693750492387608,"65":-0.0534462436967524,"66":-0.06006857532985958,"67":0.16710599230523507,"68":-0.240473411228856,"69":-0.2636958900892367,"70":-0.2005557531629161,"71":-0.0012809005692007746,"72":-0.1940207188590798,"73":-0.24501977515360646,"74":-0.2576113200505058,"75":-0.15732646736402528,"76":0.1617799556844294,"77":0.10102034793100005,"78":-0.2377974973393417,"79":-0.17643600711694943,"80":-0.3354288481284653,"81":0.00807091183057041,"82":-0.24661577312594266,"83":0.01878098611338428,"84":-0.3676742331416957,"85":-0.03389184232621093,"86":-0.04873970678471849,"87":0.049685369630749654,"88":-0.32544294648925565,"89":0.06331189725763407,"90":0.21324748727144885,"91":0.23402439338912415,"92":-0.4043011440006533,"93":-0.08011946555514564,"94":-0.2088784144907271,"95":-0.40363390768004753,"96":-0.5866627027343478,"97":0.13108333227023983,"98":0.020346050975136584,"99":0.34446473142169975,"100":-0.4437137963269326,"101":-0.0965633325809525,"102":-0.04665236906460465,"103":-0.3514218550154323,"104":-0.3385482886102471,"105":0.12344458025865383,"106":-0.38564386080810065,"107":0.13256083900131374,"108":-0.4937428728843393,"109":-0.18978260137809597,"110":-0.2632755055524544,"111":-0.33439908519573264,"112":-0.18055577877652165,"113":0.04944625996205543,"114":-0.6599018748140728,"115":0.008554281451241444,"116":0.12513330529226066,"117":0.03803540654305387,"118":-0.36996950687927116,"119":-0.10157824228891876,"120":-0.014997774083885407,"121":0.047428904399167304,"122":-0.03904540324266862,"123":-0.05400673783185226,"124":-0.02838589010637887,"125":0.14919296335174279,"126":0.36860657505632227,"127":0.786147738062224,"128":-0.5676762606094475,"129":-0.00969029861006925,"130":0.2868259851685684,"131":0.30936681148315626,"132":-0.2630528018909668,"133":-0.013892917748224121,"134":0.14144142775114668,"135":0.335058032014012,"136":-0.6589809027013328,"137":0.004153971552858607,"138":0.34352724552334185,"139":0.10448764390049435,"140":-0.1791024866266786,"141":-0.05557988997041475,"142":0.29860634704153133,"143":0.239470947845481,"144":-0.5282094010603243,"145":0.12043982183320151,"146":0.2965689200570339,"147":-0.39129010175169715,"148":0.03234308792005081,"149":-0.05970658100246875,"150":0.131369360360427,"151":-0.17521354125707717,"152":-0.2364718349957135,"153":0.01656046776883987,"154":-0.08146992858194713,"155":-0.13845995233809544,"156":0.1341924161713944,"157":0.011905594597616264,"158":-0.19572334046697254,"159":-0.25878565383689595,"160":-0.02543187520052064,"161":-0.1703652267543264,"162":-0.3280886800531822,"163":-0.23464073399033886,"164":-0.14041026766274717,"165":0.030928461191554978,"166":0.14499665362613873,"167":0.24526713774023803,"168":-0.2036219289008593,"169":-0.07365743997742133,"170":-0.0897252631181058,"171":-0.3498890246821482,"172":0.1255426218939945,"173":0.33795566930597293,"174":0.28003359497636865,"175":0.455119901810108,"176":-0.27465270901505506,"177":0.2871273420077592,"178":0.2937566135913113,"179":-0.28381220728761475,"180":0.10287961994838907,"181":0.02566243653691076,"182":0.24123102171766403,"183":0.40687318905357794,"184":-0.27483015877028305,"185":0.27499058479474764,"186":0.3946908964511196,"187":-0.2551753517314493,"188":0.20875174383780223,"189":0.13776587352021805,"190":0.041718238673988335,"191":0.025894726817271806,"192":-0.1744051548968428,"193":0.4912217910225223,"194":-0.05951077311215141,"195":-0.23529036238188708,"196":0.07957013172699891,"197":0.2199582293933328,"198":-0.16175919760666474,"199":-0.035447905730507503}}],"biases":{"sx":1,"sy":1,"depth":16,"w":{"0":-0.12127360436753423,"1":-1.01849804348695,"2":-0.6198436705962285,"3":-0.58518819533474,"4":-0.8649370996613217,"5":-1.335743103361936,"6":-1.0198754870006275,"7":0.08385307667633654,"8":-1.3827452660777027,"9":-0.8169041960423004,"10":-1.3370811558717366,"11":-1.0417435996767448,"12":-1.6753221997739436,"13":0.032167520497425675,"14":-0.41353269034961193,"15":-1.6241834502971526}}},{"out_depth":16,"out_sx":12,"out_sy":12,"layer_type":"relu"},{"sx":3,"sy":3,"stride":3,"in_depth":16,"out_depth":16,"out_sx":4,"out_sy":4,"layer_type":"pool","pad":0},{"out_depth":10,"out_sx":1,"out_sy":1,"layer_type":"fc","num_inputs":256,"l1_decay_mul":0,"l2_decay_mul":1,"filters":[{"sx":1,"sy":1,"depth":256,"w":{"0":-0.4328861477433115,"1":-0.07584135601685303,"2":-0.6642705972716711,"3":-0.5411333642943057,"4":-0.00837507397717009,"5":-0.41652632961182606,"6":-0.35989313463249983,"7":-0.3716386368209315,"8":-0.14043691253801732,"9":-0.015157348673209335,"10":0.02696496841672814,"11":-0.12581739851230922,"12":-0.04827557265063379,"13":-0.435963167106934,"14":-0.04269126556716312,"15":-0.019532878341449404,"16":-0.5473084668427377,"17":-0.12387707335396297,"18":-0.7504790526433636,"19":-0.7706205022904155,"20":-0.40483687518868927,"21":-0.5411291127285133,"22":-0.7999998488047475,"23":-0.5445860207677254,"24":-0.35952838383308783,"25":-0.2757370867915708,"26":-0.599724686291239,"27":-0.4571256959433401,"28":-0.21928324398727633,"29":-0.5707161848813292,"30":-0.24683682859090972,"31":-0.3516654249068877,"32":-0.6594352589930002,"33":-0.06884001171112955,"34":-0.28937517854228423,"35":-0.6531594399140335,"36":-0.5762829735628425,"37":-0.0330830375968496,"38":-0.9570730322863044,"39":-0.36138695232551693,"40":-0.5474587907693176,"41":-0.6332596860086611,"42":-1.3873649387559437,"43":-0.8432660762933096,"44":-0.09508816570116342,"45":-0.4029197634796086,"46":-0.7435379743942796,"47":-0.39318982864899094,"48":-0.966331429183159,"49":-0.0032974190590193044,"50":-0.14280966058045125,"51":-0.405662332257408,"52":-0.2136759277204049,"53":-0.0839683749488812,"54":-0.04120753452659781,"55":-0.5628930077802726,"56":-0.13711386431700925,"57":-0.4412066308481954,"58":-0.8913814030453013,"59":-0.6035552007410063,"60":-0.006312065985261984,"61":-0.048667692422910476,"62":-0.4549059663485818,"63":-0.03783053556147711,"64":-0.07198487415028156,"65":0.020983379095608996,"66":-1.2383898749384246,"67":-0.4731594260672377,"68":-0.3006602704215735,"69":-1.1731359133146757,"70":-0.44214522860908945,"71":-0.2547192696070746,"72":-0.4477798093294016,"73":0.04033593426587989,"74":-0.17915576914953296,"75":-0.049517125942775055,"76":-0.31485234654386707,"77":-0.36167575766998095,"78":-0.5053826266460295,"79":-0.22638602266620117,"80":-0.24704997038771623,"81":0.16344341712898994,"82":-0.8689867755814326,"83":-0.428788174692273,"84":-1.1297001225803238,"85":-1.174411561999061,"86":-0.5281232616420479,"87":-0.607125589582957,"88":-1.2325736128602076,"89":-0.1606737790920746,"90":-0.4516381044107839,"91":-0.4860221413415183,"92":-0.7968980795863138,"93":-0.8225713893193042,"94":-0.48434836447142543,"95":-0.9244475722732615,"96":-0.4226126798494835,"97":-0.5006100276111598,"98":-0.4846381910400095,"99":-0.25016058659761525,"100":-0.9201071701256275,"101":-0.29504794614389257,"102":-0.6738478265401137,"103":-0.18479008591406956,"104":-0.8577612927715972,"105":-1.0442960746119023,"106":-1.246146647755972,"107":-0.639418737586577,"108":-0.5648242839895498,"109":-0.7265385757231276,"110":-0.8062304779023779,"111":-0.6681583908439663,"112":-1.1175420262607505,"113":-0.19074158160496874,"114":-0.4598870110668032,"115":-0.46008948696570023,"116":-0.14274080962952,"117":0.006715332906343102,"118":-0.3295020915407939,"119":-0.7771315021136949,"120":-0.8419330796508302,"121":-0.8680114176027154,"122":-1.1936528474931012,"123":-0.07398291697879045,"124":-0.19091330550870883,"125":0.25064209652280733,"126":-0.8762732114081246,"127":-0.7563990224803855,"128":-0.3182200439637827,"129":-0.15505287340345733,"130":-1.5847503194050667,"131":-0.7869481094573156,"132":-0.404096457236955,"133":-1.2416465486290336,"134":-0.7149899381394089,"135":-0.24668717945571844,"136":0.03303014799542714,"137":-0.15167541203056945,"138":-0.22969141143364205,"139":-0.004107507984665001,"140":-0.2344235185076668,"141":-0.4054837297778319,"142":-0.5567051465365546,"143":-0.3670334327520446,"144":-0.17768830305253866,"145":-0.4033706261183887,"146":-0.7742443761562544,"147":-0.748444842712442,"148":-1.0268481801384106,"149":-1.0051033998963061,"150":-0.6005354107422659,"151":-0.4310899473496954,"152":-0.8520055340706197,"153":-0.44971120634223466,"154":-0.5686585850432112,"155":-0.4844271409242181,"156":-0.6422613419744393,"157":-0.6789992407059365,"158":-0.5752138221931112,"159":-1.1567848041985827,"160":-0.2145178264634499,"161":-0.846240003966548,"162":-0.566655078111439,"163":-0.3951602868785914,"164":-1.019684851363194,"165":-0.2620797747424743,"166":-0.3785553773744928,"167":-0.15857960129516888,"168":-0.8552591644671651,"169":-1.1524599973233771,"170":-1.0498080494953463,"171":-0.6833117702545483,"172":-0.7306344163478757,"173":-0.45675814150384486,"174":-0.6314663246766795,"175":-0.6371779768963237,"176":-0.591686172772911,"177":-0.05459374057492123,"178":-0.5577782904783142,"179":-0.5192155495815521,"180":-0.403187690696379,"181":-0.21415042720829294,"182":-0.25158296661444723,"183":-0.6581794833061827,"184":-0.9280002727209462,"185":-0.8289104452231584,"186":-0.8472968924677252,"187":-0.3255026615251532,"188":-0.3024870165544894,"189":-0.007360218661833154,"190":-0.5943348423596022,"191":-0.5522651269873886,"192":-0.061140929688403976,"193":-0.4280130968872318,"194":-1.640029654121953,"195":-0.38844538779397303,"196":-0.6720996163304035,"197":-1.0119769481207541,"198":-0.1650313925468077,"199":-0.25384595318919334,"200":-0.04170445378913334,"201":-0.07117154689984485,"202":-0.28724375554934867,"203":0.0033673401535672877,"204":-0.6556826690982329,"205":-0.2416829947230481,"206":-0.30132538465858655,"207":-0.015448023919584034,"208":-0.11312375636719757,"209":-1.1313770019425065,"210":-1.3251874610320902,"211":-0.33644474467045404,"212":-1.4537750415424988,"213":-0.8346808443017075,"214":-0.3423764315899062,"215":-0.20631004329690736,"216":0.04002865238697364,"217":-0.7248097344212253,"218":-0.8325995813411105,"219":-0.27200883849975,"220":-1.2109353788499955,"221":-0.26791572820312437,"222":-1.2518037359983796,"223":-1.1356220286742542,"224":-0.768968055594398,"225":-1.0714037021799576,"226":-0.7659949030195332,"227":-0.11204979334841729,"228":-0.9487413762539784,"229":-0.6692291351771168,"230":-0.1934319767902015,"231":-0.203972709283206,"232":-0.1939309297494299,"233":-1.0643004226832542,"234":-0.5947775649113999,"235":-0.8439620442481782,"236":-0.8172001701629087,"237":-0.30178618288063747,"238":-1.4063208665012368,"239":-0.6063193897990998,"240":-1.1719511234679567,"241":-0.4425030699098576,"242":-0.20766840691165472,"243":-0.16991818728114233,"244":-0.2055865407491631,"245":-0.3733222348451007,"246":0.16636467227051258,"247":-0.3814599345850464,"248":-0.3228167004681209,"249":-0.41947471622259325,"250":-0.32745792334215706,"251":-0.39751816889548147,"252":-0.06767733500605111,"253":-0.3167274806995071,"254":-1.280935982250094,"255":-0.5636210176658774}},{"sx":1,"sy":1,"depth":256,"w":{"0":-0.8414371419278999,"1":-0.06695628028060842,"2":-0.4553645384999974,"3":-0.635028736352758,"4":-0.05024775297394979,"5":0.011442615753178429,"6":-0.2937207637787754,"7":-0.3604549637892118,"8":-0.10437597895800159,"9":-0.02133525489656265,"10":-0.10384368862504464,"11":-0.05631339644561723,"12":-0.04441948158825974,"13":-0.4148823746793806,"14":-0.23818643195238723,"15":-0.17932743936959178,"16":-0.5446598329445834,"17":0.03695912190332739,"18":-0.8121127833733778,"19":-1.0679666956200107,"20":-0.19347147464060785,"21":-0.012368080853703863,"22":-0.6910269493060208,"23":-0.2433896097023919,"24":0.0009033630804902693,"25":-0.3284807595191038,"26":-0.8493114422055927,"27":-0.06102391755934796,"28":-0.26798764798471386,"29":-0.6727032985824021,"30":-0.5922598199325219,"31":-0.251324953170526,"32":-0.13020330984336384,"33":-0.1483419154974046,"34":-0.43215812376017904,"35":-1.1768830815569522,"36":-0.49779901072057026,"37":-0.11486785627679207,"38":-1.0845354764085104,"39":0.04515748014536002,"40":-0.28821945708275126,"41":-0.5447846433483322,"42":-1.8265185381290807,"43":0.17989399197546696,"44":-0.5491527655912203,"45":-0.28487234824062907,"46":-0.6227373357462951,"47":-0.164428717577102,"48":-0.44982878185120795,"49":0.01356323199786396,"50":-0.23928089605285097,"51":-0.6224280098467245,"52":-0.0906307403790801,"53":-0.09385008219107617,"54":-0.28208607631035976,"55":-0.681826724153779,"56":-0.16179803901634224,"57":-0.1943267630570306,"58":-0.9901195207925406,"59":0.027096214786877317,"60":-0.17794736513065915,"61":-0.37292005049925175,"62":-0.43667905042450045,"63":-0.24752747412021178,"64":-0.5383011327445175,"65":-0.0058918798020128295,"66":-0.9778832435369817,"67":-0.5535613724338541,"68":-0.32670879231592204,"69":-0.9241948855574648,"70":-0.48653043429339393,"71":-0.9789725260333839,"72":-0.5303564781882835,"73":-0.04134862703394418,"74":-0.0872243243952029,"75":-0.16116510804947362,"76":-0.288814775822889,"77":-0.7440974936568058,"78":-0.29165435773442555,"79":-0.19635991310883924,"80":-0.13232309504586579,"81":-0.14876639151761276,"82":-0.7140833334021397,"83":-0.3378283465642383,"84":-0.936301482944717,"85":-0.6894780695740347,"86":-0.5995315727080021,"87":-0.14641212727159356,"88":-1.2068315674397723,"89":-0.3446302479475209,"90":-0.4419934774607776,"91":-0.5111209186953701,"92":-0.7283957414907734,"93":-0.7806420839362325,"94":-0.6390821476257157,"95":-0.5962502528607231,"96":-0.09076730857333308,"97":-0.20866024770362196,"98":-0.18872731198094844,"99":-0.4231446535629,"100":-1.2660795602431842,"101":-0.4800996982192819,"102":-0.5812200439695138,"103":-0.016330930220213032,"104":-1.4025975242718354,"105":-0.9925684983410783,"106":-1.3288668864198019,"107":-0.3185471619275445,"108":-0.9890472802337466,"109":-0.587031623411557,"110":-0.6568265190011385,"111":-0.45271414462572346,"112":-0.6856170000284573,"113":0.19193742517699924,"114":-0.3564845627064139,"115":-0.407168816694618,"116":-0.5202503048392615,"117":-0.2648194505486276,"118":-0.20618090083183574,"119":-0.8425124807139368,"120":-0.518210052268457,"121":-0.8211184634023931,"122":-1.0221340680414113,"123":-0.48299655418895804,"124":-0.4477776265481608,"125":-0.635134384574305,"126":-0.7419595085283232,"127":-0.32890134852199887,"128":-0.24999042194192048,"129":-0.3058717920815537,"130":-0.956011139088542,"131":-0.28125051803533313,"132":-0.5747704798542482,"133":-1.5178374493739635,"134":-0.3731970184891658,"135":-0.8017185424628479,"136":-0.5195398470110022,"137":-0.10735796643231994,"138":-0.21161566202341253,"139":-0.05077883295350027,"140":-0.44394364479001486,"141":-0.48540075087637846,"142":-0.34250572966136805,"143":-0.2726867031163378,"144":-0.15406513315266493,