{"layers":[{"out_depth":1,"out_sx":24,"out_sy":24,"layer_type":"input"},{"sx":5,"sy":5,"stride":1,"in_depth":1,"out_depth":8,"out_sx":24,"out_sy":24,"layer_type":"conv","l1_decay_mul":0,"l2_decay_mul":1,"pad":2,"filters":[{"sx":5,"sy":5,"depth":1,"w":{"0":-0.0006268300816381035,"1":0.6487835587565293,"2":0.23599444944638034,"3":-0.5164864989372138,"4":-0.21048619624528542,"5":-0.34014462380614746,"6":0.23856740129516585,"7":-0.2928231727265477,"8":-0.4846388585074205,"9":-0.16042450618163934,"10":0.013380261850915419,"11":0.3571463453551981,"12":0.12650358062645564,"13":-0.3045495810831871,"14":-0.2930805673295377,"15":0.7258999390312175,"16":0.598038059411811,"17":0.06476871834097428,"18":-0.6668945565352657,"19":-0.5634909544843025,"20":-0.6935920986337244,"21":-0.7953650992902408,"22":-0.7489109535947326,"23":-0.5111328269748956,"24":0.011401860445537357}},{"sx":5,"sy":5,"depth":1,"w":{"0":-0.11469737399803338,"1":0.05372010843089321,"2":0.24527437300037325,"3":0.20007408609109512,"4":-0.4538750293134818,"5":0.06590005592748287,"6":0.32852104667311555,"7":-0.19441893285787185,"8":-0.618583978325573,"9":-0.294658513200002,"10":-0.09787329591891679,"11":-0.3813467091329506,"12":-0.7815898672737771,"13":-0.05276918498365025,"14":0.2549224996553175,"15":-0.09150030603205372,"16":-0.4703113300588746,"17":0.17591304197554022,"18":0.8954325256099557,"19":0.33886883504595167,"20":0.8486271162321095,"21":0.5377921036876485,"22":0.4516290347213204,"23":-0.16106549067598322,"24":-0.07511175269950503}},{"sx":5,"sy":5,"depth":1,"w":{"0":0.2651937574348994,"1":0.0702490636397499,"2":-0.0013315397689765893,"3":-0.010241676843855085,"4":0.1055113801370694,"5":-0.2727507021714323,"6":0.2859059737758515,"7":0.15155432489916143,"8":0.19551673744624448,"9":0.26646760495827415,"10":-0.23895949705938507,"11":0.6683121095575224,"12":0.22024924704647214,"13":0.20800331818955012,"14":0.31998359351422806,"15":-1.2395130335626305,"16":-0.2720572237768063,"17":0.36114014299194386,"18":0.12034646250878478,"19":-0.12272709296434182,"20":-0.5747760019183767,"21":-1.036689384000148,"22":-0.9834890051423755,"23":-0.772210865127053,"24":-0.5704444507848444}},{"sx":5,"sy":5,"depth":1,"w":{"0":-0.12584933243418533,"1":-0.23494646034860622,"2":0.4000526798665429,"3":0.3433534814363443,"4":0.43118445053411947,"5":-0.27336531723929236,"6":0.1019776674452358,"7":0.9018915377126837,"8":-0.12838934795067672,"9":-0.2836669210615867,"10":0.25122469714556867,"11":0.6713542322700852,"12":0.052208733073599564,"13":-1.0433796390621808,"14":-0.45241497816477494,"15":0.31148041659535286,"16":-0.04431010128220004,"17":-1.185751317887387,"18":-0.5457854041489618,"19":0.7866046896282763,"20":-0.14755893041480228,"21":0.012028679240160389,"22":-0.15227943068135424,"23":0.6857378825773577,"24":0.008458335176845527}},{"sx":5,"sy":5,"depth":1,"w":{"0":-0.062182883856820345,"1":0.3030368660043863,"2":0.6222888539956131,"3":0.5191394711747042,"4":0.5387289769777587,"5":-0.09324604845511376,"6":0.056109189566145676,"7":0.013926572209750547,"8":0.17689932546563655,"9":0.2616318735089627,"10":-0.17438831678382008,"11":-0.25633396755833837,"12":-0.5103866107667082,"13":-0.12862150544327944,"14":0.518455390581709,"15":-0.3947308710005595,"16":-0.7305972734186639,"17":-0.3129724258239417,"18":0.04211657214590128,"19":0.8417061070844662,"20":-0.2584859247821206,"21":0.2711494930422761,"22":0.1666308744116242,"23":-0.16997437105475943,"24":0.5248997806236404}},{"sx":5,"sy":5,"depth":1,"w":{"0":0.06779484119246594,"1":-0.020943673940133543,"2":-0.04342973168144239,"3":0.10977781553496109,"4":-0.3631956267002376,"5":0.07580769790542785,"6":-0.10150381232170921,"7":0.031266771425616506,"8":0.5803196970156878,"9":-0.45287797228425586,"10":0.0687612443277428,"11":-0.6045120950919731,"12":-0.2339401099514896,"13":1.024417494949109,"14":-0.38205998368566824,"15":0.5063786867516437,"16":-1.103194283839499,"17":-0.20908906603156696,"18":0.6893540422937294,"19":-0.3338564373876868,"20":1.0244627858804234,"21":-1.125025076931609,"22":-0.44834231530699103,"23":0.2745804365974703,"24":0.0012692942781482052}},{"sx":5,"sy":5,"depth":1,"w":{"0":0.0015318432257891972,"1":-0.6212129782461989,"2":-0.28143970606921337,"3":-0.37907625421085467,"4":0.6736502167142153,"5":0.44776222354535594,"6":0.27685888937399616,"7":-0.4807738464274011,"8":-1.1327140447519974,"9":-0.07507013978558622,"10":0.16083830466189097,"11":0.5108340812069095,"12":0.5274936447349886,"13":-0.3265617296391937,"14":-0.7113037616469505,"15":0.012357259541527431,"16":0.12752133479116604,"17":0.7389632485854574,"18":0.5925217053516495,"19":-0.2949686590503706,"20":-0.14961088312322285,"21":-0.133767142374978,"22":-0.16252197136171453,"23":0.08645167976323626,"24":0.16802089148503055}},{"sx":5,"sy":5,"depth":1,"w":{"0":0.056702383408627856,"1":-0.1920373141807545,"2":-0.6062194446446587,"3":-0.558625982403565,"4":-0.2826871749669594,"5":-0.1887569225481171,"6":-0.758193256857515,"7":-0.4439768145644394,"8":0.28439297660817575,"9":0.4871256406288033,"10":-0.7226014149353781,"11":-0.2714925186668108,"12":0.2610120674432701,"13":0.3758338431668408,"14":0.1450927918005372,"15":-0.5145026700412483,"16":-0.12918649490753592,"17":0.28809042534519064,"18":0.3825635912933293,"19":0.026535483426990133,"20":-0.6434419702353239,"21":-0.19275724626757462,"22":0.1716321199274812,"23":-0.08527641612993969,"24":0.14646539990456478}}],"biases":{"sx":1,"sy":1,"depth":8,"w":{"0":-0.012923098473481408,"1":-0.4266127034605497,"2":0.1186852760301686,"3":-0.5320602409153679,"4":-1.6320803879853376,"5":-0.05572529218925761,"6":-0.18572410067709624,"7":0.013864426089645322}}},{"out_depth":8,"out_sx":24,"out_sy":24,"layer_type":"relu"},{"sx":2,"sy":2,"stride":2,"in_depth":8,"out_depth":8,"out_sx":12,"out_sy":12,"layer_type":"pool","pad":0},{"sx":5,"sy":5,"stride":1,"in_depth":8,"out_depth":16,"out_sx":12,"out_sy":12,"layer_type":"conv","l1_decay_mul":0,"l2_decay_mul":1,"pad":2,"filters":[{"sx":5,"sy":5,"depth":8,"w":{"0":0.03769631835704302,"1":-0.47323758000253185,"2":0.040142056934252116,"3":-0.35195766991522687,"4":-0.30520276832039817,"5":-0.258111608414302,"6":-0.24105986851105868,"7":0.16169505651642554,"8":0.06584805574965064,"9":0.03258499725399571,"10":-0.1624606830976483,"11":0.15876162850815909,"12":-0.27281161073163107,"13":-0.4387987471204204,"14":-0.39376563199549464,"15":0.06218229141662129,"16":-0.11028950459617373,"17":0.15526059095077588,"18":-0.09717578799980804,"19":-0.05239605641140443,"20":0.052847690227793676,"21":-0.5805321264157458,"22":-0.23131746535024894,"23":0.13515161848641355,"24":-0.018907185731489418,"25":-0.30527192183302,"26":-0.07360276637798513,"27":-0.09003071802090444,"28":-0.10265137537822784,"29":-0.14257898881992756,"30":-0.20959460698601654,"31":0.0738953030288416,"32":0.01619222947751478,"33":-0.5206237960566817,"34":-0.13018302241644325,"35":0.28886509495138174,"36":-0.1777888117716935,"37":-0.036908885614938186,"38":-0.3457571017074658,"39":-0.020398562633318938,"40":0.03583760486404214,"41":0.023375876147925398,"42":-0.04815236224137093,"43":0.11093766618006795,"44":-0.31743048704695354,"45":-0.15791448701289032,"46":-0.31963525269943355,"47":-0.05523825260949295,"48":0.05955731112379444,"49":0.024080812298630783,"50":-0.008816773442915116,"51":0.019587067196021997,"52":0.28578049683313106,"53":-0.1921133888755955,"54":-0.02083811130125513,"55":-0.23761737463712562,"56":-0.03479786865997746,"57":-0.31114130015453834,"58":0.025070890453262974,"59":-0.12634604016651566,"60":0.24909800837275548,"61":0.06260324597619207,"62":0.019657387239222057,"63":-0.1646792810325566,"64":-0.17563839305891338,"65":-0.3812179933759304,"66":-0.08790308053670624,"67":-0.1131960873107822,"68":0.02184670116898931,"69":-0.07250097889448194,"70":-0.2234702481223374,"71":-0.04154042420535439,"72":0.22861511937433077,"73":-0.3838661556369665,"74":-0.1778509640243062,"75":0.43660104864567834,"76":-0.2710014452446434,"77":-0.2126965130824578,"78":-0.38915485312144676,"79":-0.15321682893871072,"80":0.7301942064408471,"81":0.4486767923758943,"82":0.09593135377441488,"83":-0.10884290907956617,"84":-0.1350689794200332,"85":0.05657338649879458,"86":-0.1156689621740285,"87":0.6898177798100918,"88":0.04486676936608874,"89":-0.07661416641314535,"90":-0.305948129595264,"91":0.055253489165154504,"92":0.3694779979514025,"93":-0.010693178021408505,"94":0.16479290660830007,"95":0.09297002020019919,"96":0.05826898447997178,"97":-0.3507381747948567,"98":0.09493124842535726,"99":-0.06531849702393212,"100":-0.1103225956083648,"101":0.02986252159169602,"102":0.0780838004969184,"103":-0.18295010795269043,"104":-0.4158729900534365,"105":-0.2790696139596104,"106":-0.0307623580170934,"107":0.02200208992292638,"108":-0.12631214189031664,"109":0.02274165191787474,"110":-0.1388339655026306,"111":0.10952808581055529,"112":0.28605960885141174,"113":-0.07085419245956479,"114":-0.1905487979304299,"115":0.2593760764793194,"116":-0.22783795052642417,"117":-0.25824646563937553,"118":-0.3792583964339033,"119":-0.12441545017144517,"120":0.11505708234335105,"121":-0.05544564811134881,"122":0.23286043983285695,"123":0.17814045314411683,"124":-0.09473852529063403,"125":0.13594619083560633,"126":0.05073130370077275,"127":0.39836656768375217,"128":0.1891417472309499,"129":-0.2649396479460182,"130":-0.09307480707877902,"131":0.1346717130301988,"132":-0.05346165308388567,"133":-0.11849749818733613,"134":-0.16469742784251973,"135":0.0678770785269552,"136":-0.10585735281283773,"137":-0.06678161957221339,"138":0.04389443578914572,"139":0.02243863625214044,"140":-0.20781120914543388,"141":-0.22491881426468754,"142":-0.13546556971050147,"143":-0.10236630229253676,"144":0.09832238371819825,"145":-0.016207334219343505,"146":-0.24818034914874187,"147":-0.17608624479701057,"148":-0.17407405550607186,"149":-0.19086622047237337,"150":-0.07922551571321831,"151":-0.115311224294012,"152":0.01822583134827513,"153":0.23121143243106707,"154":-0.33679694106781116,"155":0.046546757052550285,"156":-0.10638247337936611,"157":-0.11261910927357874,"158":-0.2619200381530941,"159":0.2650940746735958,"160":0.025167016640282515,"161":-0.26055888443721803,"162":0.1270976909825319,"163":0.1064009826270851,"164":0.11185224320492669,"165":0.008800772952831748,"166":-0.24703983667810447,"167":0.5063828996919525,"168":0.26408539102448014,"169":-0.43659071670898686,"170":-0.3087332752529134,"171":0.011294282883331876,"172":-0.2397429111437095,"173":-0.181237681056073,"174":-0.2868086623393913,"175":-0.2045314930847084,"176":0.013497093539072318,"177":-0.22729147617306447,"178":0.028960183956015934,"179":-0.08087807701151765,"180":-0.16183270495333368,"181":-0.20888499758037332,"182":-0.3806841481518988,"183":-0.08387458476311739,"184":0.3275376752020279,"185":-0.09847486899572792,"186":-0.1587712969212117,"187":0.043840857497875245,"188":-0.10564431118923853,"189":-0.5826241057330374,"190":-0.0777321282977863,"191":0.1159844478609932,"192":0.07773715548345177,"193":0.3185247694945088,"194":-0.38837825044586083,"195":0.28404263455190026,"196":-0.29199084650017976,"197":-0.410501513687102,"198":-0.41887654045494965,"199":0.28745582675223535}},{"sx":5,"sy":5,"depth":8,"w":{"0":-0.1598087761625148,"1":0.9872240752386873,"2":-0.07525201692885936,"3":0.02724864736659115,"4":-0.1099534584181681,"5":-0.48044288649867695,"6":-0.3881775177953253,"7":0.3927583848242271,"8":0.15486347039029072,"9":-0.19392468822325368,"10":-0.3730236358916256,"11":0.242559753074539,"12":0.3261249794698466,"13":-0.13012734752393948,"14":-0.2186863696942729,"15":0.2686596042961511,"16":-0.0358912064933634,"17":-0.4488191853817039,"18":-0.35940867623360934,"19":-0.06995088310819451,"20":0.21220527585324162,"21":0.29425965313971,"22":-0.152312130510424,"23":0.25792605045500816,"24":0.08210999709724287,"25":-0.3999784854523024,"26":-0.2645284058617373,"27":0.043423792177260744,"28":0.3280299366672021,"29":0.281011985059197,"30":-0.3390120712632085,"31":-0.24603950011213294,"32":0.001981588299313385,"33":-0.24084919519474746,"34":0.02667150011810199,"35":0.160863114981607,"36":0.05039778294291164,"37":0.3298465523902576,"38":-0.032638182727878946,"39":0.014736085618534005,"40":0.04373006316739333,"41":-0.2819455097499325,"42":0.014177017604998874,"43":0.20622958815502251,"44":0.007046281716351991,"45":-0.385769596757075,"46":-0.45870649836683997,"47":0.500528480983873,"48":0.2134937194185379,"49":-0.35203998147536053,"50":-0.3249626485629088,"51":0.07202753766819922,"52":0.39111826152633544,"53":0.1563898217326532,"54":-0.29274201443428977,"55":-0.07417658248882077,"56":0.22756308401472597,"57":-0.328094800151305,"58":-0.11448884515486742,"59":0.12769756222545292,"60":0.20841470837335893,"61":0.40287803027945013,"62":-0.36116461721276116,"63":-0.07649822412073576,"64":0.03497608602185668,"65":-0.39694953220240253,"66":0.010039885383739195,"67":0.34461445718428996,"68":0.49852310805059447,"69":0.2301558404903928,"70":-0.2131853590240454,"71":-0.20653926587550073,"72":0.1385408501349825,"73":-0.4236804255851597,"74":0.25055379208758805,"75":-0.12658934296947186,"76":0.43184206420039895,"77":0.4417072238740197,"78":0.2667891092354572,"79":0.05637151551040076,"80":0.15016806334280797,"81":-0.23388472804405278,"82":-0.337582058532427,"83":0.02906600064942849,"84":0.3154784843293797,"85":-0.077884028310323,"86":-0.4879663622989571,"87":0.1702469988531366,"88":0.29023000904527557,"89":-0.21326967822736465,"90":0.16304317546251096,"91":0.34466663504629985,"92":0.2534359981060121,"93":0.5406895725202914,"94":-0.32067631048045847,"95":0.0863979726041104,"96":0.47429350500248246,"97":-0.003901848943653511,"98":0.5951753683906827,"99":0.42928295412354084,"100":0.10762094191003271,"101":0.36910835941400194,"102":-0.018559398155027287,"103":-0.02758306387642983,"104":0.5269459907151378,"105":-0.09756077002522755,"106":0.4985511174535245,"107":-0.12773728940996082,"108":0.19276564196489765,"109":0.2409449609740159,"110":0.19335536897045336,"111":-0.13006422618733934,"112":0.5469837832011996,"113":-0.1305239786495264,"114":0.5051875783334953,"115":-0.12391835005454281,"116":0.108718214385878,"117":0.5062553496241768,"118":0.4368844982304364,"119":0.13154870281172057,"120":0.45042282081998347,"121":-0.4677681736986624,"122":-0.4269223627001289,"123":0.03649841381932903,"124":0.06315817734045186,"125":0.15537201435065479,"126":-0.4674011000810452,"127":0.10888160150584682,"128":0.3501182202241821,"129":-0.3294170480890195,"130":-0.028242138124759623,"131":0.021033626217400295,"132":0.0607038856297047,"133":0.23678069804880514,"134":-0.2750619866079641,"135":-0.07649602753166232,"136":0.14150972905776982,"137":-0.376554336397137,"138":0.037132574103259035,"139":-0.23701979469083403,"140":-0.10736691068537284,"141":0.09774500690886291,"142":-0.06234536390375416,"143":-0.12079033926895194,"144":-0.018590334605636433,"145":-0.14327980859009376,"146":0.14693139762771815,"147":-0.2266725788911078,"148":-0.15132997562871175,"149":-0.049005226479853815,"150":0.11381104727180089,"151":-0.12708834627792137,"152":0.16220328715508764,"153":-0.17959179327903824,"154":0.42413708841561143,"155":-0.19666573579827507,"156":-0.2643313770132506,"157":-0.05270194475740455,"158":0.266677982990884,"159":-0.025685215450704374,"160":0.41485549280345263,"161":-0.43629337789161676,"162":-0.41677662196042237,"163":-0.12367719992648579,"164":-0.026283847359923736,"165":-0.0510569359797488,"166":-0.3276502235551508,"167":-0.09802117202305284,"168":-0.026462857527664644,"169":-0.30013816009738103,"170":-0.01788097576354101,"171":-0.09717627994121818,"172":0.33875554810101777,"173":0.023184278634577827,"174":-0.02573657537029241,"175":-0.17164097741704484,"176":0.10024864364326551,"177":-0.13033862826039538,"178":0.0476951953230358,"179":-0.2527494114369206,"180":0.35863861178333223,"181":0.11576310809996035,"182":0.0828640965992819,"183":-0.23892952435354725,"184":0.17577621485889972,"185":-0.14879757577096744,"186":0.03081840024303631,"187":-0.35444478461401085,"188":-0.052622177859714465,"189":0.0061861884458951945,"190":0.36027253585103997,"191":-0.21186892230306686,"192":0.04794668790031668,"193":0.061183554970623576,"194":0.015162550674288395,"195":-0.463681551046553,"196":-0.2452147396278264,"197":-0.3145624047311487,"198":0.243984922279658,"199":-0.3382816594395636}},{"sx":5,"sy":5,"depth":8,"w":{"0":0.08443020799342912,"1":-0.24677059648644128,"2":-0.1817446821960508,"3":0.16152928012781897,"4":-0.04235721120702357,"5":-0.010244334385250246,"6":-0.0897366209787339,"7":-0.5030878951940252,"8":0.6545912883403748,"9":-0.41975334878571274,"10":0.04393087840876302,"11":-0.4443333987125291,"12":-0.006870175716346847,"13":0.1955071486062495,"14":0.3067408127593127,"15":0.5087840601356544,"16":0.3871085014866008,"17":-0.36034414401559944,"18":0.15522403771229093,"19":-0.21300845718848618,"20":-0.2470355833737941,"21":0.3127755710079039,"22":0.23632647079991326,"23":-0.1054729889658966,"24":-0.07388899913179152,"25":-0.16860161393686038,"26":0.16415183585125656,"27":0.22711918352918234,"28":-0.32077988585718153,"29":-0.23321882142716766,"30":-0.07082687696883248,"31":-0.3274133318015333,"32":-0.2650500213398195,"33":-0.38510412544745815,"34":-0.1423361379164623,"35":0.46416783198016837,"36":0.15493142327372372,"37":-0.14421180074383058,"38":-0.028266480912214193,"39":-0.5818644331492199,"40":0.06371712217263018,"41":0.10400123516039025,"42":-0.11141963059169506,"43":0.06901907700493196,"44":-0.422770381892572,"45":-0.0971442468709111,"46":-0.44507398488996774,"47":-0.2145548578433994,"48":1.0626884134223047,"49":-0.22086492760722948,"50":-0.09468980398962187,"51":0.09783353015191143,"52":-0.25624533137728317,"53":-0.25257043399607265,"54":-0.18910774222693927,"55":-0.23805837156164,"56":0.4700247204959822,"57":-0.11872603841427298,"58":-0.21451886907997944,"59":0.05136626783903467,"60":-0.14938979128412125,"61":-0.2115783715426529,"62":0.05813875353322836,"63":-0.3511184556999075,"64":-0.347383142208751,"65":0.10278591744072085,"66":-0.2394202193611001,"67":0.05153572784273979,"68":-0.10740958945452966,"69":-0.188790311042123,"70":-0.0156314519824099,"71":0.07066344883878409,"72":-0.30277377176102355,"73":0.299971203548049,"74":0.07836362268840343,"75":0.1585376027019121,"76":-0.25757745412721283,"77":0.35923092739636575,"78":-0.1263862629127713,"79":0.8256893950857026,"80":-0.214294933209525,"81":-0.1942087189792265,"82":0.17494705901067012,"83":0.5137520202447963,"84":-0.21594192203080914,"85":-0.3627532672897274,"86":-0.28282612545041896,"87":-0.17617544158694443,"88":0.6445704012130219,"89":-0.18742443031090433,"90":0.019179014260743848,"91":0.14183590764917056,"92":-0.22863346235587476,"93":-0.18482940802768585,"94":-0.4404052615955323,"95":-0.09476912495143812,"96":0.004150850139496216,"97":-0.20451817554911159,"98":-0.5127714316628974,"99":0.04995641510160366,"100":-0.27027848557157014,"101":-0.012294823383545383,"102":-0.23876821225261544,"103":0.34633151060188433,"104":-0.21307957886633935,"105":-0.13389327475739488,"106":0.3142483566615518,"107":-0.17966921693183951,"108":-0.390842683386731,"109":0.3758764612520938,"110":0.05385122620751786,"111":0.772534397272146,"112":0.008064743335034697,"113":0.3677437773797292,"114":0.7438278873249554,"115":0.27277281094502076,"116":-0.4197684113660436,"117":0.2650859485625958,"118":-0.0073285631576151325,"119":0.49158835229062137,"120":-0.10200664899014884,"121":-0.14689541379773088,"122":-0.08911223042609205,"123":-0.30934352626806944,"124":-0.24978087269957056,"125":0.06373841547003904,"126":-0.14236543070912608,"127":0.20388320986078842,"128":-0.038728608229782704,"129":-0.21706108198506868,"130":-0.12862756566872624,"131":-0.15231481258293988,"132":-0.2576127584438099,"133":0.08862952356888934,"134":-0.12717894168032898,"135":-0.15751940131513803,"136":0.05337138654263234,"137":-0.4329749796585735,"138":0.1415561096537564,"139":-0.4009119811844151,"140":-0.05332505774815747,"141":-0.012272275628724358,"142":-0.1996601249141365,"143":-0.21441752489434593,"144":-0.06620389910758163,"145":-0.2756091210311354,"146":0.5027078859321682,"147":-0.10752251404504976,"148":0.0979843261295612,"149":0.034043998620129835,"150":0.10489596676404074,"151":-0.3006691215988734,"152":-0.5070299600976235,"153":-0.06173635178286436,"154":-0.4893046552416216,"155":0.30772963062999426,"156":0.7146564475625446,"157":-0.11336672800044752,"158":0.09632333184158341,"159":-1.0649230846722055,"160":-0.007346401498295615,"161":-0.34481117588447346,"162":-0.2707155274758642,"163":0.020822976471746236,"164":-0.13299557433504422,"165":0.3731962351870826,"166":-0.0525467625189087,"167":0.3604686113031856,"168":0.19362364269745247,"169":0.2315028738633118,"170":-0.007498702633796984,"171":0.19365186653303967,"172":-0.22085977775901136,"173":0.09044373804480467,"174":-0.09041353149760388,"175":0.053021000370190356,"176":0.03483961826674454,"177":0.39982721930350673,"178":0.07678001741366282,"179":0.04844819062137093,"180":0.07690174800141157,"181":-0.13734116680945474,"182":0.004601998202243704,"183":-0.2727708450596848,"184":-0.021016476765094425,"185":0.6352876915604881,"186":0.10010096639218713,"187":-0.024297025450173083,"188":0.12604384831926224,"189":-0.27430245531683817,"190":0.24796247897786045,"191":-0.30634846201322535,"192":-0.3750698923839808,"193":0.02773556621839795,"194":-0.026351664896956187,"195":-0.24302482012268584,"196":0.16415002260527897,"197":-0.15968479523383264,"198":-0.26412331533559635,"199":0.5352523392958553}},{"sx":5,"sy":5,"depth":8,"w":{"0":0.09637738822404694,"1":-0.2127889585324642,"2":-0.4175004105715129,"3":-0.30784137302468656,"4":-0.0688298966447751,"5":0.0831554442153212,"6":-0.10333799709056057,"7":0.18797074551804135,"8":0.2287095122622406,"9":0.1279655983466497,"10":0.10966756460576924,"11":0.047434937813192954,"12":-0.33092202591760594,"13":-0.056349302776981754,"14":-0.0754043488288873,"15":0.18594453510867492,"16":-0.054441839655406214,"17":-0.04739207035096882,"18":-0.029956809886789906,"19":0.14089956227983222,"20":-0.04418950989931035,"21":0.05236390684643714,"22":-0.1539964492539281,"23":-0.1743299494808148,"24":-0.10438061602966388,"25":-0.21352817644781533,"26":-0.33888734710924256,"27":0.1239728558375212,"28":0.34343731848998293,"29":-0.20433560795608696,"30":-0.27129452179513114,"31":0.04175664505677889,"32":-0.03870075703140962,"33":-0.3206232674744695,"34":-0.29087148697603593,"35":-0.14254507978876413,"36":0.15363451226179814,"37":-0.16806450022388705,"38":-0.4911725201683286,"39":0.06586474439518265,"40":0.011543184680156285,"41":0.2774694712987331,"42":-0.17445116743473732,"43":-0.15378956792460774,"44":-0.46172845081967434,"45":-0.20053663624418272,"46":-0.2374421872960452,"47":-0.044953946509523585,"48":0.12834801594976983,"49":-0.1074624315449478,"50":-0.19775614221340404,"51":0.05361676494629638,"52":-0.2984177547190925,"53":-0.20284355776488477,"54":-0.357609807875675,"55":0.05519375193369496,"56":-0.12272910627358406,"57":-0.08745416017803284,"58":-0.24723952740544738,"59":-0.00031988134792807084,"60":-0.16102727641173936,"61":-0.5051461813126104,"62":0.026056742481578195,"63":-0.11145597023857742,"64":-0.08469717388449872,"65":-0.1314015241186227,"66":-0.24581778154232256,"67":-0.05865934271267623,"68":-0.0031553211706559525,"69":-0.201726322074555,"70":-0.23270506819041697,"71":0.1731437796318121,"72":-0.029605097520223073,"73":-0.4169347912900027,"74":-0.2628930161993662,"75":-0.10913118464780451,"76":-0.10165846067619244,"77":-0.26699896552664454,"78":-0.3483390609626257,"79":-0.14408533939933824,"80":0.09118540004924998,"81":0.1254117601103691,"82":0.020632000542718416,"83":-0.276854387509761,"84":-0.526953496445203,"85":-0.5169538706903122,"86":-0.1775065658018402,"87":-0.39597924550342684,"88":0.04067385013333343,"89":0.48537794946237645,"90":-0.021908675113233644,"91":0.1310274846236065,"92":-0.32600903322963426,"93":-0.6331384751527299,"94":0.144255248014741,"95":-0.15456957066312432,"96":0.16944708120969423,"97":0.5143001953591257,"98":-0.1446957421532182,"99":-0.01738606277819121,"100":-0.137955008741981,"101":-0.110804390807205,"102":0.33961955267349814,"103":-0.04907012396742111,"104":-0.11414336077430186,"105":-0.44873286897603987,"106":-0.26470112727402284,"107":-0.27173660899022284,"108":-0.18376699870769686,"109":-0.18750335272419633,"110":0.06326170294266667,"111":0.2212474851802336,"112":-0.10780548653199364,"113":0.04612266423745948,"114":-0.3023163364627726,"115":0.013953063058669604,"116":-0.2190446118203267,"117":-0.23836954026496507,"118":-0.035966449615869894,"119":-0.2264504144529087,"120":-0.021517518690034276,"121":0.03076515824415705,"122":-0.06497292883528147,"123":-0.04756682850696177,"124":-0.42135850931653873,"125":-0.21480000176816452,"126":0.10827545334132185,"127":-0.5112336150772101,"128":0.27212667513636213,"129":0.43629830824164034,"130":0.25673673879031156,"131":-0.24974668351097007,"132":0.03750508283864337,"133":-0.32302634035625616,"134":0.22237758420249298,"135":-0.2661991433170762,"136":1.0534140646173855,"137":0.2562258829655897,"138":-0.11656695636120924,"139":0.018919108547461847,"140":-0.018615230710536206,"141":-0.07245650800514668,"142":0.10110991985272576,"143":-0.05630964380558016,"144":0.11352478160625565,"145":0.32685957750858985,"146":-0.33277116019994146,"147":-0.24553559166539077,"148":-0.0890410015993404,"149":-0.017769400027432776,"150":-0.03665060529793853,"151":0.028979724556563065,"152":-0.286635544016703,"153":0.3596533272881452,"154":0.06645695371246124,"155":-0.18692016978155718,"156":-0.22650680820296767,"157":-0.08668860161008453,"158":0.16693835338777127,"159":-0.12860777586398459,"160":0.19464121315900165,"161":0.20530931219098364,"162":-0.19496479966936275,"163":0.18356239126773094,"164":-0.33097542699751703,"165":0.058513675155960475,"166":0.02134448459500561,"167":-0.3970543907345337,"168":0.06267982951405204,"169":0.02105145558363463,"170":0.20717552679647072,"171":-0.29764122071846155,"172":-0.1434045020073586,"173":0.1617031839558802,"174":-0.21994949696000887,"175":-0.2932547252729367,"176":0.3844783595123688,"177":0.2389328955403893,"178":0.4401069256353404,"179":-0.016395359681296205,"180":-0.14648290899249775,"181":-0.2523687587681791,"182":0.09346794889617134,"183":-0.1813512449609742,"184":0.107452745696291,"185":0.35451865959174156,"186":0.21246216648077573,"187":0.16829672709148713,"188":-0.20590647432195885,"189":-0.23815523025654753,"190":-0.3551444009945659,"191":-0.22233221740147813,"192":0.371794452373457,"193":0.15430466333687295,"194":0.7032126109772717,"195":0.0633783814792254,"196":-0.15863127904783958,"197":0.03831564359793693,"198":0.13835106537135342,"199":-0.13298834591435818}},{"sx":5,"sy":5,"depth":8,"w":{"0":0.07941543350822561,"1":0.04726871141038326,"2":-0.09222413530060741,"3":0.201845827349339,"4":0.14486120493257867,"5":-0.0154721910126474,"6":-0.15203002743353822,"7":0.45683900102481934,"8":0.07086643769448156,"9":-0.034941290205833565,"10":0.051965777553355595,"11":0.3766428717978701,"12":-0.16650990493634707,"13":0.06726611781342826,"14":-0.19708537141001664,"15":0.5931256960392661,"16":0.308621468257999,"17":-0.21281649705352895,"18":-0.35407948278661106,"19":0.47191560839535257,"20":-0.41084955742621665,"21":0.05777411697383937,"22":-0.2908663233158526,"23":0.5182850209816713,"24":0.37647272102771834,"25":0.020860205404958174,"26":-0.23269333302898507,"27":0.9092851676331423,"28":-0.3751906159612432,"29":-0.028831178340551093,"30":-0.15711555418451995,"31":-0.07296222493784398,"32":-0.298938631215303,"33":-0.2037520970970821,"34":0.022173716970942326,"35":0.39495038418824313,"36":0.25103509312239236,"37":0.1949758499682479,"38":0.004465111623053119,"39":-0.10836526947348654,"40":0.013531857892531985,"41":-0.424527200143132,"42":0.21155100640837102,"43":0.07890209429063211,"44":0.061731169188656315,"45":0.09979786854621842,"46":-0.6619123173808924,"47":0.13788971772584752,"48":-0.2708394202215609,"49":-0.39578648231128555,"50":-0.1521136004432344,"51":-0.5488208097249683,"52":0.14915008253097184,"53":0.20610874665023368,"54":-0.46699287309587534,"55":0.023501394749669405,"56":-0.42032140794561873,"57":-0.5268694184402983,"58":0.03082491625992589,"59":-0.32729924216619016,"60":0.019455688359459752,"61":0.40640406689953984,"62":-0.1165828959049077,"63":-0.18463169913247612,"64":-0.38569348108403234,"65":-0.009851853908895536,"66":0.22717856576375292,"67":0.34554391938231077,"68":-0.3329140028357196,"69":0.18552821969941932,"70":0.4918826818496793,"71":-0.594717285697574,"72":-0.11207843950326889,"73":0.7685653363336195,"74":0.11364293586101726,"75":0.49507732500539664,"76":0.17183812726583836,"77":0.12794683112612784,"78":-0.0011816852358832427,"79":-0.4316803221276559,"80":-0.06504273223591824,"81":0.1759837659656715,"82":0.46496621048790315,"83":0.04051085994205465,"84":0.042726463206248774,"85":0.06646189934398826,"86":-0.027367264361889358,"87":-0.2793861482875613,"88":-0.3793171695051626,"89":-0.06982454895848422,"90":0.324538434536947,"91":-0.02131315400500435,"92":0.2434553833434415,"93":0.05093344848665116,"94":-0.12639062502840692,"95":0.07549609663926399,"96":-0.49564918605675007,"97":-0.43839882314307976,"98":0.32347527878557725,"99":-0.5646904164196518,"100":0.25043717047839903,"101":0.4017072857461685,"102":0.31237490629596937,"103":-0.39130441308080993,"104":-0.42343531932882306,"105":-0.10787295341379734,"106":0.1587034416867432,"107":-0.5918852582144574,"108":-0.11121770207275535,"109":-0.12515175267819353,"110":0.6234716384276177,"111":-0.6122653035659221,"112":-0.20594446035721076,"113":0.3685174065452136,"114":0.29921465396659475,"115":0.2777091773833959,"116":-0.10978318995683138,"117":-0.1660405853098966,"118":-0.1456206915445877,"119":-0.5191969738893782,"120":0.001738502535461985,"121":0.6680548771487775,"122":0.19040416562862025,"123":0.1218765530706231,"124":-0.31102063305095506,"125":-0.14619292579101972,"126":-0.07649714431871805,"127":-0.2695450000447376,"128":-0.06156342551211157,"129":0.13633370772771636,"130":-0.19141335159389633,"131":0.266178990002671,"132":-0.10939801524555978,"133":-0.3144844709334231,"134":-0.26547323330571304,"135":0.24298894646551664,"136":-0.07893284552127386,"137":-0.26860548187177136,"138":-0.34180026522068857,"139":0.0003241054145385567,"140":0.1131694641827096,"141":-0.09477756781106259,"142":-0.09224383363035263,"143":0.15579834727294897,"144":-0.08107142612561309,"145":-0.33514921105756157,"146":-0.2259867113097279,"147":-0.09350238087992802,"148":-0.09313126195360404,"149":0.018049270215108222,"150":0.3208055048035072,"151":-0.1545521169613894,"152":-0.30296282467992613,"153":-0.380525894853789,"154":-0.11749288313495987,"155":0.06849037557103581,"156":0.03051401643993794,"157":-0.09873722518014531,"158":0.2619525696172983,"159":-0.32169514276221745,"160":-0.09841141338299066,"161":0.20194676093861935,"162":0.06971382563576131,"163":0.01984150441990262,"164":-0.4452968428015046,"165":-0.10798369829780216,"166":-0.35442202786465593,"167":-0.0545874727082687,"168":-0.054224208166695945,"169":0.30061619948833557,"170":-0.347070878799238,"171":0.17422300976476293,"172":-0.4900323750091119,"173":-0.3944170671468707,"174":-0.5234272224197292,"175":0.40448980594339573,"176":0.40174821454973453,"177":-0.2546825087555738,"178":-0.5503066477521166,"179":0.5941999654917125,"180":-0.13226116981780217,"181":-0.16375917319729483,"182":-0.39183783112900283,"183":0.496668038711014,"184":0.3154602292504015,"185":-0.5276168514089299,"186":-0.058614105444510546,"187":0.22521401497625876,"188":0.37337314353798146,"189":0.2332655274623263,"190":-0.23912841261101814,"191":0.0027863241778606704,"192":-0.09680743773299647,"193":-0.4802600150932857,"194":0.07427529079458983,"195":-0.27057077945655916,"196":0.41863505822088076,"197":0.225308250252816,"198":-0.12531045571100777,"199":-0.2096807047550216}},{"sx":5,"sy":5,"depth":8,"w":{"0":0.10202098552263779,"1":0.35719786780856144,"2":0.44945146479838427,"3":-0.02995938974018446,"4":0.01112333626185389,"5":0.20495769038727335,"6":0.25498811502595276,"7":-0.1311619078019051,"8":-0.19868452304239345,"9":-0.5211230042857253,"10":0.13163779418846477,"11":-0.17918036043244587,"12":0.13102147468882142,"13":0.020118159975604167,"14":-0.1320060491635777,"15":-0.027298809752674468,"16":-0.11546609955823724,"17":-0.36843081444103204,"18":-0.4489973939692714,"19":-0.4017377319000054,"20":0.12775362489780678,"21":0.11236231122986183,"22":-0.06129868974792483,"23":0.20369326715605424,"24":0.4970051587754717,"25":0.1056800777278568,"26":-0.3680880909605735,"27":-0.04093141858855696,"28":-0.023831485587126135,"29":0.22597150619601944,"30":-0.12220524234063902,"31":0.36347250900377565,"32":0.0911428778385902,"33":0.22493789393787608,"34":-0.06035427876603699,"35":0.23881828994385515,"36":-0.30623887067554,"37":-0.11126656045710256,"38":-0.40898000410263474,"39":0.5347333909905557,"40":-0.047346075965862974,"41":-0.07998615996444453,"42":0.04292355379219603,"43":0.7902570668370525,"44":0.5656937564264655,"45":0.09534870764455228,"46":0.2121891747700961,"47":0.041955027048134676,"48":-0.030856481339059088,"49":-0.23785282165280783,"50":0.012661352878205199,"51":-0.035941864653537464,"52":0.4420135732915847,"53":0.44288453468078276,"54":-0.018125558759668432,"55":-0.12362768701013736,"56":-0.10068538539253204,"57":-0.2852013928813529,"58":0.02393669175765191,"59":-0.20773445070380728,"60":0.24684790984243915,"61":0.11100716888124898,"62":-0.105045019255509,"63":0.10637659203643059,"64":0.3721777959194193,"65":-0.2924398778570117,"66":-0.37590597070751786,"67":-0.013912494120079997,"68":-0.014443230128257096,"69":0.282257419058287,"70":-0.2588301351503088,"71":0.21475435359952139,"72":0.04495117850885872,"73":0.3087986570960014,"74":-0.41202206182881085,"75":0.7167439333107212,"76":-0.47237274463489337,"77":0.0033912845445288444,"78":-0.5126148825296127,"79":0.6155591778910217,"80":0.2187067294895031,"81":-0.3630041760782057,"82":-0.05374154328756244,"83":-0.29953228344360955,"84":0.0880942863574901,"85":0.3648249740854921,"86":0.041032489366179606,"87":-0.003439567897924168,"88":0.12321988111033218,"89":-0.23269535104691585,"90":-0.30550534822619824,"91":-0.02213474310365017,"92":0.06185243238580867,"93":0.27200636003114814,"94":0.005482481523152921,"95":-0.07324537631387647,"96":0.28072075559571646,"97":-0.30541847782517234,"98":0.13235486662362125,"99":-0.14330034574047532,"100":0.31787713513390997,"101":0.20760744026791778,"102":-0.12230138066733331,"103":0.25798180928381514,"104":-0.16825684485075698,"105":-0.3791901958330631,"106":0.058273617681431314,"107":-0.526887955664748,"108":-0.01952440368335941,"109":0.3564920543321072,"110":-0.13897742720342263,"111":0.38416935418567344,"112":-0.36498081891508843,"113":-0.0907805238558249,"114":-0.08163471633783442,"115":0.0706054619785606,"116":-0.053858129569534,"117":0.33325785590713936,"118":0.021960172620419896,"119":0.36583185509471317,"120":0.06778289916201846,"121":0.06351135385455417,"122":-0.4209319469499505,"123":-0.1442099680314369,"124":0.07054810128340575,"125":0.37389449123866136,"126":-0.1244390014883326,"127":0.01973975484491101,"128":0.3111684169636379,"129":-0.06800456036166187,"130":-0.3158154057985024,"131":-0.14654299132536328,"132":0.10365255083103161,"133":0.09860071687063943,"134":-0.1322918430605303,"135":-0.282251198761779,"136":0.1447619103844615,"137":-0.013699481231997391,"138":0.3609099261068357,"139":-0.40745429304118447,"140":-0.006982225107321265,"141":0.18879685631372412,"142":-0.02226001182873863,"143":-0.09020929084063224,"144":-0.1835345913676329,"145":0.010581672877873637,"146":0.6545946250614525,"147":-0.526840062480399,"148":0.17637187261697898,"149":0.08807765854057995,"150":0.33712107593857515,"151":-0.15673510978167984,"152":-0.4055030463932759,"153":-0.015417362138034917,"154":1.223908549469779,"155":-0.5273578277148481,"156":0.17916045322957277,"157":0.10491348862403291,"158":0.32268553007624745,"159":0.12604115540005764,"160":-0.004622881812512653,"161":0.07263103840065699,"162":-0.10593255525572183,"163":-0.40918154591071526,"164":-0.3873973236304549,"165":0.0414804345832453,"166":0.3234566511012303,"167":-0.11927655039329865,"168":0.1747109439735306,"169":0.5344777173156927,"170":-0.3086733508585047,"171":0.09418440278978786,"172":-0.14196410753637692,"173":0.14886619308258692,"174":0.1096592482105848,"175":-0.2718035351952627,"176":-0.0010078068825681644,"177":0.6858164332520127,"178":-0.2160455278025938,"179":-0.12049134521975272,"180":-0.22341837442275234,"181":0.003598258488486569,"182":0.12448527538788369,"183":-0.17158159108951102,"184":0.16307127729482374,"185":0.2614956594256246,"186":-0.2329586219724985,"187":0.19113099064637812,"188":0.05103236369226678,"189":-0.2083596553039163,"190":-0.15747799628655348,"191":0.016342195555498835,"192":-0.06668681975601955,"193":-0.5436799854503047,"194":-0.12137623582130516,"195":0.14277180932085995,"196":0.13574010573094225,"197":-0.26897923555080205,"198":-0.038009137535186054,"199":0.048487738062470497}},{"sx":5,"sy":5,"depth":8,"w":{"0":0.37886997384273163,"1":-0.25335954063971583,"2":0.20992326221727034,"3":0.021054249905925606,"4":0.2717697427813997,"5":0.2501394763265565,"6":-0.24327595083900164,"7":0.08583201513160238,"8":0.43817951200252314,"9":-0.1699406408396764,"10":0.43753909062450835,"11":0.1150025845267976,"12":-0.04896333676413866,"13":0.001869323740646129,"14":-0.15656614792510906,"15":-0.043241386795513564,"16":-0.0745075112515175,"17":-0.18767932529600495,"18":0.0792834020354122,"19":0.32780355174566594,"20":-0.07755346719141024,"21":-0.07795938850168592,"22":-0.4094018529495289,"23":0.09288740935127505,"24":0.1447151778675798,"25":-0.19370415778536826,"26":0.2669014321863331,"27":0.0579365032284263,"28":0.06197072082027007,"29":-0.15156668040035795,"30":-0.3762102880041956,"31":-0.050836421515152386,"32":0.35080060886585895,"33":-0.0953450146317074,"34":0.6146717093285609,"35":-0.006489463624540632,"36":0.09016056662146354,"37":0.050962119576354506,"38":-0.1755705480033381,"39":0.235595725231105,"40":0.0953896717406599,"41":0.056871157557963535,"42":-0.06798755563302016,"43":-0.22762295938575752,"44":-0.39305801652850003,"45":-0.2951160709911737,"46":-0.15368638394385362,"47":0.18015064443679257,"48":0.1271055437435089,"49":0.08039723780011902,"50":-0.07343697590537784,"51":0.24060575350758004,"52":-0.3282187878910201,"53":-0.38088798010149594,"54":-0.31541892616249,"55":0.01858442956654323,"56":0.007691401219383886,"57":0.12218800835997293,"58":-0.06687150237034196,"59":-0.018959164439918155,"60":-0.30112170040255454,"61":-0.36677699147973586,"62":-0.1705258014201888,"63":-0.3026604393277348,"64":-0.04365419206222972,"65":0.08637467507699483,"66":-0.10604015136021767,"67":0.026323308569802917,"68":-0.28680048368146455,"69":-0.43656464041677095,"70":-0.42812965278482706,"71":-0.4088981876374647,"72":-0.07126615222239392,"73":0.027267134701900567,"74":0.36486515216585713,"75":-0.07483555448371416,"76":-0.3470901122878202,"77":-0.11580933150877724,"78":0.009231274790333897,"79":0.0277096626325557,"80":0.16056280131740483,"81":0.11444922103852201,"82":-0.09167951357337861,"83":0.26025037415781105,"84":-0.10071447817439728,"85":-0.24886632664886765,"86":-0.31114284929875224,"87":0.2619528317541148,"88":-0.06237654307804969,"89":0.329004559847683,"90":-0.04679731978327156,"91":0.14666935936844586,"92":-0.1783498746104884,"93":-0.27602211159395895,"94":-0.32045678208781964,"95":0.04309948530774017,"96":-0.10819818824976923,"97":0.0014116671037121887,"98":-0.2636967426723512,"99":0.10357949073868587,"100":-0.23902979928151202,"101":-0.2565755089681364,"102":-0.05827024982764729,"103":-0.21837644795347308,"104":-0.14876996673800777,"105":-0.06405480088237284,"106":-0.1105827780479886,"107":0.06975136151693086,"108":-0.2749224209819323,"109":-0.43738116529068594,"110":0.061748243952697415,"111":-0.1388654839521929,"112":-0.2304352921064361,"113":-0.4958441233326262,"114":0.10898501240166834,"115":-0.46169161342628273,"116":-0.09469604269837782,"117":-0.11050418134328654,"118":0.6962860404878635,"119":-0.5358164415461971,"120":-0.3151838263912397,"121":0.6876649891255485,"122":-0.5541333648191343,"123":0.22039040800279178,"124":-0.20134935051188202,"125":-0.043008470140239036,"126":-0.11921624255368297,"127":0.37655202349400424,"128":-0.2990326474000991,"129":-0.01776739749167098,"130":-0.07025056633332974,"131":-0.2765917820665139,"132":-0.15904751944941214,"133":-0.26844483500722294,"134":-0.2611389075186968,"135":-0.16624035393443282,"136":-0.22987658695947863,"137":-0.12656385144869897,"138":-0.3456866267798123,"139":-0.2235811649529089,"140":-0.31242446046192784,"141":-0.12793046938342834,"142":-0.039267116423844214,"143":0.3188300351954517,"144":0.08727669433021643,"145":0.11257511638833782,"146":-0.0649571376928724,"147":-0.1640522766659581,"148":-0.1917062844386076,"149":0.16385422460741933,"150":0.2915446242594832,"151":0.5285612487054925,"152":-0.14440010301766937,"153":0.06604830585003475,"154":0.2122029916639678,"155":-0.1205033954651904,"156":0.051008042649412146,"157":0.2515723638903198,"158":0.7997028945755316,"159":0.16159164476847004,"160":0.14108320853619857,"161":0.39169202891692806,"162":-0.7841199579719144,"163":-0.17692899348508062,"164":-0.3448479914156637,"165":0.12184844024820887,"166":0.13666906909118134,"167":0.14398731786681096,"168":-0.3068703647278052,"169":0.059756904456798474,"170":-0.4046204668638724,"171":0.09194441485101836,"172":-0.3072100054364608,"173":0.22013478590966368,"174":0.10208358897272814,"175":0.01730750455075986,"176":-0.25163588623780886,"177":-0.18468905723039458,"178":-0.18937259215195146,"179":0.0022372736416210763,"180":-0.08171090421920307,"181":0.29261074234792567,"182":0.3115138823088817,"183":0.49447008337638715,"184":-0.09243875510643881,"185":0.06617413278448425,"186":0.3004348362287679,"187":0.043063117010757185,"188":0.25698846661020275,"189":0.3940645655644876,"190":0.32694748501670357,"191":0.13286479334256834,"192":-0.0863207559726563,"193":0.11204888419338459,"194":-0.13618649537590796,"195":-0.06430865649853161,"196":0.24848684715530595,"197":0.310288701361449,"198":0.48943457064782686,"199":0.38762896539005315}},{"sx":5,"sy":5,"depth":8,"w":{"0":-0.20165281869916019,"1":-0.33836825330352205,"2":0.4112270973650452,"3":0.05431172234942301,"4":-0.02263940681090917,"5":-0.19404704041161824,"6":0.01752105408088257,"7":0.029704709227871322,"8":-0.18514912678362253,"9":0.02175780183701858,"10":0.3103154181773433,"11":0.3488886157766138,"12":-0.0037060844175232917,"13":-0.021367345516063174,"14":-0.3063904081075372,"15":0.020463665140398993,"16":0.08113636736220173,"17":0.13459660669748272,"18":0.17430105132310683,"19":0.2926145224338103,"20":-0.15042597676565286,"21":-0.0705704501212218,"22":-0.2895481936799056,"23":-0.050835700385452896,"24":0.32020804326471625,"25":0.04807610765491463,"26":0.2818991927576233,"27":0.04584287289027855,"28":-0.02063008958555124,"29":-0.17951124250402187,"30":0.24614895136314852,"31":-0.1359709819986652,"32":0.23101098604854572,"33":-0.03985540817495572,"34":-0.16755008868142296,"35":0.06859683465295027,"36":-0.23168086534931245,"37":-0.17226653431474281,"38":0.07449654936223375,"39":0.09221124270862999,"40":-0.2667872863591824,"41":-0.07879784364856293,"42":0.11858183121946823,"43":-0.3318067173096968,"44":-0.055043023949310814,"45":-0.23801561438074265,"46":-0.03981110398762001,"47":-0.04245083538964502,"48":-0.1375506895736873,"49":-0.11727280157613082,"50":-0.12622138564115154,"51":-0.11452479836614154,"52":-0.28699728998465374,"53":0.02396835929595985,"54":-0.09985653521992346,"55":-0.10227174813239298,"56":-0.09189862189952581,"57":-0.08954159420481969,"58":-0.33332295568210385,"59":-0.19818261593756725,"60":-0.19980924144372164,"61":-0.11365580019934748,"62":-0.23539931866869576,"63":0.2436932883383431,"64":-0.07133173961987725,"65":0.0015423640469610432,"66":-0.2694626039738052,"67":-0.20496735165610305,"68":-0.28518293044863147,"69":-0.025126171137252993,"70":0.12602386291087994,"71":0.39609071000136137,"72":-0.08702475502952561,"73":-0.12142181060439135,"74":-0.25097957597136894,"75":-0.2645697019309232,"76":0.15254143290646324,"77":0.06879235296053741,"78":0.608137274445397,"79":0.3299577332819826,"80":-0.2532569390789202,"81":0.17116926190191048,"82":-0.2435409380633909,"83":-0.2786950959028954,"84":0.005213388839165857,"85":-0.1340222459328818,"86":0.4942325181511143,"87":0.008657294126764779,"88":-0.06547525957941604,"89":-0.03629481195308825,"90":-0.16311745595889168,"91":-0.2453663627149289,"92":0.10784048402251384,"93":0.206615134915619,"94":-0.20913284560843992,"95":-0.10516385195170734,"96":-0.1721739177957185,"97":-0.30468270026859856,"98":-0.34269635570795814,"99":-0.3842792953934998,"100":0.2849244134831492,"101":-0.0026370554253869697,"102":-0.3760920657949777,"103":-0.01398060977394576,"104":-0.11751474536831873,"105":-0.08450484830061544,"106":-0.38258666171764893,"107":-0.30067984745976784,"108":0.027735507571939117,"109":-0.33033873205463643,"110":-0.32974472708415625,"111":0.12912298447403858,"112":-0.01806592606734223,"113":-0.08954264567585399,"114":-0.5211806116049749,"115":-0.18377415871767028,"116":-0.08336983550599823,"117":-0.2607776507772866,"118":0.23569887662872677,"119":0.39623543293793917,"120":-0.10750313309567708,"121":0.059536812658150494,"122":-0.17925493664295358,"123":0.1633996182182175,"124":0.15290728199267484,"125":0.06495934360580045,"126":0.22954708603149876,"127":0.007559660194330555,"128":-0.09786037262657836,"129":-0.21673295228535586,"130":-0.1697368289479913,"131":-0.24470417284996382,"132":0.20058480812295904,"133":0.16279574820490683,"134":-0.00880856913052872,"135":-0.12163871516226231,"136":-0.1448387046365614,"137":-0.17622557572719572,"138":-0.1681520951169428,"139":-0.41617885737383997,"140":0.21770536031730903,"141":-0.08325009700642487,"142":-0.15564196938571057,"143":-0.033423708444035694,"144":-0.06604991011512824,"145":0.12256074248728971,"146":0.02011098024493691,"147":-0.1573993952908575,"148":0.16924161862435033,"149":-0.6118990072312818,"150":-0.3702602013922947,"151":-0.009425545713304534,"152":0.036726076004435365,"153":-0.02086748801825193,"154":-0.3906833973034972,"155":-0.10663160319439698,"156":-0.25087341132417956,"157":-0.2504148776325423,"158":0.0787501303366253,"159":0.28724346427040987,"160":-0.29481293956772897,"161":0.06569958585162462,"162":-0.5654895210797959,"163":0.1703196096269714,"164":0.4223286753104594,"165":0.012008492535208248,"166":0.4310431013315997,"167":-0.038388377105568146,"168":-0.032978808147137925,"169":-0.17203897708393082,"170":-0.2561789326561837,"171":0.046690717607539366,"172":0.31065300902633536,"173":0.56239113576141,"174":-0.1628898161307111,"175":-0.06153390803437653,"176":-0.05106824379933777,"177":-0.1934531327661215,"178":-0.00725600663897233,"179":-0.2884227469981545,"180":0.33881663347344987,"181":0.22387047951739347,"182":-0.2822954989357839,"183":0.2832381950742556,"184":-0.2288090500442691,"185":-0.014515073495055875,"186":0.30990139882279144,"187":-0.18973463462064952,"188":-0.024870803869338515,"189":-0.5270220064298144,"190":-0.3892545602197693,"191":0.13422877015319618,"192":-0.1628574606038845,"193":0.11488213237067567,"194":-0.21882773501473102,"195":-0.2295723879228936,"196":-0.18644520747947516,"197":-0.4806309363261339,"198":-0.049938104033692,"199":0.08485276447010087}},{"sx":5,"sy":5,"depth":8,"w":{"0":-0.0443962152250838,"1":-0.09806310809762475,"2":-0.40451258972260723,"3":-0.16373559649847655,"4":0.42385250252456935,"5":0.1764039235996502,"6":0.663657465411307,"7":0.2722900409682387,"8":0.2440026853148753,"9":-0.194685624316008,"10":-0.3175737472949146,"11":0.1882232150309242,"12":0.23679831299032245,"13":0.14693510273918511,"14":0.12130905247181949,"15":0.281421367718956,"16":0.38238988038138577,"17":-0.1649075636904443,"18":-0.5422480018167318,"19":-0.09613216194404581,"20":-0.252284481592829,"21":0.3303525052286522,"22":0.2942157587689992,"23":0.6698966092715919,"24":0.3018260765825245,"25":0.3221095176766406,"26":-0.5376413626002416,"27":0.06973317473768585,"28":-0.0661085066122316,"29":0.05166587939536037,"30":-0.06931757300147792,"31":0.46054074921519755,"32":0.21201812305002513,"33":0.26642573102746203,"34":-0.19779435037583407,"35":-0.05307289861077713,"36":-0.20865127115822052,"37":0.11522041217520451,"38":-0.012858569038195669,"39":0.35520511919422393,"40":0.3201633774212689,"41":0.010257774201353398,"42":-0.8471901180045529,"43":0.07550076289962915,"44":0.28756115327602527,"45":0.3117147043984391,"46":0.39701042142805065,"47":0.11982817638622865,"48":0.3258444502575686,"49":-0.08718993779346047,"50":-0.5506125679884308,"51":0.30379848152170763,"52":0.03198029815130545,"53":0.22439485486768349,"54":0.17498964290587019,"55":0.06298449503656153,"56":-0.1448110349655288,"57":-0.07481505916367294,"58":-0.7565771736767422,"59":0.00998545303402452,"60":0.0024220730691144818,"61":0.019510824361208396,"62":0.024251272680882858,"63":0.3633227647093486,"64":0.28234873556276674,"65":0.16981048918861594,"66":-0.655408365018663,"67":0.2563081999261641,"68":0.1105257469526448,"69":0.1824474830651328,"70":0.11817569030740649,"71":0.05158707428034367,"72":0.07613602350816133,"73":0.1657326485123815,"74":-0.26320316704211727,"75":0.23232520629696563,"76":-0.14814513455538547,"77":0.25170714125207394,"78":-0.0033492237814525647,"79":0.24848759394746894,"80":0.3775141832257307,"81":0.031145295731773843,"82":-0.689950278960969,"83":0.3138160190689938,"84":0.16470582608133563,"85":0.009508951623855769,"86":0.15161768381031965,"87":0.11318646118100283,"88":0.029488606092102257,"89":0.1419749880636209,"90":-0.3830246027511273,"91":0.14345067350990037,"92":-0.16104103581140747,"93":0.0171095680368747,"94":-0.07237213672379535,"95":-0.03546433200225975,"96":-0.0726019924231394,"97":0.02290447010881058,"98":-0.7111669917661619,"99":0.18694915411222568,"100":0.3097600496001915,"101":0.3103435048253421,"102":-0.215751353277227,"103":0.2540921856431395,"104":0.36423881064085584,"105":0.04559422736871219,"106":-0.647459302292833,"107":0.07212606279839312,"108":0.0400935861795452,"109":0.4144662637248117,"110":0.02406934087747115,"111":0.09525543523322344,"112":0.10966136186834431,"113":0.20293767324949233,"114":0.0715601469750781,"115":0.7480149895993434,"116":-0.38723792753289704,"117":0.3065569308901956,"118":0.13133931014355898,"119":0.20059249489773395,"120":0.04856349620913198,"121":0.010395335003169434,"122":-0.5468171866467765,"123":0.3845222677540256,"124":-0.08135984753464322,"125":0.07699449402307441,"126":-0.0668138203657463,"127":-0.3713774768853095,"128":-0.12308735881292693,"129":0.14288860532220768,"130":-0.27861736034275497,"131":-0.16610096229452337,"132":0.049973998912652244,"133":-0.047277807898762264,"134":0.2763889699446379,"135":-0.07529908922589329,"136":0.03144192895665266,"137":-0.039060958693907646,"138":-0.6255286263540867,"139":-0.00950696109456438,"140":0.04030378010508949,"141":0.06677172399864084,"142":-0.0586555827075575,"143":-0.043318297312921576,"144":0.08801795757756894,"145":0.20000531610947103,"146":-0.44878552974196784,"147":-0.10009775243015906,"148":-0.1410575962779032,"149":0.06806047475533658,"150":-0.11879036232329147,"151":0.04901960984517773,"152":-0.02960848417480289,"153":0.40797187576304056,"154":-0.09060340619628174,"155":0.18241135639172248,"156":-0.39144873019934306,"157":0.005268961748728454,"158":0.2229328359607233,"159":-0.03894666670285376,"160":-0.26791146559578405,"161":0.03532371003305697,"162":-0.13182956812278637,"163":0.029165173650428932,"164":0.3149449424045654,"165":0.3228213153753843,"166":0.35063800547083185,"167":-0.4152407430238571,"168":-0.292418182839981,"169":0.08721830455864023,"170":0.4310166564259355,"171":-0.25399334224812314,"172":0.33500664548883063,"173":0.20987156681209976,"174":-0.023524196896405048,"175":-0.2134778475184407,"176":-0.08996623809000687,"177":0.08399788299775637,"178":-0.0812996319183818,"179":-0.050056794173918125,"180":0.4398888042196028,"181":0.2443643874468465,"182":0.26525887320843966,"183":0.045640511827343015,"184":0.03198240957343351,"185":0.03112917640892294,"186":-0.22717975991798703,"187":0.05589429927983103,"188":0.03073978380614846,"189":0.024126727994452604,"190":0.14912977311728665,"191":-0.19134263287934444,"192":-0.21404403128032082,"193":0.3086077266106989,"194":0.31267539924117127,"195":0.2747554405349018,"196":-0.40373675207874676,"197":-0.043880131092478104,"198":-0.09888990582295298,"199":-0.2727031872884507}},{"sx":5,"sy":5,"depth":8,"w":{"0":-0.07161744129927912,"1":-0.10815421183883356,"2":0.4408194594016426,"3":0.012302113714625898,"4":-0.06626278840185092,"5":-0.12186804131765287,"6":0.34537405175894426,"7":-0.2024196721871572,"8":-0.11139498554241445,"9":0.003525349477000413,"10":0.3450284279943792,"11":-0.17001502378980515,"12":-0.09256508556459064,"13":0.09972701457406317,"14":0.40557124967776376,"15":-0.4289552810043342,"16":-0.25900988677030157,"17":0.08774233024030165,"18":0.2005742940187566,"19":-0.3479505292070652,"20":0.01588957314473944,"21":0.3297191383152454,"22":0.6050161105833333,"23":-0.46901234347296344,"24":-0.16162845153728372,"25":-0.21619134563734163,"26":-0.3325465141284375,"27":-0.20570415078389195,"28":0.95926443779139,"29":-0.06063478592677895,"30":0.06460716547958092,"31":-0.245145917583034,"32":-0.17882395703940887,"33":-0.08250626547731468,"34":-0.16646858812734414,"35":-0.060971481208380716,"36":0.20640710126115044,"37":-0.09291531995502461,"38":0.01532514001396075,"39":-0.09230661529008491,"40":0.09340452868654525,"41":-0.175639979482298,"42":0.03679804443884957,"43":-0.29987654546712394,"44":0.1426773108297668,"45":0.02034737006783981,"46":0.31857371473446455,"47":-0.10295084865537438,"48":-0.029872331019254177,"49":-0.219284018474921,"50":-0.18886791473204603,"51":-0.19521385500764776,"52":0.44800159585603055,"53":0.05256196100612176,"54":0.01700497193226435,"55":-0.25761248131984754,"56":-0.15753958529046339,"57":-0.04604740448168191,"58":-0.4788365388808038,"59":0.1770400624719535,"60":0.4420842320035648,"61":0.07578154098534619,"62":-0.22358413733794275,"63":-0.4167138676498406,"64":-0.04108189154886211,"65":-0.23534529938506019,"66":-0.3429859481645769,"67":0.1115475343137645,"68":0.2527196100638898,"69":-0.10864768010627399,"70":-0.21943660986952376,"71":0.05355440538597848,"72":-0.01147424903637038,"73":-0.3904637193819306,"74":-0.31181674588836306,"75":0.5277170786965768,"76":0.020342698132724032,"77":-0.15817769549098973,"78":-0.21467823654105475,"79":-0.16436172051723402,"80":-0.009330468777735133,"81":0.34724762145177446,"82":0.030327625249992128,"83":-0.25596754967735674,"84":0.3760176737564946,"85":0.0802694793460679,"86":0.2826265324957102,"87":-0.195619623593494,"88":-0.005344988238009086,"89":0.16901613241675356,"90":-0.08274342601774178,"91":-0.033601383460559846,"92":0.24174499243097308,"93":-0.055762079999802205,"94":-0.17832491724824867,"95":0.03185568295256026,"96":-0.11079294742194666,"97":0.25076464019765066,"98":-0.06137120123843567,"99":0.1748175253862447,"100":0.15000953831372174,"101":0.06670929435047021,"102":-0.29559639923067993,"103":0.17748268564834505,"104":0.3398767205456868,"105":0.05082839995212003,"106":0.04111650280254103,"107":0.5937690913779662,"108":-0.2174753029951192,"109":0.09962744500209349,"110":-0.39906072331567055,"111":0.07638657543271292,"112":0.25802125470236614,"113":-0.3849244938650544,"114":0.11572451871621725,"115":0.6464865996672355,"116":-0.10365904969576469,"117":0.003099979687931031,"118":-0.3023916977884764,"119":-0.05651409323895151,"120":-0.12712150125190505,"121":0.35137065419012964,"122":-0.2014714977337452,"123":0.05117828051742545,"124":-0.3050790678158217,"125":-0.46604786680921473,"126":0.00033598067774612235,"127":0.2521083417113069,"128":-0.19533715060637802,"129":0.04164016847175955,"130":0.0066241417040516365,"131":0.057300016317740274,"132":-0.440520450967296,"133":-0.35789405904489147,"134":-0.09097729728069562,"135":0.24344194175400832,"136":0.4108904124354893,"137":-0.036337728949117507,"138":0.13438739427744073,"139":0.2432813617358499,"140":-0.20146943261748274,"141":-0.04001935691787675,"142":0.2838510982188851,"143":0.17734625982481003,"144":0.4493176074400632,"145":-0.027425445990830116,"146":-0.14546272526135307,"147":-0.09634683459920382,"148":-0.03652279152630039,"149":0.2098258258427782,"150":0.05785825779921265,"151":-0.00163358320542397,"152":0.21117121903762764,"153":-0.3091823130163659,"154":-0.22910214977152357,"155":-0.08728716859375438,"156":-0.10834055525306395,"157":0.13764640997557945,"158":0.08619786564407117,"159":-0.21622224786923924,"160":-0.1461268675333225,"161":-0.22973032669989943,"162":-0.7035958006489614,"163":0.23407147937661085,"164":-0.2536528165705676,"165":0.021810423186657924,"166":-0.28978390660067765,"167":0.3868361533038224,"168":-0.2809302852917553,"169":-0.2644979036547258,"170":-0.42057758793209793,"171":0.11673096554233028,"172":-0.07780508518320231,"173":0.2201014390854271,"174":-0.2089767150968586,"175":-0.09364818220643663,"176":-0.1433297685243313,"177":-0.17196669368774523,"178":0.1301860287075966,"179":-0.08055227303973983,"180":0.34356060864674515,"181":0.5128038551291874,"182":0.45180239586669113,"183":0.11864638610180211,"184":0.05401998186155817,"185":-0.2420161775903885,"186":-0.3416952623772802,"187":0.0221473595169329,"188":-0.05512214535600526,"189":0.32621209740864765,"190":0.31205209293047653,"191":-0.24551552482191413,"192":0.12662179367839665,"193":-0.17239823973748714,"194":-0.3945601201188856,"195":0.04391329314979266,"196":-0.20079875804518255,"197":0.1403334337788895,"198":0.058751653455957745,"199":-0.24819621439594639}},{"sx":5,"sy":5,"depth":8,"w":{"0":0.08458491477239988,"1":-0.2832785540916425,"2":-0.37799800702051833,"3":-0.23467005363095803,"4":0.32954243033481617,"5":0.3491364705488879,"6":0.3832854853840466,"7":-0.3050760396875902,"8":0.16799069956565624,"9":0.3523292317857522,"10":-0.1708844665745772,"11":0.32486203261414653,"12":-0.18317538312599912,"13":0.19975393342189193,"14":0.173178779653838,"15":0.16507478119284963,"16":0.6796033624495105,"17":-0.08100311010654065,"18":-0.1432992940594227,"19":0.297526847092982,"20":-0.23015720779232962,"21":-0.25515570499379425,"22":-0.10421161704856476,"23":-0.21275825657148953,"24":0.44620449551921476,"25":-0.3627401298652387,"26":0.16968357690509964,"27":-0.04519670373642421,"28":-0.12078474846562592,"29":-0.027659841801546427,"30":-0.6099277519700005,"31":0.17454307055923257,"32":0.7871347267913674,"33":-0.20368029204278443,"34":0.22047344977839556,"35":0.197875841866775,"36":-0.2138678865818884,"37":-0.20386079817985145,"38":-0.6741784534351015,"39":0.48035286477116396,"40":-0.10759087315798199,"41":0.26626984286220867,"42":0.2952118399517232,"43":-0.43364043994880247,"44":0.07326342747161423,"45":0.10337463409924842,"46":0.07853523696709892,"47":-0.3123786820946113,"48":-0.13071420743450504,"49":-0.06398534075711138,"50":0.0455723012150294,"51":0.10316967274038492,"52":-0.15344187204002305,"53":-0.2600737548751761,"54":-0.18890931552145213,"55":-0.229142161150826,"56":0.03274631833063525,"57":-0.06373788047754544,"58":0.21567989408193577,"59":0.2897670140929071,"60":-0.42809772331695123,"61":-0.2753257736304846,"62":-0.552716758471068,"63":-0.3921012716840116,"64":0.45620164923381235,"65":-0.21948272490047846,"66":0.5137093936541344,"67":0.4088186571201169,"68":-0.30767122633251137,"69":-0.31770996191557227,"70":-0.5923041615830781,"71":0.28179235072110403,"72":0.5617666114767454,"73":-0.36204000677232223,"74":0.8010108514466969,"75":0.2936170814262271,"76":-0.5055433294147861,"77":-0.14214884544934697,"78":-0.5352201754425989,"79":0.4007735053155983,"80":0.05703039999574836,"81":0.5111900571166645,"82":0.701692975146371,"83":-0.404286881476146,"84":0.026201377163582503,"85":0.06174805964195482,"86":0.18146727282238248,"87":-0.2921275395941698,"88":-0.21089794834961834,"89":0.05670362201620228,"90":0.4746727220812114,"91":-0.7453570418139913,"92":-0.004791207921491785,"93":0.13145232517364044,"94":0.3516756911798786,"95":-0.5618131441255937,"96":-0.35761177985531883,"97":0.20411045705038253,"98":0.4599134720214102,"99":-0.0027896895626609293,"100":-0.3812499405169598,"101":-0.03417438271426608,"102":0.309388174799013,"103":-0.5847187547776841,"104":-0.1343895863018002,"105":0.2107027505605771,"106":0.48646869302439155,"107":0.2628892383819634,"108":-0.07314751471027997,"109":-0.13170110411107147,"110":0.013206358432007181,"111":-0.05308719954676809,"112":0.14494043619340732,"113":-0.04473001883050003,"114":0.12744007305196758,"115":0.3812835203724815,"116":-0.21185609805003489,"117":-0.30227933960292824,"118":-0.3236566403714925,"119":-0.23194474491511313,"120":-0.04898192809825021,"121":0.34521993378389304,"122":0.1996189834431681,"123":0.2920710255033305,"124":0.061835299565296396,"125":-0.06620940752267856,"126":0.03767545151882012,"127":0.08026783739488459,"128":0.09403343459862819,"129":0.05877726453502677,"130":-0.17538977681509296,"131":-0.3457346293556877,"132":0.3197295138020768,"133":0.23652159111538162,"134":0.05097885543017621,"135":-0.5512284160972317,"136":-0.11007283904623065,"137":0.11785917975558073,"138":-0.4558792187303522,"139":-0.7837368506271754,"140":-0.10228160774758276,"141":0.47416431670231,"142":0.6766397326616334,"143":-0.6774601678789216,"144":-0.40218517165804807,"145":0.06756024013136215,"146":-0.1806586654259295,"147":-0.7449770932480215,"148":-0.062032466287406864,"149":0.11547260895960264,"150":0.7252802159503964,"151":-0.2685771099003653,"152":-0.2589705288119511,"153":0.23983343118341288,"154":-0.21485425890440132,"155":-0.1884924606279481,"156":-0.2745364225110608,"157":0.18527698794545594,"158":0.43800694638531396,"159":-0.15462466998838317,"160":-0.0587232123106871,"161":0.33817562271872814,"162":0.16498129638245743,"163":0.43370923329494004,"164":-0.36852472716510587,"165":-0.038043934571124934,"166":-0.19607822564763497,"167":0.5425320527276849,"168":0.12136735242384396,"169":0.16233162220787467,"170":-0.21832291304046242,"171":0.3427694682613758,"172":0.029847828044018213,"173":-0.28738205773896747,"174":-0.6640346123873617,"175":-0.010149113816039801,"176":0.6071889406165397,"177":0.14358998538569265,"178":-0.6087887653359167,"179":-0.05821454469443684,"180":0.4046643360478427,"181":-0.18595800262571127,"182":-0.4732698687799775,"183":-0.06963721421021005,"184":0.22003328841652062,"185":0.025012667690375013,"186":-0.348767659512305,"187":-0.0315025491388761,"188":0.47785809565157417,"189":-0.002083499638687038,"190":-0.003798724951027556,"191":-0.3911024080108207,"192":-0.2232179166036559,"193":-0.005597287603144003,"194":-0.29357482762058046,"195":-0.3641218671264344,"196":0.29663312402413505,"197":0.2668625316222097,"198":0.5350316663606103,"199":-0.012531701369700849}},{"sx":5,"sy":5,"depth":8,"w":{"0":-0.07565821325887653,"1":-0.41783583264222435,"2":0.15380861666097775,"3":0.2854887688573175,"4":0.39411639301663176,"5":-0.1235268069939798,"6":-0.03534879723427211,"7":0.15116236384186174,"8":-0.06490782924635086,"9":-0.2893122616501,"10":-0.2752500558557424,"11":-0.1044293511654253,"12":0.3993554486515765,"13":0.030440629538041792,"14":-0.4502091773775037,"15":-0.20178710608130096,"16":0.12636014322859535,"17":-0.5851889626312177,"18":0.1420623521253638,"19":0.22646669944282952,"20":-0.4479997062344179,"21":0.014083862979985588,"22":-0.3953869413126718,"23":-0.023317569365182263,"24":0.19174455075562882,"25":-0.21012201939305966,"26":0.6128403138741916,"27":0.24123393616697386,"28":-0.186706468050818,"29":0.05268655845962357,"30":-0.06621509116966333,"31":-0.10346028765218417,"32":0.2731710263868948,"33":-0.2612088152938192,"34":0.5136719912531822,"35":0.06660078217020259,"36":-0.11592771849500326,"37":-0.024545066286945336,"38":-0.012396928902217804,"39":-0.11768174392185737,"40":-0.20082383608415846,"41":-0.49406790397388467,"42":-0.2804669922691068,"43":-0.11153000012886174,"44":0.6341851562320603,"45":0.05357918458388683,"46":-0.06453563339464183,"47":0.29906969466176553,"48":0.13350120940769106,"49":-0.02797076409004408,"50":-0.3143673099992127,"51":-0.1561397151138128,"52":0.005274729271644509,"53":0.29310376707232993,"54":-0.19395878010446804,"55":0.07090751811552645,"56":0.33692908982278813,"57":0.031713792422127164,"58":0.20470928750902898,"59":0.08665477097680307,"60":-0.22288816463344982,"61":0.3463194054030518,"62":0.11513769569662738,"63":-0.09363313530962956,"64":-0.07545160984404066,"65":-0.005255506400164323,"66":-0.04361927129241886,"67":-0.15601953564120438,"68":-0.08580501374289777,"69":-0.009318781019331345,"70":0.04109944184683575,"71":-0.2439969538607082,"72":-0.1738974662213173,"73":-0.23072635345232886,"74":-0.10150683229902929,"75":-0.18451713218509108,"76":-0.049913844229719145,"77":-0.10773037823747461,"78":-0.08725146369036814,"79":-0.14804609064126584,"80":-0.04584177494685558,"81":-0.054036447367331014,"82":0.0457521635509653,"83":-0.2396246595901765,"84":-0.01883310498617706,"85":0.5210570991280891,"86":0.28725459015957533,"87":0.8451999008804572,"88":0.4002535650832321,"89":0.034726813256964154,"90":0.21631681875847705,"91":0.10508294649913973,"92":0.0016018895849509783,"93":0.305410393845539,"94":0.1615171230993292,"95":0.2945084818324402,"96":0.34112465294995864,"97":0.3085472783388732,"98":0.4078363859201036,"99":-0.09243584992173617,"100":-0.1454266239439767,"101":-0.12205073339823626,"102":0.40610840826646677,"103":0.07203330437244387,"104":-0.28159174004173665,"105":-0.32856239567935724,"106":-0.14066714386204776,"107":-0.4107137217815491,"108":-0.15103763424353872,"109":-0.011573517253324235,"110":-0.24680529922693456,"111":-0.18054420085200693,"112":-0.37591281770858265,"113":-0.40091357583734366,"114":-0.31860406381859036,"115":-0.4671562728299027,"116":-0.0388877747881846,"117":-0.13172299792465866,"118":-0.18612799224060697,"119":-0.057315038073561954,"120":0.17134050793711636,"121":-0.19214725103876656,"122":0.15575149804223368,"123":-0.5082271712988686,"124":0.24122510588968496,"125":0.22163574660724508,"126":-0.12407293048290516,"127":0.4275652411767115,"128":0.336096344296029,"129":0.10668563509325098,"130":0.47481062643439564,"131":-0.33671168334995943,"132":0.12414268246234593,"133":0.14749600882541922,"134":0.1005135208366173,"135":0.442511488691245,"136":0.23648701584303658,"137":0.07826547872586168,"138":-0.007878926161099623,"139":0.4533258845280746,"140":-0.10510554084696883,"141":-0.07523282089130243,"142":0.07864314720450079,"143":0.011875439408293633,"144":-0.036021371652004544,"145":-0.32815919694075385,"146":-0.7190643159521772,"147":-0.23615557127448406,"148":-0.17688386112495594,"149":-0.1983865818576848,"150":-0.36772140277446025,"151":0.153398732392677,"152":-0.17534212246649114,"153":-0.39156582334381573,"154":-0.5299597913985881,"155":-0.30243241045384556,"156":0.11119962255851078,"157":0.014229323852768334,"158":-0.11416419596978483,"159":0.13451968673555753,"160":0.11174537253312886,"161":-0.09708277565783476,"162":-0.19689781256452943,"163":-0.014992751121026162,"164":0.2713704863503987,"165":0.24652458605022254,"166":0.09800199104431138,"167":0.12010314031103833,"168":0.10008858019643774,"169":-0.1673177600401995,"170":-0.1881547700583274,"171":0.024107948055823093,"172":-0.13024531651404603,"173":0.13914577493588412,"174":-0.09300065006293354,"175":0.2339942659847578,"176":0.4870675391437995,"177":0.21315393342143873,"178":-0.19130731034194112,"179":0.23711404635100522,"180":-0.38709258935893726,"181":0.1645233573169611,"182":-0.06978927321538607,"183":0.034460108765608455,"184":0.41979233975771324,"185":0.18443440754733706,"186":-0.14107067196811693,"187":-0.10382174896518803,"188":-0.19783443666163383,"189":0.24649169120613518,"190":-0.4042402588515503,"191":0.15894490722517535,"192":-0.009421548832829677,"193":0.24650979082693458,"194":-0.3906311231407151,"195":-0.1782133021944954,"196":0.20468895324902964,"197":-0.1574949044854194,"198":-0.10538001193391548,"199":0.26829969895559413}},{"sx":5,"sy":5,"depth":8,"w":{"0":-0.2025826358820285,"1":0.13927551354507234,"2":-0.3600623275708969,"3":-0.40699809551313254,"4":-0.11982052450205759,"5":0.03013700991137809,"6":0.3802209733833692,"7":-0.1387557191466293,"8":-0.012573065586888971,"9":-0.20468420707026277,"10":0.08255304610096785,"11":-0.3004894200574569,"12":-0.015503056044163042,"13":-0.19053076923976706,"14":0.3672619139439814,"15":0.015266825340980856,"16":0.07150989295521679,"17":-0.19865690709585854,"18":0.24449582475653767,"19":-0.12814746887426917,"20":-0.21801993978317463,"21":0.17634749778245618,"22":0.1838000329115601,"23":-0.17413009950556055,"24":-0.06796356731356284,"25":0.18463832517538495,"26":0.10560420566802668,"27":-0.3019097968935509,"28":-0.533852380891859,"29":-0.07622545419320667,"30":0.638402808714416,"31":-0.016696216142400355,"32":-0.11882891027557967,"33":0.6419647282241214,"34":0.19362458145529252,"35":-0.19323820787749585,"36":-0.42004067578231147,"37":-0.2863892109692799,"38":0.2407556571642999,"39":0.18757010103643523,"40":-0.2211615237788915,"41":-0.05946761011041443,"42":-0.08907138910345512,"43":-0.32891047823340075,"44":0.06230671963070824,"45":0.03979721513399736,"46":0.3220648614214516,"47":-0.11472693817017601,"48":0.12062217163563034,"49":0.0708570581239354,"50":0.24657784908456284,"51":-0.2794255905501373,"52":-0.08997582288622465,"53":0.18170646620905087,"54":-0.016223797034646777,"55":-0.26748563034311706,"56":-0.05901941046864247,"57":0.27450570314724343,"58":0.6073911975793134,"59":-0.30710905801848437,"60":-0.5493230904111379,"61":0.1202985583684404,"62":0.0196764786183103,"63":0.00007004520815364219,"64":-0.022255498062846116,"65":0.46973732455073286,"66":0.8225023917448211,"67":-0.10671674114928086,"68":-0.3159042006542022,"69":-0.16686276023503482,"70":-0.23976820438247357,"71":-0.31176141801280377,"72":-0.18368097132233815,"73":0.5084521969779408,"74":0.8048514965398255,"75":0.23128504933152733,"76":0.022499881589963085,"77":-0.24427353510359537,"78":-0.16693504387758404,"79":-0.1433344877459529,"80":-0.010190457618063255,"81":-0.11265799969129228,"82":-0.11431589089640821,"83":-0.13965173110075454,"84":0.1650186098605352,"85":0.147945889659497,"86":0.056187900677288,"87":0.20420035229328182,"88":0.4267479302683793,"89":-0.10652659251110097,"90":0.23656107510990987,"91":-0.011745988975121198,"92":0.20457787214541434,"93":0.3871872798858864,"94":0.030182219265165205,"95":-0.2754582332887948,"96":0.06505758615719753,"97":-0.14208777853839272,"98":0.21937725810676614,"99":-0.36482481220931096,"100":-0.16428519416750317,"101":0.20902556565431937,"102":0.2969805605796444,"103":-0.4034910426472565,"104":0.09063140156065479,"105":-0.3432925438795035,"106":-0.14760179065473492,"107":0.08538175991293834,"108":-0.14631151549046542,"109":0.09935408259101346,"110":-0.2818952942285847,"111":-0.14315486960352908,"112":-0.08672107322795482,"113":-0.06996849514101507,"114":-0.2538592639677409,"115":-0.19716693209588185,"116":0.1860884084018305,"117":0.09884604389769439,"118":-0.13699227733039213,"119":-0.17075533398685483,"120":0.2859897795758548,"121":-0.46405630423104444,"122":-0.19466477194187068,"123":0.2441524300530334,"124":-0.10110037977941426,"125":0.20537887369996158,"126":-0.0430006961465439,"127":0.09176079162452466,"128":0.112330049508685,"129":-0.3702663212588876,"130":0.07854998928286339,"131":0.14560364573422377,"132":0.20684362510713675,"133":0.2673025307181227,"134":-0.0471599546699644,"135":-0.20521785728364653,"136":0.03805861827023845,"137":-0.3343204979396986,"138":-0.0789622080829227,"139":0.659343804321222,"140":0.3649241966642019,"141":0.336844560570627,"142":-0.26560188356203435,"143":-0.04266203282554382,"144":-0.08571132911791797,"145":-0.3953544067445276,"146":-0.24325037810098948,"147":0.09109145038111868,"148":0.4919866547861717,"149":0.3977872784404529,"150":-0.0929496984420154,"151":0.06745347783235317,"152":0.21145622905615474,"153":-0.22192478274488178,"154":-0.04957195841002256,"155":0.1902971895599438,"156":0.10560591958681914,"157":0.1910113639771732,"158":-0.24328322232120078,"159":0.5203327264240274,"160":0.6756471570611843,"161":-0.43008874661714275,"162":0.6103457172479788,"163":0.05326546627941059,"164":-0.28755341632894665,"165":-0.31669814964332504,"166":0.02672497486787066,"167":0.06375942185644551,"168":0.3737508458676045,"169":-0.3120060960242111,"170":-0.24680125490592145,"171":0.4116232042150115,"172":-0.18563439163102544,"173":-0.09932684024277985,"174":-0.24146755369143685,"175":0.3213822510377593,"176":0.32498563016524146,"177":-0.020534760731881572,"178":0.3535828499209586,"179":0.21614784648489885,"180":-0.24444808780780114,"181":0.16088769511173723,"182":-0.06322017656551356,"183":0.5531025721498196,"184":0.552750430221135,"185":-0.24178214869414075,"186":0.303529358027635,"187":0.2490164112934328,"188":0.09373691736440772,"189":0.09600864261698332,"190":0.01861562594644601,"191":0.4741668080334071,"192":0.11016411950759625,"193":0.03360290001904873,"194":0.21213128518899188,"195":0.16823068769211652,"196":0.025462030661336243,"197":0.05470291256081972,"198":-0.1617371113638547,"199":0.283921634867922}},{"sx":5,"sy":5,"depth":8,"w":{"0":-0.033569994206730555,"1":-0.47053664329300193,"2":-0.01292213312062284,"3":-0.39823480179688003,"4":0.2917550748446162,"5":-0.029323276341563793,"6":0.38473262063734637,"7":0.2621950528909109,"8":-0.0527184893770229,"9":0.07123884617062103,"10":0.2154599226668572,"11":-0.3338290675721936,"12":-0.17951837454296948,"13":0.027816068661273043,"14":0.20374235438489477,"15":-0.3091304619245638,"16":-0.24422877739366095,"17":0.5529599061645066,"18":0.2295242329436198,"19":-0.5561275600178869,"20":-0.3927135734569744,"21":-0.18716818601303434,"22":0.0788000463191276,"23":-0.14093776306251193,"24":0.036330602192254195,"25":0.056230159427640855,"26":0.0007922594477554969,"27":-0.056838560018454144,"28":-0.1333906641154271,"29":-0.634778613849761,"30":-0.053988330975960175,"31":0.20156068524151868,"32":-0.15235778280037268,"33":-0.5158727518842602,"34":0.011810951536973098,"35":-0.0912742726552483,"36":-0.025208656651695246,"37":-0.08860096358312941,"38":-0.2632615005687034,"39":0.2686949830465631,"40":-0.2242537335736721,"41":-0.22965218876019236,"42":0.08728949382298444,"43":-0.2907887352539817,"44":0.01517590326338404,"45":0.1135957159384599,"46":0.2765443606077519,"47":0.204129398259132,"48":-0.22753174678956894,"49":0.04157095311567765,"50":-0.014839716277732728,"51":-0.28180401569192476,"52":-0.2510009629334622,"53":-0.06332400850403058,"54":0.034367290615149544,"55":-0.13744178695765727,"56":-0.30337620862109693,"57":0.06107174812661122,"58":0.33232237950485777,"59":-0.04206167332888605,"60":-0.24807227492434372,"61":-0.012025761049114674,"62":-0.07121438109975828,"63":-0.022134781388378755,"64":-0.07466978497287038,"65":-0.2842251832084684,"66":0.09980433709481205,"67":0.1389880665563885,"68":0.0454807564336403,"69":-0.19554054351376404,"70":-0.15896677500755388,"71":0.1267563803487158,"72":0.012833146152770524,"73":-0.4386317611848171,"74":-0.016834548157977934,"75":-0.12044969844317123,"76":0.22596381614067987,"77":-0.05686484685694486,"78":-0.08876443707927915,"79":-0.20591234150838728,"80":-0.2017163377312659,"81":-0.5090218096992326,"82":0.20442141568913405,"83":-0.3363101300741157,"84":0.30191733738624277,"85":0.22892525341613185,"86":-0.06300123859198593,"87":-0.21550012581709765,"88":-0.2617105990881087,"89":-0.07290827728704898,"90":0.5364180536156802,"91":-0.40406902416275203,"92":-0.018750387462008522,"93":-0.08229198707402685,"94":0.10077991449600053,"95":-0.17233546881273837,"96":-0.095641584688854,"97":0.07815953241892082,"98":0.5146666575018692,"99":-0.29280620868576285,"100":-0.37324558804353025,"101":0.10930982149383794,"102":0.027178512890121,"103":0.24071884110465222,"104":0.12909404014527504,"105":0.015005447573809994,"106":-0.09537169132267809,"107":-0.2565358495358316,"108":0.2482301728103688,"109":0.3114919455711006,"110":0.1904285459357635,"111":0.2958436686514397,"112":-0.05879265490813861,"113":-0.16610001928228063,"114":-0.37367376967071697,"115":-0.18749284786905224,"116":0.009192914629977077,"117":-0.011273842916358473,"118":-0.2614228033184283,"119":-0.19787780470115082,"120":-0.2180193435314062,"121":-0.447990800858011,"122":0.07871987656196892,"123":-0.37406775115529645,"124":0.4320867709654792,"125":0.07120764849398416,"126":0.010539587735064465,"127":-0.4460822321228105,"128":-0.051561728577331906,"129":0.00118400622220099,"130":0.3240116769857079,"131":-0.2441654493681877,"132":0.08381053729047595,"133":-0.059284627956564064,"134":0.1945867894645391,"135":-0.14438624197459896,"136":-0.31692673178828695,"137":0.22444755177341327,"138":0.2845633541365462,"139":-0.3645179740454877,"140":-0.05851873850774542,"141":0.08436860821871875,"142":0.25670422606881715,"143":0.4081177538552598,"144":-0.09474295543005276,"145":-0.014030060620358836,"146":0.002845428838666145,"147":-0.31309489262073076,"148":0.3571698962851262,"149":0.23299727944130957,"150":0.26902095148170563,"151":0.08329782665486311,"152":0.06784295115703762,"153":0.21576366154907453,"154":-0.33040323341493916,"155":-0.0888561325104727,"156":-0.19539370599899686,"157":0.02641643823526717,"158":-0.3449484836851449,"159":0.08788585080341413,"160":-0.10387284285124714,"161":-0.3340690894048403,"162":-0.21712388870158408,"163":-0.38102346036667195,"164":0.3102626607546557,"165":0.007763882870521181,"166":-0.1056212825110773,"167":-0.2992506231061292,"168":0.019389102953344558,"169":-0.1866104646544593,"170":0.18238512184568767,"171":-0.2775346437202527,"172":0.033952180225181976,"173":0.12010043201304908,"174":0.10067670968790363,"175":-0.17982306032227224,"176":-0.28055014691891966,"177":0.043935358646129755,"178":0.18921634158904585,"179":-0.25641939790199864,"180":0.3769425092359817,"181":0.4150111459705374,"182":0.24609179972087403,"183":-0.04707911017663092,"184":-0.10601118974980021,"185":0.0035692777917431993,"186":-0.16316484029978362,"187":-0.12164326057418205,"188":0.24746153118709718,"189":0.1599412784307275,"190":0.16165552314385853,"191":-0.2643850297198322,"192":-0.16883282510853073,"193":0.18688134177915205,"194":-0.3993188122951494,"195":-0.35550486864612413,"196":0.0800723635411294,"197":0.041961481122474026,"198":-0.2620077636758063,"199":-0.030826620060922745}},{"sx":5,"sy":5,"depth":8,"w":{"0":0.14141561093482624,"1":-0.18245267512687366,"2":-0.5293243696090336,"3":-0.13410160720126046,"4":-0.004673473659160192,"5":0.004440815015666541,"6":0.13692435967330385,"7":-0.24539021718973714,"8":-0.26831880344877646,"9":-0.14735551024192578,"10":-0.33070186829433695,"11":-0.23173170673936197,"12":0.14936653975334774,"13":0.18271786281932045,"14":0.3144642454928566,"15":-0.059560504558799354,"16":-0.31227865287077883,"17":-0.19130329593978493,"18":-0.003292941901009555,"19":-0.22536818953821625,"20":-0.0560571636205903,"21":0.2063801881593036,"22":0.21416137782255734,"23":0.2982852287201247,"24":-0.06572807806306896,"25":-0.32083452376672417,"26":0.11981167193072814,"27":-0.4001834893387098,"28":-0.003860632559796827,"29":-0.021946927462442926,"30":0.3553837621548514,"31":0.32385426807614426,"32":-0.5153514999302814,"33":0.08395508141775902,"34":0.15314678368601858,"35":-0.4016712984944286,"36":0.12875743509062956,"37":0.20296090256853067,"38":-0.04072337449483251,"39":0.17402699295676838,"40":0.24530729871445164,"41":0.38572040597044027,"42":0.03880480974806528,"43":-0.14107897490097998,"44":0.018620623345170353,"45":0.12960242144692372,"46":0.23327941640525965,"47":0.1619023159978772,"48":0.1516377457332334,"49":-0.05109369063831126,"50":-0.051112963079554985,"51":-0.5366173453923018,"52":0.1981625806619489,"53":-0.08652383913245347,"54":-0.11446143015364592,"55":-0.03092169948305434,"56":0.15004867766015906,"57":0.1041705971436045,"58":0.0410261539925721,"59":-0.6708036328085248,"60":0.3516572309123716,"61":0.3037724715621487,"62":0.05886178699308386,"63":0.5215089028261972,"64":0.07784861405758477,"65":0.23208272339402544,"66":0.04002184554792133,"67":-0.2492541672405239,"68":0.21594698017403427,"69":0.3576325115036535,"70":-0.12512873883896997,"71":0.47598156016637916,"72":-0.09497782631512242,"73":0.06786401666065903,"74":0.02072282443456078,"75":-0.24282946419568957,"76":0.019098309066764085,"77":0.05520119197395642,"78":-0.023382168131168272,"79":0.42288340256724183,"80":0.28182565618273747,"81":-0.0761103235855472,"82":0.966442822786191,"83":-0.026869323928388245,"84":-0.10483956677694688,"85":0.35116219516564584,"86":0.3571593199668365,"87":0.2534383051373278,"88":0.22155509135582235,"89":-0.28005265073266566,"90":0.5017314410686772,"91":-0.29712213805194404,"92":-0.052308493854751614,"93":0.0558291077608331,"94":-0.11848546367799385,"95":-0.06838860048499203,"96":0.5167926736719879,"97":-0.04950865890068634,"98":0.647690414698387,"99":-0.19246704801399078,"100":0.09674775423617692,"101":0.44558165449466425,"102":-0.15203555027476448,"103":0.30710566168881476,"104":0.26015598716853594,"105":-0.05400726228831615,"106":0.5802687697692535,"107":-0.02861858651576756,"108":-0.1284447369678081,"109":0.14703965425474705,"110":-0.468893562087523,"111":0.22631721516963454,"112":0.1900128692562382,"113":-0.09525118510543829,"114":-0.5126600210542686,"115":-0.07429346225480178,"116":-0.06948344406778792,"117":0.025512377029563753,"118":-0.3478474990194568,"119":0.2048945383128035,"120":0.0651120152778369,"121":-0.12649712533989513,"122":-0.11609388630386186,"123":-0.19309666418589788,"124":-0.053194225652350005,"125":-0.06298225236839294,"126":-0.06520398935646553,"127":0.4365675109345733,"128":0.40689797254282895,"129":0.09592543494280546,"130":-0.165829485673319,"131":-0.02635046192195196,"132":-0.3267450915759999,"133":-0.14302410095633625,"134":-0.09217892630410475,"135":-0.2489040749908064,"136":0.1836229601319302,"137":0.10118600851944853,"138":0.0628892503153466,"139":-0.05555054225109899,"140":-0.34280656399341464,"141":-0.1705618375906375,"142":-0.038390500152460316,"143":-0.4149905413163835,"144":0.13849555654124684,"145":0.29640409332933754,"146":-0.2224042697489367,"147":0.24009791388148705,"148":0.004934979430890618,"149":-0.3700676757203261,"150":-0.3443384886797919,"151":-0.4317167016142069,"152":0.11669040471289806,"153":-0.12024603035246222,"154":-0.47981555930873965,"155":-0.31749737005971657,"156":-0.2323926480261872,"157":-0.4338738474791837,"158":-0.3044259232887871,"159":0.33154976177192813,"160":-0.15364893570127502,"161":-0.25380586696976415,"162":-0.17211862468387376,"163":-0.13591085967797062,"164":-0.16193148333512417,"165":-0.2672546448610973,"166":-0.45704372925073505,"167":0.5285816665739362,"168":0.0514710371858431,"169":0.1201748219920528,"170":0.13801427567200694,"171":-0.11659566748286777,"172":-0.19350830824003895,"173":-0.2640405508133556,"174":-0.23517354728446613,"175":-0.04075627428822778,"176":-0.44486901620865077,"177":0.10161206276922427,"178":0.03310535001782853,"179":-0.06827700597762608,"180":-0.30429909755714035,"181":-0.7191856474092005,"182":0.18203951660876624,"183":-0.166000695956498,"184":-0.30354130523796496,"185":0.06579084300413866,"186":0.07327646518469441,"187":-0.30129240283793635,"188":-0.4153012933795374,"189":-0.4770601061668114,"190":0.41577413669758284,"191":-0.08678838415508429,"192":-0.21198482821582657,"193":0.4026008926621799,"194":-0.2676367499549115,"195":-0.04177961330890113,"196":0.02611269778822608,"197":-0.25705021655434995,"198":0.49745747856976696,"199":0.1481500082955577}},{"sx":5,"sy":5,"depth":8,"w":{"0":0.309695917333409,"1":-0.05084788333858451,"2":0.07937029732062059,"3":0.1747300732604634,"4":0.14227047287814581,"5":0.29377693117516923,"6":0.6513872734467704,"7":-0.22472891884044474,"8":0.35153539927703614,"9":0.28114416725872343,"10":0.2875855499790146,"11":-0.04510237694707021,"12":0.043314722144500835,"13":0.2739896406061903,"14":0.3554092274859853,"15":0.16365175070867952,"16":0.2135828716926061,"17":0.6297777723660651,"18":0.43382947262637617,"19":0.2158942742075603,"20":-0.04881486061308769,"21":0.13117887804708045,"22":0.191273566015346,"23":-0.06280194670717834,"24":-0.3942531389025513,"25":-0.18821314473188613,"26":0.028701643417010175,"27":0.0905090447877605,"28":-0.20437149336029795,"29":-0.2126205223084712,"30":-0.1915685748762876,"31":0.10121277752766158,"32":-0.3327781384979414,"33":0.19229677203837967,"34":-0.12952379223503724,"35":0.10623862044990748,"36":0.30620368857634056,"37":-0.04969695404640471,"38":-0.4179192704050916,"39":0.22576805766194302,"40":0.22234358867472118,"41":-0.2353139989656815,"42":0.10422023817832812,"43":-0.09311998061866875,"44":-0.046969731470158524,"45":0.17876969913178345,"46":-0.12412277083398454,"47":-0.2505494964082859,"48":0.4372780978610879,"49":0.11120713337567066,"50":0.5920012366179008,"51":0.12075683667158733,"52":-0.1439548963114175,"53":-0.14876637933038994,"54":0.08672965756569292,"55":-0.04109642106724525,"56":0.27485200272512605,"57":0.25164347918030483,"58":0.1247903916159286,"59":0.4751861447121954,"60":0.08552546460103189,"61":-0.20788796238253868,"62":-0.1979214423261111,"63":-0.21343771010903634,"64":-0.037394242062429195,"65":0.12544747081038338,"66":-0.4733342567233967,"67":-0.11083445812052461,"68":0.11014151051288709,"69":-0.40146452019358864,"70":-0.5409364919689793,"71":-0.21020809112603484,"72":-0.06533592580583975,"73":-0.12030495759693507,"74":-0.2835360626087024,"75":0.3319374992228295,"76":0.5229601701861086,"77":0.07481639795020316,"78":-0.4800126726486809,"79":-0.11633714421107405,"80":-0.37188265995529,"81":-0.007841314481302783,"82":-0.4916680029517722,"83":0.3829210287787909,"84":-0.619973257135719,"85":-0.33155386700426975,"86":-0.2042607017490783,"87":-0.20352501642635948,"88":-0.01621892612054932,"89":0.1833278055716684,"90":0.06373772799338037,"91":0.3221972241736625,"92":-0.24563848457700285,"93":-0.2903860462667124,"94":-0.0967420920740365,"95":0.09271328043291312,"96":-0.0615717706587477,"97":0.25008082306434926,"98":0.43136599464035164,"99":0.4116562463768367,"100":-0.1375198389571146,"101":-0.2804132296493437,"102":0.01782565099015876,"103":-0.023571531587641515,"104":-0.3581038099459255,"105":0.4083545982861904,"106":0.06944781973970242,"107":-0.04038792548411167,"108":-0.094226229568054,"109":-0.18933658724224048,"110":-0.19259614307364187,"111":-0.12412332666973078,"112":-0.1928314237920712,"113":0.3876015060149227,"114":0.05794343605530704,"115":-0.08701208554510334,"116":0.2173317369066622,"117":-0.09893806752870497,"118":-0.06793458025239703,"119":-0.3762066824775846,"120":-0.3231521440921314,"121":0.3357582367753582,"122":-0.017831625970095515,"123":-0.036005482400526895,"124":-0.17654738040387297,"125":0.1670239849440952,"126":0.12827137970329244,"127":0.021354805373260097,"128":-0.4148865590033842,"129":-0.38854771114003395,"130":0.32160951446020714,"131":-0.08527112441770103,"132":-0.13254579168599986,"133":-0.02673527224028929,"134":0.09421541041338845,"135":0.568523542673488,"136":-0.5368069760076409,"137":-0.1797781767832361,"138":0.14572693478646792,"139":-0.008051413427151061,"140":-0.13996397769876995,"141":0.10661322983913117,"142":0.17092924511113414,"143":0.17653809271417215,"144":-0.43446111885305383,"145":-0.02504260963267066,"146":0.20332776016872406,"147":-0.0644995016103112,"148":-0.04392682702569983,"149":0.06171770599397572,"150":0.3363234738627887,"151":0.2581904298876368,"152":-0.3136529226878778,"153":0.0074076467236376155,"154":0.21580109339699718,"155":-0.32644199836946075,"156":0.1746731228802289,"157":0.11959906959535269,"158":0.02872543330412157,"159":-0.2283473191434584,"160":-0.3556248483819767,"161":0.2088371411084079,"162":-0.5650971138989227,"163":-0.12941019888943514,"164":0.2600967008301754,"165":0.5041133146401462,"166":0.3296985813097634,"167":-0.27675083785634136,"168":-0.5156459604045579,"169":-0.3227778707192023,"170":-0.19955014287951084,"171":-0.27824796018172465,"172":0.23429727082235954,"173":0.38729202317931855,"174":0.0881834607103164,"175":-0.349001302864376,"176":-0.32063994599169515,"177":-0.2631623736860675,"178":-0.27862497413045767,"179":-0.4078287314457676,"180":-0.2626844396525052,"181":0.16405397572905753,"182":0.2775103590140711,"183":0.052202079435800144,"184":-0.06005445586407999,"185":-0.37445226464866754,"186":0.10245732595112382,"187":-0.14153740183371552,"188":-0.20155071862889828,"189":0.2258940186042467,"190":0.05083905124440313,"191":0.11028243382380584,"192":-0.22327285969950647,"193":-0.18819843397553798,"194":0.4459759918789452,"195":-0.3640493558041994,"196":0.4899362041657776,"197":0.06495821269616038,"198":0.1250024692125742,"199":-0.12613512737390944}}],"biases":{"sx":1,"sy":1,"depth":16,"w":{"0":-0.07470618374523784,"1":-3.2496401203520326,"2":-0.982920569134467,"3":-0.14263040484063153,"4":-1.557187455208609,"5":-2.1582610959493347,"6":-1.0425737768293961,"7":0.1225806806559975,"8":-2.1713739556129936,"9":-1.863561268096474,"10":-1.7176157147626505,"11":-2.0823213931122497,"12":-2.8948026917080343,"13":-0.5767171812536516,"14":-0.6745600234575536,"15":-1.6926404757114735}}},{"out_depth":16,"out_sx":12,"out_sy":12,"layer_type":"relu"},{"sx":3,"sy":3,"stride":3,"in_depth":16,"out_depth":16,"out_sx":4,"out_sy":4,"layer_type":"pool","pad":0},{"out_depth":10,"out_sx":1,"out_sy":1,"layer_type":"fc","num_inputs":256,"l1_decay_mul":0,"l2_decay_mul":1,"filters":[{"sx":1,"sy":1,"depth":256,"w":{"0":-0.12256128933783222,"1":-0.018059150776635897,"2":-0.6350975866528135,"3":-0.33450621757459,"4":-0.006712423534383171,"5":-0.42094955962030217,"6":-0.5187563157084161,"7":-0.16013048011552256,"8":-0.22186760284739981,"9":-0.034849200546466036,"10":-0.004910681302642124,"11":-0.048560701106086464,"12":-0.09964134135017538,"13":-0.12898637795080747,"14":-0.03501428645475452,"15":-0.08568408593121808,"16":-0.2729443706016081,"17":0.030775217920281085,"18":-0.7404252166512745,"19":-0.7946806803853663,"20":-0.5242114385769807,"21":-0.3885632011238581,"22":-1.1813786785283715,"23":-0.3570458453926106,"24":-0.3585327080847358,"25":-0.2090094153090711,"26":-0.6061087433513987,"27":-0.3271519197602171,"28":-0.31139892119970547,"29":-0.3253794839175735,"30":-0.6077858577055406,"31":-0.35179287581634067,"32":-0.6115764175587518,"33":0.1145406916617929,"34":-0.28690043363589424,"35":-1.1534191458415906,"36":-0.6449723058713035,"37":-0.21425585782353057,"38":-1.132221355171548,"39":-0.5139895430814759,"40":-0.4183955551707227,"41":-0.7473128856927981,"42":-1.943370949567378,"43":-0.27002657232992794,"44":-0.173694107038572,"45":-0.40907998722461597,"46":-0.8663468684302069,"47":-0.3168741661111145,"48":-0.7535826744299655,"49":-0.024078376594596124,"50":-0.08325515992487295,"51":-0.8537871908054502,"52":-0.019429133044573145,"53":-0.05527598949820996,"54":-0.18804472093861532,"55":-0.8317683847851607,"56":0.021388664290211086,"57":-0.3234410729292072,"58":-0.9676094736743773,"59":-0.20831287389481476,"60":0.1605427401810553,"61":-0.10749092246418167,"62":-0.32146521178535115,"63":-0.20329535414206348,"64":0.026998286572521343,"65":-0.07903118639588891,"66":-1.109185167525952,"67":-0.14517352686093032,"68":-0.16965560361312582,"69":-1.1228686599344304,"70":-0.5369267278802738,"71":0.0134492043983708,"72":-0.42752781587435285,"73":0.024908150807753875,"74":-0.40481056565985074,"75":-0.06292113247288017,"76":-0.45741935716285204,"77":-0.20839884161823058,"78":-0.508161402188898,"79":-0.17806823885709475,"80":-0.13885668508912588,"81":0.02772380774278745,"82":-1.0297002223377758,"83":-0.18632950833159384,"84":-1.199606671345922,"85":-0.9941909110249895,"86":-0.7082825701431087,"87":-0.5297573557954279,"88":-1.3595008846448502,"89":-0.21127617066475943,"90":-0.7072229411244848,"91":-0.08679846947337856,"92":-1.191582011786656,"93":-0.4293827890328005,"94":-0.8486903261970268,"95":-0.6120243275476058,"96":-0.2690286446600622,"97":-0.2620860920240051,"98":-0.42662016072895526,"99":-0.3065713990937562,"100":-0.8762448836540278,"101":-0.7290820208577375,"102":-0.851041793834023,"103":-0.30415143815660867,"104":-1.1897498695399622,"105":-1.1440298899586587,"106":-1.4490342503783515,"107":-0.5404312543037084,"108":-0.8601075117639274,"109":-0.27044802405374163,"110":-0.6582211346554778,"111":-0.5763411507181918,"112":-0.36219207988794033,"113":-0.2119544093462924,"114":-0.6407892513923348,"115":-0.7804939858660445,"116":0.0064411158180650956,"117":-0.4805487676490292,"118":-0.455479299357529,"119":-0.7201851367266052,"120":-0.6869148060249679,"121":-0.9427090933835376,"122":-1.2804845719929427,"123":-0.09814708758546198,"124":-0.20511969762021123,"125":0.38022473549558033,"126":-0.5638450974700348,"127":-1.089065384708067,"128":-0.1965295738822493,"129":-0.24506028471783134,"130":-1.208707831292984,"131":-0.2917783456842371,"132":-0.5298679172499192,"133":-1.483364457343928,"134":-0.9445674886689619,"135":-0.048999056146593264,"136":0.06370656204750196,"137":-0.15340576152942484,"138":-0.37401735999659375,"139":0.05353511278888939,"140":-0.4189547354327418,"141":-0.13843019578759405,"142":-0.5419961188054311,"143":-0.2217199235465312,"144":-0.09000300517885647,"145":-0.33214019795417243,"146":-0.85263880075082,"147":-0.2718152730664899,"148":-1.0496472183834935,"149":-1.172166681877401,"150":-0.8820540972806934,"151":-0.390995010331434,"152":-0.964875564795802,"153":-0.6231404099903904,"154":-1.0508319590177924,"155":-0.2366208811924639,"156":-0.9070570596113845,"157":-0.25936483461161447,"158":-0.582323949879489,"159":-0.9303860559280492,"160":-0.021856511375730043,"161":-0.5086478582534382,"162":-0.39380062814535366,"163":-0.3960754180657323,"164":-0.8320910790802392,"165":-0.4883597636817211,"166":-0.6023666743585178,"167":-0.29699407627641117,"168":-1.175688481170326,"169":-1.2040586254039545,"170":-1.141593097265841,"171":-0.8487327519542983,"172":-0.811446815814854,"173":-0.1396603064363985,"174":-0.31085253534151436,"175":-0.458898930252919,"176":-0.13183231140913282,"177":-0.1394109545563244,"178":-0.538263254391138,"179":-0.6229557182958163,"180":-0.26933009615530884,"181":-0.2645445700613421,"182":-0.5070730994668059,"183":-0.44332056961906274,"184":-0.8666061666206121,"185":-0.574349450166578,"186":-0.8262183942669238,"187":-0.1829545497293111,"188":-0.5187840555543062,"189":-0.17695457020125882,"190":-0.2658515076139102,"191":-0.649074432672548,"192":-0.09483278058408746,"193":-0.22162535408001532,"194":-1.1384580022474993,"195":-0.08386004098281467,"196":-0.4902874304654739,"197":-1.1504205571308073,"198":-0.2854547631777882,"199":-0.1733162552904689,"200":0.014582898541486271,"201":-0.014774908389021102,"202":-0.5667268811978886,"203":0.015939525334266475,"204":-0.42365027801750554,"205":0.011704330172642595,"206":-0.6567526330033039,"207":-0.18237752014119155,"208":-0.1739536458927167,"209":-1.3158239903051365,"210":-0.9082883702467226,"211":-0.144693799359521,"212":-1.4645534817251393,"213":-1.1385472329911246,"214":-0.3524086017668522,"215":-0.23429810838840484,"216":-0.043880054296991426,"217":-0.7808968051864532,"218":-1.3942223286371958,"219":-0.4718262272779594,"220":-1.498296871055994,"221":-0.14741995694067345,"222":-1.4870041339344833,"223":-1.1592011636548791,"224":-0.21211963219296248,"225":-1.2009275232888947,"226":-0.9495424911058846,"227":-0.3013326269808221,"228":-0.7415405472228014,"229":-0.6066001795191543,"230":-0.1673514667831524,"231":-0.0020686419552379564,"232":-0.10647723862566763,"233":-0.7347866475921274,"234":-1.038372700000489,"235":-1.092246373860829,"236":-1.0444552332035795,"237":-0.25554512253703376,"238":-1.809642433828979,"239":-0.6673779860634701,"240":-0.2406843012726228,"241":-0.5964746435066628,"242":-0.7732154769193431,"243":-0.10199795526234351,"244":-0.1526713075124783,"245":-0.310328201705062,"246":-0.12434192962709778,"247":-0.07164553674110427,"248":-0.25953098049524365,"249":-0.11466268987349783,"250":-0.35912167841217235,"251":-0.40587644568673825,"252":-0.07321286475047069,"253":-0.17711453384054518,"254":-1.19282825304422,"255":-0.5438605582323356}},{"sx":1,"sy":1,"depth":256,"w":{"0":-0.5725752632530869,"1":0.00018131092724554807,"2":-0.3019668974129972,"3":-0.5340250401925186,"4":-0.026175102668933477,"5":-0.014401370392843798,"6":-0.4565590715681129,"7":-0.29015939849003203,"8":-0.06550622980767086,"9":-0.039271731947531634,"10":-0.09873238810079644,"11":-0.028097584968832016,"12":-0.02877665267584493,"13":-0.12441177762309084,"14":-0.18836694453782657,"15":-0.14980880261218257,"16":-0.3389978467659827,"17":-0.018173269047797095,"18":-0.6625217574293858,"19":-1.0054166257500528,"20":-0.22356910514373465,"21":-0.08201141002686166,"22":-1.2149989387151827,"23":0.0994100373625762,"24":-0.11747340212547894,"25":-0.2126677509922275,"26":-0.9993030511766122,"27":0.004920066972361524,"28":-0.3140783139605629,"29":0.08241142602946512,"30":-0.6341563038236175,"31":-0.20030115784080205,"32":0.11859639263687619,"33":-0.01891551135008745,"34":-0.3530050536603921,"35":-1.1930162408887557,"36":-0.5027138777228608,"37":-0.31110706502038526,"38":-1.566107622952178,"39":-0.0888621145042364,"40":-0.30615228188783683,"41":-0.7656806299281265,"42":-2.2301199036922026,"43":0.46293627860069003,"44":-0.5919669115427593,"45":-0.03916967587884508,"46":-0.5908398808291178,"47":-0.1830384724204004,"48":0.05472682994972177,"49":0.09138062607481659,"50":-0.021435515833990573,"51":-0.9182095924944593,"52":-0.01340141138572451,"53":-0.2649026734259601,"54":-0.4694974159344999,"55":-0.7985306478652354,"56":-0.15181365022607946,"57":-0.12505039563065556,"58":-1.015105581785051,"59":0.36972615158813016,"60":-0.14597928558791673,"61":-0.19012209513176395,"62":-0.2901127419277649,"63":-0.23043133783660955,"64":-0.30597836257400285,"65":-0.14331222096834406,"66":-0.9491944831631733,"67":-0.12983470225903437,"68":-0.2805576991404886,"69":-1.0165929170892523,"70":-0.560291820827306,"71":-0.5600417524534204,"72":-0.5011743581061558,"73":-0.05348288908385039,"74":-0.27200330231957076,"75":-0.04324745319175898,"76":-0.2818453088194184,"77":-0.27378084850989676,"78":-0.3961635561808015,"79":-0.18241740689301975,"80":-0.06920864750144212,"81":-0.21569123677716137,"82":-0.6597436766026193,"83":-0.1844399604106614,"84":-0.9592095654623576,"85":-1.042940931433046,"86":-0.8779016325423113,"87":-0.03969228338100291,"88":-1.6338074785058772,"89":-0.47323625740762093,"90":-0.6086913235284478,"91":-0.3927760127741056,"92":-1.2853283547690633,"93":-0.231628290435907,"94":-0.9780511773875403,"95":-0.4008764852140695,"96":0.23210301929470317,"97":-0.17847535996866448,"98":-0.19688375219562407,"99":-0.3715350208695234,"100":-1.0628301393797726,"101":-0.8092111995461199,"102":-0.6951569982546769,"103":0.14306057275691592,"104":-1.4669072169804185,"105":-1.195321571439302,"106":-1.6663749496476892,"107":-0.13258075555267246,"108":-1.4144665158831724,"109":-0.18937691998061143,"110":-0.7235540086132286,"111":-0.37056917421744895,"112":-0.09580710150465406,"113":0.1488919483616523,"114":-0.15592675278859291,"115":-0.3231673207611842,"116":-0.27772425310149423,"117":-0.5061159244758231,"118":-0.25513568079757315,"119":-0.7449886659003789,"120":-0.582666091773623,"121":-0.7795549495809241,"122":-1.0956465235054902,"123":-0.175387195894506,"124":-0.4990301438537861,"125":-0.5141308120280509,"126":-0.6894452515734952,"127":-0.5240299268086378,"128":-0.12288873214518882,"129":-0.38701710213454255,"130":-0.9230719951294991,"131":-0.08983582536005134,"132":-0.5250145587318907,"133":-1.6892752886829303,"134":-0.6342420178902965,"135":-0.3957678962223257,"136":-0.5767604716889055,"137":-0.07461870136327277,"138":-0.465107636809811,"139":-0.03245943672184511,"140":-0.4834581467317811,"141":-0.3314210442174964,"142":-0.42196171121445536,"143":-0.28279672014403334,"144":0.051569402715924445,"145":-0.42471608832020424,"146":-0.5826200834046718,"147":-0.17992575631717933,"148":-1.7424464419280201,