{"layers":[{"out_depth":1,"out_sx":24,"out_sy":24,"layer_type":"input"},{"sx":5,"sy":5,"stride":1,"in_depth":1,"out_depth":8,"out_sx":24,"out_sy":24,"layer_type":"conv","l1_decay_mul":0,"l2_decay_mul":1,"pad":2,"filters":[{"sx":5,"sy":5,"depth":1,"w":{"0":-0.003303722401148608,"1":0.3164630986341892,"2":0.4324547726603305,"3":-0.5570488692628701,"4":-0.16123945671574888,"5":-0.270310295574486,"6":0.44333277101691393,"7":-0.03232619553210306,"8":-0.601811521664973,"9":-0.17855795408718084,"10":-0.2591037969598212,"11":0.22945842551129159,"12":0.26197004329824647,"13":-0.24543505358933523,"14":-0.3472496049203348,"15":0.5382633385040262,"16":0.5360025054911084,"17":0.12383775000133498,"18":-1.0934141624468163,"19":-0.4954035588360784,"20":-0.5054396403046533,"21":-0.593969295485508,"22":-0.6818514115415302,"23":-0.20180071215720152,"24":0.3555329211558304}},{"sx":5,"sy":5,"depth":1,"w":{"0":-0.22011742808834012,"1":-0.02604094449835755,"2":0.1266318718580957,"3":0.27074385961444913,"4":-0.6060138479327903,"5":0.13019063936209638,"6":0.15175735814751298,"7":-0.1367228830818248,"8":-0.507922008488621,"9":-0.26344152554491373,"10":-0.198993218866107,"11":-0.2603873518407016,"12":-0.5847010318778435,"13":-0.31265499471628144,"14":0.3244492600520649,"15":-0.025778708073601147,"16":-0.48148410157160676,"17":0.1392448176454023,"18":0.6860989873023687,"19":0.31027893595865375,"20":0.6771134799115248,"21":0.4631684445517512,"22":0.22126000304666638,"23":0.021156537908172412,"24":-0.0887785884621941}},{"sx":5,"sy":5,"depth":1,"w":{"0":0.24669804915206428,"1":-0.01749218831341468,"2":-0.018625029264946132,"3":-0.006214951195311423,"4":0.13388039394780551,"5":-0.047532495747218385,"6":0.388018874335368,"7":-0.014733519599986663,"8":0.16513073396818406,"9":0.3778130371998559,"10":-0.12756500888025926,"11":0.552905372552958,"12":0.42060218455381176,"13":0.20516067067783889,"14":0.4484875568540594,"15":-1.1029014961638728,"16":-0.49765729282442267,"17":0.1975499624975873,"18":0.1550847727389006,"19":-0.205564402716101,"20":-0.4338465170585225,"21":-0.8155786445103451,"22":-1.0460366752224821,"23":-1.0990606076679243,"24":-0.6788950803965811}},{"sx":5,"sy":5,"depth":1,"w":{"0":-0.04122373803388371,"1":-0.23542763279752565,"2":0.13215299156090138,"3":0.35716282193721877,"4":0.5340520723048213,"5":-0.2175905374056565,"6":0.11104115511420326,"7":0.8443673705075019,"8":0.08862104793251965,"9":-0.2581412525995159,"10":0.26777199772247623,"11":0.6045805002242226,"12":0.09899204401276154,"13":-0.7810238465328091,"14":-0.6743545548418618,"15":0.15290797991626584,"16":-0.19340365483288205,"17":-1.0932993330287117,"18":-0.6401424203444716,"19":0.6133970412184659,"20":-0.14246081602405586,"21":-0.09981136154591422,"22":0.05885337245432932,"23":0.6904540198040318,"24":0.006423037739682482}},{"sx":5,"sy":5,"depth":1,"w":{"0":0.17394634006043738,"1":0.14497623496132098,"2":0.40633567058559067,"3":0.2763644763352956,"4":0.5269202009348115,"5":0.17702179274577814,"6":-0.26202107991896373,"7":-0.27189419585047253,"8":0.23025188289846124,"9":0.21362555054505522,"10":-0.3545332797302291,"11":-0.5032348633911934,"12":-0.4162076821448511,"13":0.3332997283543887,"14":0.4113057536630935,"15":-0.40429542338886076,"16":-0.28886538697991604,"17":-0.2897164549080273,"18":0.15125617538779002,"19":0.4819403469182818,"20":-0.3272562249042511,"21":0.10311563546910543,"22":-0.3443822628759893,"23":-0.3113530496487052,"24":0.6006364520737142}},{"sx":5,"sy":5,"depth":1,"w":{"0":0.09046192730266361,"1":0.00818143945072106,"2":-0.014399166349764044,"3":-0.2550020772878333,"4":-0.6566742485899364,"5":0.011555457691334045,"6":-0.11147655338757533,"7":0.6271327490501203,"8":0.8229363113678824,"9":-0.3579328266186705,"10":0.08638019037454002,"11":-0.7765310334104784,"12":-0.27415580139427553,"13":0.7987495245862956,"14":-0.3479356876895726,"15":0.3949068708851119,"16":-1.1445415158899621,"17":-0.04304794552951984,"18":0.4743344835231084,"19":-0.12137042262265295,"20":0.9458172559746408,"21":-0.973277191222373,"22":-0.4906615071295469,"23":0.1917002953815409,"24":0.10025521094066707}},{"sx":5,"sy":5,"depth":1,"w":{"0":0.17834669799643635,"1":-0.5509067231708024,"2":-0.28077742737682937,"3":-0.16729216294992139,"4":0.3579131957633991,"5":0.5355517322816982,"6":0.21283511314069203,"7":-0.43231967105098623,"8":-1.0475024849012595,"9":-0.18110691475786087,"10":0.12638610340047854,"11":0.4886315235736601,"12":0.4654897014061347,"13":-0.24662339744418088,"14":-0.6956614849503943,"15":-0.017060595582919478,"16":0.3008848362786054,"17":0.6693016201537781,"18":0.384283779088051,"19":-0.4383505210737414,"20":-0.19950851767078476,"21":-0.005600451363218756,"22":0.09904653288330793,"23":0.20073544912754923,"24":0.13213345237089166}},{"sx":5,"sy":5,"depth":1,"w":{"0":-0.0285647525266548,"1":-0.045290461798388276,"2":-0.45067815210973383,"3":-0.6504497838035412,"4":-0.41333530460946627,"5":-0.4066052212306198,"6":-0.7658920528901919,"7":-0.6234674217250212,"8":0.24659538502519265,"9":0.5379262658648933,"10":-0.5988608856365875,"11":-0.28971353819044343,"12":0.23623690500663863,"13":0.4383955390222487,"14":0.2611660846473964,"15":-0.6061610427614481,"16":-0.27099396476494625,"17":0.22269422712742196,"18":0.37201666772157715,"19":0.07587865074159295,"20":-0.4510892504646935,"21":-0.22386027735432026,"22":0.12076283207946062,"23":0.021715417876367327,"24":0.10167295859412175}}],"biases":{"sx":1,"sy":1,"depth":8,"w":{"0":-0.03542672406426927,"1":-0.19457662802813558,"2":0.12954934718447483,"3":-0.4175658938613479,"4":-1.2052984602786172,"5":-0.14073879861710725,"6":-0.30169504698572247,"7":-0.010696332172728465}}},{"out_depth":8,"out_sx":24,"out_sy":24,"layer_type":"relu"},{"sx":2,"sy":2,"stride":2,"in_depth":8,"out_depth":8,"out_sx":12,"out_sy":12,"layer_type":"pool","pad":0},{"sx":5,"sy":5,"stride":1,"in_depth":8,"out_depth":16,"out_sx":12,"out_sy":12,"layer_type":"conv","l1_decay_mul":0,"l2_decay_mul":1,"pad":2,"filters":[{"sx":5,"sy":5,"depth":8,"w":{"0":0.07919091194982951,"1":-0.21964217563135294,"2":-0.12957278157540666,"3":-0.19602960003575254,"4":-0.07119321789844839,"5":-0.20880147344642866,"6":-0.16954662218548652,"7":0.18398444777134668,"8":-0.032373583976083996,"9":-0.10822818602498809,"10":-0.2650060296235872,"11":0.17549531449269076,"12":-0.24180556438849626,"13":-0.3338674648912368,"14":-0.357863350489994,"15":-0.09562982506887734,"16":-0.23497726014214795,"17":0.1046518277212251,"18":0.10653223690283056,"19":0.15611751856244901,"20":-0.25424216845443415,"21":-0.3233101001320938,"22":-0.38358977600785044,"23":0.21945625078390954,"24":-0.003894985191601691,"25":-0.16922773474030348,"26":0.17723122580803446,"27":-0.18031150533592194,"28":-0.2670982495571878,"29":-0.3679402657858823,"30":-0.27488118878176726,"31":0.025547113575289805,"32":0.16643385879182276,"33":-0.5166291827902838,"34":-0.13592012577297688,"35":0.16492104336529967,"36":-0.0346387756166658,"37":-0.1599520896053064,"38":-0.2188064101199407,"39":0.01326023461203859,"40":0.01762521992030626,"41":0.15846655256982747,"42":-0.31969923330265193,"43":-0.02646509184812943,"44":-0.005827757859265944,"45":-0.13941244739119288,"46":-0.39298407243230193,"47":-0.14392607704807295,"48":-0.13750117652586105,"49":0.02138184177069967,"50":0.06687740191753935,"51":-0.03445197998149213,"52":0.09055021940163693,"53":-0.1958124559333788,"54":-0.175184222474601,"55":-0.1719271595406004,"56":-0.2818146823805625,"57":-0.2670586723158384,"58":0.19260310176367637,"59":-0.31797191862096624,"60":0.1356638694759302,"61":-0.1645908619507274,"62":0.011661699864017843,"63":-0.14131837427680854,"64":-0.2295209545696547,"65":-0.57205261925805,"66":-0.09543068144910156,"67":-0.015449171548556394,"68":-0.034687971429994885,"69":-0.14723176274418348,"70":-0.06987256919353228,"71":-0.30830716880596315,"72":0.23883262102343297,"73":-0.3654593953181512,"74":-0.16006596828906536,"75":0.2395329231724618,"76":-0.1835889120258477,"77":-0.16623874392523105,"78":-0.15772572231879925,"79":-0.0593066792584074,"80":0.5082711351751926,"81":0.7381768089877293,"82":0.24412227045972806,"83":0.1914012338553781,"84":-0.17596326211982713,"85":-0.15961480324881208,"86":0.3025229023353729,"87":0.33898050246939937,"88":0.1802501327103441,"89":0.08667187004276812,"90":-0.08920957974231773,"91":0.10578437076697848,"92":0.21764915421931963,"93":-0.034476962808586795,"94":0.22172132206741318,"95":0.03483701478845365,"96":0.02613268965524319,"97":-0.4558837475821052,"98":-0.06283540699714606,"99":-0.012727710678717592,"100":0.021478910709443324,"101":0.04128782784625678,"102":0.007109383721027298,"103":-0.20650822669541447,"104":-0.3216617756167802,"105":-0.37059973360267356,"106":-0.20119430149852768,"107":-0.11013206689363786,"108":-0.00796604794761872,"109":-0.15252845226330594,"110":-0.2618899134690105,"111":-0.07409655755191855,"112":0.2748159474622719,"113":-0.15440913761976924,"114":-0.3152042863352565,"115":0.19612575734210036,"116":-0.160034451731612,"117":-0.294204356739903,"118":-0.23546002379880135,"119":-0.009159260684791339,"120":-0.0715691733144571,"121":0.013619085729751089,"122":0.31699604754266764,"123":0.17799951164402458,"124":-0.03833396538164728,"125":0.10794798509281418,"126":0.33590880923235966,"127":0.4076722056513008,"128":0.3093196087187754,"129":-0.4656775936352545,"130":0.019835712456388002,"131":0.0711073481392742,"132":0.1616814273800698,"133":-0.2514469501718441,"134":-0.26798351625859396,"135":0.31974162715447785,"136":-0.005580586895035137,"137":-0.28590623686214245,"138":-0.10033768516926989,"139":0.05055845011763956,"140":-0.10733097471643785,"141":-0.36798603102946936,"142":-0.27206447187289284,"143":-0.1289600202898769,"144":-0.02243115525918334,"145":-0.08318916093274668,"146":-0.42826942141451296,"147":-0.019256983993436092,"148":-0.1852942309565408,"149":-0.11944967741649366,"150":-0.1629605842967669,"151":-0.07261189113128465,"152":0.08748807803472519,"153":0.1715349847892619,"154":-0.480468628024574,"155":0.006078702279061964,"156":-0.13910689692164294,"157":-0.30655168501618857,"158":-0.19961264372379015,"159":0.2506684900370531,"160":0.0021840587260575487,"161":-0.28107562300252187,"162":-0.11553463620904275,"163":0.05781551898461451,"164":-0.10739746351577321,"165":0.0437453764817404,"166":-0.24906492837486002,"167":0.4025442297465132,"168":0.01591774084823,"169":-0.38863180855831914,"170":-0.2643548568287534,"171":-0.029822273240306757,"172":-0.13849553362533626,"173":-0.3573314467451475,"174":-0.3683191963694134,"175":-0.1901568551594029,"176":-0.003240404131023068,"177":-0.30166921204118174,"178":-0.033351486260907774,"179":0.10449016131320936,"180":-0.1491262808210705,"181":-0.1574638322421302,"182":-0.27025572503643563,"183":-0.0667247487676604,"184":0.17386272731488617,"185":0.1067297845426888,"186":-0.30436098402247813,"187":0.1159417662111212,"188":-0.25071471558165176,"189":-0.5771062594183587,"190":0.10856912119462511,"191":0.11872124794076569,"192":0.24040814483718118,"193":0.2779036415526868,"194":-0.44880455534442265,"195":0.1369896138973163,"196":-0.18603076183281636,"197":-0.5597110400697344,"198":-0.1755179395718092,"199":0.3444377381452115}},{"sx":5,"sy":5,"depth":8,"w":{"0":-0.27606536659345005,"1":0.715700478899525,"2":-0.18486000301256794,"3":0.11462345824199739,"4":-0.5304749754566473,"5":-0.2708239639394557,"6":-0.27753109170033746,"7":0.6566360106724511,"8":-0.09946540130291756,"9":-0.1006412194857874,"10":-0.37865905913914405,"11":0.0982129023222977,"12":0.055126136919698435,"13":-0.25359677317256185,"14":-0.32843288519091257,"15":0.20502960861814648,"16":0.15810067952089701,"17":-0.49032021132808085,"18":-0.4089317552980797,"19":-0.10893989967990494,"20":0.2881110705271271,"21":-0.04566003891141675,"22":-0.17513259381503432,"23":0.10627079612568825,"24":0.2610550054269974,"25":-0.5326249301094049,"26":-0.09935816557743885,"27":0.0734234745961851,"28":0.3395775221536607,"29":-0.13149867561281445,"30":-0.22206215240719898,"31":-0.3492867365280306,"32":0.16986474656103584,"33":-0.39871900876445965,"34":-0.08497307195945639,"35":0.2641050643423427,"36":0.021343165387601566,"37":0.24388329182238552,"38":-0.17382402427558374,"39":-0.15622788654314312,"40":-0.1377479142859444,"41":-0.38817715393418817,"42":0.02296922983055952,"43":0.19965247218768967,"44":0.011518037679668648,"45":-0.1469802711391332,"46":-0.4368620416133763,"47":0.3646985452378839,"48":0.028125460823708155,"49":-0.46027503974177303,"50":-0.45650412803714313,"51":0.16991126967450315,"52":0.4821900550211511,"53":0.05843891856341254,"54":-0.21527940383538294,"55":-0.29887321712090015,"56":0.2937550053684228,"57":-0.10395779307184497,"58":-0.17965493770565752,"59":0.05361700905262991,"60":0.14235183320382624,"61":0.20062904740801737,"62":-0.36634725616701214,"63":0.04512203603680809,"64":0.10403423686255606,"65":-0.19894182304879832,"66":0.11983571931408021,"67":0.19417725192088742,"68":0.3498732028301327,"69":0.3727023261833772,"70":-0.08365130170506765,"71":-0.21430120113522372,"72":0.06007300991342719,"73":-0.4353845458094676,"74":0.2470995572168309,"75":-0.24672166473848917,"76":0.2735005464169258,"77":0.32759186480562086,"78":0.09630416118166243,"79":-0.09621521726328658,"80":0.14784064191389842,"81":-0.26707381698581145,"82":-0.3214603338762859,"83":-0.29733904774234743,"84":0.2613064399780356,"85":-0.02143606691958776,"86":-0.28806477383875967,"87":0.336503329704361,"88":0.5919338733967026,"89":-0.3069416842093721,"90":0.23522201683428345,"91":0.27572908360886433,"92":0.29932059223946106,"93":0.3182607342500991,"94":-0.32379273795509605,"95":0.13360692182080924,"96":0.6431293296813277,"97":-0.15800736194278583,"98":0.36410915008534006,"99":0.3183116070773481,"100":0.0814288471764799,"101":0.37414763629388353,"102":-0.07416898337521774,"103":0.20305892535503975,"104":0.6736299599252282,"105":-0.12920939628796604,"106":0.41519819986904705,"107":0.11804980760112185,"108":0.2516460659204553,"109":-0.2042543952015032,"110":0.28184537247893987,"111":-0.08453599997981928,"112":0.6832802987790167,"113":-0.3541137497918542,"114":0.4007813222935921,"115":0.030028502772466277,"116":0.39237100546718584,"117":0.6437939492769473,"118":0.22354764601661856,"119":0.015149606195817582,"120":0.26874591869462233,"121":-0.4902071269311849,"122":-0.38518626514319587,"123":-0.17483864834353563,"124":0.06954497363344894,"125":-0.09124520285613365,"126":-0.2636871246339788,"127":0.08611712411499599,"128":0.28237026589449077,"129":-0.29800578274983325,"130":0.054365954380398505,"131":-0.09482410357874203,"132":0.04313873028685126,"133":0.19576713725385422,"134":-0.2506027633574137,"135":0.06286500515325182,"136":0.05598011373852849,"137":-0.27434590747589177,"138":-0.047540055623852134,"139":-0.2777816886945543,"140":-0.23377546700387875,"141":-0.015119831599562625,"142":-0.17122831392391483,"143":-0.24192936646139837,"144":0.33377383733687327,"145":-0.2952306605261811,"146":-0.18671471242527043,"147":-0.1350293843653884,"148":-0.20600721156597346,"149":-0.19213259591304502,"150":0.2228982724145862,"151":-0.007151178157512506,"152":0.09544736978746186,"153":-0.4750430477064848,"154":0.44494480220741583,"155":-0.17150879742144964,"156":0.01998810451965097,"157":0.106762361100779,"158":0.13936167462828894,"159":-0.09065677682997396,"160":0.37866851644112653,"161":-0.5155215498326564,"162":-0.10231361523083267,"163":-0.10891061377471542,"164":0.15397661312348485,"165":-0.285697954421225,"166":-0.33765538197665135,"167":-0.06909226436403224,"168":0.03302452926718495,"169":-0.3644483696657869,"170":0.04909260551149121,"171":-0.12141240790030491,"172":0.34819123791074125,"173":-0.046836312341717395,"174":-0.1807511815550026,"175":-0.27790936670303895,"176":0.13344647983051577,"177":0.018477282080783093,"178":-0.009818784069311534,"179":-0.2850521675841873,"180":0.229609556995199,"181":0.1483965634711097,"182":0.17100370541073345,"183":-0.20187727107439224,"184":0.1567783515583633,"185":-0.16890801144811526,"186":-0.056461607419218206,"187":-0.19763191841872038,"188":-0.1009697002498889,"189":0.16443195131637336,"190":0.17677285909635487,"191":-0.07692846283519489,"192":-0.10086457493079992,"193":-0.20790879716991822,"194":-0.051309847962298816,"195":-0.26436736546527395,"196":-0.1751286793761029,"197":-0.21277715431996594,"198":0.08139907147682329,"199":-0.30100774230812416}},{"sx":5,"sy":5,"depth":8,"w":{"0":0.15694085728737098,"1":-0.25986393468419905,"2":-0.08692851409451768,"3":0.07643045689996708,"4":-0.10066046136554602,"5":0.18092229677539307,"6":-0.11014744478161302,"7":-0.47903297984096177,"8":0.8629952563229546,"9":-0.41568665154634377,"10":0.02090959734152796,"11":-0.40809660683032584,"12":0.12199798422307837,"13":-0.07389825999527855,"14":0.4917948034328832,"15":0.19016486930675106,"16":0.3770324302802607,"17":-0.21055486630299314,"18":0.3780253110255001,"19":-0.18190106918073679,"20":-0.015211481130461212,"21":0.200344700885852,"22":0.10539186917446747,"23":-0.08256391303921481,"24":-0.15061597603477103,"25":-0.16076158270042132,"26":0.2465994935963333,"27":0.31120739994362306,"28":-0.18181815921374797,"29":-0.22977971974233125,"30":-0.25007103570061284,"31":-0.4429679653707592,"32":-0.1884797752905332,"33":-0.4970171558497377,"34":-0.13439757843230116,"35":0.4584120649008613,"36":-0.0835143130718678,"37":-0.28439393850728034,"38":-0.34231868877111205,"39":-0.6715502052283894,"40":0.16143150872623785,"41":0.11373938932457733,"42":-0.17688913236165263,"43":-0.06577590772151902,"44":-0.345717319306525,"45":-0.2364585555030491,"46":-0.48311399541737293,"47":-0.1898458462713954,"48":0.9194690334863113,"49":-0.21622754358947685,"50":-0.09130188080633131,"51":-0.08055861522827722,"52":-0.24356451628191342,"53":-0.34178612901550637,"54":-0.1844544360922247,"55":-0.19814072535040322,"56":0.2115580927041355,"57":-0.10657442298786485,"58":-0.3730652968423382,"59":0.015780523605327123,"60":-0.28606628007448115,"61":-0.2251420820568828,"62":-0.003452206176865323,"63":-0.20538382627296511,"64":-0.19274997705608996,"65":0.225082630546575,"66":-0.24027185835870474,"67":0.1868402437988846,"68":-0.23612729391510284,"69":-0.2249220776405677,"70":-0.23325221846257282,"71":0.21572117585264333,"72":-0.19801974202543388,"73":0.2164198982811567,"74":0.3294016156130108,"75":0.34587114696560806,"76":0.10407994463662215,"77":0.3345089807194232,"78":-0.11192882812575143,"79":0.9956274234534255,"80":-0.193933574665967,"81":-0.36731887335426117,"82":0.230751899915142,"83":0.5494759326678612,"84":-0.3049682821042814,"85":-0.4194880167778138,"86":-0.26804060326039114,"87":-0.14166233218181942,"88":0.5350374708557104,"89":-0.2467283353778817,"90":-0.01261906091489902,"91":-0.061716179733524466,"92":-0.19367454182444438,"93":-0.19546141720260646,"94":-0.3026117478816822,"95":0.012182230768453534,"96":-0.15265852397373783,"97":-0.4082853822676746,"98":-0.24096671251367163,"99":-0.3482801376643864,"100":-0.0786902916252647,"101":0.07513507920634623,"102":-0.3267972913932029,"103":0.32344364239448514,"104":-0.2223815391569361,"105":-0.16403960734582748,"106":0.28212473735047955,"107":-0.20278251427998062,"108":-0.02534733554692774,"109":0.4183655679164538,"110":-0.24244595470889801,"111":0.5136112066084335,"112":-0.1502463948033623,"113":0.14130593392175003,"114":0.5646811656547353,"115":0.2460497221757873,"116":-0.12111318072467735,"117":0.18258636620684343,"118":0.033781912078441764,"119":0.5162146482413854,"120":-0.12734590861379683,"121":-0.2897980579433409,"122":-0.16586313598381738,"123":-0.183250998174846,"124":-0.08650119081057565,"125":0.015324561536008753,"126":-0.18409743393577407,"127":-0.08261207996609922,"128":-0.14980293363678127,"129":-0.06603900698519174,"130":0.11091318216796714,"131":-0.24883229013199626,"132":-0.1904903041612014,"133":0.20629116812062856,"134":-0.07866400623913881,"135":-0.2945394305287619,"136":-0.04805569430453905,"137":-0.2970348077282534,"138":0.38814517833623385,"139":-0.3633641733753253,"140":0.14451728875420483,"141":-0.03860570661841849,"142":-0.10235373445973402,"143":-0.4223202864768384,"144":-0.09344539969133485,"145":-0.07904499225495719,"146":0.5942592742341707,"147":-0.09362870949007514,"148":0.1981476805842976,"149":0.07236196418685216,"150":-0.12253124709415676,"151":-0.5331795514024104,"152":-0.5163620293924858,"153":-0.15314303172177401,"154":-0.6127673757548027,"155":0.3146962942329973,"156":0.0631932912023632,"157":-0.12315922863188651,"158":-0.002968325560287028,"159":-1.2059781563339593,"160":0.15781503261659804,"161":-0.36133139673845766,"162":-0.22774389340936435,"163":-0.16472665446296292,"164":0.02631409252495185,"165":0.16670379399941687,"166":-0.003682840222924596,"167":0.263185461681628,"168":-0.021283306191255194,"169":0.3792461412202025,"170":-0.05540599234084835,"171":0.08191052419604947,"172":-0.10532160571191206,"173":0.18448010278430962,"174":-0.06784999174886922,"175":0.04464175188506046,"176":0.03240580474681789,"177":0.5152354672032311,"178":0.13378071236104855,"179":0.20981915290636685,"180":-0.20790016402293277,"181":-0.2091695675932985,"182":0.16664090127295478,"183":-0.33174006257098965,"184":-0.11686864718355018,"185":0.7465066798919622,"186":0.13672335995004273,"187":0.04550284125165593,"188":-0.13053464643770252,"189":0.013444930477194124,"190":-0.06294501330662472,"191":-0.32104853770317443,"192":-0.14769439899671588,"193":0.005652349504184429,"194":-0.14468043975843475,"195":-0.18491348563739093,"196":0.2323267843022883,"197":-0.34877761040485694,"198":-0.0570208856554728,"199":0.6438950006084021}},{"sx":5,"sy":5,"depth":8,"w":{"0":0.21061585724316526,"1":-0.25067410053647277,"2":-0.23615543524492114,"3":-0.27852207399837164,"4":0.0429359308974402,"5":-0.18825218949895234,"6":-0.011070961136603785,"7":0.18716702837625093,"8":0.13727076717419492,"9":0.18612014687193457,"10":0.01961200172911329,"11":0.06705917684383549,"12":-0.3099853521661006,"13":0.022985293892217932,"14":-0.1299829005134795,"15":0.26147309765325677,"16":0.23316432609068258,"17":-0.003726288077194891,"18":0.022463159066938403,"19":0.20417571581910035,"20":-0.11943928805758885,"21":-0.043472302533237216,"22":-0.18016185517337724,"23":0.09253375962231764,"24":-0.1735666024541908,"25":-0.13383181041496603,"26":-0.14861359257106163,"27":0.1910158053788247,"28":0.2275546215475127,"29":0.03605916542453658,"30":-0.0808305392885842,"31":0.1915552233009036,"32":0.05688144087630132,"33":-0.3139964301308194,"34":-0.22585206231666619,"35":-0.17107976653821635,"36":0.057469623787455036,"37":-0.3123348298102581,"38":-0.4617658212833419,"39":-0.177145673502634,"40":0.10699454792235141,"41":0.08847611474545812,"42":-0.09233854103610292,"43":-0.28172228683597844,"44":-0.27571047673249993,"45":-0.2608564013567219,"46":-0.19802659971925635,"47":0.03404421620012543,"48":0.2339202820890389,"49":-0.16459655538857162,"50":-0.04680551413023724,"51":-0.060150643714810825,"52":-0.31167605782304797,"53":-0.3483775390014565,"54":-0.11569382314251288,"55":0.20519342394529705,"56":-0.06033653324611454,"57":-0.11516492091118607,"58":-0.1844194054012798,"59":0.10444609788392509,"60":-0.18176505208667973,"61":-0.48387273200465103,"62":0.010993728235731802,"63":-0.09351428363331576,"64":0.014853412755585707,"65":-0.0033928394323604716,"66":-0.16291410720234997,"67":-0.056441327516611364,"68":-0.03793469848349477,"69":-0.1709375144553553,"70":-0.11718155828756152,"71":0.12225780232000405,"72":-0.0732497701759457,"73":-0.26908064152488287,"74":-0.28637018232900985,"75":-0.2084191098578061,"76":-0.17005280645981302,"77":-0.2659644534617501,"78":-0.2946561061157026,"79":-0.24037375796716332,"80":-0.13197559590598654,"81":0.22477871369840013,"82":-0.07968441155109947,"83":-0.20916143989423533,"84":-0.47747702096184447,"85":-0.6045844740065625,"86":0.0002925245756584541,"87":-0.19276728975312088,"88":-0.20048688804540504,"89":0.36107760389779625,"90":0.1167351706973583,"91":0.13310670207618172,"92":-0.2266260566863564,"93":-0.594492375663057,"94":0.1370987046259417,"95":-0.29314976137519894,"96":0.1773273909275665,"97":0.5207084866425731,"98":-0.33106643816866094,"99":-0.08216499747090833,"100":-0.0003803785627335361,"101":-0.15130689204565165,"102":0.2811214264135281,"103":0.03785464402716146,"104":0.035739587269009256,"105":-0.4798732198671345,"106":-0.18272373655788335,"107":-0.3439868400399487,"108":-0.3127274665651791,"109":-0.07489096452143673,"110":-0.01208193725438874,"111":0.16902946251088583,"112":0.0622536010019962,"113":-0.04924977218182981,"114":-0.23641308400116,"115":0.05158738711766672,"116":-0.1843980607836276,"117":-0.321531199750029,"118":-0.2007224402583879,"119":-0.14456518996584095,"120":-0.21986058611326917,"121":0.25356266593016397,"122":0.11280029940709997,"123":0.17847572759665112,"124":-0.5290344590534172,"125":-0.18085844019580627,"126":0.01949650150476494,"127":-0.5334707814612097,"128":0.09773971685809343,"129":0.30148660212916845,"130":0.3650712543230576,"131":0.1546573375594546,"132":-0.05337649873364657,"133":0.0888412380453151,"134":0.24110795163408874,"135":-0.3257234347684651,"136":0.6270525933076988,"137":0.27207698410234427,"138":-0.08999696450890492,"139":-0.09948096619325479,"140":0.11193140252113754,"141":0.06616743117463049,"142":0.16687829250020766,"143":0.07208631879273861,"144":0.12255395290311806,"145":0.07965612835357964,"146":-0.4499538795107882,"147":-0.4292690318523036,"148":-0.1320537728519885,"149":-0.18921193548407084,"150":-0.2185258472942747,"151":0.08794610144843697,"152":-0.23226703231247234,"153":0.5563210260423348,"154":-0.26476441591330224,"155":-0.11623634770236155,"156":0.10527928639627801,"157":-0.3733598365200665,"158":0.1768838743686061,"159":0.11077498257341876,"160":0.2698389845448553,"161":0.08141835613739486,"162":-0.400277242230056,"163":0.26495689422817453,"164":-0.3521141388471679,"165":0.19123847684015807,"166":-0.16580497622283832,"167":-0.12141577198065377,"168":0.04697355178521962,"169":0.09991932439173659,"170":0.09612446803954995,"171":-0.19881165817810012,"172":-0.18541007130488305,"173":0.26012202110700333,"174":-0.07028820703646747,"175":-0.17664153035419894,"176":0.45464918568943424,"177":0.20513335104472902,"178":0.2820453348184032,"179":-0.11566225412312572,"180":-0.15305808388187397,"181":-0.3017704834055712,"182":0.0763359347923632,"183":-0.08879968189283245,"184":0.16265358463211205,"185":0.32329009343251386,"186":0.20302201146841314,"187":0.02713544645166964,"188":-0.3205935415717752,"189":-0.40981947059861984,"190":-0.0667415882763482,"191":-0.1765146394668967,"192":0.26494280026154743,"193":0.075967634497209,"194":0.8480059418902213,"195":-0.007293823294553158,"196":0.044242674650284294,"197":0.28622412320272955,"198":0.20671039872376615,"199":-0.18435238893023823}},{"sx":5,"sy":5,"depth":8,"w":{"0":-0.06297855787281058,"1":0.18125722006413908,"2":-0.40634033153062465,"3":0.37723215566175816,"4":0.13433074079106588,"5":-0.012016036258088286,"6":-0.21431759176066856,"7":0.5263463716237102,"8":0.0901847282593232,"9":0.02356664732772089,"10":-0.42283659360608594,"11":0.29045327780584573,"12":0.08601554334555069,"13":-0.48840203017902845,"14":-0.32998963518658136,"15":0.4958938011952548,"16":0.24990338329303163,"17":-0.15449543524572343,"18":-0.41131276591097826,"19":0.6367909364079379,"20":-0.20920839018799553,"21":-0.29138220982794794,"22":-0.42439389970801056,"23":0.6332991736840632,"24":0.371925926150006,"25":0.019776972661728953,"26":-0.3387454144093885,"27":0.8917149793207639,"28":-0.3559376975431479,"29":-0.0380200616885105,"30":-0.30427492280616736,"31":0.29206208139486883,"32":-0.2471113306293733,"33":-0.26130194467753387,"34":-0.0015032979239936544,"35":0.32798983806062465,"36":0.04558922093439346,"37":0.4220846059348677,"38":0.0005036496298630796,"39":-0.08673453637752536,"40":-0.09710734265211415,"41":-0.5649208883350055,"42":-0.007969634783195621,"43":0.11483365191061816,"44":0.21637078629174744,"45":-0.09514981279119543,"46":-0.5111816163323406,"47":0.2818533351396908,"48":-0.3610624916345596,"49":-0.36549533714820664,"50":-0.2847047314652052,"51":-0.4248049103845596,"52":0.16146920029291234,"53":-0.17962467176725871,"54":-0.4834336773000947,"55":-0.03118412864818952,"56":-0.4533782301990816,"57":-0.29560137242291834,"58":-0.0751137161965748,"59":-0.4527001943084121,"60":0.040750524864015744,"61":-0.04221990820247178,"62":-0.20922855079135377,"63":-0.1556404498125769,"64":-0.6532718641697748,"65":-0.15238140646831722,"66":0.10024148907092509,"67":0.3108791404707286,"68":-0.14557289019229624,"69":0.3791908466485313,"70":0.3983496904131759,"71":-0.6553581495488817,"72":-0.291718961285033,"73":0.3226164018084804,"74":0.1615901093609161,"75":0.5694843178499563,"76":0.06261369239523905,"77":0.34723695566094526,"78":-0.18172514655187574,"79":-0.26063336382363184,"80":-0.2923570720080164,"81":0.24018184957687974,"82":0.38483997277839455,"83":-0.010177132126437347,"84":0.18157392300931202,"85":-0.07272434054071006,"86":-0.2432338295157618,"87":-0.29982821220529776,"88":-0.48719845844682874,"89":0.06976097249897945,"90":0.36048894643558554,"91":-0.05181381631928201,"92":-0.12426401816221049,"93":-0.13783629552983542,"94":-0.15432885602329052,"95":0.041378938593030566,"96":-0.533360182237798,"97":-0.11671182671962518,"98":0.3304327507883731,"99":-0.3684889056155529,"100":0.01666656903858317,"101":0.5187015272210654,"102":0.33795775542370265,"103":-0.12314928056775416,"104":-0.2867170404544019,"105":-0.025190033434598892,"106":0.5011289588849173,"107":-0.5691622784517947,"108":0.01725607078994974,"109":0.07702159350810736,"110":0.7867546554682198,"111":-0.31261550774784114,"112":0.07154270617577833,"113":0.21698696339438703,"114":0.24763822885731904,"115":0.23873150618934905,"116":-0.0924988301637827,"117":-0.019143884283709823,"118":-0.17212559127593535,"119":-0.39719313132408507,"120":-0.14074661872486638,"121":0.7639266219140615,"122":0.1631559551186821,"123":0.1186400048735362,"124":-0.19591788312131572,"125":-0.2711661167384832,"126":0.020693157682637117,"127":-0.48982867371032507,"128":0.018898183143484376,"129":0.24963790584885542,"130":-0.23318045205638302,"131":-0.02271183163366624,"132":0.0072833724946466906,"133":-0.24647287928889433,"134":-0.46506535297065443,"135":0.11709259388968671,"136":-0.13426069607567204,"137":-0.2746326786187496,"138":-0.24160717399283047,"139":-0.015936455984626303,"140":0.07178669750303418,"141":-0.028851498524482568,"142":-0.06875506131957088,"143":0.2130089188121505,"144":0.12002985188275285,"145":-0.5874898488914931,"146":0.04795586653892325,"147":-0.12737565884874735,"148":0.06105190523029772,"149":-0.19985230438515253,"150":0.1482586071749726,"151":-0.26593265698010227,"152":-0.4500486763577521,"153":-0.25740726221757154,"154":-0.20043843457871546,"155":-0.32409360924304426,"156":0.16864814252723237,"157":-0.05250954217037474,"158":-0.027203359967236256,"159":-0.3163309247374693,"160":0.20554579087833696,"161":0.5542967158433786,"162":0.35535017935836105,"163":0.24997898970525018,"164":-0.32185637502347764,"165":-0.1973897217980608,"166":-0.0723977761398288,"167":-0.03243909582344184,"168":-0.06228706419642046,"169":0.20231881167682186,"170":-0.3797068467986624,"171":0.04193886270327387,"172":-0.08418686825891374,"173":-0.39541604672522424,"174":-0.34616199211847026,"175":0.25868192295186804,"176":0.3007597399788058,"177":-0.14110872662772955,"178":-0.3644999467113655,"179":0.37025620043429247,"180":0.13277654841497855,"181":-0.3463223210273255,"182":-0.4652370186022516,"183":0.42073962802493864,"184":0.6856074411197896,"185":-0.31878158994937994,"186":-0.17162719324351766,"187":0.3319008819622166,"188":0.25783255892856766,"189":0.12677546832788614,"190":-0.32128191336167733,"191":0.013866387045577227,"192":0.07813950102742993,"193":-0.4603898511997196,"194":-0.05630407541123596,"195":-0.1255113534210365,"196":0.3043172738109147,"197":0.28466414720927463,"198":-0.07804004840332535,"199":-0.24589866392643422}},{"sx":5,"sy":5,"depth":8,"w":{"0":0.08565204816651872,"1":0.0811420902828599,"2":0.23586152962775492,"3":0.49287881907286196,"4":0.40451405686736913,"5":0.6525752625395373,"6":-0.033092582429024305,"7":-0.26559524014000213,"8":-0.1397245383872387,"9":-0.3765722662912154,"10":0.20607444922036994,"11":0.07949486623930742,"12":0.20315269403974953,"13":0.23293331229869504,"14":-0.03618824722527148,"15":0.05459356650445691,"16":0.05942207390182023,"17":-0.16796244041876993,"18":-0.3602448268869906,"19":-0.16159813717790644,"20":0.051598227111027864,"21":0.16541365329618393,"22":-0.11673722142217727,"23":0.20637823340872388,"24":0.35104036774910713,"25":-0.0683044411125712,"26":-0.5545721478679607,"27":-0.14918399356055495,"28":0.04317129445191936,"29":0.06021970423190449,"30":-0.3656020498473714,"31":0.371271920774377,"32":0.14348588463965947,"33":0.17362900644504092,"34":-0.22604008090899896,"35":0.2952068426853267,"36":-0.4765460453008949,"37":-0.11217242986032235,"38":-0.33150933764044094,"39":0.4507798315435927,"40":0.24420086764980745,"41":-0.2620126301959636,"42":-0.11750151438265068,"43":0.4785306859316315,"44":0.4495223441047948,"45":0.05840991769449076,"46":-0.04671856568480121,"47":0.18135621140812813,"48":-0.1851424822564353,"49":-0.04731389342204245,"50":0.39587233338060324,"51":-0.10545597766141313,"52":0.45888200577717203,"53":0.26642299217108995,"54":-0.0019197631937977445,"55":-0.05893927810103884,"56":0.28233438952092077,"57":-0.2121848093068039,"58":0.3174749603804485,"59":-0.2139035420048053,"60":0.2413903267533426,"61":0.2680774674934468,"62":-0.08122586279979177,"63":0.12822622460793554,"64":0.4828343782332812,"65":-0.34740450835980435,"66":-0.24586015140668288,"67":-0.2157755099441024,"68":0.1325617500991666,"69":0.03462097902812368,"70":-0.296030890604403,"71":0.30117722550537385,"72":0.3032111361530552,"73":0.07744150723928732,"74":-0.3392764632963684,"75":0.5948589806815691,"76":-0.31285926420671695,"77":0.26032039908665455,"78":-0.6209887045214549,"79":0.6433542877173213,"80":-0.17589242366829885,"81":-0.11816764718376169,"82":0.1945166929204728,"83":-0.43365296982908746,"84":-0.10742469780183549,"85":-0.13039812756043814,"86":-0.06975111134190305,"87":-0.036268034638512345,"88":-0.11643035512663827,"89":-0.3116117103341286,"90":0.05890787421876117,"91":-0.1874640961858528,"92":0.21948171107968095,"93":0.21016336787066833,"94":-0.06972622297323326,"95":-0.007404441453260321,"96":0.15999306078822767,"97":-0.36588990503286395,"98":0.38121363662955093,"99":-0.22620206495351933,"100":0.3701246479369764,"101":0.20189640094158723,"102":-0.12549315160857022,"103":0.07312828046805592,"104":0.021352082376262575,"105":-0.3824900781358561,"106":-0.007273884066179429,"107":-0.4409760683083647,"108":0.2715207986256352,"109":0.21854067163114996,"110":-0.06283916250148057,"111":0.359251788249451,"112":-0.24107464306327356,"113":-0.006761643544711093,"114":-0.11740729302103506,"115":-0.010057445087959771,"116":0.21057306308578275,"117":0.370897855993946,"118":-0.028265856286902476,"119":0.4058297182099858,"120":-0.14347559933001597,"121":0.1119815206095459,"122":-0.2251121971081368,"123":-0.34932933449877007,"124":-0.08806545571947837,"125":-0.013879223060152551,"126":0.030337389020642494,"127":-0.2293314253442807,"128":0.004583975889832019,"129":-0.13463532967671835,"130":-0.08381590420333765,"131":-0.45865189716035154,"132":-0.06433861686471078,"133":-0.10034760982011519,"134":0.004280711614990631,"135":-0.39467882108142577,"136":-0.09770580174566024,"137":-0.18675214003530147,"138":0.4611043261635544,"139":-0.33014229752556284,"140":0.09112460902204332,"141":0.11663772484360103,"142":-0.02523893100232762,"143":-0.2622588470329827,"144":-0.3636229509122276,"145":-0.07257941747266144,"146":0.6287857436181232,"147":-0.5191597429605646,"148":-0.11996000310210177,"149":-0.07592304780313498,"150":0.17908086372186208,"151":-0.12950254016506016,"152":-0.6149237025590728,"153":-0.08192157819074299,"154":0.9392801578645422,"155":-0.5008970470653409,"156":0.19006558403163656,"157":0.16467388023189633,"158":0.3609345777883668,"159":0.021128389414460078,"160":0.01787275708372439,"161":0.1297688830876792,"162":-0.3032276447305809,"163":-0.12533942991961067,"164":-0.14265671680260888,"165":0.03169833494141071,"166":0.3376170448641058,"167":-0.04315314138980982,"168":0.05865427964984919,"169":0.41458523164972383,"170":-0.23614255905818085,"171":0.034350079715828395,"172":-0.12843751325333164,"173":0.36395710868078707,"174":-0.028363125702443082,"175":-0.13156022076621862,"176":-0.163801004979913,"177":0.4521852888897335,"178":-0.07914669422389363,"179":-0.1040423138311747,"180":-0.21389348137814215,"181":-0.0853797479363337,"182":0.1330469330624652,"183":-0.19812707636750354,"184":-0.5178808411362823,"185":0.3901377359921625,"186":-0.3090503824693823,"187":0.0016510752009890996,"188":-0.23367452378541004,"189":-0.2292146094326843,"190":0.01782534416746816,"191":-0.15061221508964234,"192":-0.3088059357173113,"193":-0.35790395868898106,"194":-0.09731910956841175,"195":0.11197143628222575,"196":0.19173092311521567,"197":-0.26659726996148414,"198":-0.35868806821017446,"199":-0.0404912978164797}},{"sx":5,"sy":5,"depth":8,"w":{"0":0.30497230608749976,"1":-0.21520914717742012,"2":0.06458207792452861,"3":-0.3064814431304303,"4":0.29564270071883625,"5":0.06626670456614372,"6":-0.17468285735949568,"7":0.013469807215915713,"8":0.31552574662925026,"9":-0.2414385986714004,"10":0.15500483789032782,"11":0.13995379470343614,"12":-0.07727576916251513,"13":0.061173498656441616,"14":-0.2793405979236437,"15":-0.15260169934376958,"16":0.027073378979026577,"17":-0.16005151451133495,"18":0.22895496434695256,"19":0.40516331713064124,"20":0.07999165940664513,"21":-0.07926218178335655,"22":-0.5012610748182845,"23":0.03332925200889125,"24":0.07192317449816331,"25":-0.26270340228339406,"26":0.1826792615022764,"27":0.027081988270439436,"28":0.049312465568382195,"29":0.11154241772998486,"30":-0.46287877173095215,"31":-0.10598187206648853,"32":0.20627548503987195,"33":-0.29470702834077345,"34":0.6206245769341996,"35":-0.054736631616629824,"36":0.15481934694768576,"37":0.0317021765226368,"38":-0.14230427628163198,"39":0.39846265992879615,"40":0.05895366594670433,"41":-0.043447389469537856,"42":-0.15087864583038033,"43":-0.27003293609055246,"44":-0.20006088998776667,"45":-0.23007345824155406,"46":-0.212726336060353,"47":0.17096844925556925,"48":0.20699819079813872,"49":0.03924091027219898,"50":-0.3188541508677395,"51":0.13132032591935877,"52":-0.3801087684680918,"53":-0.19429315909502112,"54":-0.18673867879177103,"55":-0.021519652097465067,"56":-0.11375775699524948,"57":0.12042360990319721,"58":-0.06415856368117231,"59":0.010963659502649756,"60":-0.4187824234430362,"61":-0.43540760535318823,"62":-0.155640326277722,"63":-0.1699070753349282,"64":-0.21695626005906482,"65":0.02858925534697356,"66":-0.04500879004789893,"67":-0.18065439275119144,"68":-0.26545601660693724,"69":-0.4434643193515746,"70":-0.31725679903703435,"71":-0.46000141162751607,"72":-0.23628138205797644,"73":-0.20339885007472885,"74":0.3812500211841649,"75":-0.3314384560902951,"76":-0.1717362150517876,"77":-0.31444834337251704,"78":0.010573940825454282,"79":0.09168237637835709,"80":0.27678533948620304,"81":0.1358747756100631,"82":0.07391109887548705,"83":0.3141642349082664,"84":-0.09441213040392121,"85":-0.3025034581462835,"86":-0.17486602779519556,"87":0.19991876718482607,"88":0.08875060342072744,"89":0.4567589582258317,"90":-0.15747649825387694,"91":0.20185181359868729,"92":-0.1948814433569748,"93":-0.2692204813337111,"94":-0.2569281241464298,"95":-0.17017260045336854,"96":-0.018923063350354704,"97":0.11335623453931767,"98":-0.24055815998790284,"99":-0.12664865629997102,"100":-0.2076166004055088,"101":-0.10744204338457239,"102":-0.08752850117518146,"103":-0.11018946432223396,"104":-0.0949636634317455,"105":0.12663473653154927,"106":-0.01982777129963326,"107":0.32963714941745886,"108":-0.26934097902486254,"109":-0.21703248923160032,"110":0.12491196394888911,"111":0.0298859088790883,"112":-0.30731574863442435,"113":-0.10641961080668493,"114":-0.0068946828756597635,"115":-0.48094531613969715,"116":-0.20728102246409486,"117":-0.15840630229529118,"118":1.0072835790616357,"119":-0.3146175277314928,"120":-0.12969866747704945,"121":0.6127902855192,"122":-0.21978990511349464,"123":0.08582474964433522,"124":-0.28400893472071764,"125":-0.24675192004050056,"126":-0.3916717090157772,"127":0.24198345250297923,"128":-0.21517341780324986,"129":0.01935774379812919,"130":-0.11933197741906382,"131":0.17745974261549452,"132":-0.1642700320311063,"133":-0.24045355801915935,"134":-0.2582143791543273,"135":-0.13857430821068328,"136":-0.0950735385700811,"137":-0.13392867724084406,"138":-0.19188794519253566,"139":-0.1866395600064161,"140":-0.07924573865372686,"141":-0.1233123383492758,"142":-0.18485776816838392,"143":0.5183272534894211,"144":0.03583945215882773,"145":-0.08369430647740321,"146":-0.05312911209023341,"147":-0.2546423239338064,"148":-0.22390130338073747,"149":0.208557966647773,"150":0.28608754876494313,"151":0.6833668605195823,"152":-0.09265301388372425,"153":0.1498464712831403,"154":-0.017659754252795465,"155":-0.39761164724668047,"156":0.1258353174375823,"157":0.20512537214265042,"158":0.6592898286654377,"159":0.1430356499023671,"160":-0.07917253205838458,"161":0.3041751722842607,"162":-0.7337640751181687,"163":0.04298092150451828,"164":-0.43323621486180725,"165":0.04980587858053002,"166":0.2868061651187497,"167":0.06393898105860155,"168":-0.10962947845275621,"169":-0.05732543801014557,"170":-0.1264531868155389,"171":0.05062382978123054,"172":-0.11735640134002309,"173":0.17996557906660865,"174":0.2934726488797299,"175":0.023466040759049886,"176":-0.08191763966570392,"177":-0.19406419644940393,"178":0.06737786580958603,"179":0.1849697291092089,"180":-0.10149873275271906,"181":0.2076907383067082,"182":0.4642221685694168,"183":0.36189927669041033,"184":-0.07509240980298491,"185":0.2863787095447381,"186":0.10097861039853417,"187":-0.35334176339969564,"188":0.17195437960257604,"189":0.45688514592260715,"190":0.1096108776823714,"191":0.10065594061735786,"192":-0.08668583384991511,"193":0.2012861397883536,"194":-0.14063155275536507,"195":-0.18289893002347188,"196":0.1984588138879392,"197":0.31377370064415916,"198":0.4041215442562832,"199":0.4071735299887374}},{"sx":5,"sy":5,"depth":8,"w":{"0":-0.12174611222252883,"1":-0.23687274360348234,"2":0.48536918138984114,"3":0.17823007058909782,"4":0.006753000855357856,"5":-0.09964091055485409,"6":-0.257028620244274,"7":0.020151350548340323,"8":0.004691439009468022,"9":-0.16334586025123662,"10":0.18250133352782896,"11":0.25468006781596847,"12":0.027909808277806,"13":0.05162372131435274,"14":-0.3464467018836381,"15":0.06973270668242319,"16":0.04332455171025554,"17":0.06761730716017499,"18":0.02788279676202429,"19":0.35032177905588374,"20":-0.29202424263884763,"21":-0.11891861757479538,"22":-0.03815905515034024,"23":-0.0685809593680387,"24":0.3066563204036615,"25":0.15544930281043878,"26":0.2843240059799502,"27":0.21597640181901318,"28":0.19109728279125607,"29":-0.03096753628493024,"30":0.238220914711349,"31":-0.09161737306515372,"32":0.11198664676090572,"33":0.09545016358168591,"34":0.04629436797393801,"35":-0.10285147897827711,"36":-0.29934995695811495,"37":-0.052163923733463624,"38":-0.07481111888848825,"39":-0.0994467951169689,"40":-0.1981132944865953,"41":0.08434135058192034,"42":0.04290164171410281,"43":-0.4899201747754979,"44":-0.12418640813395583,"45":0.22835034512447383,"46":-0.0845630668410169,"47":-0.1711764527819389,"48":-0.2687154986830511,"49":-0.2695921810013128,"50":-0.060770182845236255,"51":-0.18813680426461812,"52":-0.12404440655462919,"53":0.0415027868057137,"54":-0.1750466679302296,"55":-0.017602372023795686,"56":-0.3032820264728688,"57":-0.04606757127130214,"58":-0.3471025397872091,"59":-0.12085127994664724,"60":-0.24663440953957866,"61":-0.09411930950697603,"62":-0.11913994813299048,"63":0.26986241594282845,"64":-0.09701059427656268,"65":0.008361410887601325,"66":-0.12110700211279575,"67":-0.20642907422284978,"68":-0.0028665692775367638,"69":0.09479132425916065,"70":0.3630256624128687,"71":0.62590666837546,"72":-0.05538338217505198,"73":0.16813407631110533,"74":-0.208653751534673,"75":-0.21357718606041223,"76":-0.17467203841818255,"77":-0.14204212932596924,"78":0.45266561203795425,"79":0.25098902603025036,"80":-0.2542769030985495,"81":0.014106315914846321,"82":-0.25631511760165593,"83":-0.44809347106400904,"84":-0.11135043218888517,"85":0.17808084608326363,"86":0.5664406229823238,"87":-0.06495137676226193,"88":-0.24628721397977388,"89":-0.19349161744219578,"90":-0.152262062001031,"91":-0.34114656317291775,"92":-0.011125541893739719,"93":0.36199172518440526,"94":-0.09050058000672846,"95":-0.0996855086068406,"96":-0.41488045510300436,"97":-0.3499380634565243,"98":-0.3468434316305253,"99":-0.3716100974022662,"100":0.11732707472072527,"101":-0.07159172649878634,"102":-0.21757810110132486,"103":-0.09792493584412666,"104":-0.05644145251148754,"105":-0.027865442032063314,"106":-0.3863680273471281,"107":-0.3577562639983839,"108":0.04021001667879998,"109":-0.3603154988299301,"110":-0.13990788204299973,"111":-0.00911348414642715,"112":-0.23996888510919015,"113":0.21584059154571106,"114":-0.5138535124172496,"115":-0.370808824886156,"116":-0.055143525251747774,"117":-0.30308742058189125,"118":0.24652974228806562,"119":0.4676094765775327,"120":0.03573884325641335,"121":0.0550929471882683,"122":-0.39059415591762403,"123":-0.2523304901673284,"124":-0.0664543360021563,"125":0.0550798753559707,"126":0.2955218346623827,"127":-0.07496629097797317,"128":-0.19817789351191775,"129":-0.008944691308175863,"130":-0.12798236548448252,"131":-0.27042456007126564,"132":0.008147354278771536,"133":0.29689121195617435,"134":-0.10894388424581067,"135":-0.07259317828549379,"136":-0.20362621373853393,"137":-0.19467624259753957,"138":-0.13889055627316463,"139":-0.3821914223674099,"140":0.12647646862201523,"141":-0.056420364546529,"142":-0.1688300529412832,"143":-0.00797070478301829,"144":-0.14106865963571097,"145":0.12715568198938393,"146":-0.05390446320648906,"147":-0.22811546928704204,"148":-0.07228780159552708,"149":-0.38811552274609185,"150":-0.2625599345459994,"151":0.1448691184751336,"152":0.007448946452841408,"153":-0.1162885815537094,"154":-0.5554918407238756,"155":-0.330411473265432,"156":-0.13256392729456193,"157":-0.3121919937631751,"158":0.34921377947411497,"159":0.4092622267654502,"160":0.03422540777525376,"161":0.0025123910008568538,"162":-0.6143003238113541,"163":0.08431237225441868,"164":0.17403347911078887,"165":0.011218874901023915,"166":0.1748386000318828,"167":-0.09472709201571476,"168":-0.1254888702553195,"169":-0.20978223944952148,"170":-0.1080373238162259,"171":-0.3176570421293586,"172":0.22988958264247397,"173":0.5532184189862132,"174":-0.13212828216234973,"175":0.028570400635793122,"176":-0.024853900552121687,"177":0.07085933998817441,"178":-0.11572121797327237,"179":-0.20436118704489478,"180":0.3058790818845858,"181":0.30503191921472256,"182":-0.24980306598140928,"183":0.2567687146519329,"184":-0.1560863460485021,"185":0.16319126792255384,"186":0.1303329505435535,"187":-0.35635085209860773,"188":-0.2668922201022361,"189":-0.6478795886014707,"190":-0.2679667512052072,"191":0.015985616972452446,"192":-0.2999199573502045,"193":0.029354338037825785,"194":-0.022175960917118345,"195":-0.36380650706778356,"196":0.050199108179365,"197":-0.5275427484580578,"198":0.08067757719551838,"199":0.24043272535842702}},{"sx":5,"sy":5,"depth":8,"w":{"0":0.0644704059013011,"1":0.1515763569312271,"2":-0.4146242441284008,"3":-0.16544363869052198,"4":0.30011645787773716,"5":0.13150931346684083,"6":0.7321244378217304,"7":0.29917898835278334,"8":0.35678834877520976,"9":-0.05037766393414853,"10":-0.37995285320947353,"11":0.06134748886403265,"12":-0.03787022809019279,"13":0.0758793119281616,"14":0.2391061048868718,"15":0.30570353524014254,"16":0.4447274911431612,"17":0.02766039102924651,"18":-0.5858831256881059,"19":0.09488261342231373,"20":-0.09120719495098649,"21":0.22694674781225183,"22":0.13966751277532746,"23":0.8242833689030185,"24":0.3672960855061207,"25":0.3101718318444537,"26":-0.37268036863670545,"27":-0.12050964712768536,"28":-0.25674713636775914,"29":0.13209425422740234,"30":-0.023648253074601323,"31":0.40579513870898,"32":0.012392563304372333,"33":0.40823548683057315,"34":-0.05595453721287739,"35":0.0987399420990823,"36":-0.053537705355509536,"37":0.052018983700673024,"38":0.017494341868408148,"39":0.2783493958088665,"40":0.4704951664139128,"41":-0.04952614982247173,"42":-1.0664820556388839,"43":-0.02780845113011816,"44":0.22956511538361768,"45":0.11610144586180768,"46":0.27440314213010625,"47":0.07486475283907694,"48":0.5600983323130854,"49":-0.08220965722197242,"50":-0.6516963313141998,"51":0.19474352912093584,"52":0.07576271619089095,"53":0.060879990151196876,"54":0.1847467640546372,"55":0.04261463409267492,"56":0.20784120138350076,"57":-0.006563468104336618,"58":-0.6429747804448482,"59":0.11829866426604188,"60":0.17982887377301396,"61":0.16257971392197956,"62":0.07395701958608093,"63":0.26211458199329996,"64":0.417676298858054,"65":0.21596372875531675,"66":-0.4234962518122354,"67":0.00048589330988088846,"68":0.007182442937751005,"69":0.26639718221372277,"70":0.01595389889907807,"71":0.24673665810651713,"72":0.15541184563877838,"73":0.2102037190926503,"74":-0.19979104434662956,"75":0.109741289911335,"76":0.06486193254679881,"77":0.19445866147794236,"78":-0.18106306024996094,"79":0.12526599140022096,"80":0.1606874746785689,"81":0.08816061922588653,"82":-1.1546592766437689,"83":0.012443040964497666,"84":0.0406594664960616,"85":-0.07511428708874054,"86":0.14450197549920127,"87":-0.00032178874707938673,"88":0.34281467227037304,"89":-0.09529112379818135,"90":-0.4800345024896617,"91":0.18232637988938596,"92":-0.03796278106362233,"93":-0.0266192248996529,"94":0.0019691438299652623,"95":-0.18697181490747652,"96":0.3074964031000577,"97":0.16878909578150939,"98":-0.8299293479199532,"99":0.12217364431835802,"100":0.3921767915030601,"101":0.3479902128334187,"102":-0.19121212074381647,"103":-0.03586130806033991,"104":0.5485095375380074,"105":0.16224220916243184,"106":-0.6865984252798853,"107":-0.10704529373389617,"108":0.22503240290006696,"109":0.4694501340375207,"110":-0.06909673632712589,"111":0.4218163000975005,"112":0.01699677797118332,"113":0.12922469067543277,"114":-0.04398534695410862,"115":0.651525090029287,"116":-0.10593308331383007,"117":0.2710738492236131,"118":0.19299598334190837,"119":0.31435217792736614,"120":-0.25872727721717076,"121":-0.14052639224264837,"122":-0.7268414014063522,"123":0.23813871392933786,"124":-0.20547182724593502,"125":-0.0855814950005221,"126":-0.10870510198526186,"127":-0.36502351401739047,"128":-0.036354964945308064,"129":0.051762491123842354,"130":-0.3176017359628,"131":-0.17730664264640741,"132":-0.3236858855815805,"133":0.14210553704270232,"134":-0.023920819049646505,"135":-0.3999013146058512,"136":0.12453103147480483,"137":-0.041479625559078005,"138":-0.8387323581753385,"139":0.05555711273571407,"140":0.0489354417548646,"141":0.15602197625432,"142":0.06634521427746178,"143":-0.15308411459904858,"144":0.20233355540007222,"145":0.19186329036908753,"146":-0.4186900928024011,"147":-0.0055962019286373435,"148":-0.14868678754897308,"149":0.13581926751079648,"150":-0.14259620937285958,"151":0.1271496495368354,"152":0.10323132459106689,"153":0.3133682219560074,"154":0.034312728609790705,"155":0.15270028518070877,"156":-0.3290758602831843,"157":0.00017822420321530097,"158":0.13457693491012584,"159":-0.03850016524934168,"160":-0.30974426823578866,"161":0.0715952454395691,"162":-0.1536448831751146,"163":0.019895141099016207,"164":0.4907051207344173,"165":0.4444736987314098,"166":0.5216566611106382,"167":-0.629241635745713,"168":-0.3773812981640683,"169":0.15624199100215358,"170":0.34702105813567147,"171":-0.33262946041564656,"172":0.29825896074505476,"173":0.5177956986621737,"174":0.09386992667746495,"175":-0.410277064125774,"176":0.02673851011367713,"177":-0.025711286941038074,"178":-0.0981099994832829,"179":0.03705204201420651,"180":0.24131929920609668,"181":0.1633305833482224,"182":0.2431908083730592,"183":-0.14561494968638522,"184":0.13214184903000803,"185":-0.03923235409535739,"186":-0.26014466740088765,"187":0.052693240910818916,"188":-0.2337648311243792,"189":-0.1043902511289688,"190":0.272259453943807,"191":-0.21769671850388927,"192":-0.14548094009635212,"193":0.0944305427256707,"194":0.5533338154489127,"195":0.3924497414132144,"196":-0.528465344284401,"197":-0.08659780597371597,"198":-0.1680177218360038,"199":-0.21167279349059703}},{"sx":5,"sy":5,"depth":8,"w":{"0":-0.3369614992325438,"1":0.0358454934100777,"2":0.5365068685086797,"3":-0.10052172093121374,"4":0.12509822088448413,"5":-0.07514006798543367,"6":0.4324060318413199,"7":-0.32779651378395114,"8":-0.08471019556770205,"9":0.23639451376167467,"10":0.27180910011040704,"11":-0.07136148742047412,"12":0.2419551187345739,"13":0.2790682438589693,"14":0.4357711730534874,"15":-0.3571806775095319,"16":-0.1663198281104456,"17":-0.03042500311671716,"18":-0.03516874384629388,"19":-0.10646115605212707,"20":0.3313344003850884,"21":0.4621058005461346,"22":0.36873116614942103,"23":-0.3141172302331334,"24":0.02835066436993343,"25":-0.5395641933483598,"26":-0.3532591186593688,"27":-0.23946434757243235,"28":0.4690563759302305,"29":0.15375496701748168,"30":-0.07830478194105983,"31":-0.09552979015326073,"32":-0.08936394268521669,"33":-0.199003803828156,"34":-0.018873592745821077,"35":0.26915299521697916,"36":0.10904566201190487,"37":-0.28070987964887095,"38":0.12873070664865416,"39":-0.18346229816310777,"40":-0.3128650959401241,"41":-0.2908043201131305,"42":0.12836867925488468,"43":0.08455152024232879,"44":0.002678233218433255,"45":0.00342952101295253,"46":0.08466911712185529,"47":-0.059594004990210024,"48":-0.26950260307469714,"49":-0.039682935708757194,"50":-0.19192719636722558,"51":0.01180860191237155,"52":0.1646412081678101,"53":0.2139470019316752,"54":-0.027778544382929826,"55":-0.32823857256469313,"56":0.040787184929543197,"57":0.04858656479364825,"58":-0.4706494093644364,"59":0.20767035238369455,"60":0.26316795687746664,"61":-0.0518141430087718,"62":0.021623591886987068,"63":-0.2512465039731399,"64":0.12730726840550202,"65":-0.2802997291562862,"66":-0.3505713814923047,"67":0.3279993485478548,"68":0.10561055674284353,"69":-0.12659136942856108,"70":-0.4312317567056073,"71":-0.07564497416704845,"72":0.09954778821783904,"73":-0.4357165617309854,"74":0.15519119338666534,"75":0.4106723613819588,"76":0.06637570736559702,"77":-0.042870928545470345,"78":-0.32498081725652667,"79":-0.11626156101328675,"80":-0.11484786423022011,"81":0.22652344701951396,"82":-0.3295805848523677,"83":-0.05674030523113614,"84":-0.14304294318546779,"85":0.09318985187757169,"86":-0.08538409536083837,"87":0.27380158181441766,"88":-0.0032832594459085993,"89":0.2269353092777443,"90":-0.11984266759150479,"91":0.1349828831028361,"92":-0.02707081774184937,"93":-0.35046975462040547,"94":-0.04391365265761933,"95":0.19777409662515338,"96":0.2640512173720015,"97":-0.041216543760711,"98":-0.056538507385023806,"99":0.5261027082859361,"100":-0.06371082305958557,"101":-0.24866656551150765,"102":0.02122400969732895,"103":0.3263130105834063,"104":0.45925971037391244,"105":-0.19730896509996776,"106":0.28871030066089326,"107":0.5852263758840114,"108":0.07635386083121018,"109":-0.16771595076763166,"110":-0.15551983814977793,"111":0.0685162045341377,"112":0.3678845439175091,"113":-0.15140472269021105,"114":0.3979771156692879,"115":0.4437118860153026,"116":0.30737027862209104,"117":0.3276813919016876,"118":-0.07764968244796819,"119":-0.1008669747252856,"120":-0.12414928371256694,"121":0.3272175547045436,"122":-0.3932324957691529,"123":0.1528374992245325,"124":-0.286136847871757,"125":-0.27424578827228924,"126":-0.47657029110733556,"127":0.511287680637207,"128":-0.08691075980823385,"129":0.17097253084843836,"130":-0.13488787034731262,"131":0.038317539336598365,"132":-0.2986936689392405,"133":-0.18123286865308258,"134":-0.08119839318928537,"135":0.30982388791231685,"136":0.505277832544778,"137":-0.20205830355227788,"138":0.1699646213634991,"139":-0.024201483289291403,"140":0.10637937568068294,"141":0.0863592640357819,"142":0.11937379472349996,"143":0.101778324836532,"144":0.07913820696322514,"145":-0.23029845064804264,"146":-0.2767621329561759,"147":-0.02706949609398378,"148":0.054551331554741955,"149":0.2701701301949273,"150":-0.03466213446640594,"151":-0.1405519492900743,"152":-0.05645548529108177,"153":-0.23080272947041627,"154":-0.35053439770878025,"155":-0.2384682883404846,"156":0.055290517271373706,"157":0.2182294718296788,"158":0.22079561154810268,"159":-0.2159733371115338,"160":0.06840123741311215,"161":-0.13126595633278293,"162":-0.44463049706824936,"163":0.3133673792028019,"164":-0.13595307650525865,"165":-0.10630932115163666,"166":0.021760887801491956,"167":0.02452846941305119,"168":0.09514934683172104,"169":-0.2663602989801032,"170":-0.2642583417818407,"171":0.2879108078836105,"172":0.10578715450369863,"173":0.1719640467572584,"174":0.09573537773218692,"175":0.25516079878470715,"176":0.12516780543302866,"177":-0.47919070000372527,"178":0.2952264958176435,"179":0.13173893315320057,"180":0.31978030268447777,"181":0.32729044687477066,"182":0.20816866190691838,"183":-0.18344223357646713,"184":-0.09131447368673647,"185":-0.14479701796653474,"186":-0.3191176720588916,"187":-0.3189387096591463,"188":-0.005180248748351479,"189":0.25236124141360167,"190":0.17458433844530688,"191":-0.2576803508967291,"192":0.25647496413728593,"193":0.08945419150766117,"194":-0.4419515495306933,"195":-0.1542325817324341,"196":-0.19188046206732812,"197":-0.054463716153284936,"198":0.003016730905198294,"199":-0.31852838241848536}},{"sx":5,"sy":5,"depth":8,"w":{"0":0.187618636799911,"1":0.012819657633815476,"2":-0.29651957584210004,"3":-0.21647844068799024,"4":0.3490812189732925,"5":0.25379200058822876,"6":0.4022338303046234,"7":0.04885113008686206,"8":-0.014122059153581775,"9":0.37309702207507567,"10":-0.014965830406010853,"11":0.07051965710465849,"12":-0.23027371377132944,"13":0.2207944187434067,"14":0.12536889295174544,"15":-0.02008014218411171,"16":0.3796205096657044,"17":-0.191688765924743,"18":-0.1719723734184318,"19":0.1692650696256964,"20":-0.2687095982303425,"21":-0.31655384923857327,"22":-0.3386887212658494,"23":-0.10876263920932165,"24":0.4035556305687205,"25":-0.537441202984028,"26":0.11222074436546974,"27":0.13053901338953386,"28":-0.06011968048459626,"29":-0.3809404514263409,"30":-0.6136421689729286,"31":0.08011106198210417,"32":0.48737042367671984,"33":-0.21757463596919863,"34":0.282672883895468,"35":0.2589760763808602,"36":-0.07220624587510499,"37":-0.2632734688512112,"38":-0.4328682541942527,"39":0.40583478136336515,"40":-0.2627922373629743,"41":0.30765337845653085,"42":0.19893047466122646,"43":-0.4703551454596422,"44":0.16042778084374323,"45":0.29149047906719855,"46":0.18162955256241162,"47":-0.2958682767189021,"48":0.0315616167503208,"49":-0.053708385581138406,"50":0.1640388458175841,"51":0.1586744043894514,"52":-0.13805750466679284,"53":-0.03979106904025965,"54":-0.11981929038896429,"55":-0.327809285096668,"56":0.13942351307507592,"57":-0.315640537854268,"58":0.278952518809973,"59":0.48044345340893696,"60":-0.2702985809400371,"61":-0.41981039200855697,"62":-0.6176090039651787,"63":-0.29281857578510984,"64":0.4914496445459047,"65":-0.11779932243645377,"66":0.5138634086329503,"67":0.4663501159042187,"68":0.00772687773335125,"69":-0.3883253877787291,"70":-0.3776967544462225,"71":0.08976300625469154,"72":0.20858572399934924,"73":-0.12846543981033573,"74":0.6683657559129486,"75":0.48550604830905847,"76":-0.25363708045600863,"77":-0.16189009716772101,"78":-0.07827488145029822,"79":0.02553656288551462,"80":-0.17154700110297724,"81":0.5584110423327229,"82":0.8046337815497157,"83":-0.20441820757866194,"84":0.07864814358715833,"85":-0.057668365333598044,"86":0.48205526973173957,"87":-0.3106137375462249,"88":-0.356545033193373,"89":0.2653607996400559,"90":0.35595703315646154,"91":-0.6987123398813152,"92":-0.323976305816007,"93":0.04388549037589173,"94":0.23647489564464058,"95":-0.5693200912178998,"96":-0.5514751379581314,"97":0.47173046888755904,"98":0.3589679863409716,"99":-0.14813025644182226,"100":-0.3848506586274696,"101":-0.12027059743146527,"102":0.16191065294882614,"103":-0.290903705338725,"104":-0.19637934677423166,"105":0.3395741451618894,"106":0.4069217655496813,"107":0.25920929471973325,"108":-0.2875913347116838,"109":-0.1673361587998591,"110":-0.0776745639901927,"111":-0.023218842522627774,"112":0.08572221138938077,"113":-0.13035988862816528,"114":-0.037781566871240804,"115":0.17662916217101374,"116":-0.5538254855733413,"117":-0.36254145770589374,"118":-0.11090422580759096,"119":-0.23015236488663438,"120":-0.13925710355962934,"121":0.21151280035347383,"122":0.10524391249052656,"123":0.5408351316941086,"124":-0.19488876057060397,"125":-0.03527348985513105,"126":-0.21015260809551684,"127":0.013711855550220472,"128":-0.051580191064332176,"129":-0.15526483935561547,"130":-0.35856822373816477,"131":-0.36347895368825744,"132":0.10506773550025923,"133":0.2864421536683651,"134":0.12946754645126582,"135":-0.850119484467426,"136":-0.12873435826845842,"137":-0.1187552251127536,"138":-0.5067715834354329,"139":-0.7044524948285092,"140":-0.10271354261777178,"141":0.11444461863915442,"142":0.5190867417936305,"143":-0.5640134761775708,"144":-0.2827731124505493,"145":0.013716681594842291,"146":-0.22482198363776895,"147":-0.6211699115396047,"148":-0.17110691208962645,"149":0.21316779885966936,"150":0.7097612171835972,"151":-0.4413394963226428,"152":-0.2427050347457629,"153":0.3860301726526109,"154":-0.19960109091311723,"155":-0.370143252868274,"156":-0.32521343967931265,"157":-0.1730792482396709,"158":0.39092284872515404,"159":-0.13183759350394847,"160":0.07328350716390582,"161":0.2704362798700602,"162":-0.11542542974352177,"163":0.5661062798108483,"164":-0.17034314862052888,"165":0.00824178177438495,"166":-0.42953029504935,"167":0.6330646549129786,"168":0.040431989278326634,"169":0.22766144896107995,"170":-0.2783086869552838,"171":0.39287900016548394,"172":-0.023201586681524,"173":-0.2442622712887021,"174":-0.4170444234923711,"175":0.27705942380406645,"176":0.6438005488339016,"177":0.0521670655386029,"178":-0.5421577977696402,"179":-0.15593753681776493,"180":0.1889056770270726,"181":-0.17662632791508037,"182":-0.3067665739475081,"183":-0.14623873757152311,"184":0.5005643297853805,"185":0.13018911355967377,"186":-0.43024374242141333,"187":0.036365214442347124,"188":0.44596317905696553,"189":0.2174612434517015,"190":0.19541365629629343,"191":-0.30674336832140775,"192":-0.3347625350065479,"193":0.13947441489911047,"194":-0.3102427864182354,"195":-0.33819692401789014,"196":0.1255858669868928,"197":0.09757544039737935,"198":0.8911872324189152,"199":-0.10628099712799731}},{"sx":5,"sy":5,"depth":8,"w":{"0":-0.12061557094790405,"1":-0.3221295538656607,"2":0.4054307376715995,"3":0.2238961964741581,"4":0.23680984077587522,"5":-0.07951327960503642,"6":-0.18338342480739772,"7":0.0617001761526523,"8":0.00620610422129051,"9":-0.31090485073703644,"10":-0.14716184315992395,"11":0.0281289924352765,"12":0.06816360475905603,"13":-0.24908666260695098,"14":-0.5265082164908826,"15":0.08055815602724284,"16":0.19208364704193073,"17":-0.501129142224582,"18":0.022261487844027178,"19":-0.07178416220037064,"20":-0.20154311359799676,"21":-0.022919397980234468,"22":-0.4143944517947679,"23":-0.12995725052839868,"24":0.15880900818653057,"25":-0.4097113326653232,"26":0.16732597969475116,"27":0.14307149106516776,"28":-0.22732799673288467,"29":0.06124855229905531,"30":-0.15962166047447587,"31":-0.22766149988297887,"32":0.3530755288923195,"33":-0.32795225563152164,"34":0.1893913326910003,"35":-0.010155499322210361,"36":-0.02394612748287247,"37":0.016096093325904125,"38":-0.3253327157725542,"39":-0.038692749596831014,"40":-0.18300258228880395,"41":-0.4973898225664829,"42":-0.06833697479190766,"43":-0.09285292833191876,"44":0.4773013459208415,"45":-0.10359060006492396,"46":-0.21673862216225465,"47":0.045767142759950155,"48":0.3381466810391387,"49":-0.3943829213609079,"50":-0.1816155161624982,"51":-0.4184115924390984,"52":0.3233643137128492,"53":0.15722567444064828,"54":-0.32305190874088285,"55":0.15275222342523934,"56":0.38247803012023085,"57":0.074825464199648,"58":0.05706548757654839,"59":0.09318757381020296,"60":-0.2112569177877557,"61":0.3318870270793299,"62":-0.006830941951584989,"63":-0.06305728970647853,"64":-0.2266673876426196,"65":-0.11411123467137675,"66":-0.16962078161373587,"67":-0.03966991166349062,"68":-0.2730259585500535,"69":-0.09495216338612476,"70":-0.03126846132776146,"71":-0.3422347009338322,"72":-0.07043409838777352,"73":-0.1214901654414221,"74":-0.020491882573963904,"75":-0.16919192465396907,"76":-0.21746184638885036,"77":-0.20678323177136965,"78":-0.3265073698452685,"79":-0.05209745637785063,"80":0.040242780568234535,"81":-0.08609634876951414,"82":0.27646620729801363,"83":-0.4856962272505981,"84":0.05108910362389042,"85":0.43591667108045695,"86":0.010565944119634404,"87":0.8233059407210578,"88":0.20221215038254498,"89":0.25077393451166696,"90":0.22364839597226135,"91":0.084993295776323,"92":0.2811305454108129,"93":0.2954563336242082,"94":-0.07452291476982031,"95":0.10415962505706164,"96":0.4482634938186108,"97":0.27994416965236546,"98":0.2539112483212438,"99":0.10726989869613192,"100":-0.12513416781478592,"101":-0.07556840388414762,"102":0.12994202972855054,"103":-0.08478795715405117,"104":-0.250832028556701,"105":-0.2269005798007922,"106":-0.18721826640399425,"107":-0.28542061450318,"108":-0.22193261692666566,"109":-0.20157186608106037,"110":-0.03385134898319281,"111":-0.3064769108460538,"112":-0.2898510550558249,"113":-0.2197997161435007,"114":-0.23420394973218758,"115":-0.3350054371812471,"116":0.01880800346985418,"117":-0.24944150658226677,"118":-0.062306179824367015,"119":0.11097801919686001,"120":0.15646830449392962,"121":-0.12811851160462817,"122":0.24295681004132438,"123":-0.6469301370832805,"124":0.1842029966708902,"125":0.29641972241614556,"126":0.05441433285503897,"127":0.5156446273222025,"128":0.3390500171546213,"129":0.3554782536416462,"130":0.3813618811706107,"131":-0.21719482721680025,"132":0.41833662878616723,"133":-0.003339845367230432,"134":-0.004741475222794276,"135":0.058103772453015366,"136":0.18211492746585045,"137":0.16163351886795121,"138":0.17395197732186798,"139":0.18028543375601008,"140":-0.15210560489256264,"141":-0.11068981717502296,"142":-0.057809606795348994,"143":0.015661643924768556,"144":0.037770023367057634,"145":-0.3216980448851418,"146":-0.5050248884096574,"147":-0.19092634530731453,"148":-0.29724207418109855,"149":-0.3339240275600572,"150":-0.08391749470029018,"151":0.134851526850128,"152":-0.14804769727227968,"153":-0.4099105632203971,"154":-0.3758485850423092,"155":-0.3798972882065872,"156":0.33262556102930746,"157":-0.14342829923126146,"158":-0.12686824156311247,"159":0.3210709163444402,"160":0.3074166571979918,"161":-0.16915985874832587,"162":-0.1514067254614498,"163":-0.3433446320751761,"164":0.18169502317131536,"165":0.19465894566930325,"166":0.04578171530519984,"167":0.20752896631876175,"168":0.34519382644125496,"169":0.0503604452876305,"170":-0.17069835278310327,"171":-0.006630646450188824,"172":-0.025673415411264156,"173":0.16439468512847008,"174":0.0007369786363481025,"175":0.17589702998117898,"176":0.5179676462088819,"177":0.20493588600768223,"178":-0.22986704294583896,"179":0.0722798567945959,"180":-0.1913548564360541,"181":0.03287160315558036,"182":-0.21745863681501065,"183":0.004010636245485755,"184":0.3299521426810746,"185":0.0023299876614380484,"186":-0.40468710402529107,"187":-0.04935436325738811,"188":-0.07865971482416752,"189":-0.026825900691079874,"190":-0.3170678893637447,"191":-0.02935113899641438,"192":-0.11292377531846812,"193":0.35960417852327625,"194":-0.44944144366566385,"195":0.03713325893641649,"196":0.38742486986383107,"197":-0.0019097920326425232,"198":-0.21718560594892486,"199":0.4238191042827559}},{"sx":5,"sy":5,"depth":8,"w":{"0":-0.43637999086930074,"1":0.12959038198581588,"2":-0.3316316049417966,"3":-0.69975845738308,"4":0.11193225002677915,"5":0.2194968408490919,"6":0.15666503879463942,"7":0.031144709011179817,"8":0.053205854598332034,"9":-0.07429743120984714,"10":-0.027324842365206756,"11":-0.3798086326901316,"12":-0.04855891627831221,"13":0.11808382638645704,"14":0.16433718600912275,"15":-0.15686392627718865,"16":-0.02883859616182935,"17":-0.11984225434852953,"18":0.18573876836425302,"19":0.006020222354677776,"20":-0.09755262131067736,"21":0.09703161500407631,"22":0.24077612049097719,"23":-0.41934128421823136,"24":-0.02735433616669791,"25":0.33463839621235714,"26":0.1679126330277953,"27":-0.0028326320462126373,"28":-0.3584354792332688,"29":-0.34667352704607246,"30":0.3578498174245246,"31":-0.19431477811141437,"32":0.03534519504519152,"33":0.5238072368354815,"34":0.030286323943830833,"35":-0.2734084883519808,"36":-0.33278734324363346,"37":-0.22857924853367895,"38":0.1474710823182535,"39":0.4295437224599289,"40":-0.2579699923534791,"41":0.08770962681041507,"42":-0.11461057025300929,"43":-0.40355412570801924,"44":-0.19420795511245365,"45":0.014718914218233436,"46":0.24255847022756089,"47":-0.25050515941118245,"48":0.39984295224678734,"49":0.09780215510683483,"50":0.21413528581767904,"51":-0.3279199893307102,"52":-0.11375549731416697,"53":0.13160768772695616,"54":-0.1621661686787636,"55":-0.36643757848361797,"56":-0.14008690038479044,"57":0.39705691624412043,"58":0.7366917377187409,"59":-0.18384094171700352,"60":-0.1885800550853045,"61":0.3116500529108862,"62":0.20357107003459288,"63":-0.2881167950732257,"64":-0.3181287141399339,"65":0.6066178873723539,"66":0.6729329067788757,"67":0.0777589885631236,"68":-0.18798714888010284,"69":0.18345976066977307,"70":-0.13867047339182503,"71":-0.32246794172122734,"72":-0.09833743066272667,"73":0.3200165543259102,"74":0.6865139989241387,"75":0.30673762867613186,"76":-0.06723450430224745,"77":0.03804735603078042,"78":-0.3804806585916636,"79":-0.1759959485199323,"80":-0.08199516365191922,"81":-0.01422557756023674,"82":0.053642371940783404,"83":-0.2541102593778654,"84":0.14788246677345146,"85":0.2000358593943969,"86":-0.24238328951451618,"87":0.1851149708081963,"88":0.0810040267691287,"89":0.005885796598732298,"90":0.4030615526487017,"91":0.04542834579335769,"92":0.20133478131460716,"93":0.4389532568532491,"94":-0.3261750505986486,"95":-0.3751338840500101,"96":-0.3198864434487067,"97":0.011282569865270528,"98":0.10724805651287972,"99":-0.38725312973631726,"100":0.03063342904579088,"101":0.21193294782961938,"102":0.07872669942743235,"103":-0.6177527051101263,"104":-0.13766204345596889,"105":-0.1614369928238178,"106":-0.13508069357505018,"107":0.07016444065562853,"108":-0.2793582084316068,"109":0.10660661000983103,"110":-0.19225464536864945,"111":-0.2213129126533522,"112":-0.11975529211522047,"113":-0.24412089172107784,"114":-0.354622114957163,"115":-0.044846606956539144,"116":0.04303810475783114,"117":-0.04593510734019514,"118":-0.3175468035520809,"119":-0.2610559684503215,"120":0.2416173272385384,"121":-0.6418684557963121,"122":-0.05028157305311585,"123":-0.03646236526826359,"124":0.205905317584708,"125":0.30774156554813903,"126":-0.05971285506960163,"127":0.17806601910234635,"128":0.21331942615908156,"129":-0.25818112036631463,"130":-0.061588679394326946,"131":0.32649512630665267,"132":0.04237673791964235,"133":0.30190755520418233,"134":-0.07436252384903666,"135":0.09325210341675363,"136":-0.2309554344915511,"137":-0.3889793339489091,"138":-0.24648507854898988,"139":0.6985959603632059,"140":0.4476904185480313,"141":0.23425404481571244,"142":-0.3272625785595589,"143":0.18269857147566115,"144":-0.09158271754537631,"145":-0.5091129412412585,"146":-0.3450949989380836,"147":0.09459670749027593,"148":0.284022655658399,"149":0.08500094121313868,"150":-0.08361899789714011,"151":-0.05138958561956061,"152":0.2873340818654476,"153":-0.20546472093213544,"154":-0.06754092746968132,"155":0.22225693642525385,"156":0.5353720375426582,"157":0.07912994587976635,"158":-0.24579014784932102,"159":0.24389777649041672,"160":0.6160577125516269,"161":-0.4143155360184571,"162":0.47120715872607033,"163":0.08132523929085675,"164":-0.21959258450552452,"165":-0.2529219708185285,"166":0.08878539285715731,"167":0.40047763202030906,"168":0.5547670426332203,"169":-0.04919880187296249,"170":-0.36797622905531846,"171":0.4137778456930198,"172":-0.1563561300737246,"173":-0.10376770780274304,"174":0.040465421187150456,"175":0.3901792870701757,"176":0.12661711654414914,"177":-0.07267443160581752,"178":0.09297023231235638,"179":0.005993198696855087,"180":0.046595382064016005,"181":-0.13915515087984126,"182":-0.3257918494593282,"183":0.5476647681162687,"184":0.5556655998550145,"185":-0.251717794195747,"186":0.14345704096454207,"187":0.02947888196382968,"188":0.0564355883954122,"189":-0.10479652125860305,"190":-0.2599591610729565,"191":0.5011929492845026,"192":0.10517963892478178,"193":-0.06131837998517686,"194":0.14779835683743114,"195":-0.007886883543462146,"196":0.23205351733500276,"197":0.0165020452266405,"198":-0.020162512798808093,"199":0.20376669772369127}},{"sx":5,"sy":5,"depth":8,"w":{"0":-0.07141193285156947,"1":-0.17159681378557406,"2":-0.16996361757426007,"3":-0.25566434821880774,"4":0.3010388238103857,"5":-0.06323746102915997,"6":0.4325083161229045,"7":0.01616001864095448,"8":-0.03525430230678052,"9":-0.06449661833294007,"10":0.07162989037504137,"11":-0.40206279017488866,"12":0.2865937024890342,"13":-0.00054049037160302,"14":0.11237136822639275,"15":-0.029143869520065865,"16":-0.10875088462870106,"17":0.2333323404873153,"18":0.05030515723281231,"19":-0.2663370244675425,"20":-0.25342147606391807,"21":-0.217654138125804,"22":0.06807705749413029,"23":-0.0032766220639823527,"24":-0.19130416465570282,"25":0.02296878938889839,"26":0.0271870679731408,"27":-0.16855516674183615,"28":-0.4115881845732166,"29":-0.24305247699284152,"30":0.1170389974842544,"31":0.1545270476232156,"32":-0.12227352492040494,"33":-0.03967121898390224,"34":0.15309387162150906,"35":0.009753551516508951,"36":-0.5641479865287338,"37":0.3389838707033842,"38":0.41757304561471487,"39":0.44003075142448705,"40":-0.20260127517949464,"41":-0.20288154385662382,"42":-0.057098307043192006,"43":-0.33132789640658383,"44":0.3209562285427922,"45":0.14515660357411178,"46":0.004349365373154038,"47":0.11190849146629155,"48":-0.2718654849405558,"49":-0.043509392527346466,"50":0.06191093393148168,"51":-0.5063248533341832,"52":0.04570921078299187,"53":-0.061539791161254895,"54":0.02364739353783034,"55":-0.03749012288317587,"56":-0.21887020621184355,"57":-0.14894431930023008,"58":-0.026795210708461217,"59":-0.35575049640796547,"60":-0.032705762138609165,"61":-0.118311917846807,"62":0.22024621939548372,"63":0.10224494380089519,"64":-0.24664435264160933,"65":-0.22988161007030183,"66":-0.142224865439333,"67":0.2298011514656209,"68":-0.18740834883992752,"69":-0.20990440528448814,"70":0.15830504470289594,"71":0.12762366498488917,"72":-0.12171805297419046,"73":-0.33433633787990713,"74":0.026941307123635513,"75":-0.07220516052585685,"76":-0.006505536456875674,"77":0.20026848024543234,"78":-0.05610287786086355,"79":0.08577148671365738,"80":-0.06616907130906256,"81":-0.439273271796724,"82":0.037230753025999506,"83":-0.20371448731619723,"84":0.17774856316381688,"85":0.2681514538152392,"86":0.018867485877805474,"87":-0.16902643459576094,"88":-0.0716963930399459,"89":-0.1458217514321685,"90":0.23541630232209965,"91":-0.2453174658906274,"92":0.2438080906706123,"93":0.18622921870479378,"94":0.06384606434506594,"95":-0.169820459687764,"96":0.20148662068302872,"97":-0.17640084806512052,"98":0.24586091772113763,"99":-0.2406503801248603,"100":-0.02289913335719918,"101":-0.06557037173111412,"102":0.2452345023226096,"103":0.24215352745457344,"104":-0.14226277774960602,"105":-0.14394192914148013,"106":-0.21944241251470958,"107":-0.3181353619027796,"108":0.27729614261753616,"109":-0.03967658568902472,"110":0.23471800473861482,"111":0.30391258672843535,"112":0.07924579337692061,"113":-0.20947664431655863,"114":-0.36498703395304033,"115":-0.13896596374338224,"116":-0.07642918240402008,"117":0.2047458490758507,"118":-0.18192833162381616,"119":0.0749419813790621,"120":-0.1592519219719567,"121":-0.2691358945665207,"122":0.1661113435413057,"123":-0.16982822382232024,"124":0.41829161084183575,"125":0.16437968758410157,"126":-0.054307070591792,"127":-0.4591622177748703,"128":-0.0838320945047225,"129":-0.03744724909118596,"130":0.3890183954767438,"131":-0.2605471144043727,"132":0.26525241199743743,"133":-0.022106486186445527,"134":0.12030586221308044,"135":-0.266829371506539,"136":0.1354107289974527,"137":-0.37061699184897096,"138":0.23928417337296493,"139":-0.4190840107351528,"140":0.12935467608339668,"141":0.1275312606005185,"142":0.10308059308425649,"143":0.3179813889177061,"144":0.22559099170188865,"145":-0.030949992190282584,"146":-0.21212269374140733,"147":-0.33877178299111743,"148":0.17515834767541022,"149":0.027341563500499794,"150":0.23488412570516293,"151":0.1359949175741185,"152":0.2720767987547669,"153":0.3035450484261612,"154":-0.3141118135859684,"155":0.18691273823330345,"156":-0.2947429476972405,"157":0.039158143906020744,"158":-0.07837642134637701,"159":0.1466829240872005,"160":-0.14587913062042573,"161":-0.14855438750805502,"162":-0.2208976719449698,"163":-0.2515271318128098,"164":0.2719453151029947,"165":0.02369962222983307,"166":-0.266368994488551,"167":-0.4227752668375319,"168":-0.04491302429557365,"169":0.21123550902024096,"170":-0.020815227983998135,"171":-0.46049347068461705,"172":0.09454638678079548,"173":0.02283187008914949,"174":0.0799925756367494,"175":-0.40232623709074544,"176":0.08307697097953821,"177":0.043982856175858835,"178":-0.24392242434640224,"179":-0.14006309031297798,"180":0.18018494887490902,"181":0.38318285651998507,"182":0.1304384168386805,"183":-0.31411652830811326,"184":-0.336596191088144,"185":0.3769287033343519,"186":-0.4393399417041491,"187":-0.2733096206422748,"188":-0.041447722587770144,"189":-0.08269395951686409,"190":-0.09011034357801022,"191":-0.09678249599216163,"192":0.00816861826577468,"193":0.1461337483444403,"194":-0.34665679389986015,"195":-0.005400643130950355,"196":-0.20887303675346638,"197":-0.08031597398663427,"198":-0.20998061161522202,"199":0.06653373648027493}},{"sx":5,"sy":5,"depth":8,"w":{"0":-0.1585524326633423,"1":-0.12876385212272698,"2":-0.25862643265151686,"3":0.01620285153399567,"4":0.1610853838382148,"5":0.014902861484696982,"6":0.12687199488805428,"7":-0.12855256245003177,"8":-0.13330559674841827,"9":0.03016073752815998,"10":-0.2282491477513143,"11":-0.25456261494465837,"12":0.0554340463234385,"13":0.03751597100930739,"14":0.31068046626185325,"15":-0.29523577974559007,"16":-0.11690500606572006,"17":-0.23229191276183167,"18":-0.11650595830055031,"19":-0.08553291059236413,"20":0.1952599796192393,"21":0.2636814490160376,"22":0.1389941009158503,"23":-0.0013085756125509704,"24":0.13630429330233254,"25":-0.19362290719775,"26":0.2393893592371829,"27":-0.3556434957096541,"28":0.039727611194750184,"29":0.08487250674522347,"30":0.15769899722560526,"31":0.4888877431111218,"32":-0.1508033781980673,"33":-0.09412792514791447,"34":0.31796234932410944,"35":-0.1835539207944008,"36":0.14011241747025954,"37":-0.026305720500359623,"38":0.008106981927598657,"39":0.25127767675797286,"40":0.11599971012629201,"41":0.45146472182184755,"42":-0.025154214615919206,"43":-0.16752469297732314,"44":-0.05108654608362206,"45":0.1086721406800724,"46":-0.034437568633693245,"47":0.06488877722015446,"48":0.05858742681586863,"49":-0.018224325766321523,"50":0.06343253573502272,"51":-0.30052313800308905,"52":0.2003466757313097,"53":0.12586945735768565,"54":-0.16640439681761682,"55":-0.10503686355311183,"56":-0.08301722927123541,"57":0.11490741597805722,"58":-0.12020798698853236,"59":-0.4941233341978729,"60":0.37587458407147895,"61":0.25073158609445323,"62":-0.060987225913320044,"63":0.2275314167685085,"64":0.3899527133233134,"65":0.06237198014713615,"66":0.2122118448275977,"67":-0.10317536519592965,"68":0.06989643279791419,"69":0.31776782904215956,"70":-0.1377807093303684,"71":0.3748451909098349,"72":-0.12433712019672068,"73":-0.224611486828854,"74":-0.3914461861727888,"75":-0.2547649811833658,"76":-0.11722291692546839,"77":-0.1444271838794842,"78":-0.20792036539559214,"79":0.09978876211788468,"80":-0.02383605859810585,"81":-0.14364930270945941,"82":0.7852461757528063,"83":-0.09565322206516991,"84":-0.14782152287049574,"85":0.21126487979644662,"86":0.22220133968704814,"87":0.06476686735778757,"88":0.22335589220664637,"89":-0.20693970877444848,"90":0.4652658821405643,"91":-0.16919697600657685,"92":-0.05873971892901354,"93":0.12173032526320979,"94":-0.21836444699094776,"95":0.0641994126696479,"96":0.16986363835920643,"97":0.004599456770076391,"98":0.5334180736599391,"99":-0.06792021403191065,"100":0.23574664277629812,"101":0.28324620989387167,"102":-0.08273310126237474,"103":-0.06171565519087834,"104":0.36240186773545485,"105":-0.0801851817453461,"106":0.628934031370572,"107":0.2222165653765388,"108":0.036734885638929245,"109":0.2106508363688725,"110":0.09531664682861159,"111":0.03910511241014724,"112":0.3932598747771973,"113":-0.26913588488847207,"114":-0.6469807426155647,"115":-0.17229495482882617,"116":-0.11159028587216195,"117":-0.15795630756259743,"118":-0.30356257605376064,"119":0.06120529818630212,"120":-0.0715291641499111,"121":-0.029572792443257768,"122":-0.18942640896000404,"123":-0.21561692823792172,"124":-0.0843479415144195,"125":-0.044957737299301546,"126":0.022981989354823023,"127":0.3538940244426477,"128":0.17904739919221474,"129":0.15812105329186185,"130":-0.2553656633070386,"131":-0.06547907774125744,"132":-0.16494346991621336,"133":-0.10633841918785068,"134":0.02259732112736455,"135":-0.3577087705972643,"136":0.06427504668685409,"137":0.2861294977233255,"138":0.11649859176810137,"139":-0.16828707462641473,"140":-0.21394749640035748,"141":-0.23690214100832,"142":-0.00787596439015862,"143":-0.5303725490744386,"144":0.035268160172647764,"145":0.27128242879981745,"146":0.09663813979994579,"147":0.06386973816600407,"148":-0.2479142992693813,"149":-0.31777956044223515,"150":-0.15784490562759787,"151":-0.14831126842219128,"152":0.17798294742423937,"153":-0.13658587492406044,"154":-0.43850071833446475,"155":-0.23417570216378497,"156":-0.18802162121147248,"157":-0.4675137339743689,"158":-0.23590504470528267,"159":0.14273551556391112,"160":-0.10581132416026703,"161":-0.29787311579039566,"162":-0.3542994836594074,"163":-0.23230984762654588,"164":0.042784566950960605,"165":-0.2055109546935854,"166":-0.555971686577636,"167":0.4697042456639837,"168":-0.15023211983131432,"169":0.09420918108220543,"170":-0.04181000113274842,"171":0.037051874704241615,"172":-0.19918662202763623,"173":-0.07273022693237761,"174":-0.13331710522263393,"175":-0.1091236091464954,"176":-0.45096645949918446,"177":0.07824307487588769,"178":0.2529874518132152,"179":0.041036077684494236,"180":-0.3596310295908684,"181":-0.22496968899272143,"182":0.22377705274036724,"183":-0.011991982140288057,"184":-0.38152539754816717,"185":0.17556434951883476,"186":-0.05408620268484804,"187":-0.30852355336216697,"188":-0.33386228018126307,"189":-0.5136770821227352,"190":0.4391427514051047,"191":-0.10474037025228607,"192":0.010942861823627296,"193":0.44948670376161404,"194":-0.12487447174615401,"195":-0.04245626492960221,"196":-0.00474826274738033,"197":-0.3976209243026534,"198":0.26566280170153966,"199":0.09311257771748578}},{"sx":5,"sy":5,"depth":8,"w":{"0":0.408118795487438,"1":-0.04330318849801974,"2":0.19113919013782713,"3":0.007225503621166109,"4":0.06937372882879214,"5":0.030497988469868155,"6":0.6544868077321512,"7":-0.040389596824900384,"8":0.07297504161882581,"9":0.059619061964762486,"10":0.3700123563942194,"11":-0.009640359714052396,"12":0.28821164710424424,"13":0.36628456883571797,"14":0.5007336529892717,"15":0.2534326308964611,"16":0.10709079579472766,"17":0.5441037902291438,"18":0.36045832437722636,"19":0.10327107089384654,"20":-0.07678651051539881,"21":0.18695621730167045,"22":0.16926127589730128,"23":0.04060159581677182,"24":-0.4811706927534343,"25":0.059710888213681604,"26":0.27367329674917407,"27":0.4185840047679258,"28":-0.36692583137819557,"29":-0.19915175937699692,"30":-0.2823295341335341,"31":0.23653161666048023,"32":-0.31682636985155344,"33":0.1471290530618371,"34":-0.13072884614747868,"35":0.14723895433674522,"36":0.1576206315850538,"37":0.09639481885609101,"38":-0.13169230532811438,"39":0.1297011001636356,"40":0.2384426935816571,"41":-0.15265847384219322,"42":0.4286762882392757,"43":-0.17779766343303374,"44":-0.06722842585192478,"45":0.3955963102890684,"46":0.047237238508775606,"47":-0.03181758377917527,"48":0.14424917690918945,"49":-0.06358297080738666,"50":0.44174836325890665,"51":0.1404138045410315,"52":-0.05804765635688171,"53":-0.16796057572350515,"54":-0.004428964286398562,"55":-0.08613999012998848,"56":0.2632015458626811,"57":-0.16729027214743153,"58":0.05940279345371674,"59":0.4025590271995138,"60":-0.2109489087605596,"61":-0.13593735914318597,"62":-0.08475590913330722,"63":-0.009992241827408968,"64":0.05752556881707186,"65":-0.21532019747457568,"66":-0.4293539810509222,"67":-0.07989665913890794,"68":-0.1635177003864052,"69":-0.3170131437075702,"70":-0.3667442312210648,"71":-0.13370946587583124,"72":0.009477406344852248,"73":-0.18003681447328057,"74":-0.27788535978795154,"75":0.2804808090559718,"76":0.5761821471467814,"77":-0.11493934947075811,"78":-0.3294964992076171,"79":-0.08983560223352036,"80":-0.24446513504393308,"81":-0.153053332826596,"82":-0.37982049179395183,"83":0.1648351663475948,"84":-0.4004536889813459,"85":-0.25767298554353796,"86":-0.31064126374154843,"87":-0.17427052916643793,"88":-0.24160157664506404,"89":0.06933134911530384,"90":0.022527754078374658,"91":0.4818837700582943,"92":-0.3195129685421713,"93":-0.30229844800982525,"94":-0.3795594214269161,"95":-0.06649142873473878,"96":-0.21989064529639307,"97":0.16805826615299863,"98":0.25902175851814346,"99":0.23437518926134548,"100":-0.28507427534922364,"101":-0.4605593354951312,"102":-0.009628491450886538,"103":-0.1035796607290072,"104":-0.40413698922838986,"105":0.21458026425469032,"106":-0.0423606967950828,"107":0.23994058880947128,"108":-0.1328935135978488,"109":-0.17024437078559446,"110":-0.2136672358301984,"111":-0.3618366103233795,"112":-0.30508265664299633,"113":0.13508864398354611,"114":0.06480541000428822,"115":0.0344133205060387,"116":0.32538421543281504,"117":-0.02718322454103639,"118":-0.15164005606479447,"119":-0.5518026797589892,"120":-0.3700361064602918,"121":-0.03079843661106921,"122":-0.08095368879417761,"123":-0.16720193271377037,"124":-0.34008243851951353,"125":0.20396033766359273,"126":0.32524476972490746,"127":0.501502976937616,"128":-0.5198579760382901,"129":-0.12028498945808212,"130":0.21796845923901992,"131":-0.027943818212851797,"132":-0.48348164583696224,"133":-0.05645343226162986,"134":0.24571505574028746,"135":0.36578512215774445,"136":-0.5442176035554913,"137":-0.11454984158221898,"138":0.27607894428316565,"139":0.059811604154629126,"140":-0.4435183905790211,"141":-0.03177719965225301,"142":0.11863840361189715,"143":0.5772557666330579,"144":-0.6455626955147707,"145":0.2719881615824397,"146":0.20475765534511892,"147":-0.1948078596794461,"148":0.03479295337923354,"149":-0.026653610033669825,"150":0.10429158574397637,"151":0.15179140105483657,"152":-0.36587687261188534,"153":0.1610990665202114,"154":0.14856389604519207,"155":-0.3075168118460964,"156":-0.1575544810012179,"157":0.032923359352690806,"158":-0.014705460890764483,"159":-0.45757981100394374,"160":-0.21152706348717068,"161":0.10387919372616651,"162":-0.317541631952774,"163":-0.2628019642376534,"164":-0.03291706629454401,"165":0.12795396905460465,"166":0.36567937726783184,"167":-0.037168040155472225,"168":-0.379241970983071,"169":-0.1580797708959833,"170":-0.28207743613189007,"171":-0.41649412969885397,"172":0.04085871250709894,"173":0.2086333032804963,"174":0.011272306478976878,"175":0.025425055845404432,"176":-0.33170308162533557,"177":-0.035181625286546996,"178":0.050969454268253354,"179":-0.2880646816377046,"180":-0.3778625169887146,"181":0.1835818170222849,"182":0.40190015370193527,"183":0.6381616580698232,"184":-0.2935162637512433,"185":0.04630296114867245,"186":0.5873857550921389,"187":-0.2849622441564141,"188":0.22161871755191753,"189":0.3268287407015113,"190":0.1954707674230158,"191":0.3071362235183128,"192":-0.4169950237692595,"193":0.09008278910867834,"194":0.08398512021496225,"195":-0.38429860433322854,"196":0.4892938334586559,"197":-0.14329809548197658,"198":-0.10554132086725716,"199":-0.1020543564159583}}],"biases":{"sx":1,"sy":1,"depth":16,"w":{"0":-0.07261973319902301,"1":-2.1200168053841124,"2":-0.7318241458680315,"3":-0.3352028697855461,"4":-1.5275592715126822,"5":-1.8361774589236814,"6":-1.025294298591152,"7":0.23467729829533504,"8":-2.1560894286846146,"9":-1.5772873010679889,"10":-1.6542308157377585,"11":-1.5592287687230761,"12":-2.5686188976901545,"13":-0.2633542320455561,"14":-0.4258329329756833,"15":-1.9278432102052507}}},{"out_depth":16,"out_sx":12,"out_sy":12,"layer_type":"relu"},{"sx":3,"sy":3,"stride":3,"in_depth":16,"out_depth":16,"out_sx":4,"out_sy":4,"layer_type":"pool","pad":0},{"out_depth":10,"out_sx":1,"out_sy":1,"layer_type":"fc","num_inputs":256,"l1_decay_mul":0,"l2_decay_mul":1,"filters":[{"sx":1,"sy":1,"depth":256,"w":{"0":-0.20875995404307174,"1":-0.029804846765099955,"2":-0.7110924552011133,"3":-0.444185682504185,"4":-0.05341022715327251,"5":-0.39912913926063415,"6":-0.47166475563687377,"7":-0.27137513100834326,"8":-0.19468324028640624,"9":-0.033880692689772354,"10":0.013719155157825477,"11":-0.10494065952672303,"12":-0.09552154471604511,"13":-0.2732614708420513,"14":-0.034930981886165606,"15":-0.024436162953499003,"16":-0.3496589208126536,"17":0.00293795920107554,"18":-0.7859231202317527,"19":-0.7881882502409074,"20":-0.42630535109607615,"21":-0.4563710706006898,"22":-1.0885935629435874,"23":-0.3803917664197058,"24":-0.4239532146779438,"25":-0.2452098136158153,"26":-0.6517964939194412,"27":-0.4985140506810299,"28":-0.2668001403249388,"29":-0.2540684146328603,"30":-0.3322682340777936,"31":-0.31322364905496514,"32":-0.6193659593403115,"33":0.025419643399685637,"34":-0.30157626535984333,"35":-0.960553280393935,"36":-0.674010966400162,"37":-0.05646965859266685,"38":-1.2202927797309264,"39":-0.5393638103313633,"40":-0.5328740263918356,"41":-0.6870509964406971,"42":-1.8298232959137464,"43":-0.5171139845256284,"44":-0.19102454722274587,"45":-0.45111283397143365,"46":-0.8083212931094399,"47":-0.2765906670527815,"48":-0.977180680028688,"49":0.006037200255809754,"50":-0.12856304837736512,"51":-0.7294518958194581,"52":-0.1448926147751098,"53":0.01763933050587449,"54":-0.22676183800038305,"55":-0.7763728064385463,"56":-0.09498239598096579,"57":-0.6009115574436155,"58":-1.1376480208309574,"59":-0.27021956977152134,"60":0.10185076692429999,"61":-0.0991622387644544,"62":-0.16372150528501628,"63":-0.08385084805394122,"64":-0.0421982673856975,"65":-0.01660190599873286,"66":-1.1899841026325944,"67":-0.24334617810915163,"68":-0.27581925153984505,"69":-1.1204554553997441,"70":-0.4934045312221574,"71":-0.050062947136605834,"72":-0.5535992896155174,"73":0.1030207714347491,"74":-0.34071212328561995,"75":-0.1346996465996168,"76":-0.29495533916105865,"77":-0.18658407063972574,"78":-0.5323798272406011,"79":-0.13296730330020273,"80":-0.20027462163066773,"81":0.15173879409095153,"82":-0.8868855000214333,"83":-0.21821044166733375,"84":-0.9214355932640335,"85":-1.0522917912461893,"86":-0.5592503634084207,"87":-0.4839038699664461,"88":-1.4284790887327032,"89":-0.21767698509497604,"90":-0.6918923096517645,"91":-0.3322736631791076,"92":-1.1394641288035368,"93":-0.7566070341040689,"94":-0.6017141579787054,"95":-0.7300182745385971,"96":-0.1013680175086615,"97":-0.2871133340603103,"98":-0.42499184799389556,"99":-0.36402979983276984,"100":-0.8529773021967388,"101":-0.20264719302639317,"102":-0.8128176533395692,"103":-0.17773245356877843,"104":-1.11437288935425,"105":-1.1054357953878386,"106":-1.5049213740758176,"107":-0.6041279145854297,"108":-0.7709667874122575,"109":-0.5294418711102554,"110":-0.8073966586366192,"111":-0.551895663190949,"112":-0.5838438346778234,"113":-0.10042429154972814,"114":-0.5353222985049445,"115":-0.6554304427214138,"116":-0.14279447103234308,"117":-0.1459017009715625,"118":-0.40635012733596276,"119":-0.7966332720549099,"120":-0.9609602828448042,"121":-0.9111616848501558,"122":-1.3504133683773236,"123":-0.09650994055440362,"124":-0.19277400690167523,"125":0.40962500365046417,"126":-0.3733195067371018,"127":-0.8857475462073563,"128":-0.18873906464663565,"129":-0.21621197668751974,"130":-1.5272670381567923,"131":-0.49854770214380595,"132":-0.4427230356743574,"133":-1.4014620501768806,"134":-0.8933446655463257,"135":-0.19050276920237477,"136":-0.07325307298069038,"137":-0.15523516350263358,"138":-0.4071203784733212,"139":-0.030953443815234856,"140":-0.2639314526306733,"141":-0.1437232828030601,"142":-0.6564759500715206,"143":-0.18981460501211986,"144":-0.33770556629609044,"145":-0.33911761296274306,"146":-0.7659510166115211,"147":-0.3598401877714497,"148":-0.9889546928465625,"149":-1.2001568830962537,"150":-0.7518065069690755,"151":-0.33141791321361797,"152":-1.0523373138400618,"153":-0.47477867936713763,"154":-0.8176481102867146,"155":-0.4874177942499592,"156":-0.8560980928184335,"157":-0.302394879349109,"158":-0.6315024222725385,"159":-0.8818809144065795,"160":-0.08329975698834607,"161":-0.6877521331292575,"162":-0.34456248934840783,"163":-0.4171652244054158,"164":-1.0101103202644386,"165":-0.389403999736169,"166":-0.6274392552925893,"167":-0.21793689185271187,"168":-1.1013034007193658,"169":-1.3367044108716248,"170":-1.0493468934624728,"171":-0.7856246800162892,"172":-0.8495165486489292,"173":-0.26239863927051693,"174":-0.5203803315713246,"175":-0.44465159327338294,"176":-0.353343672389684,"177":-0.0429798114501622,"178":-0.5278866722350622,"179":-0.5131358945112282,"180":-0.40847990085383046,"181":-0.2544585335007219,"182":-0.35680954442737156,"183":-0.7723845844441016,"184":-1.1250358663325577,"185":-0.6850892423620997,"186":-0.8436492960596397,"187":-0.212673588138919,"188":-0.3852241124116124,"189":0.007632163833528417,"190":-0.3359748700318718,"191":-0.5174870495536169,"192":-0.04824050846409502,"193":-0.35944614072334474,"194":-1.3933360562591945,"195":-0.11436132290374663,"196":-0.6819459051573632,"197":-1.272132596828938,"198":-0.26180415020424225,"199":-0.2029873038255532,"200":0.003925549613805357,"201":-0.08346950809865754,"202":-0.49092613920141975,"203":0.03578796584018444,"204":-0.3976615777829579,"205":-0.06207567514725142,"206":-0.63711226306361,"207":-0.035492340614088444,"208":-0.11442851457435253,"209":-1.2912925020969719,"210":-1.0211969100514828,"211":-0.18285722776458682,"212":-1.6139217231555332,"213":-1.2704904424424257,"214":-0.3021982924968654,"215":-0.07602561867998096,"216":0.008022979976390884,"217":-0.8042920968908253,"218":-1.2377822137770933,"219":-0.26886351455113444,"220":-1.5032349660389333,"221":-0.26744459456436953,"222":-1.6544650867118031,"223":-1.170438046429144,"224":-0.4201094537816004,"225":-1.0889369778711033,"226":-0.7130361555297378,"227":-0.1828601854056753,"228":-0.7779541879947737,"229":-0.8657902351316445,"230":-0.21893486529364853,"231":-0.011109180149983924,"232":-0.17145616224100363,"233":-0.9439759842245665,"234":-0.775635969394039,"235":-0.9015366321006351,"236":-1.0759324895037936,"237":-0.2493717357768964,"238":-2.1270582717451507,"239":-0.5597369258114935,"240":-0.5322293604927747,"241":-0.5238629922216802,"242":-0.4582405958510005,"243":-0.00006081718970045555,"244":-0.15976103077995973,"245":-0.3694994857811633,"246":0.050320385899152616,"247":-0.2838473245811952,"248":-0.2893757749358567,"249":-0.2713213310381211,"250":-0.32415037550168896,"251":-0.377567918141946,"252":0.01727527353922835,"253":-0.3494937945145624,"254":-1.339432152344705,"255":-0.4374631217600022}},{"sx":1,"sy":1,"depth":256,"w":{"0":-0.6919232651702454,"1":-0.02660828029157682,"2":-0.4461048154623326,"3":-0.5673270860181886,"4":-0.029785344199490135,"5":0.026381323202633845,"6":-0.3813941449056125,"7":-0.3243283072077321,"8":-0.11037249142293486,"9":-0.0065002163878279656,"10":-0.1350609862731605,"11":0.0018220710354172637,"12":-0.021335355419856882,"13":-0.2532684978225437,"14":-0.22138297446768043,"15":-0.1850729483265094,"16":-0.34907406504905014,"17":0.011556032695247388,"18":-0.8696384314169836,"19":-1.0610317558263715,"20":0.06109305677461416,"21":0.06629973273813908,"22":-0.9614208801418282,"23":-0.06361321173482583,"24":-0.2161229244042239,"25":-0.24228878955658736,"26":-0.9416220714364176,"27":-0.07986902699872822,"28":-0.28348475240013044,"29":-0.4732062208822327,"30":-0.5604550342843868,"31":-0.19542186769192849,"32":0.05874812246931949,"33":-0.08425775282307274,"34":-0.4368887907689743,"35":-1.2009036869816996,"36":-0.4134221857482424,"37":-0.10643515149876889,"38":-1.453605155141725,"39":-0.04396846392751555,"40":-0.381678591956208,"41":-0.6478992751005783,"42":-2.27566402138767,"43":0.46819199213460466,"44":-0.6115079683493228,"45":-0.240328969078891,"46":-0.6206328900944478,"47":-0.09397418944934904,"48":-0.22454799783321552,"49":0.0030542596837453135,"50":-0.07603977917873789,"51":-0.8770894230033643,"52":-0.08022268968531301,"53":-0.08408944866708569,"54":-0.6023590518538601,"55":-0.7469399149033658,"56":-0.16180729582101344,"57":-0.19065504082526527,"58":-1.129528195347344,"59":0.3358151620771861,"60":-0.16035807727265558,"61":-0.2379067896136426,"62":-0.2685409758450795,"63":-0.17773799811391466,"64":-0.372449090638607,"65":-0.10831285629020473,"66":-0.9811113982077995,"67":-0.2961162563965618,"68":-0.3044120985631291,"69":-1.0418240382603188,"70":-0.5106080185195498,"71":-0.7720257925277422,"72":-0.526034377334741,"73":-0.046024652631461334,"74":-0.16814201494034844,"75":-0.07430146093177996,"76":-0.24765137985771063,"77":-0.5573023381754104,"78":-0.48518580785232934,"79":-0.1583404596940995,"80":-0.09319139354280219,"81":-0.19154368896223053,"82":-0.6156649720957036,"83":-0.29408653514926564,"84":-0.8628211936191851,"85":-0.7729583945683676,"86":-0.8620634058377733,"87":-0.00782320594306228,"88":-1.3994918497941222,"89":-0.4163602650539118,"90":-0.5539683037709141,"91":-0.4609685619932373,"92":-1.1213417742286236,"93":-0.618285239694964,"94":-0.7803285919364814,"95":-0.4070412766295121,"96":0.12939992277186654,"97":-0.06542442813347785,"98":-0.16942177072648504,"99":-0.4683885109503804,"100":-1.0203683677828732,"101":-0.4723594081268849,"102":-0.7983206981354601,"103":0.031659021175004735,"104":-1.6363551470742705,"105":-1.090149713701762,"106":-1.6679859953445797,"107":-0.06309865071066223,"108":-1.3323798908181521,"109":-0.3411900869903414,"110":-0.7541264339734802,"111":-0.3213182384747678,"112":-0.3236557175587593,"113":0.19612552784355672,"114":-0.2971328725484511,"115":-0.3103145756920568,"116":-0.39565488856000325,"117":-0.18908119718567318,"118":-0.23192083852637674,"119":-0.9950543397878722,"120":-0.7147073011387165,"121":-0.8494463764273089,"122":-1.2011278147138633,"123":-0.2910587200887434,"124":-0.4754832571830861,"125":-0.504234964101362,"126":-0.4974830674196376,"127":-0.4385438424421741,"128":-0.24215923333518818,"129":-0.3269878770791377,"130":-0.9168719010338122,"131":-0.31165930306442613,"132":-0.545115068502985,"133":-1.7158114236095554,"134":-0.6205176294155696,"135":-0.5841182373049086,"136":-0.5908584142714705,"137":-0.06564226023092062,"138":-0.36878847614937094,"139":-0.006061847544376232,"140":-0.38248541244069656,"141":-0.4221448309433039,"142":-0.5010686278763569,"143":-0.18451778362887417,"144":0.03174432702985635,"145":-0.30352422544457813,"146":-0.47479296344004734,